{"learner":{"attributes":{"scikit_learn":"{\"_estimator_type\": \"classifier\"}"},"feature_names":[],"feature_types":[],"gradient_booster":{"model":{"cats":{"enc":[],"feature_segments":[],"sorted_idx":[]},"gbtree_model_param":{"num_parallel_tree":"1","num_trees":"500"},"iteration_indptr":[0,1,2,3,4,5,6,7,8,9,10,11,12,13,14,15,16,17,18,19,20,21,22,23,24,25,26,27,28,29,30,31,32,33,34,35,36,37,38,39,40,41,42,43,44,45,46,47,48,49,50,51,52,53,54,55,56,57,58,59,60,61,62,63,64,65,66,67,68,69,70,71,72,73,74,75,76,77,78,79,80,81,82,83,84,85,86,87,88,89,90,91,92,93,94,95,96,97,98,99,100,101,102,103,104,105,106,107,108,109,110,111,112,113,114,115,116,117,118,119,120,121,122,123,124,125,126,127,128,129,130,131,132,133,134,135,136,137,138,139,140,141,142,143,144,145,146,147,148,149,150,151,152,153,154,155,156,157,158,159,160,161,162,163,164,165,166,167,168,169,170,171,172,173,174,175,176,177,178,179,180,181,182,183,184,185,186,187,188,189,190,191,192,193,194,195,196,197,198,199,200,201,202,203,204,205,206,207,208,209,210,211,212,213,214,215,216,217,218,219,220,221,222,223,224,225,226,227,228,229,230,231,232,233,234,235,236,237,238,239,240,241,242,243,244,245,246,247,248,249,250,251,252,253,254,255,256,257,258,259,260,261,262,263,264,265,266,267,268,269,270,271,272,273,274,275,276,277,278,279,280,281,282,283,284,285,286,287,288,289,290,291,292,293,294,295,296,297,298,299,300,301,302,303,304,305,306,307,308,309,310,311,312,313,314,315,316,317,318,319,320,321,322,323,324,325,326,327,328,329,330,331,332,333,334,335,336,337,338,339,340,341,342,343,344,345,346,347,348,349,350,351,352,353,354,355,356,357,358,359,360,361,362,363,364,365,366,367,368,369,370,371,372,373,374,375,376,377,378,379,380,381,382,383,384,385,386,387,388,389,390,391,392,393,394,395,396,397,398,399,400,401,402,403,404,405,406,407,408,409,410,411,412,413,414,415,416,417,418,419,420,421,422,423,424,425,426,427,428,429,430,431,432,433,434,435,436,437,438,439,440,441,442,443,444,445,446,447,448,449,450,451,452,453,454,455,456,457,458,459,460,461,462,463,464,465,466,467,468,469,470,471,472,473,474,475,476,477,478,479,480,481,482,483,484,485,486,487,488,489,490,491,492,493,494,495,496,497,498,499,500],"tree_info":[0,0,0,0,0,0,0,0,0,0,0,0,0,0,0,0,0,0,0,0,0,0,0,0,0,0,0,0,0,0,0,0,0,0,0,0,0,0,0,0,0,0,0,0,0,0,0,0,0,0,0,0,0,0,0,0,0,0,0,0,0,0,0,0,0,0,0,0,0,0,0,0,0,0,0,0,0,0,0,0,0,0,0,0,0,0,0,0,0,0,0,0,0,0,0,0,0,0,0,0,0,0,0,0,0,0,0,0,0,0,0,0,0,0,0,0,0,0,0,0,0,0,0,0,0,0,0,0,0,0,0,0,0,0,0,0,0,0,0,0,0,0,0,0,0,0,0,0,0,0,0,0,0,0,0,0,0,0,0,0,0,0,0,0,0,0,0,0,0,0,0,0,0,0,0,0,0,0,0,0,0,0,0,0,0,0,0,0,0,0,0,0,0,0,0,0,0,0,0,0,0,0,0,0,0,0,0,0,0,0,0,0,0,0,0,0,0,0,0,0,0,0,0,0,0,0,0,0,0,0,0,0,0,0,0,0,0,0,0,0,0,0,0,0,0,0,0,0,0,0,0,0,0,0,0,0,0,0,0,0,0,0,0,0,0,0,0,0,0,0,0,0,0,0,0,0,0,0,0,0,0,0,0,0,0,0,0,0,0,0,0,0,0,0,0,0,0,0,0,0,0,0,0,0,0,0,0,0,0,0,0,0,0,0,0,0,0,0,0,0,0,0,0,0,0,0,0,0,0,0,0,0,0,0,0,0,0,0,0,0,0,0,0,0,0,0,0,0,0,0,0,0,0,0,0,0,0,0,0,0,0,0,0,0,0,0,0,0,0,0,0,0,0,0,0,0,0,0,0,0,0,0,0,0,0,0,0,0,0,0,0,0,0,0,0,0,0,0,0,0,0,0,0,0,0,0,0,0,0,0,0,0,0,0,0,0,0,0,0,0,0,0,0,0,0,0,0,0,0,0,0,0,0,0,0,0,0,0,0,0,0,0,0,0,0,0,0,0,0,0,0,0,0,0,0,0,0,0,0,0,0,0,0,0,0,0,0,0,0,0,0,0,0,0,0,0,0,0,0,0,0,0,0,0,0,0,0,0,0,0,0,0,0,0,0,0,0,0,0,0],"trees":[{"base_weights":[-1.0105666E0,-1.0536219E0,3.0595213E-1,-5.7080872E-2,-8.7154037E-1,-8.0622125E-1,-5.5954184E-2,-7.0347375E-1,-5.592027E-2,-3.8299512E-2,-1.5737187E-2],"categories":[],"categories_nodes":[],"categories_segments":[],"categories_sizes":[],"default_left":[0,0,0,0,0,0,0,0,0,0,0],"id":0,"left_children":[1,3,-1,-1,5,7,-1,9,-1,-1,-1],"loss_changes":[2.2179108E2,1.0191284E1,0E0,0E0,2.844223E0,5.2083435E0,0E0,3.2417984E0,0E0,0E0,0E0],"parents":[2147483647,0,0,1,1,4,4,5,5,7,7],"right_children":[2,4,-1,-1,6,8,-1,10,-1,-1,-1],"split_conditions":[1E0,1E0,3.0595213E-1,-5.7080872E-2,1E0,1E0,-5.5954184E-2,6E0,-5.592027E-2,-3.8299512E-2,-1.5737187E-2],"split_indices":[15,11,0,0,12,13,0,4,0,0,0],"split_type":[0,0,0,0,0,0,0,0,0,0,0],"sum_hessian":[7.0052136E2,6.971635E2,3.357906E0,4.6646335E2,2.3070013E2,1.8590291E2,4.479721E1,1.4231644E2,4.3586475E1,1.2176364E2,2.05528E1],"tree_param":{"num_deleted":"0","num_feature":"17","num_nodes":"11","size_leaf_vector":"1"}},{"base_weights":[-9.8688E-1,-1.0391212E0,2.5451118E-1,-1.0988129E0,5.8055013E-1,-1.1178515E0,-4.1293046E-1,-5.305467E-1,2.9318354E-1,-5.618914E-2,-7.6717347E-1,-5.366946E-2,2.3607294E-1,-5.273679E-2,4.0704176E-1,-5.235356E-2,6.603532E-2,-4.1471686E-2,5.6711316E-2],"categories":[],"categories_nodes":[],"categories_segments":[],"categories_sizes":[],"default_left":[0,0,0,0,0,0,0,0,0,0,0,0,0,0,0,0,0,0,0],"id":1,"left_children":[1,3,-1,5,7,9,11,13,-1,-1,15,-1,-1,-1,17,-1,-1,-1,-1],"loss_changes":[2.2183325E2,6.6100464E1,0E0,8.0703125E0,1.4822629E2,4.5898438E-1,7.028525E1,1.0918642E1,0E0,0E0,9.398028E0,0E0,0E0,0E0,8.471051E0,0E0,0E0,0E0,0E0],"parents":[2147483647,0,0,1,1,3,3,4,4,5,5,6,6,7,7,10,10,14,14],"right_children":[2,4,-1,6,8,10,12,14,-1,-1,16,-1,-1,-1,18,-1,-1,-1,-1],"split_conditions":[1E0,8.841758E0,2.5451118E-1,5.6154213E0,3.0863666E2,4.661409E0,5.060948E2,1E0,2.9318354E-1,-5.618914E-2,5.7933234E2,-5.366946E-2,2.3607294E-1,-5.273679E-2,1.3329828E1,-5.235356E-2,6.603532E-2,-4.1471686E-2,5.6711316E-2],"split_indices":[15,7,0,7,6,7,6,11,0,0,6,0,0,0,7,0,0,0,0],"split_type":[0,0,0,0,0,0,0,0,0,0,0,0,0,0,0,0,0,0,0],"sum_hessian":[6.8108124E2,6.760982E2,4.9830008E0,6.5237695E2,2.3721275E1,6.341448E2,1.8232166E1,2.0342588E1,3.3786874E0,6.2142944E2,1.2715351E1,1.6854979E1,1.3771878E0,1.2967656E1,7.374932E0,1.1651826E1,1.0635248E0,2.6790216E0,4.6959105E0],"tree_param":{"num_deleted":"0","num_feature":"17","num_nodes":"19","size_leaf_vector":"1"}},{"base_weights":[-9.85727E-1,-1.1035372E0,5.099581E0,-1.1215581E0,1.0470233E0,-2.8396932E-2,2.8228208E-1,-5.622899E-2,-1.22066215E-1,-4.0929507E-2,1.4186963E-1,-2.8415278E-2,1.9105935E-2],"categories":[],"categories_nodes":[],"categories_segments":[],"categories_sizes":[],"default_left":[0,0,0,0,0,0,0,0,0,0,0,0,0],"id":2,"left_children":[1,3,5,7,9,-1,-1,-1,11,-1,-1,-1,-1],"loss_changes":[4.729469E2,2.598883E1,4.207077E1,1.7818604E0,2.1822392E1,0E0,0E0,0E0,9.0047336E-1,0E0,0E0,0E0,0E0],"parents":[2147483647,0,0,1,1,2,2,3,3,4,4,8,8],"right_children":[2,4,6,8,10,-1,-1,-1,12,-1,-1,-1,-1],"split_conditions":[2.97403E3,5.8134985E3,1E0,1.2458464E1,1.464646E0,-2.8396932E-2,2.8228208E-1,-5.622899E-2,9E0,-4.0929507E-2,1.4186963E-1,-2.8415278E-2,1.9105935E-2],"split_indices":[0,8,11,8,7,0,0,0,3,0,0,0,0],"split_type":[0,0,0,0,0,0,0,0,0,0,0,0,0],"sum_hessian":[6.508507E2,6.392928E2,1.1557914E1,6.344548E2,4.8380036E0,1.0122098E0,1.0545704E1,6.3241766E2,2.0371213E0,2.6350212E0,2.2029824E0,1.013195E0,1.0239261E0],"tree_param":{"num_deleted":"0","num_feature":"17","num_nodes":"13","size_leaf_vector":"1"}},{"base_weights":[-9.630292E-1,-1.0971217E0,4.117754E0,-5.6026913E-2,1.6404091E-1,-3.0551875E-2,2.2639632E-1],"categories":[],"categories_nodes":[],"categories_segments":[],"categories_sizes":[],"default_left":[0,0,0,0,0,0,0],"id":3,"left_children":[1,3,5,-1,-1,-1,-1],"loss_changes":[4.3277887E2,6.654181E1,3.4525787E1,0E0,0E0,0E0,0E0],"parents":[2147483647,0,0,1,1,2,2],"right_children":[2,4,6,-1,-1,-1,-1],"split_conditions":[2.97403E3,1E0,1E0,-5.6026913E-2,1.6404091E-1,-3.0551875E-2,2.2639632E-1],"split_indices":[0,15,11,0,0,0,0],"split_type":[0,0,0,0,0,0,0],"sum_hessian":[6.275989E2,6.1222504E2,1.5373835E1,6.097079E2,2.5171282E0,1.1879942E0,1.418584E1],"tree_param":{"num_deleted":"0","num_feature":"17","num_nodes":"7","size_leaf_vector":"1"}},{"base_weights":[-9.466915E-1,-1.0865464E0,3.5940378E0,-1.1088711E0,1.3009863E0,1.3602226E0,1.9913803E-1,-5.5523533E-2,-1.7925633E-2,-3.7049804E-2,1.2547615E-1,-8.289684E-3,9.887401E-2],"categories":[],"categories_nodes":[],"categories_segments":[],"categories_sizes":[],"default_left":[0,0,0,0,0,0,0,0,0,0,0,0,0],"id":4,"left_children":[1,3,5,7,9,11,-1,-1,-1,-1,-1,-1,-1],"loss_changes":[3.8867273E2,3.281305E1,1.050441E1,3.024292E-1,1.6450375E1,4.3184123E0,0E0,0E0,0E0,0E0,0E0,0E0,0E0],"parents":[2147483647,0,0,1,1,2,2,3,3,4,4,5,5],"right_children":[2,4,6,8,10,12,-1,-1,-1,-1,-1,-1,-1],"split_conditions":[2.97403E3,5.8134985E3,3.73547E3,1.2458464E1,5.986E2,2.2653303E1,1.9913803E-1,-5.5523533E-2,-1.7925633E-2,-3.7049804E-2,1.2547615E-1,-8.289684E-3,9.887401E-2],"split_indices":[0,8,0,8,0,1,0,0,0,0,0,0,0],"split_type":[0,0,0,0,0,0,0,0,0,0,0,0,0],"sum_hessian":[6.04892E2,5.8755597E2,1.733607E1,5.8264355E2,4.912459E0,3.2365088E0,1.409956E1,5.8092523E2,1.7182975E0,1.9702784E0,2.9421806E0,1.142749E0,2.09376E0],"tree_param":{"num_deleted":"0","num_feature":"17","num_nodes":"13","size_leaf_vector":"1"}},{"base_weights":[-9.4486344E-1,-1.0794648E0,3.0560112E0,-1.1023734E0,1.1504662E0,-3.1595867E-2,1.6770332E-1,-5.5286538E-2,-3.272124E-3,-3.7881166E-2,1.1464788E-1],"categories":[],"categories_nodes":[],"categories_segments":[],"categories_sizes":[],"default_left":[0,0,0,0,0,0,0,0,0,0,0],"id":5,"left_children":[1,3,5,7,9,-1,-1,-1,-1,-1,-1],"loss_changes":[3.176234E2,3.0152466E1,2.328865E1,1.8778687E0,1.5337947E1,0E0,0E0,0E0,0E0,0E0,0E0],"parents":[2147483647,0,0,1,1,2,2,3,3,4,4],"right_children":[2,4,6,8,10,-1,-1,-1,-1,-1,-1],"split_conditions":[2.97403E3,5.8134985E3,1E0,1.2458464E1,3.7736023E1,-3.1595867E-2,1.6770332E-1,-5.5286538E-2,-3.272124E-3,-3.7881166E-2,1.1464788E-1],"split_indices":[0,8,11,8,1,0,0,0,0,0,0],"split_type":[0,0,0,0,0,0,0,0,0,0,0],"sum_hessian":[5.826787E2,5.644201E2,1.8258585E1,5.5918115E2,5.2389455E0,1.2815406E0,1.6977043E1,5.573103E2,1.870836E0,2.0882308E0,3.1507144E0],"tree_param":{"num_deleted":"0","num_feature":"17","num_nodes":"11","size_leaf_vector":"1"}},{"base_weights":[-9.42697E-1,-1.0825665E0,2.802548E0,-5.5078965E-2,1.2511307E-1,-2.890328E-2,1.5096907E-1],"categories":[],"categories_nodes":[],"categories_segments":[],"categories_sizes":[],"default_left":[0,0,0,0,0,0,0],"id":6,"left_children":[1,3,5,-1,-1,-1,-1],"loss_changes":[2.9438348E2,3.934857E1,1.6627136E1,0E0,0E0,0E0,0E0],"parents":[2147483647,0,0,1,1,2,2],"right_children":[2,4,6,-1,-1,-1,-1],"split_conditions":[2.97403E3,1E0,1E0,-5.5078965E-2,1.2511307E-1,-2.890328E-2,1.5096907E-1],"split_indices":[0,15,11,0,0,0,0],"split_type":[0,0,0,0,0,0,0],"sum_hessian":[5.551745E2,5.358728E2,1.93017E1,5.3373474E2,2.1380575E0,1.0629822E0,1.823872E1],"tree_param":{"num_deleted":"0","num_feature":"17","num_nodes":"7","size_leaf_vector":"1"}},{"base_weights":[-9.2662984E-1,-1.0714743E0,2.5299048E0,-5.479762E-2,1.16704665E-1,-3.172333E-2,1.3813968E-1],"categories":[],"categories_nodes":[],"categories_segments":[],"categories_sizes":[],"default_left":[0,0,0,0,0,0,0],"id":7,"left_children":[1,3,5,-1,-1,-1,-1],"loss_changes":[2.7149298E2,4.5569946E1,1.7884232E1,0E0,0E0,0E0,0E0],"parents":[2147483647,0,0,1,1,2,2],"right_children":[2,4,6,-1,-1,-1,-1],"split_conditions":[2.97403E3,1E0,1E0,-5.479762E-2,1.16704665E-1,-3.172333E-2,1.3813968E-1],"split_indices":[0,15,11,0,0,0,0],"split_type":[0,0,0,0,0,0,0],"sum_hessian":[5.35856E2,5.149666E2,2.088942E1,5.1196497E2,3.0016444E0,1.3138038E0,1.9575615E1],"tree_param":{"num_deleted":"0","num_feature":"17","num_nodes":"7","size_leaf_vector":"1"}},{"base_weights":[-9.200353E-1,-9.745884E-1,1.1668193E-1,-5.4492086E-2,-5.742965E-1,-5.3823262E-2,8.787757E-2,1.7709553E-1,-4.6339417E-1,-5.6095175E-3,2.320153E-2,-3.811669E-2,2.5170153E-2],"categories":[],"categories_nodes":[],"categories_segments":[],"categories_sizes":[],"default_left":[0,0,0,0,0,0,0,0,0,0,0,0,0],"id":8,"left_children":[1,3,-1,-1,5,-1,7,9,11,-1,-1,-1,-1],"loss_changes":[9.3820465E1,2.2808746E1,0E0,0E0,3.8557995E1,0E0,2.5811865E0,3.742342E0,2.509309E0,0E0,0E0,0E0,0E0],"parents":[2147483647,0,0,1,1,4,4,6,6,7,7,8,8],"right_children":[2,4,-1,-1,6,-1,8,10,12,-1,-1,-1,-1],"split_conditions":[1E0,1E0,1.1668193E-1,-5.4492086E-2,1E0,-5.3823262E-2,8.1852844E2,3.9729572E2,6E0,-5.6095175E-3,2.320153E-2,-3.811669E-2,2.5170153E-2],"split_indices":[15,14,0,0,11,0,6,6,4,0,0,0,0],"split_type":[0,0,0,0,0,0,0,0,0,0,0,0,0],"sum_hessian":[5.147586E2,5.069591E2,7.799525E0,3.9228778E2,1.1467134E2,6.4858986E1,4.9812355E1,4.3457874E1,6.3544827E0,2.1943548E1,2.1514324E1,5.015229E0,1.3392538E0],"tree_param":{"num_deleted":"0","num_feature":"17","num_nodes":"13","size_leaf_vector":"1"}},{"base_weights":[-9.062745E-1,-1.0599681E0,2.3671606E0,-5.430113E-2,1.0862694E-1,1.2758605E0,1.2617826E-1,-9.806297E-3,8.834721E-2],"categories":[],"categories_nodes":[],"categories_segments":[],"categories_sizes":[],"default_left":[0,0,0,0,0,0,0,0,0],"id":9,"left_children":[1,3,5,-1,-1,7,-1,-1,-1],"loss_changes":[2.510379E2,4.215625E1,6.143341E-1,0E0,0E0,3.844047E0,0E0,0E0,0E0],"parents":[2147483647,0,0,1,1,2,2,5,5],"right_children":[2,4,6,-1,-1,8,-1,-1,-1],"split_conditions":[2.97403E3,1E0,3.73547E3,-5.430113E-2,1.0862694E-1,2.2653303E1,1.2617826E-1,-9.806297E-3,8.834721E-2],"split_indices":[0,15,0,0,0,1,0,0,0],"split_type":[0,0,0,0,0,0,0,0,0],"sum_hessian":[4.929889E2,4.715261E2,2.1462801E1,4.6841464E2,3.111463E0,3.838368E0,1.7624434E1,1.1104635E0,2.7279046E0],"tree_param":{"num_deleted":"0","num_feature":"17","num_nodes":"9","size_leaf_vector":"1"}},{"base_weights":[-9.104767E-1,-1.0544672E0,2.0582576E0,-5.406275E-2,1.01452544E-1,-2.8587371E-2,1.1092534E-1],"categories":[],"categories_nodes":[],"categories_segments":[],"categories_sizes":[],"default_left":[0,0,0,0,0,0,0],"id":10,"left_children":[1,3,5,-1,-1,-1,-1],"loss_changes":[2.0298285E2,3.9256714E1,1.0569832E1,0E0,0E0,0E0,0E0],"parents":[2147483647,0,0,1,1,2,2],"right_children":[2,4,6,-1,-1,-1,-1],"split_conditions":[2.97403E3,1E0,1E0,-5.406275E-2,1.01452544E-1,-2.8587371E-2,1.1092534E-1],"split_indices":[0,15,11,0,0,0,0],"split_type":[0,0,0,0,0,0,0],"sum_hessian":[4.6877008E2,4.4770038E2,2.1069708E1,4.4448828E2,3.2120934E0,1.0625923E0,2.0007116E1],"tree_param":{"num_deleted":"0","num_feature":"17","num_nodes":"7","size_leaf_vector":"1"}},{"base_weights":[-8.99129E-1,-1.0512604E0,2.0167246E0,-5.3835984E-2,9.4815984E-2,1.002568E0,1.10798135E-1,-1.629973E-2,7.493653E-2],"categories":[],"categories_nodes":[],"categories_segments":[],"categories_sizes":[],"default_left":[0,0,0,0,0,0,0,0,0],"id":11,"left_children":[1,3,5,-1,-1,7,-1,-1,-1],"loss_changes":[2.0225809E2,3.427008E1,2.3680878E0,0E0,0E0,4.151012E0,0E0,0E0,0E0],"parents":[2147483647,0,0,1,1,2,2,5,5],"right_children":[2,4,6,-1,-1,8,-1,-1,-1],"split_conditions":[2.97403E3,1E0,3.73547E3,-5.3835984E-2,9.4815984E-2,9.546555E0,1.10798135E-1,-1.629973E-2,7.493653E-2],"split_indices":[0,15,0,0,0,1,0,0,0],"split_type":[0,0,0,0,0,0,0,0,0],"sum_hessian":[4.501751E2,4.2846014E2,2.1714952E1,4.2542032E2,3.0398104E0,4.5560184E0,1.7158936E1,1.3320878E0,3.2239306E0],"tree_param":{"num_deleted":"0","num_feature":"17","num_nodes":"9","size_leaf_vector":"1"}},{"base_weights":[-8.752436E-1,-1.0449136E0,1.91434E0,-5.3625137E-2,8.9802615E-2,7.778371E-1,1.0514468E-1,-3.1367414E-2,6.4492725E-2],"categories":[],"categories_nodes":[],"categories_segments":[],"categories_sizes":[],"default_left":[0,0,0,0,0,0,0,0,0],"id":12,"left_children":[1,3,5,-1,-1,7,-1,-1,-1],"loss_changes":[2.0922702E2,3.432605E1,3.8193054E0,0E0,0E0,4.557226E0,0E0,0E0,0E0],"parents":[2147483647,0,0,1,1,2,2,5,5],"right_children":[2,4,6,-1,-1,8,-1,-1,-1],"split_conditions":[2.97403E3,1E0,3.73547E3,-5.3625137E-2,8.9802615E-2,9.546555E0,1.0514468E-1,-3.1367414E-2,6.4492725E-2],"split_indices":[0,15,0,0,0,1,0,0,0],"split_type":[0,0,0,0,0,0,0,0,0],"sum_hessian":[4.3682574E2,4.1236972E2,2.4456017E1,4.0902014E2,3.349574E0,4.2093754E0,2.0246641E1,1.0640202E0,3.1453552E0],"tree_param":{"num_deleted":"0","num_feature":"17","num_nodes":"9","size_leaf_vector":"1"}},{"base_weights":[-8.786926E-1,-1.042062E0,1.8137779E0,-5.3421736E-2,8.5207544E-2,-2.8043846E-2,9.715148E-2],"categories":[],"categories_nodes":[],"categories_segments":[],"categories_sizes":[],"default_left":[0,0,0,0,0,0,0],"id":13,"left_children":[1,3,5,-1,-1,-1,-1],"loss_changes":[1.8541013E2,3.0355194E1,8.52726E0,0E0,0E0,0E0,0E0],"parents":[2147483647,0,0,1,1,2,2],"right_children":[2,4,6,-1,-1,-1,-1],"split_conditions":[2.97403E3,1E0,1E0,-5.3421736E-2,8.5207544E-2,-2.8043846E-2,9.715148E-2],"split_indices":[0,15,11,0,0,0,0],"split_type":[0,0,0,0,0,0,0],"sum_hessian":[4.162169E2,3.9298495E2,2.3231932E1,3.8985202E2,3.1329231E0,1.026852E0,2.220508E1],"tree_param":{"num_deleted":"0","num_feature":"17","num_nodes":"7","size_leaf_vector":"1"}},{"base_weights":[-8.716432E-1,-1.038252E0,1.6517516E0,-5.3230494E-2,7.906779E-2,-3.0458188E-2,1.7910308E0,9.33178E-2,3.3771805E-2],"categories":[],"categories_nodes":[],"categories_segments":[],"categories_sizes":[],"default_left":[0,0,0,0,0,0,0,0,0],"id":14,"left_children":[1,3,5,-1,-1,-1,7,-1,-1],"loss_changes":[1.7106885E2,2.7816864E1,9.069046E0,0E0,0E0,0E0,7.661514E-1,0E0,0E0],"parents":[2147483647,0,0,1,1,2,2,6,6],"right_children":[2,4,6,-1,-1,-1,8,-1,-1],"split_conditions":[2.97403E3,1E0,1E0,-5.3230494E-2,7.906779E-2,-3.0458188E-2,1.314509E2,9.33178E-2,3.3771805E-2],"split_indices":[0,15,11,0,0,0,2,0,0],"split_type":[0,0,0,0,0,0,0,0,0],"sum_hessian":[4.0182074E2,3.7748553E2,2.4335188E1,3.743129E2,3.172648E0,1.2163591E0,2.3118828E1,2.1026167E1,2.0926619E0],"tree_param":{"num_deleted":"0","num_feature":"17","num_nodes":"9","size_leaf_vector":"1"}},{"base_weights":[-8.58051E-1,-1.0311499E0,1.6476057E0,-5.3049028E-2,7.9992376E-2,7.406725E-1,9.043457E-2,5.4552015E-2,-1.514928E-2],"categories":[],"categories_nodes":[],"categories_segments":[],"categories_sizes":[],"default_left":[0,0,0,0,0,0,0,0,0],"id":15,"left_children":[1,3,5,-1,-1,7,-1,-1,-1],"loss_changes":[1.6705875E2,2.973465E1,2.315796E0,0E0,0E0,2.3297915E0,0E0,0E0,0E0],"parents":[2147483647,0,0,1,1,2,2,5,5],"right_children":[2,4,6,-1,-1,8,-1,-1,-1],"split_conditions":[2.97403E3,1E0,3.73547E3,-5.3049028E-2,7.9992376E-2,1.3402277E2,9.043457E-2,5.4552015E-2,-1.514928E-2],"split_indices":[0,15,0,0,0,2,0,0,0],"split_type":[0,0,0,0,0,0,0,0,0],"sum_hessian":[3.8025397E2,3.5623273E2,2.4021229E1,3.5282904E2,3.4036977E0,4.467373E0,1.9553856E1,3.3105755E0,1.1567972E0],"tree_param":{"num_deleted":"0","num_feature":"17","num_nodes":"9","size_leaf_vector":"1"}},{"base_weights":[-8.563364E-1,-1.0188565E0,1.5078951E0,-5.2876648E-2,8.0088705E-2,-3.0502805E-2,1.6485543E0,8.605341E-1,8.682061E-2,2.096945E-3,5.667177E-2],"categories":[],"categories_nodes":[],"categories_segments":[],"categories_sizes":[],"default_left":[0,0,0,0,0,0,0,0,0,0,0],"id":16,"left_children":[1,3,5,-1,-1,-1,7,9,-1,-1,-1],"loss_changes":[1.4205725E2,3.6437897E1,8.1334915E0,0E0,0E0,0E0,7.777786E-2,9.0415025E-1,0E0,0E0,0E0],"parents":[2147483647,0,0,1,1,2,2,6,6,7,7],"right_children":[2,4,6,-1,-1,-1,8,10,-1,-1,-1],"split_conditions":[2.97403E3,1E0,1E0,-5.2876648E-2,8.0088705E-2,-3.0502805E-2,3.73547E3,5.0198035E0,8.682061E-2,2.096945E-3,5.667177E-2],"split_indices":[0,15,11,0,0,0,0,7,0,0,0],"split_type":[0,0,0,0,0,0,0,0,0,0,0],"sum_hessian":[3.6471585E2,3.4178986E2,2.292599E1,3.3740674E2,4.383136E0,1.2199333E0,2.1706057E1,3.260088E0,1.8445969E1,1.1035514E0,2.1565366E0],"tree_param":{"num_deleted":"0","num_feature":"17","num_nodes":"11","size_leaf_vector":"1"}},{"base_weights":[-8.433223E-1,-1.0170293E0,1.5289646E0,-5.2712973E-2,7.561865E-2,6.1925954E-1,8.3234094E-2,4.6689864E-2,-2.195894E-3],"categories":[],"categories_nodes":[],"categories_segments":[],"categories_sizes":[],"default_left":[0,0,0,0,0,0,0,0,0],"id":17,"left_children":[1,3,5,-1,-1,7,-1,-1,-1],"loss_changes":[1.4492831E2,3.2179504E1,1.9492035E0,0E0,0E0,1.0268039E0,0E0,0E0,0E0],"parents":[2147483647,0,0,1,1,2,2,5,5],"right_children":[2,4,6,-1,-1,8,-1,-1,-1],"split_conditions":[2.97403E3,1E0,3.73547E3,-5.2712973E-2,7.561865E-2,-1.5450966E1,8.3234094E-2,4.6689864E-2,-2.195894E-3],"split_indices":[0,15,0,0,0,2,0,0,0],"split_type":[0,0,0,0,0,0,0,0,0],"sum_hessian":[3.4692352E2,3.2378607E2,2.3137442E1,3.1966415E2,4.1219153E0,3.7258887E0,1.9411552E1,2.2504566E0,1.4754322E0],"tree_param":{"num_deleted":"0","num_feature":"17","num_nodes":"9","size_leaf_vector":"1"}},{"base_weights":[-8.357842E-1,-1.0094029E0,1.4621458E0,-5.2559704E-2,7.489367E-2,6.017437E-1,8.072811E-2,4.1798294E-2,5.1217577E-3],"categories":[],"categories_nodes":[],"categories_segments":[],"categories_sizes":[],"default_left":[0,0,0,0,0,0,0,0,0],"id":18,"left_children":[1,3,5,-1,-1,7,-1,-1,-1],"loss_changes":[1.3644547E2,3.4594208E1,2.1984787E0,0E0,0E0,5.2622867E-1,0E0,0E0,0E0],"parents":[2147483647,0,0,1,1,2,2,5,5],"right_children":[2,4,6,-1,-1,8,-1,-1,-1],"split_conditions":[2.97403E3,1E0,3.73547E3,-5.2559704E-2,7.489367E-2,6.752587E0,8.072811E-2,4.1798294E-2,5.1217577E-3],"split_indices":[0,15,0,0,0,8,0,0,0],"split_type":[0,0,0,0,0,0,0,0,0],"sum_hessian":[3.3730045E2,3.1412747E2,2.3172976E1,3.0954868E2,4.5787964E0,4.2318573E0,1.8941118E1,2.4216373E0,1.8102202E0],"tree_param":{"num_deleted":"0","num_feature":"17","num_nodes":"9","size_leaf_vector":"1"}},{"base_weights":[-8.4755486E-1,-9.8480064E-1,3.2233742E-1,-1.0073303E0,2.857078E-1,-4.8118003E-2,9.214489E-1,-6.7118627E-1,-1.0281297E0,-3.466675E-2,4.7429316E-2,4.6764633E-1,6.9929615E-2,-8.9392096E-1,6.428829E-2,-5.220108E-2,-6.952046E-1,-1.4827392E-1,9.838388E-1,-4.695426E-2,-7.389179E-3,-3.0144392E-2,2.1670423E-2,-4.894879E-2,4.0942807E-2,-2.6123166E-2,4.682101E-2,2.0712454E-2,6.089523E-2],"categories":[],"categories_nodes":[],"categories_segments":[],"categories_sizes":[],"default_left":[0,0,0,0,0,0,0,0,0,0,0,0,0,0,0,0,0,0,0,0,0,0,0,0,0,0,0,0,0],"id":19,"left_children":[1,3,5,7,9,-1,11,13,15,-1,-1,17,-1,19,21,-1,23,25,27,-1,-1,-1,-1,-1,-1,-1,-1,-1,-1],"loss_changes":[5.153601E1,8.467072E0,2.7245787E1,1.2744751E0,4.3944616E0,0E0,4.5136604E0,3.2115479E0,6.6430664E-1,0E0,0E0,4.512561E0,0E0,3.6148834E-1,1.5932231E0,0E0,7.2304945E0,3.383738E0,5.091543E-1,0E0,0E0,0E0,0E0,0E0,0E0,0E0,0E0,0E0,0E0],"parents":[2147483647,0,0,1,1,2,2,3,3,4,4,6,6,7,7,8,8,11,11,13,13,14,14,16,16,17,17,18,18],"right_children":[2,4,6,8,10,-1,12,14,16,-1,-1,18,-1,20,22,-1,24,26,28,-1,-1,-1,-1,-1,-1,-1,-1,-1,-1],"split_conditions":[5.9299903E0,1.2458464E1,1E0,2.5919285E-1,1.0812232E0,-4.8118003E-2,3.8694415E2,1E0,3.7894142E0,-3.466675E-2,4.7429316E-2,1.5469879E1,6.9929615E-2,4.5821425E-2,1E0,-5.220108E-2,6.711638E2,1.1500904E1,1.33105E2,-4.695426E-2,-7.389179E-3,-3.0144392E-2,2.1670423E-2,-4.894879E-2,4.0942807E-2,-2.6123166E-2,4.682101E-2,2.0712454E-2,6.089523E-2],"split_indices":[7,8,11,8,7,0,6,14,7,0,0,7,0,7,11,0,6,8,6,0,0,0,0,0,0,0,0,0,0],"split_type":[0,0,0,0,0,0,0,0,0,0,0,0,0,0,0,0,0,0,0,0,0,0,0,0,0,0,0,0,0],"sum_hessian":[3.1799405E2,2.847472E2,3.324687E1,2.7998932E2,4.7578607E0,1.0380739E1,2.2866127E1,1.8253826E1,2.617355E2,1.9022999E0,2.8555608E0,1.2734586E1,1.013154E1,1.3845387E1,4.4084387E0,2.4777238E2,1.396311E1,6.1313825E0,6.603204E0,1.2811314E1,1.034074E0,1.3446696E0,3.063769E0,1.2056789E1,1.9063205E0,4.944127E0,1.1872555E0,2.7298994E0,3.8733041E0],"tree_param":{"num_deleted":"0","num_feature":"17","num_nodes":"29","size_leaf_vector":"1"}},{"base_weights":[-8.394306E-1,-8.912366E-1,8.482871E-1,-5.1733524E-2,-4.602866E-1,-3.179898E-2,6.00923E-2,-5.1168628E-2,1.2494802E-1,1.8278088E-1,-3.6433797E-2,1.2454901E-2,-8.903223E-3],"categories":[],"categories_nodes":[],"categories_segments":[],"categories_sizes":[],"default_left":[0,0,0,0,0,0,0,0,0,0,0,0,0],"id":20,"left_children":[1,3,5,-1,7,-1,-1,-1,9,11,-1,-1,-1],"loss_changes":[2.7448242E1,1.7862411E1,5.804423E0,0E0,2.5135696E1,0E0,0E0,0E0,2.0142467E0,9.17449E-1,0E0,0E0,0E0],"parents":[2147483647,0,0,1,1,2,2,4,4,8,8,9,9],"right_children":[2,4,6,-1,8,-1,-1,-1,10,12,-1,-1,-1],"split_conditions":[1.2458464E1,1E0,1E0,-5.1733524E-2,1E0,-3.179898E-2,6.00923E-2,-5.1168628E-2,9.225451E0,1.3402277E2,-3.6433797E-2,1.2454901E-2,-8.903223E-3],"split_indices":[8,14,11,0,11,0,0,0,8,2,0,0,0],"split_type":[0,0,0,0,0,0,0,0,0,0,0,0,0],"sum_hessian":[3.0428445E2,2.956802E2,8.604245E0,2.2079253E2,7.488767E1,1.5016041E0,7.102641E0,3.77845E1,3.7103172E1,3.548495E1,1.6182222E0,3.0237501E1,5.247449E0],"tree_param":{"num_deleted":"0","num_feature":"17","num_nodes":"13","size_leaf_vector":"1"}},{"base_weights":[-8.280649E-1,-1.0030855E0,1.3490405E0,-5.2161135E-2,6.86095E-2,5.748901E-1,7.563751E-2,-2.0531638E-2,5.193199E-2],"categories":[],"categories_nodes":[],"categories_segments":[],"categories_sizes":[],"default_left":[0,0,0,0,0,0,0,0,0],"id":21,"left_children":[1,3,5,-1,-1,7,-1,-1,-1],"loss_changes":[1.1383067E2,2.7534363E1,1.9680939E0,0E0,0E0,2.9500256E0,0E0,0E0,0E0],"parents":[2147483647,0,0,1,1,2,2,5,5],"right_children":[2,4,6,-1,-1,8,-1,-1,-1],"split_conditions":[2.97403E3,1E0,3.73547E3,-5.2161135E-2,6.86095E-2,2.7198214E1,7.563751E-2,-2.0531638E-2,5.193199E-2],"split_indices":[0,15,0,0,0,1,0,0,0],"split_type":[0,0,0,0,0,0,0,0,0],"sum_hessian":[2.9418686E2,2.727957E2,2.1391169E1,2.6881406E2,3.9816058E0,4.5215054E0,1.6869663E1,1.4834778E0,3.0380278E0],"tree_param":{"num_deleted":"0","num_feature":"17","num_nodes":"9","size_leaf_vector":"1"}},{"base_weights":[-8.36406E-1,-8.97211E-1,6.821259E-2,-5.194434E-2,-4.8191482E-1,-5.0838895E-2,6.538935E-2,-3.7095614E-2,2.5641155E-1,-7.3875375E-3,1.4299914E-2,2.016953E-2,-9.166713E-3],"categories":[],"categories_nodes":[],"categories_segments":[],"categories_sizes":[],"default_left":[0,0,0,0,0,0,0,0,0,0,0,0,0],"id":22,"left_children":[1,3,-1,-1,5,-1,7,9,11,-1,-1,-1,-1],"loss_changes":[3.8589172E1,1.5522751E1,0E0,0E0,2.0890945E1,0E0,7.162323E-1,9.134703E-1,8.968326E-1,0E0,0E0,0E0,0E0],"parents":[2147483647,0,0,1,1,4,4,6,6,7,7,8,8],"right_children":[2,4,-1,-1,6,-1,8,10,12,-1,-1,-1,-1],"split_conditions":[1E0,1E0,6.821259E-2,-5.194434E-2,1E0,-5.0838895E-2,5E0,1.1405196E2,8.319569E1,-7.3875375E-3,1.4299914E-2,2.016953E-2,-9.166713E-3],"split_indices":[15,14,0,0,11,0,4,2,2,0,0,0,0],"split_type":[0,0,0,0,0,0,0,0,0,0,0,0,0],"sum_hessian":[2.7823813E2,2.7133337E2,6.9047465E0,2.0119527E2,7.01381E1,3.503839E1,3.509971E1,2.3368256E1,1.1731454E1,1.7810953E1,5.5573015E0,8.854599E0,2.8768554E0],"tree_param":{"num_deleted":"0","num_feature":"17","num_nodes":"13","size_leaf_vector":"1"}},{"base_weights":[-8.2283413E-1,-9.9730694E-1,1.2918843E0,-5.192489E-2,6.500539E-2,4.0540174E-1,7.352035E-2,4.2845547E-2,-1.13546014E-1,8.758838E-3,-1.6846059E-2],"categories":[],"categories_nodes":[],"categories_segments":[],"categories_sizes":[],"default_left":[0,0,0,0,0,0,0,0,0,0,0],"id":23,"left_children":[1,3,5,-1,-1,7,-1,-1,9,-1,-1],"loss_changes":[1.01673935E2,2.5188461E1,2.754551E0,0E0,0E0,1.2523687E0,0E0,0E0,2.6388738E-1,0E0,0E0],"parents":[2147483647,0,0,1,1,2,2,5,5,8,8],"right_children":[2,4,6,-1,-1,8,-1,-1,10,-1,-1],"split_conditions":[2.97403E3,1E0,3.73547E3,-5.192489E-2,6.500539E-2,-7.293453E1,7.352035E-2,4.2845547E-2,5.3367486E0,8.758838E-3,-1.6846059E-2],"split_indices":[0,15,0,0,0,2,0,0,8,0,0],"split_type":[0,0,0,0,0,0,0,0,0,0,0],"sum_hessian":[2.7107632E2,2.5090413E2,2.017221E1,2.4702316E2,3.8809578E0,3.9296703E0,1.624254E1,1.7531229E0,2.1765475E0,1.0435212E0,1.1330262E0],"tree_param":{"num_deleted":"0","num_feature":"17","num_nodes":"11","size_leaf_vector":"1"}},{"base_weights":[-8.1641775E-1,-1.0017492E0,1.2983716E0,-5.180315E-2,5.9545964E-2,5.8748937E-1,7.137706E-2,-1.20086325E-2,8.793133E-1,1.469546E-2,5.3730965E-2],"categories":[],"categories_nodes":[],"categories_segments":[],"categories_sizes":[],"default_left":[0,0,0,0,0,0,0,0,0,0,0],"id":24,"left_children":[1,3,5,-1,-1,7,-1,-1,9,-1,-1],"loss_changes":[1.0232428E2,1.9106964E1,1.1083832E0,0E0,0E0,1.4091262E0,0E0,0E0,1.2793231E-1,0E0,0E0],"parents":[2147483647,0,0,1,1,2,2,5,5,8,8],"right_children":[2,4,6,-1,-1,8,-1,-1,10,-1,-1],"split_conditions":[2.97403E3,1E0,3.73547E3,-5.180315E-2,5.9545964E-2,2.2653303E1,7.137706E-2,-1.20086325E-2,3E0,1.469546E-2,5.3730965E-2],"split_indices":[0,15,0,0,0,1,0,0,5,0,0],"split_type":[0,0,0,0,0,0,0,0,0,0,0],"sum_hessian":[2.5675488E2,2.3655086E2,2.0204027E1,2.3342538E2,3.1254725E0,3.9597623E0,1.6244265E1,1.0783563E0,2.881406E0,1.3474543E0,1.5339518E0],"tree_param":{"num_deleted":"0","num_feature":"17","num_nodes":"11","size_leaf_vector":"1"}},{"base_weights":[-8.011598E-1,-9.9107796E-1,1.2702216E0,-5.1358696E-2,5.719447E-1,5.313841E-1,7.077565E-2,-2.894698E-2,5.065003E-2,3.9582323E-2,2.3564775E-3],"categories":[],"categories_nodes":[],"categories_segments":[],"categories_sizes":[],"default_left":[0,0,0,0,0,0,0,0,0,0,0],"id":25,"left_children":[1,3,5,-1,7,9,-1,-1,-1,-1,-1],"loss_changes":[9.8924286E1,1.3449554E1,1.5331306E0,0E0,3.5246232E0,6.0539854E-1,0E0,0E0,0E0,0E0,0E0],"parents":[2147483647,0,0,1,1,2,2,4,4,5,5],"right_children":[2,4,6,-1,8,10,-1,-1,-1,-1,-1],"split_conditions":[2.97403E3,1.2458464E1,3.73547E3,-5.1358696E-2,9.6332365E-1,-1.5450966E1,7.077565E-2,-2.894698E-2,5.065003E-2,3.9582323E-2,2.3564775E-3],"split_indices":[0,8,0,0,7,2,0,0,0,0,0],"split_type":[0,0,0,0,0,0,0,0,0,0,0],"sum_hessian":[2.4726427E2,2.2697519E2,2.0289072E1,2.221869E2,4.788282E0,4.0995173E0,1.6189554E1,1.2400066E0,3.5482752E0,2.2535665E0,1.8459508E0],"tree_param":{"num_deleted":"0","num_feature":"17","num_nodes":"11","size_leaf_vector":"1"}},{"base_weights":[-7.908942E-1,-9.877E-1,1.2156311E0,-5.1585525E-2,6.0983833E-2,5.2965784E-1,6.889495E-2,-1.8508434E-2,8.889525E-1,5.120166E-2,1.5897347E-2],"categories":[],"categories_nodes":[],"categories_segments":[],"categories_sizes":[],"default_left":[0,0,0,0,0,0,0,0,0,0,0],"id":26,"left_children":[1,3,5,-1,-1,7,-1,-1,9,-1,-1],"loss_changes":[9.503667E1,2.2334457E1,1.6826553E0,0E0,0E0,2.1946738E0,0E0,0E0,1.5167475E-2,0E0,0E0],"parents":[2147483647,0,0,1,1,2,2,5,5,8,8],"right_children":[2,4,6,-1,-1,8,-1,-1,10,-1,-1],"split_conditions":[2.97403E3,1E0,3.73547E3,-5.1585525E-2,6.0983833E-2,2.2653303E1,6.889495E-2,-1.8508434E-2,4.72467E1,5.120166E-2,1.5897347E-2],"split_indices":[0,15,0,0,0,1,0,0,1,0,0],"split_type":[0,0,0,0,0,0,0,0,0,0,0],"sum_hessian":[2.366222E2,2.1594905E2,2.0673145E1,2.1224985E2,3.699211E0,4.770475E0,1.590267E1,1.3526356E0,3.417839E0,2.122372E0,1.2954673E0],"tree_param":{"num_deleted":"0","num_feature":"17","num_nodes":"11","size_leaf_vector":"1"}},{"base_weights":[-7.948713E-1,-9.634726E-1,3.6331105E-1,-9.916221E-1,5.0233997E-2,-4.5980293E-2,8.4207815E-1,-1.0033005E0,-5.2573943E-1,4.333076E-1,6.1346937E-2,-6.775244E-1,-5.106926E-2,-4.390503E-2,3.9153393E-2,-2.5445977E-2,6.7685694E-1,-4.631439E-2,1.5485895E-4,7.6633985E-3,4.08541E-2],"categories":[],"categories_nodes":[],"categories_segments":[],"categories_sizes":[],"default_left":[0,0,0,0,0,0,0,0,0,0,0,0,0,0,0,0,0,0,0,0,0],"id":27,"left_children":[1,3,5,7,-1,-1,9,11,13,15,-1,17,-1,-1,-1,-1,19,-1,-1,-1,-1],"loss_changes":[4.517343E1,1.2112732E1,1.91368E1,5.5155945E-1,0E0,0E0,2.975481E0,4.4136047E-1,3.893103E0,3.1800551E0,0E0,2.2188106E0,0E0,0E0,0E0,0E0,6.2716913E-1,0E0,0E0,0E0,0E0],"parents":[2147483647,0,0,1,1,2,2,3,3,6,6,7,7,8,8,9,9,11,11,16,16],"right_children":[2,4,6,8,-1,-1,10,12,14,16,-1,18,-1,-1,-1,-1,20,-1,-1,-1,-1],"split_conditions":[5.9299903E0,1E0,1E0,4.661409E0,5.0233997E-2,-4.5980293E-2,4.0244427E2,3.017E1,6.039128E2,8.841758E0,6.1346937E-2,1E0,-5.106926E-2,-4.390503E-2,3.9153393E-2,-2.5445977E-2,1.33105E2,-4.631439E-2,1.5485895E-4,7.6633985E-3,4.08541E-2],"split_indices":[7,15,11,7,0,0,6,6,6,7,0,14,0,0,0,0,6,0,0,0,0],"split_type":[0,0,0,0,0,0,0,0,0,0,0,0,0,0,0,0,0,0,0,0,0],"sum_hessian":[2.2854454E2,1.9964896E2,2.8895588E1,1.973229E2,2.3260467E0,7.6026225E0,2.1292967E1,1.9137216E2,5.950734E0,1.135665E1,9.936316E0,1.20877905E1,1.7928438E2,4.9477644E0,1.0029695E0,2.1087742E0,9.247876E0,8.587986E0,3.4998043E0,2.3956666E0,6.85221E0],"tree_param":{"num_deleted":"0","num_feature":"17","num_nodes":"21","size_leaf_vector":"1"}},{"base_weights":[-7.971669E-1,-9.854998E-1,1.13659E0,-5.1392455E-2,5.684961E-2,2.8367501E-1,6.6020325E-2,-2.0908358E-2,7.482671E-1,1.1306349E-2,4.406643E-2],"categories":[],"categories_nodes":[],"categories_segments":[],"categories_sizes":[],"default_left":[0,0,0,0,0,0,0,0,0,0,0],"id":28,"left_children":[1,3,5,-1,-1,7,-1,-1,9,-1,-1],"loss_changes":[8.004965E1,1.8968536E1,2.7137737E0,0E0,0E0,1.8670368E0,0E0,0E0,2.4864197E-2,0E0,0E0],"parents":[2147483647,0,0,1,1,2,2,5,5,8,8],"right_children":[2,4,6,-1,-1,8,-1,-1,10,-1,-1],"split_conditions":[2.97403E3,1E0,3.73547E3,-5.1392455E-2,5.684961E-2,2.7198214E1,6.6020325E-2,-2.0908358E-2,2.5235167E2,1.1306349E-2,4.406643E-2],"split_indices":[0,15,0,0,0,1,0,0,6,0,0],"split_type":[0,0,0,0,0,0,0,0,0,0,0],"sum_hessian":[2.1572623E2,1.9702763E2,1.8698593E1,1.9367897E2,3.3486629E0,3.7662601E0,1.4932334E1,1.5399065E0,2.2263536E0,1.0003489E0,1.2260047E0],"tree_param":{"num_deleted":"0","num_feature":"17","num_nodes":"11","size_leaf_vector":"1"}},{"base_weights":[-8.008323E-1,-9.928807E-1,1.1303875E0,-5.0911594E-2,5.006436E-1,4.3966407E-1,6.4458944E-2,-5.2350196E-3,4.0532354E-2,-1.3690406E-2,7.2273695E-1,4.713401E-2,3.2245216E-3],"categories":[],"categories_nodes":[],"categories_segments":[],"categories_sizes":[],"default_left":[0,0,0,0,0,0,0,0,0,0,0,0,0],"id":29,"left_children":[1,3,5,-1,7,9,-1,-1,-1,-1,11,-1,-1],"loss_changes":[7.742192E1,7.6145325E0,1.5253582E0,0E0,7.9841757E-1,1.2244872E0,0E0,0E0,0E0,0E0,5.0585485E-1,0E0,0E0],"parents":[2147483647,0,0,1,1,2,2,4,4,5,5,10,10],"right_children":[2,4,6,-1,8,10,-1,-1,-1,-1,12,-1,-1],"split_conditions":[2.97403E3,5.8134985E3,3.73547E3,-5.0911594E-2,1.93949E3,2.2653303E1,6.4458944E-2,-5.2350196E-3,4.0532354E-2,-1.3690406E-2,4.72467E1,4.713401E-2,3.2245216E-3],"split_indices":[0,8,0,0,0,1,0,0,0,0,1,0,0],"split_type":[0,0,0,0,0,0,0,0,0,0,0,0,0],"sum_hessian":[2.0472151E2,1.866465E2,1.8075016E1,1.8384416E2,2.8023415E0,4.083049E0,1.3991968E1,1.1733673E0,1.6289741E0,1.1691042E0,2.9139445E0,1.8602588E0,1.0536858E0],"tree_param":{"num_deleted":"0","num_feature":"17","num_nodes":"13","size_leaf_vector":"1"}},{"base_weights":[-7.8680456E-1,-9.850282E-1,1.1137995E0,-5.1207818E-2,5.41646E-2,4.730543E-1,6.332351E-2,1.0449096E-3,3.456896E-2],"categories":[],"categories_nodes":[],"categories_segments":[],"categories_sizes":[],"default_left":[0,0,0,0,0,0,0,0,0],"id":30,"left_children":[1,3,5,-1,-1,7,-1,-1,-1],"loss_changes":[7.650827E1,1.5821701E1,1.2961044E0,0E0,0E0,5.111395E-1,0E0,0E0,0E0],"parents":[2147483647,0,0,1,1,2,2,5,5],"right_children":[2,4,6,-1,-1,8,-1,-1,-1],"split_conditions":[2.97403E3,1E0,3.73547E3,-5.1207818E-2,5.41646E-2,3E0,6.332351E-2,1.0449096E-3,3.456896E-2],"split_indices":[0,15,0,0,0,5,0,0,0],"split_type":[0,0,0,0,0,0,0,0,0],"sum_hessian":[1.9916507E2,1.8079115E2,1.8373903E1,1.7792995E2,2.8612077E0,4.3241925E0,1.4049711E1,1.7648555E0,2.559337E0],"tree_param":{"num_deleted":"0","num_feature":"17","num_nodes":"9","size_leaf_vector":"1"}},{"base_weights":[-7.849071E-1,-9.760107E-1,1.0824044E0,-5.1117837E-2,5.5838156E-2,-2.752991E-2,1.2098963E0,6.2126424E-2,1.8621065E-2],"categories":[],"categories_nodes":[],"categories_segments":[],"categories_sizes":[],"default_left":[0,0,0,0,0,0,0,0,0],"id":31,"left_children":[1,3,5,-1,-1,-1,7,-1,-1],"loss_changes":[6.8929245E1,1.7927841E1,4.441225E0,0E0,0E0,0E0,5.4512024E-3,0E0,0E0],"parents":[2147483647,0,0,1,1,2,2,6,6],"right_children":[2,4,6,-1,-1,-1,8,-1,-1],"split_conditions":[2.97403E3,1E0,1E0,-5.1117837E-2,5.5838156E-2,-2.752991E-2,7.813889E1,6.2126424E-2,1.8621065E-2],"split_indices":[0,15,11,0,0,0,1,0,0],"split_type":[0,0,0,0,0,0,0,0,0],"sum_hessian":[1.8919986E2,1.7206752E2,1.7132341E1,1.6883992E2,3.2276003E0,1.000361E0,1.613198E1,1.5061452E1,1.0705289E0],"tree_param":{"num_deleted":"0","num_feature":"17","num_nodes":"9","size_leaf_vector":"1"}},{"base_weights":[-7.914039E-1,-9.7971094E-1,1.0461422E0,-5.1031727E-2,5.192889E-2,2.713117E-1,6.1190713E-2,-1.4745258E-2,5.7242376E-1,4.0071707E-2,2.2514826E-3],"categories":[],"categories_nodes":[],"categories_segments":[],"categories_sizes":[],"default_left":[0,0,0,0,0,0,0,0,0,0,0],"id":32,"left_children":[1,3,5,-1,-1,7,-1,-1,9,-1,-1],"loss_changes":[6.3167038E1,1.455719E1,2.0326233E0,0E0,0E0,9.3413806E-1,0E0,0E0,3.589152E-1,0E0,0E0],"parents":[2147483647,0,0,1,1,2,2,5,5,8,8],"right_children":[2,4,6,-1,-1,8,-1,-1,10,-1,-1],"split_conditions":[2.97403E3,1E0,3.73547E3,-5.1031727E-2,5.192889E-2,2.2653303E1,6.1190713E-2,-1.4745258E-2,4.72467E1,4.0071707E-2,2.2514826E-3],"split_indices":[0,15,0,0,0,1,0,0,1,0,0],"split_type":[0,0,0,0,0,0,0,0,0,0,0],"sum_hessian":[1.7858961E2,1.624128E2,1.6176813E1,1.5966959E2,2.7432122E0,3.488863E0,1.268795E1,1.2183908E0,2.2704723E0,1.2207669E0,1.0497053E0],"tree_param":{"num_deleted":"0","num_feature":"17","num_nodes":"11","size_leaf_vector":"1"}},{"base_weights":[-7.7747124E-1,-9.7519153E-1,1.0021632E0,-5.0950885E-2,5.1490337E-2,-2.800758E-2,5.6610692E-2],"categories":[],"categories_nodes":[],"categories_segments":[],"categories_sizes":[],"default_left":[0,0,0,0,0,0,0],"id":33,"left_children":[1,3,5,-1,-1,-1,-1],"loss_changes":[6.2139565E1,1.48405E1,4.2658367E0,0E0,0E0,0E0,0E0],"parents":[2147483647,0,0,1,1,2,2],"right_children":[2,4,6,-1,-1,-1,-1],"split_conditions":[2.97403E3,1E0,1E0,-5.0950885E-2,5.1490337E-2,-2.800758E-2,5.6610692E-2],"split_indices":[0,15,11,0,0,0,0],"split_type":[0,0,0,0,0,0,0],"sum_hessian":[1.7282066E2,1.5594675E2,1.6873917E1,1.5309215E2,2.8545923E0,1.0425427E0,1.5831373E1],"tree_param":{"num_deleted":"0","num_feature":"17","num_nodes":"7","size_leaf_vector":"1"}},{"base_weights":[-7.834056E-1,-9.662134E-1,2.1574673E-1,-9.843753E-1,1.5279293E-2,-1.8387128E-1,8.2778686E-1,-6.3286936E-1,-1.0034518E0,-4.2282337E-1,4.52889E-2,9.393364E-2,5.1437493E-2,-4.1815024E-2,-7.2150975E-2,-5.06872E-2,-5.657315E-1,-3.892377E-2,1.3413014E-1,-2.828128E-2,3.6786817E-2,6.7555658E-3,-1.10956095E-2,-3.875611E-2,5.600876E-3,-2.9928649E-2,2.8465629E-2],"categories":[],"categories_nodes":[],"categories_segments":[],"categories_sizes":[],"default_left":[0,0,0,0,0,0,0,0,0,0,0,0,0,0,0,0,0,0,0,0,0,0,0,0,0,0,0],"id":34,"left_children":[1,3,5,7,-1,9,11,13,15,17,-1,19,-1,-1,21,-1,23,-1,25,-1,-1,-1,-1,-1,-1,-1,-1],"loss_changes":[2.995411E1,3.4848633E0,6.5126157E0,2.7786255E-1,0E0,4.692448E0,1.4451137E0,1.0479505E0,5.645752E-4,2.928281E0,0E0,1.8333282E0,0E0,0E0,1.442414E-1,0E0,8.233888E-1,0E0,2.3842702E0,0E0,0E0,0E0,0E0,0E0,0E0,0E0,0E0],"parents":[2147483647,0,0,1,1,2,2,3,3,5,5,6,6,7,7,8,8,9,9,11,11,14,14,16,16,18,18],"right_children":[2,4,6,8,-1,10,12,14,16,18,-1,20,-1,-1,22,-1,24,-1,26,-1,-1,-1,-1,-1,-1,-1,-1],"split_conditions":[4.861028E0,5.8134985E3,4.21347E2,2E0,1.5279293E-2,1.1500904E1,5.9299903E0,1E0,3.7894142E0,1.3329828E1,4.52889E-2,5.9502374E2,5.1437493E-2,-4.1815024E-2,9E0,-5.06872E-2,6.420653E2,-3.892377E-2,1.36345E2,-2.828128E-2,3.6786817E-2,6.7555658E-3,-1.10956095E-2,-3.875611E-2,5.600876E-3,-2.9928649E-2,2.8465629E-2],"split_indices":[7,8,6,5,0,8,7,14,7,7,0,6,0,0,3,0,6,0,6,0,0,0,0,0,0,0,0],"split_type":[0,0,0,0,0,0,0,0,0,0,0,0,0,0,0,0,0,0,0,0,0,0,0,0,0,0,0],"sum_hessian":[1.618535E2,1.3684831E2,2.5005194E1,1.351444E2,1.7039248E0,1.5551055E1,9.454139E0,8.71609E0,1.264283E2,1.3256062E1,2.294993E0,2.3478713E0,7.106268E0,6.035063E0,2.6810272E0,1.2223811E2,4.1901855E0,7.8472986E0,5.408763E0,1.2164543E0,1.131417E0,1.1656481E0,1.5153791E0,3.0914197E0,1.098766E0,1.8755332E0,3.5332298E0],"tree_param":{"num_deleted":"0","num_feature":"17","num_nodes":"27","size_leaf_vector":"1"}},{"base_weights":[-7.773577E-1,-9.606367E-1,9.516513E-1,-5.0802756E-2,5.334233E-2,2.8885576E-1,5.8451682E-2,5.5040145E-1,-1.7506456E-2,3.8118374E-2,2.2015066E-3],"categories":[],"categories_nodes":[],"categories_segments":[],"categories_sizes":[],"default_left":[0,0,0,0,0,0,0,0,0,0,0],"id":35,"left_children":[1,3,5,-1,-1,7,-1,9,-1,-1,-1],"loss_changes":[5.1440514E1,1.7337967E1,1.9364624E0,0E0,0E0,1.0661695E0,0E0,4.0620887E-1,0E0,0E0,0E0],"parents":[2147483647,0,0,1,1,2,2,5,5,7,7],"right_children":[2,4,6,-1,-1,8,-1,10,-1,-1,-1],"split_conditions":[2.97403E3,1E0,3.73547E3,-5.0802756E-2,5.334233E-2,1.3402277E2,5.8451682E-2,6.02512E0,-1.7506456E-2,3.8118374E-2,2.2015066E-3],"split_indices":[0,15,0,0,0,2,0,8,0,0,0],"split_type":[0,0,0,0,0,0,0,0,0,0,0],"sum_hessian":[1.5844391E2,1.4366002E2,1.47838955E1,1.4032333E2,3.3366828E0,4.2264147E0,1.0557481E1,3.0972836E0,1.129131E0,1.826968E0,1.2703158E0],"tree_param":{"num_deleted":"0","num_feature":"17","num_nodes":"11","size_leaf_vector":"1"}},{"base_weights":[-7.6064324E-1,-9.678727E-1,9.6752185E-1,-5.0723493E-2,4.904785E-2,3.1358445E-1,5.8136534E-2,5.989749E-1,-1.7996002E-2,4.3456715E-2,-3.4763166E-3],"categories":[],"categories_nodes":[],"categories_segments":[],"categories_sizes":[],"default_left":[0,0,0,0,0,0,0,0,0,0,0],"id":36,"left_children":[1,3,5,-1,-1,7,-1,9,-1,-1,-1],"loss_changes":[5.5161873E1,1.3318184E1,1.7688112E0,0E0,0E0,1.217258E0,0E0,7.89273E-1,0E0,0E0,0E0],"parents":[2147483647,0,0,1,1,2,2,5,5,7,7],"right_children":[2,4,6,-1,-1,8,-1,10,-1,-1,-1],"split_conditions":[2.97403E3,1E0,3.73547E3,-5.0723493E-2,4.904785E-2,1.3402277E2,5.8136534E-2,6.752587E0,-1.7996002E-2,4.3456715E-2,-3.4763166E-3],"split_indices":[0,15,0,0,0,2,0,8,0,0,0],"split_type":[0,0,0,0,0,0,0,0,0,0,0],"sum_hessian":[1.5041411E2,1.3470158E2,1.5712527E1,1.3202429E2,2.6772947E0,4.211309E0,1.1501218E1,3.0356455E0,1.1756637E0,1.9482012E0,1.0874443E0],"tree_param":{"num_deleted":"0","num_feature":"17","num_nodes":"11","size_leaf_vector":"1"}},{"base_weights":[-7.620172E-1,-9.705357E-1,1.0303849E0,-5.0649762E-2,4.561065E-2,5.0492936E-1,5.7165295E-2,-1.5788054E-2,4.5173597E-2],"categories":[],"categories_nodes":[],"categories_segments":[],"categories_sizes":[],"default_left":[0,0,0,0,0,0,0,0,0],"id":37,"left_children":[1,3,5,-1,-1,7,-1,-1,-1],"loss_changes":[5.4672005E1,1.1248703E1,3.3944893E-1,0E0,0E0,1.7649637E0,0E0,0E0,0E0],"parents":[2147483647,0,0,1,1,2,2,5,5],"right_children":[2,4,6,-1,-1,8,-1,-1,-1],"split_conditions":[2.97403E3,1E0,3.73547E3,-5.0649762E-2,4.561065E-2,2.2653303E1,5.7165295E-2,-1.5788054E-2,4.5173597E-2],"split_indices":[0,15,0,0,0,1,0,0,0],"split_type":[0,0,0,0,0,0,0,0,0],"sum_hessian":[1.4260431E2,1.2815407E2,1.4450232E1,1.2577947E2,2.374604E0,3.5239148E0,1.0926316E1,1.2197928E0,2.304122E0],"tree_param":{"num_deleted":"0","num_feature":"17","num_nodes":"9","size_leaf_vector":"1"}},{"base_weights":[-7.7522427E-1,-9.821035E-1,9.499253E-1,-5.0308365E-2,1.6042612E-1,3.574836E-1,5.608598E-2,-1.9945813E-2,3.2924812E-2,-1.53198615E-2,6.596477E-1,4.0545177E-2,6.97864E-3],"categories":[],"categories_nodes":[],"categories_segments":[],"categories_sizes":[],"default_left":[0,0,0,0,0,0,0,0,0,0,0,0,0],"id":38,"left_children":[1,3,5,-1,7,9,-1,-1,-1,-1,11,-1,-1],"loss_changes":[4.9574196E1,3.5207672E0,1.136055E0,0E0,1.2051268E0,1.1775519E0,0E0,0E0,0E0,0E0,1.7463744E-1,0E0,0E0],"parents":[2147483647,0,0,1,1,2,2,4,4,5,5,10,10],"right_children":[2,4,6,-1,8,10,-1,-1,-1,-1,12,-1,-1],"split_conditions":[2.97403E3,1.2458464E1,3.73547E3,-5.0308365E-2,4.0951867E0,2.2653303E1,5.608598E-2,-1.9945813E-2,3.2924812E-2,-1.53198615E-2,6.02512E0,4.0545177E-2,6.97864E-3],"split_indices":[0,8,0,0,7,1,0,0,0,0,8,0,0],"split_type":[0,0,0,0,0,0,0,0,0,0,0,0,0],"sum_hessian":[1.352891E2,1.21187096E2,1.4101997E1,1.18804214E2,2.3828783E0,3.862577E0,1.0239421E1,1.216171E0,1.1667073E0,1.2037733E0,2.6588037E0,1.6265435E0,1.0322603E0],"tree_param":{"num_deleted":"0","num_feature":"17","num_nodes":"13","size_leaf_vector":"1"}},{"base_weights":[-7.197106E-1,-9.5091826E-1,9.283643E-1,-5.0502397E-2,5.0004106E-2,3.0337715E-1,5.611828E-2,-1.939642E-2,6.3729185E-1,3.841966E-2,6.5655233E-3],"categories":[],"categories_nodes":[],"categories_segments":[],"categories_sizes":[],"default_left":[0,0,0,0,0,0,0,0,0,0,0],"id":39,"left_children":[1,3,5,-1,-1,7,-1,-1,9,-1,-1],"loss_changes":[5.1151947E1,1.4413704E1,1.688776E0,0E0,0E0,1.4787307E0,0E0,0E0,1.628325E-1,0E0,0E0],"parents":[2147483647,0,0,1,1,2,2,5,5,8,8],"right_children":[2,4,6,-1,-1,8,-1,-1,10,-1,-1],"split_conditions":[2.97403E3,1E0,3.73547E3,-5.0502397E-2,5.0004106E-2,2.2653303E1,5.611828E-2,-1.939642E-2,6.752587E0,3.841966E-2,6.5655233E-3],"split_indices":[0,15,0,0,0,1,0,0,8,0,0],"split_type":[0,0,0,0,0,0,0,0,0,0,0],"sum_hessian":[1.3092355E2,1.15187035E2,1.5736524E1,1.12266815E2,2.9202182E0,4.334962E0,1.1401562E1,1.3592142E0,2.975748E0,1.9514912E0,1.0242567E0],"tree_param":{"num_deleted":"0","num_feature":"17","num_nodes":"11","size_leaf_vector":"1"}},{"base_weights":[-7.500227E-1,-9.704574E-1,8.923048E-1,-5.044068E-2,4.106845E-2,2.4614465E-1,5.5176374E-2,-1.8725831E-2,5.6630594E-1,3.406706E-2,6.614495E-3],"categories":[],"categories_nodes":[],"categories_segments":[],"categories_sizes":[],"default_left":[0,0,0,0,0,0,0,0,0,0,0],"id":40,"left_children":[1,3,5,-1,-1,7,-1,-1,9,-1,-1],"loss_changes":[4.6439613E1,8.489494E0,1.8326645E0,0E0,0E0,1.2226206E0,0E0,0E0,9.7237945E-2,0E0,0E0],"parents":[2147483647,0,0,1,1,2,2,5,5,8,8],"right_children":[2,4,6,-1,-1,8,-1,-1,10,-1,-1],"split_conditions":[2.97403E3,1E0,3.73547E3,-5.044068E-2,4.106845E-2,2.2653303E1,5.5176374E-2,-1.8725831E-2,6.752587E0,3.406706E-2,6.614495E-3],"split_indices":[0,15,0,0,0,1,0,0,8,0,0],"split_type":[0,0,0,0,0,0,0,0,0,0,0],"sum_hessian":[1.2488509E2,1.1046718E2,1.441791E1,1.0857989E2,1.8872955E0,4.0854053E0,1.0332504E1,1.3324864E0,2.752919E0,1.7256782E0,1.0272406E0],"tree_param":{"num_deleted":"0","num_feature":"17","num_nodes":"11","size_leaf_vector":"1"}},{"base_weights":[-7.308825E-1,-9.471378E-1,8.892438E-1,-5.0376147E-2,4.847801E-2,2.663487E-1,5.444796E-2,5.629962E-1,-1.1895609E-2,3.9319447E-3,4.2101752E-2],"categories":[],"categories_nodes":[],"categories_segments":[],"categories_sizes":[],"default_left":[0,0,0,0,0,0,0,0,0,0,0],"id":41,"left_children":[1,3,5,-1,-1,7,-1,9,-1,-1,-1],"loss_changes":[4.34065E1,1.3437988E1,1.553874E0,0E0,0E0,8.702698E-1,0E0,3.9279938E-1,0E0,0E0,0E0],"parents":[2147483647,0,0,1,1,2,2,5,5,7,7],"right_children":[2,4,6,-1,-1,8,-1,10,-1,-1,-1],"split_conditions":[2.97403E3,1E0,3.73547E3,-5.0376147E-2,4.847801E-2,-1.5450966E1,5.444796E-2,4.5843124E2,-1.1895609E-2,3.9319447E-3,4.2101752E-2],"split_indices":[0,15,0,0,0,2,0,6,0,0,0],"split_type":[0,0,0,0,0,0,0,0,0,0,0],"sum_hessian":[1.2048695E2,1.0666469E2,1.382226E1,1.0386673E2,2.7979598E0,3.9223692E0,9.89989E0,2.3962317E0,1.5261377E0,1.3444127E0,1.0518188E0],"tree_param":{"num_deleted":"0","num_feature":"17","num_nodes":"11","size_leaf_vector":"1"}},{"base_weights":[-7.384331E-1,-9.502683E-1,8.9977527E-1,-4.9994607E-2,4.460566E-1,3.2328412E-1,5.359103E-2,-9.66544E-3,3.6608513E-2,-1.161121E-2,5.51492E-1,1.3985025E-3,4.0312015E-2],"categories":[],"categories_nodes":[],"categories_segments":[],"categories_sizes":[],"default_left":[0,0,0,0,0,0,0,0,0,0,0,0,0],"id":42,"left_children":[1,3,5,-1,7,9,-1,-1,-1,-1,11,-1,-1],"loss_changes":[4.057203E1,7.5018997E0,1.0041971E0,0E0,9.073281E-1,7.063943E-1,0E0,0E0,0E0,0E0,4.4821656E-1,0E0,0E0],"parents":[2147483647,0,0,1,1,2,2,4,4,5,5,10,10],"right_children":[2,4,6,-1,8,10,-1,-1,-1,-1,12,-1,-1],"split_conditions":[2.97403E3,1.2458464E1,3.73547E3,-4.9994607E-2,1.5078751E0,-8.441902E0,5.359103E-2,-9.66544E-3,3.6608513E-2,-1.161121E-2,1.4E1,1.3985025E-3,4.0312015E-2],"split_indices":[0,8,0,0,7,1,0,0,0,0,3,0,0],"split_type":[0,0,0,0,0,0,0,0,0,0,0,0,0],"sum_hessian":[1.13448265E2,1.0082997E2,1.2618295E1,9.764374E1,3.1862364E0,3.5619493E0,9.056345E0,1.085309E0,2.1009274E0,1.0320681E0,2.5298812E0,1.1913615E0,1.3385197E0],"tree_param":{"num_deleted":"0","num_feature":"17","num_nodes":"13","size_leaf_vector":"1"}},{"base_weights":[-7.439277E-1,-9.387655E-1,7.8205585E-1,-5.024556E-2,4.7878E-2,-2.7999496E-2,9.441054E-1,1.0457969E0,6.3834637E-3,5.5697113E-2,1.1354712E-2],"categories":[],"categories_nodes":[],"categories_segments":[],"categories_sizes":[],"default_left":[0,0,0,0,0,0,0,0,0,0,0],"id":43,"left_children":[1,3,5,-1,-1,-1,7,9,-1,-1,-1],"loss_changes":[3.3454075E1,1.3260262E1,3.3571577E0,0E0,0E0,0E0,8.60857E-1,3.3346176E-1,0E0,0E0,0E0],"parents":[2147483647,0,0,1,1,2,2,6,6,7,7],"right_children":[2,4,6,-1,-1,-1,8,10,-1,-1,-1],"split_conditions":[2.97403E3,1E0,1E0,-5.024556E-2,4.7878E-2,-2.7999496E-2,1.3402277E2,7.6685104E1,6.3834637E-3,5.5697113E-2,1.1354712E-2],"split_indices":[0,15,11,0,0,0,2,1,0,0,0],"split_type":[0,0,0,0,0,0,0,0,0,0,0],"sum_hessian":[1.090497E2,9.704392E1,1.2005772E1,9.4227264E1,2.816661E0,1.0289171E0,1.0976855E1,9.511249E0,1.4656062E0,8.447495E0,1.063753E0],"tree_param":{"num_deleted":"0","num_feature":"17","num_nodes":"11","size_leaf_vector":"1"}},{"base_weights":[-7.115113E-1,-9.4228464E-1,8.244976E-1,-5.0179597E-2,4.6140075E-2,1.9912693E-1,5.2938443E-2,-3.280818E-2,5.987095E-1,2.8004507E-3,4.017685E-2],"categories":[],"categories_nodes":[],"categories_segments":[],"categories_sizes":[],"default_left":[0,0,0,0,0,0,0,0,0,0,0],"id":44,"left_children":[1,3,5,-1,-1,7,-1,-1,9,-1,-1],"loss_changes":[3.8486286E1,1.1554741E1,1.903079E0,0E0,0E0,2.1576276E0,0E0,0E0,4.0434897E-1,0E0,0E0],"parents":[2147483647,0,0,1,1,2,2,5,5,8,8],"right_children":[2,4,6,-1,-1,8,-1,-1,10,-1,-1],"split_conditions":[2.97403E3,1E0,3.73547E3,-5.0179597E-2,4.6140075E-2,2.2653303E1,5.2938443E-2,-3.280818E-2,3E0,2.8004507E-3,4.017685E-2],"split_indices":[0,15,0,0,0,1,0,0,5,0,0],"split_type":[0,0,0,0,0,0,0,0,0,0,0],"sum_hessian":[1.0538246E2,9.195368E1,1.3428784E1,8.947447E1,2.4792078E0,4.1637993E0,9.264985E0,1.1213889E0,3.0424104E0,1.1825719E0,1.8598386E0],"tree_param":{"num_deleted":"0","num_feature":"17","num_nodes":"11","size_leaf_vector":"1"}},{"base_weights":[-7.3757005E-1,-9.520414E-1,8.231979E-1,-5.0119337E-2,4.255529E-2,9.462741E-1,-4.9603577E-3,5.065144E-2,1.5516861E-2],"categories":[],"categories_nodes":[],"categories_segments":[],"categories_sizes":[],"default_left":[0,0,0,0,0,0,0,0,0],"id":45,"left_children":[1,3,5,-1,-1,7,-1,-1,-1],"loss_changes":[3.429333E1,8.884987E0,1.5277586E0,0E0,0E0,1.6271019E-1,0E0,0E0,0E0],"parents":[2147483647,0,0,1,1,2,2,5,5],"right_children":[2,4,6,-1,-1,8,-1,-1,-1],"split_conditions":[2.97403E3,1E0,1.26780556E2,-5.0119337E-2,4.255529E-2,6.3930683E1,-4.9603577E-3,5.065144E-2,1.5516861E-2],"split_indices":[0,15,2,0,0,1,0,0,0],"split_type":[0,0,0,0,0,0,0,0,0],"sum_hessian":[9.9106384E1,8.7475975E1,1.1630406E1,8.5531944E1,1.9440295E0,1.02384205E1,1.391986E0,8.729146E0,1.5092744E0],"tree_param":{"num_deleted":"0","num_feature":"17","num_nodes":"9","size_leaf_vector":"1"}},{"base_weights":[-7.320652E-1,-9.3986094E-1,7.82516E-1,-5.0053585E-2,4.391325E-2,1.5510839E-1,5.091992E-2,-2.3380348E-2,5.544913E-1,8.733732E-3,3.35736E-2],"categories":[],"categories_nodes":[],"categories_segments":[],"categories_sizes":[],"default_left":[0,0,0,0,0,0,0,0,0,0,0],"id":46,"left_children":[1,3,5,-1,-1,7,-1,-1,9,-1,-1],"loss_changes":[3.083649E1,1.0289597E1,1.6304722E0,0E0,0E0,1.3738643E0,0E0,0E0,2.4353862E-2,0E0,0E0],"parents":[2147483647,0,0,1,1,2,2,5,5,8,8],"right_children":[2,4,6,-1,-1,8,-1,-1,10,-1,-1],"split_conditions":[2.97403E3,1E0,3.73547E3,-5.0053585E-2,4.391325E-2,2.7198214E1,5.091992E-2,-2.3380348E-2,2.5235167E2,8.733732E-3,3.35736E-2],"split_indices":[0,15,0,0,0,1,0,0,6,0,0],"split_type":[0,0,0,0,0,0,0,0,0,0,0],"sum_hessian":[9.464278E1,8.35583E1,1.10844755E1,8.127153E1,2.2867699E0,3.4815924E0,7.602883E0,1.2936764E0,2.187916E0,1.1022592E0,1.085657E0],"tree_param":{"num_deleted":"0","num_feature":"17","num_nodes":"11","size_leaf_vector":"1"}},{"base_weights":[-7.248759E-1,-9.4084346E-1,7.680904E-1,-4.9996477E-2,4.2780455E-2,5.6155168E-2,5.096655E-2,2.3099666E-2,-3.0586744E-2],"categories":[],"categories_nodes":[],"categories_segments":[],"categories_sizes":[],"default_left":[0,0,0,0,0,0,0,0,0],"id":47,"left_children":[1,3,5,-1,-1,7,-1,-1,-1],"loss_changes":[3.0479496E1,9.461273E0,2.127366E0,0E0,0E0,1.4330207E0,0E0,0E0,0E0],"parents":[2147483647,0,0,1,1,2,2,5,5],"right_children":[2,4,6,-1,-1,8,-1,-1,-1],"split_conditions":[2.97403E3,1E0,3.73547E3,-4.9996477E-2,4.2780455E-2,-1.5450966E1,5.096655E-2,2.3099666E-2,-3.0586744E-2],"split_indices":[0,15,0,0,0,2,0,0,0],"split_type":[0,0,0,0,0,0,0,0,0],"sum_hessian":[9.128866E1,8.007508E1,1.121358E1,7.795451E1,2.1205678E0,3.2441652E0,7.9694157E0,2.2097235E0,1.0344417E0],"tree_param":{"num_deleted":"0","num_feature":"17","num_nodes":"9","size_leaf_vector":"1"}},{"base_weights":[-7.11224E-1,-9.2317253E-1,2.3515208E-1,-9.41689E-1,6.696909E-3,-4.1247856E-2,6.353435E-1,-4.740755E-1,-9.741041E-1,-2.5800406E-3,7.6294184E-1,-3.7232373E-2,-7.7263944E-2,-4.9584974E-2,-4.272586E-1,4.5531777E-1,4.4558626E-2,6.9030807E-3,-1.1319194E-2,-3.247138E-2,4.7139074E-3,-4.829507E-3,3.16785E-2],"categories":[],"categories_nodes":[],"categories_segments":[],"categories_sizes":[],"default_left":[0,0,0,0,0,0,0,0,0,0,0,0,0,0,0,0,0,0,0,0,0,0,0],"id":48,"left_children":[1,3,5,7,-1,-1,9,11,13,-1,15,-1,17,-1,19,21,-1,-1,-1,-1,-1,-1,-1],"loss_changes":[1.7905094E1,1.5403595E0,7.7077208E0,6.163826E-1,0E0,0E0,1.166338E0,6.467092E-1,2.0721817E-1,0E0,2.4457455E-2,0E0,1.524691E-1,0E0,5.0165063E-1,5.780184E-1,0E0,0E0,0E0,0E0,0E0,0E0,0E0],"parents":[2147483647,0,0,1,1,2,2,3,3,6,6,7,7,8,8,10,10,12,12,14,14,15,15],"right_children":[2,4,6,8,-1,-1,10,12,14,-1,16,-1,18,-1,20,22,-1,-1,-1,-1,-1,-1,-1],"split_conditions":[4.861028E0,5.8134985E3,1E0,2.5919285E-1,6.696909E-3,-4.1247856E-2,1.53945E2,1E0,1.254067E3,-2.5800406E-3,1.7953886E1,-3.7232373E-2,3E0,-4.9584974E-2,2.5594106E-1,3.3750555E2,4.4558626E-2,6.9030807E-3,-1.1319194E-2,-3.247138E-2,4.7139074E-3,-4.829507E-3,3.16785E-2],"split_indices":[7,8,11,8,0,0,6,11,6,0,1,0,4,0,7,6,0,0,0,0,0,0,0],"split_type":[0,0,0,0,0,0,0,0,0,0,0,0,0,0,0,0,0,0,0,0,0,0,0],"sum_hessian":[8.718297E1,7.125039E1,1.5932579E1,7.013115E1,1.1192408E0,4.075404E0,1.1857175E1,5.5592747E0,6.457188E1,1.9507312E0,9.906444E0,2.7842293E0,2.7750454E0,6.1770836E1,2.8010406E0,4.2533855E0,5.6530585E0,1.1658064E0,1.609239E0,1.7923149E0,1.0087258E0,1.1502103E0,3.1031752E0],"tree_param":{"num_deleted":"0","num_feature":"17","num_nodes":"23","size_leaf_vector":"1"}},{"base_weights":[-7.20995E-1,-9.409857E-1,7.533409E-1,-4.9477015E-2,3.4733236E-1,6.272784E-2,5.0001413E-2,-6.0837525E-3,3.131183E-2,-1.3084047E-2,1.5831633E-2],"categories":[],"categories_nodes":[],"categories_segments":[],"categories_sizes":[],"default_left":[0,0,0,0,0,0,0,0,0,0,0],"id":49,"left_children":[1,3,5,-1,7,9,-1,-1,-1,-1,-1],"loss_changes":[2.7969769E1,4.9465256E0,1.8910961E0,0E0,5.225998E-1,4.1935784E-1,0E0,0E0,0E0,0E0,0E0],"parents":[2147483647,0,0,1,1,2,2,4,4,5,5],"right_children":[2,4,6,-1,8,10,-1,-1,-1,-1,-1],"split_conditions":[2.97403E3,1.2458464E1,3.73547E3,-4.9477015E-2,2.8947034E0,3E0,5.0001413E-2,-6.0837525E-3,3.131183E-2,-1.3084047E-2,1.5831633E-2],"split_indices":[0,8,0,0,7,5,0,0,0,0,0],"split_type":[0,0,0,0,0,0,0,0,0,0,0],"sum_hessian":[8.3050285E1,7.2581856E1,1.0468429E1,7.0169205E1,2.4126508E0,3.0852904E0,7.383138E0,1.1099275E0,1.3027233E0,1.3411305E0,1.7441598E0],"tree_param":{"num_deleted":"0","num_feature":"17","num_nodes":"11","size_leaf_vector":"1"}},{"base_weights":[-6.7561316E-1,-9.302652E-1,8.4396154E-1,-4.981206E-2,4.122768E-2,2.9549173E-1,5.035339E-2,2.6815847E-2,5.049469E-2,-1.4410093E-2,1.7495753E-2],"categories":[],"categories_nodes":[],"categories_segments":[],"categories_sizes":[],"default_left":[0,0,0,0,0,0,0,0,0,0,0],"id":50,"left_children":[1,3,5,-1,-1,7,-1,-1,9,-1,-1],"loss_changes":[3.2305634E1,8.953632E0,7.952137E-1,0E0,0E0,2.2162783E-1,0E0,0E0,4.247064E-1,0E0,0E0],"parents":[2147483647,0,0,1,1,2,2,5,5,8,8],"right_children":[2,4,6,-1,-1,8,-1,-1,10,-1,-1],"split_conditions":[2.97403E3,1E0,3.73547E3,-4.981206E-2,4.122768E-2,8E0,5.035339E-2,2.6815847E-2,3E0,-1.4410093E-2,1.7495753E-2],"split_indices":[0,15,0,0,0,3,0,0,5,0,0],"split_type":[0,0,0,0,0,0,0,0,0,0,0],"sum_hessian":[8.0456215E1,6.924061E1,1.1215605E1,6.714831E1,2.0922964E0,3.2153032E0,8.000302E0,1.0218138E0,2.1934893E0,1.0468205E0,1.1466689E0],"tree_param":{"num_deleted":"0","num_feature":"17","num_nodes":"11","size_leaf_vector":"1"}},{"base_weights":[-7.015997E-1,-9.3336606E-1,7.085605E-1,-4.974246E-2,3.9116558E-2,1.08866274E-1,4.89843E-2,-1.816243E-2,3.9814168E-1,3.2105755E-2,-3.8688786E-3],"categories":[],"categories_nodes":[],"categories_segments":[],"categories_sizes":[],"default_left":[0,0,0,0,0,0,0,0,0,0,0],"id":51,"left_children":[1,3,5,-1,-1,7,-1,-1,9,-1,-1],"loss_changes":[2.5731667E1,7.7732964E0,1.7462802E0,0E0,0E0,7.828443E-1,0E0,0E0,4.412065E-1,0E0,0E0],"parents":[2147483647,0,0,1,1,2,2,5,5,8,8],"right_children":[2,4,6,-1,-1,8,-1,-1,10,-1,-1],"split_conditions":[2.97403E3,1E0,3.73547E3,-4.974246E-2,3.9116558E-2,2.2653303E1,4.89843E-2,-1.816243E-2,4.72467E1,3.2105755E-2,-3.8688786E-3],"split_indices":[0,15,0,0,0,1,0,0,1,0,0],"split_type":[0,0,0,0,0,0,0,0,0,0,0],"sum_hessian":[7.570806E1,6.531187E1,1.0396194E1,6.3457962E1,1.8539076E0,3.6731656E0,6.7230287E0,1.2983923E0,2.3747733E0,1.3379627E0,1.0368105E0],"tree_param":{"num_deleted":"0","num_feature":"17","num_nodes":"11","size_leaf_vector":"1"}},{"base_weights":[-6.7746115E-1,-9.263082E-1,8.0338526E-1,-4.968773E-2,4.0768124E-2,3.5161608E-1,4.8509862E-2,-1.285027E-2,6.150777E-1,7.57124E-3,3.773502E-2],"categories":[],"categories_nodes":[],"categories_segments":[],"categories_sizes":[],"default_left":[0,0,0,0,0,0,0,0,0,0,0],"id":52,"left_children":[1,3,5,-1,-1,7,-1,-1,9,-1,-1],"loss_changes":[2.811578E1,8.334873E0,5.045347E-1,0E0,0E0,8.9480835E-1,0E0,0E0,1.12376094E-1,0E0,0E0],"parents":[2147483647,0,0,1,1,2,2,5,5,8,8],"right_children":[2,4,6,-1,-1,8,-1,-1,10,-1,-1],"split_conditions":[2.97403E3,1E0,3.73547E3,-4.968773E-2,4.0768124E-2,2.2653303E1,4.8509862E-2,-1.285027E-2,2.5235167E2,7.57124E-3,3.773502E-2],"split_indices":[0,15,0,0,0,1,0,0,6,0,0],"split_type":[0,0,0,0,0,0,0,0,0,0,0],"sum_hessian":[7.327756E1,6.3055878E1,1.0221676E1,6.1118484E1,1.9373949E0,3.5945582E0,6.627117E0,1.093341E0,2.5012174E0,1.0613296E0,1.4398878E0],"tree_param":{"num_deleted":"0","num_feature":"17","num_nodes":"11","size_leaf_vector":"1"}},{"base_weights":[-6.6604483E-1,-9.091987E-1,7.496495E-1,-4.9631245E-2,4.2565715E-2,2.2446966E-1,4.8447873E-2,2.4043998E-2,-1.0611117E-2],"categories":[],"categories_nodes":[],"categories_segments":[],"categories_sizes":[],"default_left":[0,0,0,0,0,0,0,0,0],"id":53,"left_children":[1,3,5,-1,-1,7,-1,-1,-1],"loss_changes":[2.5528278E1,9.958778E0,1.0642085E0,0E0,0E0,6.1484456E-1,0E0,0E0,0E0],"parents":[2147483647,0,0,1,1,2,2,5,5],"right_children":[2,4,6,-1,-1,8,-1,-1,-1],"split_conditions":[2.97403E3,1E0,3.73547E3,-4.9631245E-2,4.2565715E-2,6.02512E0,4.8447873E-2,2.4043998E-2,-1.0611117E-2],"split_indices":[0,15,0,0,0,8,0,0,0],"split_type":[0,0,0,0,0,0,0,0,0],"sum_hessian":[7.118019E1,6.1051937E1,1.0128259E1,5.8706177E1,2.3457603E0,3.579623E0,6.548636E0,2.1916025E0,1.3880204E0],"tree_param":{"num_deleted":"0","num_feature":"17","num_nodes":"9","size_leaf_vector":"1"}},{"base_weights":[-6.795635E-1,-7.795746E-1,4.570051E-2,-4.929734E-2,-3.162659E-1,-4.538722E-2,1.2575576E-1,-9.254596E-3,4.4836617E-1,8.824618E-3,-1.6924908E-2,5.7147425E-3,2.6967322E-2],"categories":[],"categories_nodes":[],"categories_segments":[],"categories_sizes":[],"default_left":[0,0,0,0,0,0,0,0,0,0,0,0,0],"id":54,"left_children":[1,3,-1,-1,5,-1,7,9,11,-1,-1,-1,-1],"loss_changes":[1.1552603E1,5.8590393E0,0E0,0E0,5.6989098E0,0E0,5.7487583E-1,6.845909E-1,5.646819E-2,0E0,0E0,0E0,0E0],"parents":[2147483647,0,0,1,1,4,4,6,6,7,7,8,8],"right_children":[2,4,-1,-1,6,-1,8,10,12,-1,-1,-1,-1],"split_conditions":[1E0,1E0,4.570051E-2,-4.929734E-2,1E0,-4.538722E-2,6E0,4E0,2.015557E1,8.824618E-3,-1.6924908E-2,5.7147425E-3,2.6967322E-2],"split_indices":[15,14,0,0,11,0,4,4,1,0,0,0,0],"split_type":[0,0,0,0,0,0,0,0,0,0,0,0,0],"sum_hessian":[6.701612E1,6.3539265E1,3.4768574E0,4.3178257E1,2.0361008E1,8.257651E0,1.2103356E1,9.217293E0,2.8860633E0,6.1894064E0,3.0278864E0,1.1006898E0,1.7853734E0],"tree_param":{"num_deleted":"0","num_feature":"17","num_nodes":"13","size_leaf_vector":"1"}},{"base_weights":[-6.614899E-1,-9.2242426E-1,8.226061E-1,-4.9500946E-2,3.8352076E-2,4.5498885E-2,9.3285395E-3],"categories":[],"categories_nodes":[],"categories_segments":[],"categories_sizes":[],"default_left":[0,0,0,0,0,0,0],"id":55,"left_children":[1,3,5,-1,-1,-1,-1],"loss_changes":[2.5891987E1,7.116623E0,3.9890575E-1,0E0,0E0,0E0,0E0],"parents":[2147483647,0,0,1,1,2,2],"right_children":[2,4,6,-1,-1,-1,-1],"split_conditions":[2.97403E3,1E0,1.3402277E2,-4.9500946E-2,3.8352076E-2,4.5498885E-2,9.3285395E-3],"split_indices":[0,15,2,0,0,0,0],"split_type":[0,0,0,0,0,0,0],"sum_hessian":[6.390146E1,5.4668144E1,9.233315E0,5.2963123E1,1.7050228E0,7.739451E0,1.493865E0],"tree_param":{"num_deleted":"0","num_feature":"17","num_nodes":"7","size_leaf_vector":"1"}},{"base_weights":[-6.730818E-1,-9.123001E-1,6.655265E-1,-4.9438655E-2,3.9128654E-2,9.466451E-2,4.6976205E-2,-2.2701597E-2,4.31105E-1,2.6237806E-2,5.8884E-3],"categories":[],"categories_nodes":[],"categories_segments":[],"categories_sizes":[],"default_left":[0,0,0,0,0,0,0,0,0,0,0],"id":56,"left_children":[1,3,5,-1,-1,7,-1,-1,9,-1,-1],"loss_changes":[2.0654285E1,7.7125053E0,1.4861264E0,0E0,0E0,1.003893E0,0E0,0E0,3.288734E-2,0E0,0E0],"parents":[2147483647,0,0,1,1,2,2,5,5,8,8],"right_children":[2,4,6,-1,-1,8,-1,-1,10,-1,-1],"split_conditions":[2.97403E3,1E0,3.73547E3,-4.9438655E-2,3.9128654E-2,2.7198214E1,4.6976205E-2,-2.2701597E-2,1.1041056E1,2.6237806E-2,5.8884E-3],"split_indices":[0,15,0,0,0,1,0,0,7,0,0],"split_type":[0,0,0,0,0,0,0,0,0,0,0],"sum_hessian":[6.1604313E1,5.2534515E1,9.069798E0,5.0665108E1,1.869409E0,3.3777978E0,5.6920004E0,1.1510496E0,2.2267482E0,1.1948835E0,1.0318648E0],"tree_param":{"num_deleted":"0","num_feature":"17","num_nodes":"11","size_leaf_vector":"1"}},{"base_weights":[-6.820048E-1,-9.269402E-1,7.7594626E-1,-9.4450605E-1,-8.768731E-3,4.3955356E-2,5.686529E-3,-4.7844987E-2,-1.5163212E-2],"categories":[],"categories_nodes":[],"categories_segments":[],"categories_sizes":[],"default_left":[0,0,0,0,0,0,0,0,0],"id":57,"left_children":[1,3,5,7,-1,-1,-1,-1,-1],"loss_changes":[2.1506664E1,4.9833298E-1,5.09192E-1,9.856796E-2,0E0,0E0,0E0,0E0,0E0],"parents":[2147483647,0,0,1,1,2,2,3,3],"right_children":[2,4,6,8,-1,-1,-1,-1,-1],"split_conditions":[2.97403E3,1.2202776E1,1.3402277E2,2.65547E3,-8.768731E-3,4.3955356E-2,5.686529E-3,-4.7844987E-2,-1.5163212E-2],"split_indices":[0,7,2,0,0,0,0,0,0],"split_type":[0,0,0,0,0,0,0,0,0],"sum_hessian":[5.7211105E1,4.9293953E1,7.917154E0,4.7917294E1,1.3766593E0,6.5666656E0,1.3504883E0,4.6525803E1,1.3914915E0],"tree_param":{"num_deleted":"0","num_feature":"17","num_nodes":"9","size_leaf_vector":"1"}},{"base_weights":[-6.681145E-1,-8.714551E-1,4.672379E-2,-9.587837E-1,3.974062E-2,-4.928554E-2,-3.0667788E-1,6.534066E-3,-2.8505623E-2],"categories":[],"categories_nodes":[],"categories_segments":[],"categories_sizes":[],"default_left":[0,0,0,0,0,0,0,0,0],"id":58,"left_children":[1,3,-1,5,-1,-1,7,-1,-1],"loss_changes":[1.9203154E1,8.124023E0,0E0,5.498009E-1,0E0,0E0,4.6346822E-1,0E0,0E0],"parents":[2147483647,0,0,1,1,3,3,6,6],"right_children":[2,4,-1,6,-1,-1,8,-1,-1],"split_conditions":[3.73547E3,1E0,4.672379E-2,2.97403E3,3.974062E-2,-4.928554E-2,4.591115E0,6.534066E-3,-2.8505623E-2],"split_indices":[0,15,0,0,0,0,8,0,0],"split_type":[0,0,0,0,0,0,0,0,0],"sum_hessian":[5.5429573E1,4.9593277E1,5.836296E0,4.7526993E1,2.0662854E0,4.5151016E1,2.3759782E0,1.082584E0,1.2933942E0],"tree_param":{"num_deleted":"0","num_feature":"17","num_nodes":"9","size_leaf_vector":"1"}},{"base_weights":[-6.3951504E-1,-9.0489066E-1,6.5652215E-1,-4.8160136E-2,1.9223284E-2,1.1191916E-1,4.630921E-2,3.9272314E-1,-2.0561373E-2,2.7073586E-2,1.8150872E-3],"categories":[],"categories_nodes":[],"categories_segments":[],"categories_sizes":[],"default_left":[0,0,0,0,0,0,0,0,0,0,0],"id":59,"left_children":[1,3,5,-1,-1,7,-1,9,-1,-1,-1],"loss_changes":[1.9672169E1,3.863617E0,1.365973E0,0E0,0E0,8.1543475E-1,0E0,1.6103691E-1,0E0,0E0,0E0],"parents":[2147483647,0,0,1,1,2,2,5,5,7,7],"right_children":[2,4,6,-1,-1,8,-1,10,-1,-1,-1],"split_conditions":[2.97403E3,1.2458464E1,3.73547E3,-4.8160136E-2,1.9223284E-2,1.2455771E2,4.630921E-2,6.02512E0,-2.0561373E-2,2.7073586E-2,1.8150872E-3],"split_indices":[0,8,0,0,0,2,0,8,0,0,0],"split_type":[0,0,0,0,0,0,0,0,0,0,0],"sum_hessian":[5.4469776E1,4.5462677E1,9.007102E0,4.373757E1,1.7251036E0,3.4515235E0,5.555578E0,2.4082031E0,1.0433204E0,1.3327887E0,1.0754144E0],"tree_param":{"num_deleted":"0","num_feature":"17","num_nodes":"11","size_leaf_vector":"1"}},{"base_weights":[-6.709209E-1,-9.0536743E-1,5.982972E-1,-4.916034E-2,4.4847268E-1,6.8946056E-2,4.467768E-2,5.3828773E-3,2.87987E-2,-2.1188363E-2,3.785037E-1,2.981195E-3,2.5700716E-2],"categories":[],"categories_nodes":[],"categories_segments":[],"categories_sizes":[],"default_left":[0,0,0,0,0,0,0,0,0,0,0,0,0],"id":60,"left_children":[1,3,5,-1,7,9,-1,-1,-1,-1,11,-1,-1],"loss_changes":[1.6202322E1,5.1643295E0,1.3150227E0,0E0,7.37291E-2,8.066917E-1,0E0,0E0,0E0,0E0,1.0462943E-1,0E0,0E0],"parents":[2147483647,0,0,1,1,2,2,4,4,5,5,10,10],"right_children":[2,4,6,-1,8,10,-1,-1,-1,-1,12,-1,-1],"split_conditions":[2.97403E3,1.2458464E1,3.73547E3,-4.916034E-2,4.0951867E0,2.7198214E1,4.467768E-2,5.3828773E-3,2.87987E-2,-2.1188363E-2,-5.9463512E1,2.981195E-3,2.5700716E-2],"split_indices":[0,8,0,0,7,1,0,0,0,0,2,0,0],"split_type":[0,0,0,0,0,0,0,0,0,0,0,0,0],"sum_hessian":[5.1629528E1,4.3821594E1,7.807933E0,4.169793E1,2.1236663E0,3.2373514E0,4.5705814E0,1.0803148E0,1.0433515E0,1.1067797E0,2.1305716E0,1.0648321E0,1.0657395E0],"tree_param":{"num_deleted":"0","num_feature":"17","num_nodes":"13","size_leaf_vector":"1"}},{"base_weights":[-6.0909104E-1,-8.9589494E-1,7.131955E-1,-4.909835E-2,3.7776854E-2,2.4509557E-1,4.5793127E-2,-1.2516049E-2,4.860842E-1,3.2915022E-2,3.8269453E-3],"categories":[],"categories_nodes":[],"categories_segments":[],"categories_sizes":[],"default_left":[0,0,0,0,0,0,0,0,0,0,0],"id":61,"left_children":[1,3,5,-1,-1,7,-1,-1,9,-1,-1],"loss_changes":[2.0108603E1,6.801655E0,6.96455E-1,0E0,0E0,6.3486433E-1,0E0,0E0,1.7754632E-1,0E0,0E0],"parents":[2147483647,0,0,1,1,2,2,5,5,8,8],"right_children":[2,4,6,-1,-1,8,-1,-1,10,-1,-1],"split_conditions":[2.97403E3,1E0,3.73547E3,-4.909835E-2,3.7776854E-2,2.2653303E1,4.5793127E-2,-1.2516049E-2,4.1892075E1,3.2915022E-2,3.8269453E-3],"split_indices":[0,15,0,0,0,1,0,0,1,0,0],"split_type":[0,0,0,0,0,0,0,0,0,0,0],"sum_hessian":[5.0339027E1,4.16316E1,8.707426E0,3.9954567E1,1.6770324E0,3.29842E0,5.409006E0,1.0667353E0,2.2316847E0,1.1434594E0,1.0882254E0],"tree_param":{"num_deleted":"0","num_feature":"17","num_nodes":"11","size_leaf_vector":"1"}},{"base_weights":[-6.229721E-1,-8.832506E-1,6.225848E-1,-4.901558E-2,3.840392E-2,9.009597E-2,4.479864E-2,-1.1829521E-2,2.6981056E-1,2.6236728E-2,-6.3198903E-3],"categories":[],"categories_nodes":[],"categories_segments":[],"categories_sizes":[],"default_left":[0,0,0,0,0,0,0,0,0,0,0],"id":62,"left_children":[1,3,5,-1,-1,7,-1,-1,9,-1,-1],"loss_changes":[1.631983E1,7.268223E0,1.2286558E0,0E0,0E0,3.0825204E-1,0E0,0E0,3.847758E-1,0E0,0E0],"parents":[2147483647,0,0,1,1,2,2,5,5,8,8],"right_children":[2,4,6,-1,-1,8,-1,-1,10,-1,-1],"split_conditions":[2.97403E3,1E0,3.73547E3,-4.901558E-2,3.840392E-2,9.546555E0,4.479864E-2,-1.1829521E-2,4.72467E1,2.6236728E-2,-6.3198903E-3],"split_indices":[0,15,0,0,0,1,0,0,1,0,0],"split_type":[0,0,0,0,0,0,0,0,0,0,0],"sum_hessian":[4.764385E1,3.9649372E1,7.9944744E0,3.783205E1,1.8173251E0,3.1631095E0,4.8313646E0,1.0102295E0,2.1528802E0,1.11262E0,1.0402601E0],"tree_param":{"num_deleted":"0","num_feature":"17","num_nodes":"11","size_leaf_vector":"1"}},{"base_weights":[-6.273084E-1,-8.754785E-1,2.842239E-1,-9.053312E-1,3.0878363E-3,4.6280423E-1,-2.9137095E-2,-3.6760336E-1,-9.4176114E-1,-9.380339E-2,3.8006738E-2,-2.2908213E-2,-2.8369494E-3,-4.8374977E-2,-1.2723028E-2,-1.7508443E-2,1.37823345E-2],"categories":[],"categories_nodes":[],"categories_segments":[],"categories_sizes":[],"default_left":[0,0,0,0,0,0,0,0,0,0,0,0,0,0,0,0,0],"id":63,"left_children":[1,3,5,7,-1,9,-1,11,13,15,-1,-1,-1,-1,-1,-1,-1],"loss_changes":[1.0810425E1,1.0895176E0,1.9334173E0,3.5639572E-1,0E0,1.6382058E0,0E0,8.424556E-2,3.3669472E-1,4.9306807E-1,0E0,0E0,0E0,0E0,0E0,0E0,0E0],"parents":[2147483647,0,0,1,1,2,2,3,3,5,5,7,7,8,8,9,9],"right_children":[2,4,6,8,-1,10,-1,12,14,16,-1,-1,-1,-1,-1,-1,-1],"split_conditions":[5.0198035E0,1.1500904E1,1E0,2.5919285E-1,3.0878363E-3,2.9193268E2,-2.9137095E-2,1E0,1.254067E3,5E0,3.8006738E-2,-2.2908213E-2,-2.8369494E-3,-4.8374977E-2,-1.2723028E-2,-1.7508443E-2,1.37823345E-2],"split_indices":[7,8,10,8,0,6,0,14,6,4,0,0,0,0,0,0,0],"split_type":[0,0,0,0,0,0,0,0,0,0,0,0,0,0,0,0,0],"sum_hessian":[4.5688282E1,3.5942326E1,9.745958E0,3.4865826E1,1.0765011E0,8.467895E0,1.2780638E0,2.9159117E0,3.1949913E1,3.186754E0,5.2811403E0,1.8911445E0,1.0247673E0,3.040366E1,1.5462537E0,1.9121093E0,1.2746447E0],"tree_param":{"num_deleted":"0","num_feature":"17","num_nodes":"17","size_leaf_vector":"1"}},{"base_weights":[-6.1116105E-1,-8.558764E-1,2.747218E-1,-9.3361664E-1,3.408175E-2,-3.5733357E-2,6.2944E-1,-3.9314198E-1,-4.823702E-2,5.262429E-4,3.779282E-2,-2.728269E-2,-4.332558E-3],"categories":[],"categories_nodes":[],"categories_segments":[],"categories_sizes":[],"default_left":[0,0,0,0,0,0,0,0,0,0,0,0,0],"id":64,"left_children":[1,3,5,7,-1,-1,9,11,-1,-1,-1,-1,-1],"loss_changes":[1.002021E1,4.8926926E0,4.1442246E0,1.9799995E-1,0E0,0E0,6.399064E-1,1.189574E-1,0E0,0E0,0E0,0E0,0E0],"parents":[2147483647,0,0,1,1,2,2,3,3,6,6,7,7],"right_children":[2,4,6,8,-1,-1,10,12,-1,-1,-1,-1,-1],"split_conditions":[5.0198035E0,1E0,1E0,2E0,3.408175E-2,-3.5733357E-2,1.53945E2,1E0,-4.823702E-2,5.262429E-4,3.779282E-2,-2.728269E-2,-4.332558E-3],"split_indices":[7,15,11,5,0,0,6,11,0,0,0,0,0],"split_type":[0,0,0,0,0,0,0,0,0,0,0,0,0],"sum_hessian":[4.4136414E1,3.460973E1,9.526684E0,3.3317875E1,1.2918574E0,2.246353E0,7.2803307E0,2.5564094E0,3.0761465E1,1.4185557E0,5.861775E0,1.1859474E0,1.370462E0],"tree_param":{"num_deleted":"0","num_feature":"17","num_nodes":"13","size_leaf_vector":"1"}},{"base_weights":[-6.153458E-1,-8.794095E-1,6.0099894E-1,-4.881406E-2,3.65494E-2,7.3746955E-1,-5.9179896E-3,4.2060483E-2,5.003014E-3],"categories":[],"categories_nodes":[],"categories_segments":[],"categories_sizes":[],"default_left":[0,0,0,0,0,0,0,0,0],"id":65,"left_children":[1,3,5,-1,-1,7,-1,-1,-1],"loss_changes":[1.4462099E1,6.3373337E0,9.0524554E-1,0E0,0E0,3.880689E-1,0E0,0E0,0E0],"parents":[2147483647,0,0,1,1,2,2,5,5],"right_children":[2,4,6,-1,-1,8,-1,-1,-1],"split_conditions":[2.97403E3,1E0,1.3402277E2,-4.881406E-2,3.65494E-2,6.3930683E1,-5.9179896E-3,4.2060483E-2,5.003014E-3],"split_indices":[0,15,2,0,0,1,0,0,0],"split_type":[0,0,0,0,0,0,0,0,0],"sum_hessian":[4.2380764E1,3.5048813E1,7.3319545E0,3.3431538E1,1.617273E0,6.1416388E0,1.1903156E0,5.007003E0,1.134636E0],"tree_param":{"num_deleted":"0","num_feature":"17","num_nodes":"9","size_leaf_vector":"1"}},{"base_weights":[-5.985306E-1,-8.769034E-1,6.120731E-1,-4.873238E-2,3.5894785E-2,1.8259901E-1,4.3016717E-2,-1.7387617E-2,5.1211405E-1,3.08042E-2,7.876163E-3],"categories":[],"categories_nodes":[],"categories_segments":[],"categories_sizes":[],"default_left":[0,0,0,0,0,0,0,0,0,0,0],"id":66,"left_children":[1,3,5,-1,-1,7,-1,-1,9,-1,-1],"loss_changes":[1.4643131E1,6.0689354E0,7.4009275E-1,0E0,0E0,9.3860567E-1,0E0,0E0,1.6817272E-2,0E0,0E0],"parents":[2147483647,0,0,1,1,2,2,5,5,8,8],"right_children":[2,4,6,-1,-1,8,-1,-1,10,-1,-1],"split_conditions":[2.97403E3,1E0,3.73547E3,-4.873238E-2,3.5894785E-2,2.2653303E1,4.3016717E-2,-1.7387617E-2,4.72467E1,3.08042E-2,7.876163E-3],"split_indices":[0,15,0,0,0,1,0,0,1,0,0],"split_type":[0,0,0,0,0,0,0,0,0,0,0],"sum_hessian":[4.085886E1,3.344417E1,7.4146876E0,3.1879179E1,1.5649955E0,3.3518093E0,4.062878E0,1.2632595E0,2.0885499E0,1.0447634E0,1.0437864E0],"tree_param":{"num_deleted":"0","num_feature":"17","num_nodes":"11","size_leaf_vector":"1"}},{"base_weights":[-5.8170164E-1,-8.626813E-1,2.9720393E-1,-8.9883757E-1,3.2234525E-3,-3.451691E-2,6.1797106E-1,-3.759506E-1,-4.6731368E-2,3.4408975E-2,1.1396246E-2,-2.6927447E-2,-3.780496E-3],"categories":[],"categories_nodes":[],"categories_segments":[],"categories_sizes":[],"default_left":[0,0,0,0,0,0,0,0,0,0,0,0,0],"id":67,"left_children":[1,3,5,7,-1,-1,9,11,-1,-1,-1,-1,-1],"loss_changes":[1.0190536E1,1.0883541E0,3.7490845E0,2.0352364E-1,0E0,0E0,7.439995E-2,1.3374007E-1,0E0,0E0,0E0,0E0,0E0],"parents":[2147483647,0,0,1,1,2,2,3,3,6,6,7,7],"right_children":[2,4,6,8,-1,-1,10,12,-1,-1,-1,-1,-1],"split_conditions":[4.861028E0,1.1500904E1,1E0,2.5919285E-1,3.2234525E-3,-3.451691E-2,4.72467E1,1E0,-4.6731368E-2,3.4408975E-2,1.1396246E-2,-2.6927447E-2,-3.780496E-3],"split_indices":[7,8,11,8,0,0,1,11,0,0,0,0,0],"split_type":[0,0,0,0,0,0,0,0,0,0,0,0,0],"sum_hessian":[3.92266E1,2.9738031E1,9.488571E0,2.8651249E1,1.0867807E0,2.0438983E0,7.444673E0,2.5724413E0,2.6078808E1,5.6612864E0,1.7833871E0,1.154365E0,1.4180765E0],"tree_param":{"num_deleted":"0","num_feature":"17","num_nodes":"13","size_leaf_vector":"1"}},{"base_weights":[-5.9512943E-1,-8.798064E-1,5.806409E-1,-4.857129E-2,3.3013355E-2,9.713631E-2,4.2891502E-2,-2.1436144E-2,4.1576326E-1,2.6910022E-2,4.1635954E-3],"categories":[],"categories_nodes":[],"categories_segments":[],"categories_sizes":[],"default_left":[0,0,0,0,0,0,0,0,0,0,0],"id":68,"left_children":[1,3,5,-1,-1,7,-1,-1,9,-1,-1],"loss_changes":[1.3430035E1,5.082058E0,1.0057435E0,0E0,0E0,8.6332774E-1,0E0,0E0,7.9497874E-2,0E0,0E0],"parents":[2147483647,0,0,1,1,2,2,5,5,8,8],"right_children":[2,4,6,-1,-1,8,-1,-1,10,-1,-1],"split_conditions":[2.97403E3,1E0,3.73547E3,-4.857129E-2,3.3013355E-2,2.7198214E1,4.2891502E-2,-2.1436144E-2,1.0143542E1,2.6910022E-2,4.1635954E-3],"split_indices":[0,15,0,0,0,1,0,0,7,0,0],"split_type":[0,0,0,0,0,0,0,0,0,0,0],"sum_hessian":[3.7597595E1,3.0471556E1,7.1260395E0,2.9109081E1,1.3624731E0,3.0887415E0,4.0372977E0,1.0350204E0,2.0537212E0,1.0488139E0,1.0049073E0],"tree_param":{"num_deleted":"0","num_feature":"17","num_nodes":"11","size_leaf_vector":"1"}},{"base_weights":[-5.759493E-1,-8.573265E-1,5.263667E-1,-4.847364E-2,3.5726104E-2,-4.635942E-2,4.313728E-2,1.4717273E-2,-2.0807676E-2],"categories":[],"categories_nodes":[],"categories_segments":[],"categories_sizes":[],"default_left":[0,0,0,0,0,0,0,0,0],"id":69,"left_children":[1,3,5,-1,-1,7,-1,-1,-1],"loss_changes":[1.2067258E1,6.0190067E0,1.6265514E0,0E0,0E0,6.259713E-1,0E0,0E0,0E0],"parents":[2147483647,0,0,1,1,2,2,5,5],"right_children":[2,4,6,-1,-1,8,-1,-1,-1],"split_conditions":[2.97403E3,1E0,3.73547E3,-4.847364E-2,3.5726104E-2,-1.5450966E1,4.313728E-2,1.4717273E-2,-2.0807676E-2],"split_indices":[0,15,0,0,0,2,0,0,0],"split_type":[0,0,0,0,0,0,0,0,0],"sum_hessian":[3.64508E1,2.9215504E1,7.2353E0,2.7627592E1,1.5879114E0,2.996157E0,4.239143E0,1.6656038E0,1.3305532E0],"tree_param":{"num_deleted":"0","num_feature":"17","num_nodes":"9","size_leaf_vector":"1"}},{"base_weights":[-5.49675E-1,-8.5985535E-1,7.3219335E-1,-9.354336E-1,1.7206425E-2,4.1400146E-2,6.681447E-3,-1.8672865E-2,-4.82384E-2],"categories":[],"categories_nodes":[],"categories_segments":[],"categories_sizes":[],"default_left":[0,0,0,0,0,0,0,0,0],"id":70,"left_children":[1,3,5,7,-1,-1,-1,-1,-1],"loss_changes":[1.4653253E1,2.947855E0,3.1440568E-1,9.176445E-2,0E0,0E0,0E0,0E0,0E0],"parents":[2147483647,0,0,1,1,2,2,3,3],"right_children":[2,4,6,8,-1,-1,-1,-1,-1],"split_conditions":[2.97403E3,1.2458464E1,1.3402277E2,2.5919285E-1,1.7206425E-2,4.1400146E-2,6.681447E-3,-1.8672865E-2,-4.82384E-2],"split_indices":[0,8,2,8,0,0,0,0,0],"split_type":[0,0,0,0,0,0,0,0,0],"sum_hessian":[3.4269882E1,2.7858124E1,6.411758E0,2.642254E1,1.4355841E0,5.1966405E0,1.2151176E0,1.9919806E0,2.443056E1],"tree_param":{"num_deleted":"0","num_feature":"17","num_nodes":"9","size_leaf_vector":"1"}},{"base_weights":[-5.708248E-1,-8.5915035E-1,5.416195E-1,-4.828612E-2,3.376483E-2,6.9592524E-1,-3.5349478E-3,8.5557735E-4,4.130163E-2],"categories":[],"categories_nodes":[],"categories_segments":[],"categories_sizes":[],"default_left":[0,0,0,0,0,0,0,0,0],"id":71,"left_children":[1,3,5,-1,-1,7,-1,-1,-1],"loss_changes":[1.1411307E1,5.147375E0,7.708478E-1,0E0,0E0,5.3279114E-1,0E0,0E0,0E0],"parents":[2147483647,0,0,1,1,2,2,5,5],"right_children":[2,4,6,-1,-1,8,-1,-1,-1],"split_conditions":[2.97403E3,1E0,1.26780556E2,-4.828612E-2,3.376483E-2,1.33105E2,-3.5349478E-3,8.5557735E-4,4.130163E-2],"split_indices":[0,15,2,0,0,6,0,0,0],"split_type":[0,0,0,0,0,0,0,0,0],"sum_hessian":[3.31266E1,2.6488855E1,6.6377435E0,2.511517E1,1.3736863E0,5.192643E0,1.4451001E0,1.0171824E0,4.175461E0],"tree_param":{"num_deleted":"0","num_feature":"17","num_nodes":"9","size_leaf_vector":"1"}},{"base_weights":[-5.6435716E-1,-8.689236E-1,5.7075113E-1,-4.8204992E-2,3.159291E-2,3.7352424E-2,-8.7214075E-3],"categories":[],"categories_nodes":[],"categories_segments":[],"categories_sizes":[],"default_left":[0,0,0,0,0,0,0],"id":72,"left_children":[1,3,5,-1,-1,-1,-1],"loss_changes":[1.1873159E1,4.372061E0,1.1242185E0,0E0,0E0,0E0,0E0],"parents":[2147483647,0,0,1,1,2,2],"right_children":[2,4,6,-1,-1,-1,-1],"split_conditions":[2.97403E3,1E0,1.3402277E2,-4.8204992E-2,3.159291E-2,3.7352424E-2,-8.7214075E-3],"split_indices":[0,15,2,0,0,0,0],"split_type":[0,0,0,0,0,0,0],"sum_hessian":[3.1909163E1,2.53436E1,6.565563E0,2.416849E1,1.1751102E0,5.3074074E0,1.2581555E0],"tree_param":{"num_deleted":"0","num_feature":"17","num_nodes":"7","size_leaf_vector":"1"}},{"base_weights":[-5.460345E-1,-8.8945293E-1,1.3030721E-1,-1.4634672E-2,-4.665881E-2,-3.8330738E-2,5.141376E-1,2.2565722E-2,3.8362246E-2,-2.2231039E-2,1.7991733E-2],"categories":[],"categories_nodes":[],"categories_segments":[],"categories_sizes":[],"default_left":[0,0,0,0,0,0,0,0,0,0,0],"id":73,"left_children":[1,3,5,-1,-1,-1,7,9,-1,-1,-1],"loss_changes":[7.453431E0,2.768898E-1,4.356938E0,0E0,0E0,0E0,1.0601315E0,7.8610516E-1,0E0,0E0,0E0],"parents":[2147483647,0,0,1,1,2,2,6,6,7,7],"right_children":[2,4,6,-1,-1,-1,8,10,-1,-1,-1],"split_conditions":[2.640302E0,3.017E1,1E0,-1.4634672E-2,-4.665881E-2,-3.8330738E-2,1.9276009E1,5.6154213E0,3.8362246E-2,-2.2231039E-2,1.7991733E-2],"split_indices":[7,6,11,0,0,0,1,7,0,0,0],"split_type":[0,0,0,0,0,0,0,0,0,0,0],"sum_hessian":[3.0590763E1,2.0079916E1,1.0510847E1,1.8960314E0,1.8183886E1,2.8511353E0,7.659712E0,2.973632E0,4.68608E0,1.1132523E0,1.8603798E0],"tree_param":{"num_deleted":"0","num_feature":"17","num_nodes":"11","size_leaf_vector":"1"}},{"base_weights":[-5.556518E-1,-8.764659E-1,7.731653E-2,-1.4530328E-2,-9.209464E-1,-3.8061325E-2,4.4436264E-1,-4.7323685E-2,-1.2926431E-2,-7.7659898E-3,5.475022E-1,3.1728175E-2,1.5356798E-4],"categories":[],"categories_nodes":[],"categories_segments":[],"categories_sizes":[],"default_left":[0,0,0,0,0,0,0,0,0,0,0,0,0],"id":74,"left_children":[1,3,5,-1,7,-1,9,-1,-1,-1,11,-1,-1],"loss_changes":[6.3116503E0,2.6623917E-1,3.8043356E0,0E0,6.9493294E-2,0E0,6.085589E-1,0E0,0E0,0E0,3.5084534E-1,0E0,0E0],"parents":[2147483647,0,0,1,1,2,2,4,4,6,6,10,10],"right_children":[2,4,6,-1,8,-1,10,-1,-1,-1,12,-1,-1],"split_conditions":[2.640302E0,3.017E1,1E0,-1.4530328E-2,9.937675E0,-3.8061325E-2,1.3944E2,-4.7323685E-2,-1.2926431E-2,-7.7659898E-3,1.2455771E2,3.1728175E-2,1.5356798E-4],"split_indices":[7,6,11,0,8,0,6,0,0,0,2,0,0],"split_type":[0,0,0,0,0,0,0,0,0,0,0,0,0],"sum_hessian":[2.9748178E1,1.9486788E1,1.026139E1,1.9067012E0,1.7580086E1,2.7971575E0,7.4642324E0,1.6514845E1,1.0652418E0,1.0211368E0,6.4430957E0,5.4120817E0,1.0310138E0],"tree_param":{"num_deleted":"0","num_feature":"17","num_nodes":"13","size_leaf_vector":"1"}},{"base_weights":[-5.7460654E-1,-6.9473255E-1,3.6908157E-2,-8.6575955E-1,-5.3293925E-2,-1.1686296E-2,-9.122382E-1,-3.2914538E-2,2.826906E-1,-4.7115978E-2,-9.748021E-3,-1.0317908E-2,3.0106355E-2],"categories":[],"categories_nodes":[],"categories_segments":[],"categories_sizes":[],"default_left":[0,0,0,0,0,0,0,0,0,0,0,0,0],"id":75,"left_children":[1,3,-1,5,7,-1,9,-1,11,-1,-1,-1,-1],"loss_changes":[5.1117067E0,2.9414062E0,0E0,4.164505E-1,1.567966E0,0E0,2.3966217E-1,0E0,9.1635954E-1,0E0,0E0,0E0,0E0],"parents":[2147483647,0,0,1,1,3,3,4,4,6,6,8,8],"right_children":[2,4,-1,6,8,-1,10,-1,12,-1,-1,-1,-1],"split_conditions":[1E0,4.661409E0,3.6908157E-2,2E0,1E0,-1.1686296E-2,1.254067E3,-3.2914538E-2,3.3372665E2,-4.7115978E-2,-9.748021E-3,-1.0317908E-2,3.0106355E-2],"split_indices":[15,7,0,5,11,0,6,0,6,0,0,0,0],"split_type":[0,0,0,0,0,0,0,0,0,0,0,0,0],"sum_hessian":[2.8162619E1,2.6232943E1,1.9296772E0,2.0434711E1,5.79823E0,1.8127614E0,1.862195E1,1.7277806E0,4.0704494E0,1.7571297E1,1.0506532E0,1.748119E0,2.3223305E0],"tree_param":{"num_deleted":"0","num_feature":"17","num_nodes":"13","size_leaf_vector":"1"}},{"base_weights":[-5.531467E-1,-8.5526866E-1,5.017407E-1,-4.783147E-2,3.0058494E-2,-9.806541E-3,4.0760994E-2,8.218174E-3,-1.0414938E-2],"categories":[],"categories_nodes":[],"categories_segments":[],"categories_sizes":[],"default_left":[0,0,0,0,0,0,0,0,0],"id":76,"left_children":[1,3,5,-1,-1,7,-1,-1,-1],"loss_changes":[9.508132E0,3.8988304E0,1.1261166E0,0E0,0E0,1.5998809E-1,0E0,0E0,0E0],"parents":[2147483647,0,0,1,1,2,2,5,5],"right_children":[2,4,6,-1,-1,8,-1,-1,-1],"split_conditions":[2.97403E3,1E0,3.73547E3,-4.783147E-2,3.0058494E-2,-2.392437E1,4.0760994E-2,8.218174E-3,-1.0414938E-2],"split_indices":[0,15,0,0,0,2,0,0,0],"split_type":[0,0,0,0,0,0,0,0,0],"sum_hessian":[2.7487223E1,2.1514624E1,5.9726E0,2.0435583E1,1.0790402E0,2.6374412E0,3.3351586E0,1.4963691E0,1.1410719E0],"tree_param":{"num_deleted":"0","num_feature":"17","num_nodes":"9","size_leaf_vector":"1"}},{"base_weights":[-5.4219717E-1,-8.513861E-1,5.552347E-1,-4.7718402E-2,2.8839255E-2,3.6195602E-2,-1.5904816E-3],"categories":[],"categories_nodes":[],"categories_segments":[],"categories_sizes":[],"default_left":[0,0,0,0,0,0,0],"id":77,"left_children":[1,3,5,-1,-1,-1,-1],"loss_changes":[9.694746E0,3.727172E0,6.745229E-1,0E0,0E0,0E0,0E0],"parents":[2147483647,0,0,1,1,2,2],"right_children":[2,4,6,-1,-1,-1,-1],"split_conditions":[2.97403E3,1E0,1.26780556E2,-4.7718402E-2,2.8839255E-2,3.6195602E-2,-1.5904816E-3],"split_indices":[0,15,2,0,0,0,0],"split_type":[0,0,0,0,0,0,0],"sum_hessian":[2.617847E1,2.0599108E1,5.579363E0,1.95231E1,1.0760075E0,4.1529384E0,1.4264247E0],"tree_param":{"num_deleted":"0","num_feature":"17","num_nodes":"7","size_leaf_vector":"1"}},{"base_weights":[-5.12435E-1,-8.246329E-1,3.6423054E-1,-8.7835705E-1,3.4870177E-3,1.3004169E-1,3.3742562E-2,-1.7056242E-2,-4.5820627E-2,-1.5882706E-2,3.5598817E-1,-4.227181E-4,2.4011612E-2],"categories":[],"categories_nodes":[],"categories_segments":[],"categories_sizes":[],"default_left":[0,0,0,0,0,0,0,0,0,0,0,0,0],"id":78,"left_children":[1,3,5,7,-1,9,-1,-1,-1,-1,11,-1,-1],"loss_changes":[7.4154887E0,9.970827E-1,4.5930666E-1,6.4515114E-2,0E0,6.721088E-1,0E0,0E0,0E0,0E0,1.9171584E-1,0E0,0E0],"parents":[2147483647,0,0,1,1,2,2,3,3,5,5,10,10],"right_children":[2,4,6,8,-1,10,-1,-1,-1,-1,12,-1,-1],"split_conditions":[5.0198035E0,1.078029E1,4.84592E2,2.5919285E-1,3.4870177E-3,9.394769E0,3.3742562E-2,-1.7056242E-2,-4.5820627E-2,-1.5882706E-2,1.53945E2,-4.227181E-4,2.4011612E-2],"split_indices":[7,8,6,8,0,7,0,0,0,0,6,0,0],"split_type":[0,0,0,0,0,0,0,0,0,0,0,0,0],"sum_hessian":[2.499675E1,1.8476322E1,6.520429E0,1.7446249E1,1.0300717E0,4.5264306E0,1.9939985E0,1.813189E0,1.563306E1,1.3820741E0,3.1443565E0,1.0363642E0,2.1079922E0],"tree_param":{"num_deleted":"0","num_feature":"17","num_nodes":"13","size_leaf_vector":"1"}},{"base_weights":[-5.3156E-1,-8.306281E-1,4.167534E-1,-4.7501106E-2,2.9879743E-2,-1.9947745E-2,3.8861565E-2,-1.6422471E-2,1.04542095E-2],"categories":[],"categories_nodes":[],"categories_segments":[],"categories_sizes":[],"default_left":[0,0,0,0,0,0,0,0,0],"id":79,"left_children":[1,3,5,-1,-1,7,-1,-1,-1],"loss_changes":[7.7139874E0,3.9925137E0,1.1008371E0,0E0,0E0,3.57843E-1,0E0,0E0,0E0],"parents":[2147483647,0,0,1,1,2,2,5,5],"right_children":[2,4,6,-1,-1,8,-1,-1,-1],"split_conditions":[2.97403E3,1E0,3.73547E3,-4.7501106E-2,2.9879743E-2,2.2653303E1,3.8861565E-2,-1.6422471E-2,1.04542095E-2],"split_indices":[0,15,0,0,0,1,0,0,0],"split_type":[0,0,0,0,0,0,0,0,0],"sum_hessian":[2.4978678E1,1.9084217E1,5.8944592E0,1.792092E1,1.1632987E0,3.0925956E0,2.801864E0,1.1327397E0,1.9598559E0],"tree_param":{"num_deleted":"0","num_feature":"17","num_nodes":"9","size_leaf_vector":"1"}},{"base_weights":[-4.7618482E-1,-8.4421366E-1,3.8546023E-1,-4.678824E-2,-2.7415055E-1,-2.8068487E-2,6.1219746E-1,-2.9616153E-2,7.754604E-3,3.1262215E-3,6.9446903E-1,7.193256E-3,3.9014712E-2],"categories":[],"categories_nodes":[],"categories_segments":[],"categories_sizes":[],"default_left":[0,0,0,0,0,0,0,0,0,0,0,0,0],"id":80,"left_children":[1,3,5,-1,7,-1,9,-1,-1,-1,11,-1,-1],"loss_changes":[8.274248E0,6.765013E-1,2.1016269E0,0E0,6.228906E-1,0E0,2.7697706E-1,0E0,0E0,0E0,1.7428374E-1,0E0,0E0],"parents":[2147483647,0,0,1,1,2,2,4,4,6,6,10,10],"right_children":[2,4,6,-1,8,-1,10,-1,-1,-1,12,-1,-1],"split_conditions":[2.48923E3,9.9177E2,1E0,-4.678824E-2,4.0537384E1,-2.8068487E-2,2.97403E3,-2.9616153E-2,7.754604E-3,3.1262215E-3,1.3944E2,7.193256E-3,3.9014712E-2],"split_indices":[0,0,11,0,1,0,0,0,0,0,6,0,0],"split_type":[0,0,0,0,0,0,0,0,0,0,0,0,0],"sum_hessian":[2.406648E1,1.6877804E1,7.188676E0,1.3989589E1,2.8882153E0,1.1037356E0,6.0849404E0,1.4405175E0,1.4476978E0,1.0213137E0,5.063627E0,1.0437568E0,4.0198703E0],"tree_param":{"num_deleted":"0","num_feature":"17","num_nodes":"13","size_leaf_vector":"1"}},{"base_weights":[-4.941519E-1,-8.6652505E-1,4.051372E-1,-4.6644937E-2,-3.685861E-1,-2.7337153E-2,6.4418983E-1,-2.982246E-2,2.7741732E-3,2.89219E-1,3.946762E-2,-1.3921744E-2,3.154297E-2],"categories":[],"categories_nodes":[],"categories_segments":[],"categories_sizes":[],"default_left":[0,0,0,0,0,0,0,0,0,0,0,0,0],"id":81,"left_children":[1,3,5,-1,7,-1,9,-1,-1,11,-1,-1,-1],"loss_changes":[8.277028E0,2.1986485E-1,2.0843525E0,0E0,3.86693E-1,0E0,1.0887003E-1,0E0,0E0,8.5004914E-1,0E0,0E0,0E0],"parents":[2147483647,0,0,1,1,2,2,4,4,6,6,9,9],"right_children":[2,4,6,-1,8,-1,10,-1,-1,12,-1,-1,-1],"split_conditions":[2.48923E3,9.9177E2,1E0,-4.6644937E-2,4.07128E1,-2.7337153E-2,1.7953886E1,-2.982246E-2,2.7741732E-3,3.73547E3,3.946762E-2,-1.3921744E-2,3.154297E-2],"split_indices":[0,0,11,0,1,0,1,0,0,0,0,0,0],"split_type":[0,0,0,0,0,0,0,0,0,0,0,0,0],"sum_hessian":[2.2668705E1,1.605653E1,6.6121745E0,1.3397205E1,2.6593254E0,1.0688825E0,5.543292E0,1.4654262E0,1.1938992E0,2.4774592E0,3.065833E0,1.0003425E0,1.4771166E0],"tree_param":{"num_deleted":"0","num_feature":"17","num_nodes":"13","size_leaf_vector":"1"}},{"base_weights":[-5.068549E-1,-8.4085923E-1,6.317407E-2,-1.15031665E-2,-4.4558078E-2,-3.4416385E-2,3.5891527E-1,4.0994817E-3,5.45885E-1,-1.8937815E-2,1.5792102E-2,-2.831167E-4,3.5436127E-2],"categories":[],"categories_nodes":[],"categories_segments":[],"categories_sizes":[],"default_left":[0,0,0,0,0,0,0,0,0,0,0,0,0],"id":82,"left_children":[1,3,5,-1,-1,-1,7,9,11,-1,-1,-1,-1],"loss_changes":[4.486929E0,2.4827671E-1,2.3659883E0,0E0,0E0,0E0,4.9523747E-1,5.487503E-1,4.444058E-1,0E0,0E0,0E0,0E0],"parents":[2147483647,0,0,1,1,2,2,6,6,7,7,8,8],"right_children":[2,4,6,-1,-1,-1,8,10,12,-1,-1,-1,-1],"split_conditions":[2.640302E0,3.017E1,1E0,-1.15031665E-2,-4.4558078E-2,-3.4416385E-2,1.748124E1,6.2513843E0,2.4811E2,-1.8937815E-2,1.5792102E-2,-2.831167E-4,3.5436127E-2],"split_indices":[7,6,11,0,0,0,1,7,6,0,0,0,0],"split_type":[0,0,0,0,0,0,0,0,0,0,0,0,0],"sum_hessian":[2.228777E1,1.3753746E1,8.534023E0,1.4706001E0,1.2283146E1,2.0351303E0,6.4988933E0,2.5954292E0,3.903464E0,1.0683757E0,1.5270534E0,1.1097735E0,2.7936907E0],"tree_param":{"num_deleted":"0","num_feature":"17","num_nodes":"13","size_leaf_vector":"1"}},{"base_weights":[-4.8755708E-1,-8.247632E-1,4.6207815E-1,-4.636911E-2,-3.6710468E-1,1.817944E-2,3.8778506E-2,-3.3665996E-2,5.119398E-3,-1.5598321E-2,1.2960023E-2],"categories":[],"categories_nodes":[],"categories_segments":[],"categories_sizes":[],"default_left":[0,0,0,0,0,0,0,0,0,0,0],"id":83,"left_children":[1,3,5,-1,7,9,-1,-1,-1,-1,-1],"loss_changes":[7.6781483E0,4.661789E-1,9.06041E-1,0E0,7.59158E-1,3.8012046E-1,0E0,0E0,0E0,0E0,0E0],"parents":[2147483647,0,0,1,1,2,2,4,4,5,5],"right_children":[2,4,6,-1,8,10,-1,-1,-1,-1,-1],"split_conditions":[2.97403E3,9.9177E2,3.73547E3,-4.636911E-2,4.07128E1,2.7411205E1,3.8778506E-2,-3.3665996E-2,5.119398E-3,-1.5598321E-2,1.2960023E-2],"split_indices":[0,0,0,0,1,1,0,0,0,0,0],"split_type":[0,0,0,0,0,0,0,0,0,0,0],"sum_hessian":[2.1787395E1,1.6175228E1,5.6121683E0,1.2374237E1,3.8009908E0,2.7608488E0,2.8513198E0,2.0377645E0,1.7632262E0,1.0408117E0,1.720037E0],"tree_param":{"num_deleted":"0","num_feature":"17","num_nodes":"11","size_leaf_vector":"1"}},{"base_weights":[-4.8844948E-1,-8.3487415E-1,6.0358908E-2,-1.1950936E-2,-8.7900203E-1,2.0496966E-1,-2.7084002E-2,-4.561233E-2,-1.2974839E-2,-1.4856862E-2,3.2994506E-1,-1.093772E-1,5.4226226E-1,-2.1761535E-2,1.2976232E-2,1.2448241E-2,3.4451794E-2],"categories":[],"categories_nodes":[],"categories_segments":[],"categories_sizes":[],"default_left":[0,0,0,0,0,0,0,0,0,0,0,0,0,0,0,0,0],"id":84,"left_children":[1,3,5,-1,7,9,-1,-1,-1,-1,11,13,15,-1,-1,-1,-1],"loss_changes":[4.207155E0,1.4409828E-1,9.2880577E-1,0E0,1.3884544E-2,6.1883163E-1,0E0,0E0,0E0,0E0,7.2335535E-1,4.9181435E-1,4.2294383E-2,0E0,0E0,0E0,0E0],"parents":[2147483647,0,0,1,1,2,2,4,4,5,5,10,10,11,11,12,12],"right_children":[2,4,6,-1,8,10,-1,-1,-1,-1,12,14,16,-1,-1,-1,-1],"split_conditions":[2.640302E0,3.017E1,1E0,-1.1950936E-2,9.392046E0,1.33105E2,-2.7084002E-2,-4.561233E-2,-1.2974839E-2,-1.4856862E-2,5.1639953E0,1.9276009E1,4.3542834E2,-2.1761535E-2,1.2976232E-2,1.2448241E-2,3.4451794E-2],"split_indices":[7,6,10,0,8,6,0,0,0,0,7,1,6,0,0,0,0],"split_type":[0,0,0,0,0,0,0,0,0,0,0,0,0,0,0,0,0],"sum_hessian":[2.0863808E1,1.2470682E1,8.393126E0,1.302301E0,1.1168381E1,7.2993503E0,1.0937752E0,1.0151101E1,1.01728E0,1.1801919E0,6.1191587E0,2.1517153E0,3.9674432E0,1.047049E0,1.1046662E0,2.222492E0,1.7449514E0],"tree_param":{"num_deleted":"0","num_feature":"17","num_nodes":"17","size_leaf_vector":"1"}},{"base_weights":[-4.6611428E-1,-7.8528655E-1,4.1346574E-1,-8.8845974E-1,1.7977795E-2,1.4045737E-3,3.7459623E-2,-1.3376631E-2,-4.6478517E-2,-1.1450662E-2,9.486697E-3],"categories":[],"categories_nodes":[],"categories_segments":[],"categories_sizes":[],"default_left":[0,0,0,0,0,0,0,0,0,0,0],"id":85,"left_children":[1,3,5,7,-1,9,-1,-1,-1,-1,-1],"loss_changes":[6.3765826E0,2.2285023E0,8.83597E-1,1.3712788E-1,0E0,2.1151234E-1,0E0,0E0,0E0,0E0,0E0],"parents":[2147483647,0,0,1,1,2,2,3,3,5,5],"right_children":[2,4,6,8,-1,10,-1,-1,-1,-1,-1],"split_conditions":[2.97403E3,1.2458464E1,3.73547E3,2.5919285E-1,1.7977795E-2,2.7198214E1,3.7459623E-2,-1.3376631E-2,-4.6478517E-2,-1.1450662E-2,9.486697E-3],"split_indices":[0,8,0,8,0,1,0,0,0,0,0],"split_type":[0,0,0,0,0,0,0,0,0,0,0],"sum_hessian":[2.0557121E1,1.516237E1,5.3947506E0,1.4114332E1,1.0480373E0,2.872864E0,2.5218863E0,1.3426598E0,1.2771673E1,1.1948994E0,1.6779647E0],"tree_param":{"num_deleted":"0","num_feature":"17","num_nodes":"11","size_leaf_vector":"1"}},{"base_weights":[-4.793416E-1,-7.005805E-1,3.7668396E-2,-8.4112304E-1,3.1385086E-2,-4.663587E-2,-1.4830285E-1,1.2886377E-2,-2.3933498E-2],"categories":[],"categories_nodes":[],"categories_segments":[],"categories_sizes":[],"default_left":[0,0,0,0,0,0,0,0,0],"id":86,"left_children":[1,3,-1,5,-1,-1,7,-1,-1],"loss_changes":[6.0831637E0,3.8487425E0,0E0,9.096174E-1,0E0,0E0,5.415242E-1,0E0,0E0],"parents":[2147483647,0,0,1,1,3,3,6,6],"right_children":[2,4,-1,6,-1,-1,8,-1,-1],"split_conditions":[3.73547E3,1E0,3.7668396E-2,2.97403E3,3.1385086E-2,-4.663587E-2,4.591115E0,1.2886377E-2,-2.3933498E-2],"split_indices":[0,15,0,0,0,0,8,0,0],"split_type":[0,0,0,0,0,0,0,0,0],"sum_hessian":[1.9369978E1,1.678855E1,2.5814285E0,1.5513825E1,1.2747244E0,1.33964815E1,2.117344E0,1.0485374E0,1.0688065E0],"tree_param":{"num_deleted":"0","num_feature":"17","num_nodes":"9","size_leaf_vector":"1"}},{"base_weights":[-4.8250067E-1,-7.8515196E-1,3.6645582E-1,-8.783092E-1,1.1758241E-2,-8.947619E-3,3.5290305E-2,-1.15805315E-2,-4.6131704E-2,-1.4609883E-2,1.3202128E-2],"categories":[],"categories_nodes":[],"categories_segments":[],"categories_sizes":[],"default_left":[0,0,0,0,0,0,0,0,0,0,0],"id":87,"left_children":[1,3,5,7,-1,9,-1,-1,-1,-1,-1],"loss_changes":[5.3548293E0,1.6186552E0,7.534326E-1,1.8259144E-1,0E0,3.688126E-1,0E0,0E0,0E0,0E0,0E0],"parents":[2147483647,0,0,1,1,2,2,3,3,5,5],"right_children":[2,4,6,8,-1,10,-1,-1,-1,-1,-1],"split_conditions":[2.97403E3,1.1078487E1,3.73547E3,2.5919285E-1,1.1758241E-2,3E0,3.5290305E-2,-1.15805315E-2,-4.6131704E-2,-1.4609883E-2,1.3202128E-2],"split_indices":[0,8,0,8,0,5,0,0,0,0,0],"split_type":[0,0,0,0,0,0,0,0,0,0,0],"sum_hessian":[1.8721138E1,1.3856484E1,4.864653E0,1.2824737E1,1.0317476E0,2.7718976E0,2.0927556E0,1.2219408E0,1.1602796E1,1.325854E0,1.4460435E0],"tree_param":{"num_deleted":"0","num_feature":"17","num_nodes":"11","size_leaf_vector":"1"}},{"base_weights":[-4.635633E-1,-8.365194E-1,2.6799276E-1,-4.5961685E-2,3.4178365E-3,-2.7689366E-2,4.9978587E-1,1.6170833E-1,3.677557E-2,-8.880939E-3,1.8085686E-2],"categories":[],"categories_nodes":[],"categories_segments":[],"categories_sizes":[],"default_left":[0,0,0,0,0,0,0,0,0,0,0],"id":88,"left_children":[1,3,5,-1,-1,-1,7,9,-1,-1,-1],"loss_changes":[5.5365667E0,1.0462255E0,1.6733958E0,0E0,0E0,0E0,3.7871075E-1,3.253428E-1,0E0,0E0,0E0],"parents":[2147483647,0,0,1,1,2,2,6,6,7,7],"right_children":[2,4,6,-1,-1,-1,8,10,-1,-1,-1],"split_conditions":[2.48923E3,1.0331411E1,1E0,-4.5961685E-2,3.4178365E-3,-2.7689366E-2,3.73547E3,2.8281128E1,3.677557E-2,-8.880939E-3,1.8085686E-2],"split_indices":[0,8,11,0,0,0,0,1,0,0,0],"split_type":[0,0,0,0,0,0,0,0,0,0,0],"sum_hessian":[1.8470821E1,1.21388235E1,6.331998E0,1.1107615E1,1.0312084E0,1.0874606E0,5.2445374E0,2.8471527E0,2.3973846E0,1.0973426E0,1.74981E0],"tree_param":{"num_deleted":"0","num_feature":"17","num_nodes":"11","size_leaf_vector":"1"}},{"base_weights":[-4.6530008E-1,-7.811135E-1,3.9150074E-1,-4.4743612E-2,1.6621703E-2,-1.7554898E-2,3.5723355E-2,1.158883E-2,-1.12890685E-2],"categories":[],"categories_nodes":[],"categories_segments":[],"categories_sizes":[],"default_left":[0,0,0,0,0,0,0,0,0],"id":89,"left_children":[1,3,5,-1,-1,7,-1,-1,-1],"loss_changes":[5.319804E0,2.0548887E0,7.598542E-1,0E0,0E0,2.3257437E-1,0E0,0E0,0E0],"parents":[2147483647,0,0,1,1,2,2,5,5],"right_children":[2,4,6,-1,-1,8,-1,-1,-1],"split_conditions":[2.97403E3,1.2458464E1,3.73547E3,-4.4743612E-2,1.6621703E-2,4.760472E0,3.5723355E-2,1.158883E-2,-1.12890685E-2],"split_indices":[0,8,0,0,0,8,0,0,0],"split_type":[0,0,0,0,0,0,0,0,0],"sum_hessian":[1.7529924E1,1.2873237E1,4.6566873E0,1.1858194E1,1.0150421E0,2.4717357E0,2.1849518E0,1.0733737E0,1.3983619E0],"tree_param":{"num_deleted":"0","num_feature":"17","num_nodes":"9","size_leaf_vector":"1"}},{"base_weights":[-4.8058748E-1,-4.481423E-2,1.0139847E-1,-3.2414306E-2,3.8243154E-1,3.12158E-2,9.948347E-2,-1.5399314E-2,2.9386962E-2],"categories":[],"categories_nodes":[],"categories_segments":[],"categories_sizes":[],"default_left":[0,0,0,0,0,0,0,0,0],"id":90,"left_children":[1,-1,3,-1,5,-1,7,-1,-1],"loss_changes":[4.44903E0,0E0,2.018566E0,0E0,3.9929563E-1,0E0,1.0358316E0,0E0,0E0],"parents":[2147483647,0,0,2,2,4,4,6,6],"right_children":[2,-1,4,-1,6,-1,8,-1,-1],"split_conditions":[1.40282E3,-4.481423E-2,1E0,-3.2414306E-2,-7.293453E1,3.12158E-2,3.73547E3,-1.5399314E-2,2.9386962E-2],"split_indices":[0,0,11,0,2,0,0,0,0],"split_type":[0,0,0,0,0,0,0,0,0],"sum_hessian":[1.7014095E1,9.609931E0,7.404163E0,1.6624937E0,5.741669E0,2.445021E0,3.2966485E0,1.9982429E0,1.2984056E0],"tree_param":{"num_deleted":"0","num_feature":"17","num_nodes":"9","size_leaf_vector":"1"}},{"base_weights":[-4.5300168E-1,-7.4363506E-1,2.0548156E-1,-8.2856023E-1,-2.2033335E-1,-1.3544624E-2,3.6887318E-1,-1.1376688E-2,-4.3823462E-2,-2.8880745E-2,1.3030687E-2,5.8655897E-3,2.4242526E-2],"categories":[],"categories_nodes":[],"categories_segments":[],"categories_sizes":[],"default_left":[0,0,0,0,0,0,0,0,0,0,0,0,0],"id":91,"left_children":[1,3,5,7,9,-1,11,-1,-1,-1,-1,-1,-1],"loss_changes":[3.481178E0,3.63297E-1,5.7542956E-1,9.443331E-2,6.793078E-1,0E0,8.819026E-2,0E0,0E0,0E0,0E0,0E0,0E0],"parents":[2147483647,0,0,1,1,2,2,3,3,4,4,6,6],"right_children":[2,4,6,8,10,-1,12,-1,-1,-1,-1,-1,-1],"split_conditions":[5.0198035E0,2.640302E0,1.5193889E2,2E0,2.8281128E1,-1.3544624E-2,8.841758E0,-1.1376688E-2,-4.3823462E-2,-2.8880745E-2,1.3030687E-2,5.8655897E-3,2.4242526E-2],"split_indices":[7,7,6,5,1,0,7,0,0,0,0,0,0],"split_type":[0,0,0,0,0,0,0,0,0,0,0,0,0],"sum_hessian":[1.6391697E1,1.1282602E1,5.1090946E0,9.205359E0,2.077243E0,1.136795E0,3.9722993E0,1.1040579E0,8.101301E0,1.0765276E0,1.0007156E0,1.8881979E0,2.0841014E0],"tree_param":{"num_deleted":"0","num_feature":"17","num_nodes":"13","size_leaf_vector":"1"}},{"base_weights":[-4.466209E-1,-5.9949446E-1,3.2672886E-2,-8.1051046E-1,-4.1760653E-3,-8.5083836E-1,-1.1575631E-2,-2.6388098E-2,2.694314E-1,-1.2140712E-2,-4.484286E-2,-8.995982E-3,2.59599E-2],"categories":[],"categories_nodes":[],"categories_segments":[],"categories_sizes":[],"default_left":[0,0,0,0,0,0,0,0,0,0,0,0,0],"id":92,"left_children":[1,3,-1,5,7,9,-1,-1,11,-1,-1,-1,-1],"loss_changes":[3.1697702E0,1.8840728E0,0E0,6.191635E-2,8.4947985E-1,6.181097E-2,0E0,0E0,5.3164876E-1,0E0,0E0,0E0,0E0],"parents":[2147483647,0,0,1,1,3,3,4,4,5,5,8,8],"right_children":[2,4,-1,6,8,10,-1,-1,12,-1,-1,-1,-1],"split_conditions":[1E0,4.661409E0,3.2672886E-2,9.7768915E2,1E0,2E0,-1.1575631E-2,-2.6388098E-2,2.8863E2,-1.2140712E-2,-4.484286E-2,-8.995982E-3,2.59599E-2],"split_indices":[15,7,0,6,11,5,0,0,6,0,0,0,0],"split_type":[0,0,0,0,0,0,0,0,0,0,0,0,0],"sum_hessian":[1.5518868E1,1.4024925E1,1.4939439E0,1.0087754E1,3.9371705E0,8.991953E0,1.0958015E0,1.0324783E0,2.9046922E0,1.0742913E0,7.9176617E0,1.1376368E0,1.7670553E0],"tree_param":{"num_deleted":"0","num_feature":"17","num_nodes":"13","size_leaf_vector":"1"}},{"base_weights":[-4.0313235E-1,-8.024705E-1,3.9247495E-1,-4.4476192E-2,-3.0872473E-1,2.9373406E-2,1.0226604E-2,3.9045308E-3,-2.6773224E-2,7.4937567E-3,-6.611768E-3],"categories":[],"categories_nodes":[],"categories_segments":[],"categories_sizes":[],"default_left":[0,0,0,0,0,0,0,0,0,0,0],"id":93,"left_children":[1,3,5,-1,7,-1,9,-1,-1,-1,-1],"loss_changes":[5.474851E0,2.0427275E-1,4.4858503E-1,0E0,3.2260805E-1,0E0,8.105369E-2,0E0,0E0,0E0,0E0],"parents":[2147483647,0,0,1,1,2,2,4,4,6,6],"right_children":[2,4,6,-1,8,-1,10,-1,-1,-1,-1],"split_conditions":[2.65547E3,9.9177E2,2.9583933E1,-4.4476192E-2,-7.293453E1,2.9373406E-2,5.060948E2,3.9045308E-3,-2.6773224E-2,7.4937567E-3,-6.611768E-3],"split_indices":[0,0,2,0,2,0,6,0,0,0,0],"split_type":[0,0,0,0,0,0,0,0,0,0,0],"sum_hessian":[1.524059E1,1.01416025E1,5.098988E0,7.9400873E0,2.2015147E0,3.0210235E0,2.0779648E0,1.0558465E0,1.1456681E0,1.0230664E0,1.0548984E0],"tree_param":{"num_deleted":"0","num_feature":"17","num_nodes":"11","size_leaf_vector":"1"}},{"base_weights":[-4.2536032E-1,-5.803924E-1,3.299802E-2,-7.749887E-1,3.0646551E-2,-8.2754415E-1,-8.666005E-3,-2.5401223E-1,2.5043448E-2,-8.078988E-3,-4.449072E-2,-2.023684E-2,7.1770174E-4],"categories":[],"categories_nodes":[],"categories_segments":[],"categories_sizes":[],"default_left":[0,0,0,0,0,0,0,0,0,0,0,0,0],"id":94,"left_children":[1,3,-1,5,7,9,-1,11,-1,-1,-1,-1,-1],"loss_changes":[3.1163566E0,1.777175E0,0E0,2.1143627E-1,7.327566E-1,2.7324438E-1,0E0,1.4663221E-1,0E0,0E0,0E0,0E0,0E0],"parents":[2147483647,0,0,1,1,3,3,4,4,5,5,7,7],"right_children":[2,4,-1,6,8,10,-1,12,-1,-1,-1,-1,-1],"split_conditions":[1E0,5.9299903E0,3.299802E-2,9.7768915E2,4.2934927E2,3.017E1,-8.666005E-3,3.006247E0,2.5043448E-2,-8.078988E-3,-4.449072E-2,-2.023684E-2,7.1770174E-4],"split_indices":[15,7,0,6,6,6,0,2,0,0,0,0,0],"split_type":[0,0,0,0,0,0,0,0,0,0,0,0,0],"sum_hessian":[1.5244671E1,1.374632E1,1.4983513E0,1.0222476E1,3.5238438E0,9.056022E0,1.1664541E0,2.4814508E0,1.0423931E0,1.0817535E0,7.974268E0,1.2636093E0,1.2178415E0],"tree_param":{"num_deleted":"0","num_feature":"17","num_nodes":"13","size_leaf_vector":"1"}},{"base_weights":[-4.1056225E-1,-8.027749E-1,2.4771558E-1,-4.4626296E-2,1.9371211E-4,-8.791079E-2,3.464238E-2,-3.0101538E-2,2.6500484E-1,2.5630012E-2,-5.093863E-3],"categories":[],"categories_nodes":[],"categories_segments":[],"categories_sizes":[],"default_left":[0,0,0,0,0,0,0,0,0,0,0],"id":95,"left_children":[1,3,5,-1,-1,7,-1,-1,9,-1,-1],"loss_changes":[4.306084E0,7.422333E-1,1.0624214E0,0E0,0E0,1.0140086E0,0E0,0E0,3.689592E-1,0E0,0E0],"parents":[2147483647,0,0,1,1,2,2,5,5,8,8],"right_children":[2,4,6,-1,-1,8,-1,-1,10,-1,-1],"split_conditions":[2.48923E3,9.77032E0,3.73547E3,-4.4626296E-2,1.9371211E-4,