{"learner":{"attributes":{"scikit_learn":"{\"_estimator_type\": \"classifier\"}"},"feature_names":[],"feature_types":[],"gradient_booster":{"model":{"cats":{"enc":[],"feature_segments":[],"sorted_idx":[]},"gbtree_model_param":{"num_parallel_tree":"1","num_trees":"500"},"iteration_indptr":[0,1,2,3,4,5,6,7,8,9,10,11,12,13,14,15,16,17,18,19,20,21,22,23,24,25,26,27,28,29,30,31,32,33,34,35,36,37,38,39,40,41,42,43,44,45,46,47,48,49,50,51,52,53,54,55,56,57,58,59,60,61,62,63,64,65,66,67,68,69,70,71,72,73,74,75,76,77,78,79,80,81,82,83,84,85,86,87,88,89,90,91,92,93,94,95,96,97,98,99,100,101,102,103,104,105,106,107,108,109,110,111,112,113,114,115,116,117,118,119,120,121,122,123,124,125,126,127,128,129,130,131,132,133,134,135,136,137,138,139,140,141,142,143,144,145,146,147,148,149,150,151,152,153,154,155,156,157,158,159,160,161,162,163,164,165,166,167,168,169,170,171,172,173,174,175,176,177,178,179,180,181,182,183,184,185,186,187,188,189,190,191,192,193,194,195,196,197,198,199,200,201,202,203,204,205,206,207,208,209,210,211,212,213,214,215,216,217,218,219,220,221,222,223,224,225,226,227,228,229,230,231,232,233,234,235,236,237,238,239,240,241,242,243,244,245,246,247,248,249,250,251,252,253,254,255,256,257,258,259,260,261,262,263,264,265,266,267,268,269,270,271,272,273,274,275,276,277,278,279,280,281,282,283,284,285,286,287,288,289,290,291,292,293,294,295,296,297,298,299,300,301,302,303,304,305,306,307,308,309,310,311,312,313,314,315,316,317,318,319,320,321,322,323,324,325,326,327,328,329,330,331,332,333,334,335,336,337,338,339,340,341,342,343,344,345,346,347,348,349,350,351,352,353,354,355,356,357,358,359,360,361,362,363,364,365,366,367,368,369,370,371,372,373,374,375,376,377,378,379,380,381,382,383,384,385,386,387,388,389,390,391,392,393,394,395,396,397,398,399,400,401,402,403,404,405,406,407,408,409,410,411,412,413,414,415,416,417,418,419,420,421,422,423,424,425,426,427,428,429,430,431,432,433,434,435,436,437,438,439,440,441,442,443,444,445,446,447,448,449,450,451,452,453,454,455,456,457,458,459,460,461,462,463,464,465,466,467,468,469,470,471,472,473,474,475,476,477,478,479,480,481,482,483,484,485,486,487,488,489,490,491,492,493,494,495,496,497,498,499,500],"tree_info":[0,0,0,0,0,0,0,0,0,0,0,0,0,0,0,0,0,0,0,0,0,0,0,0,0,0,0,0,0,0,0,0,0,0,0,0,0,0,0,0,0,0,0,0,0,0,0,0,0,0,0,0,0,0,0,0,0,0,0,0,0,0,0,0,0,0,0,0,0,0,0,0,0,0,0,0,0,0,0,0,0,0,0,0,0,0,0,0,0,0,0,0,0,0,0,0,0,0,0,0,0,0,0,0,0,0,0,0,0,0,0,0,0,0,0,0,0,0,0,0,0,0,0,0,0,0,0,0,0,0,0,0,0,0,0,0,0,0,0,0,0,0,0,0,0,0,0,0,0,0,0,0,0,0,0,0,0,0,0,0,0,0,0,0,0,0,0,0,0,0,0,0,0,0,0,0,0,0,0,0,0,0,0,0,0,0,0,0,0,0,0,0,0,0,0,0,0,0,0,0,0,0,0,0,0,0,0,0,0,0,0,0,0,0,0,0,0,0,0,0,0,0,0,0,0,0,0,0,0,0,0,0,0,0,0,0,0,0,0,0,0,0,0,0,0,0,0,0,0,0,0,0,0,0,0,0,0,0,0,0,0,0,0,0,0,0,0,0,0,0,0,0,0,0,0,0,0,0,0,0,0,0,0,0,0,0,0,0,0,0,0,0,0,0,0,0,0,0,0,0,0,0,0,0,0,0,0,0,0,0,0,0,0,0,0,0,0,0,0,0,0,0,0,0,0,0,0,0,0,0,0,0,0,0,0,0,0,0,0,0,0,0,0,0,0,0,0,0,0,0,0,0,0,0,0,0,0,0,0,0,0,0,0,0,0,0,0,0,0,0,0,0,0,0,0,0,0,0,0,0,0,0,0,0,0,0,0,0,0,0,0,0,0,0,0,0,0,0,0,0,0,0,0,0,0,0,0,0,0,0,0,0,0,0,0,0,0,0,0,0,0,0,0,0,0,0,0,0,0,0,0,0,0,0,0,0,0,0,0,0,0,0,0,0,0,0,0,0,0,0,0,0,0,0,0,0,0,0,0,0,0,0,0,0,0,0,0,0,0,0,0,0,0,0,0,0,0,0,0,0,0,0,0,0,0,0,0,0,0,0,0,0,0,0,0,0,0,0,0,0],"trees":[{"base_weights":[-1.0207446E0,-1.1147612E0,3.5022435E-1,-1.1346554E0,2.3999147E-1,-5.708884E-2,5.832666E-1,8.8106416E-2,-3.3607505E-2],"categories":[],"categories_nodes":[],"categories_segments":[],"categories_sizes":[],"default_left":[0,0,0,0,0,0,0,0,0],"id":0,"left_children":[1,3,-1,5,-1,-1,7,-1,-1],"loss_changes":[5.359012E2,8.695038E1,0E0,9.121826E0,0E0,0E0,6.3867607E0,0E0,0E0],"parents":[2147483647,0,0,1,1,3,3,6,6],"right_children":[2,4,-1,6,-1,-1,8,-1,-1],"split_conditions":[3.2747E3,1E0,3.5022435E-1,2.93378E3,2.3999147E-1,-5.708884E-2,1.2E1,8.8106416E-2,-3.3607505E-2],"split_indices":[0,15,0,0,0,0,3,0,0],"split_type":[0,0,0,0,0,0,0,0,0],"sum_hessian":[6.989186E2,6.916766E2,7.242E0,6.901633E2,1.5132537E0,6.8764813E2,2.515187E0,1.0889865E0,1.4262006E0],"tree_param":{"num_deleted":"0","num_feature":"17","num_nodes":"9","size_leaf_vector":"1"}},{"base_weights":[-9.9004704E-1,-1.1030109E0,2.7082998E-1,-1.1249579E0,2.1347032E-1,-5.668835E-2,7.11542E-1,-3.050606E-2,7.504996E-2],"categories":[],"categories_nodes":[],"categories_segments":[],"categories_sizes":[],"default_left":[0,0,0,0,0,0,0,0,0],"id":1,"left_children":[1,3,-1,5,-1,-1,7,-1,-1],"loss_changes":[4.9758527E2,8.360632E1,0E0,1.158783E1,0E0,0E0,4.876237E0,0E0,0E0],"parents":[2147483647,0,0,1,1,3,3,6,6],"right_children":[2,4,-1,6,-1,-1,8,-1,-1],"split_conditions":[3.2747E3,1E0,2.7082998E-1,2.93378E3,2.1347032E-1,-5.668835E-2,1E0,-3.050606E-2,7.504996E-2],"split_indices":[0,15,0,0,0,0,11,0,0],"split_type":[0,0,0,0,0,0,0,0,0],"sum_hessian":[6.782833E2,6.6734436E2,1.0938981E1,6.654166E2,1.9277011E0,6.626209E2,2.7957237E0,1.1304141E0,1.6653095E0],"tree_param":{"num_deleted":"0","num_feature":"17","num_nodes":"9","size_leaf_vector":"1"}},{"base_weights":[-9.8813885E-1,-1.1033477E0,2.2009908E-1,-1.1201146E0,1.6820224E-1,-5.631135E-2,3.485409E-1,-2.9168183E-2,4.9941834E-2],"categories":[],"categories_nodes":[],"categories_segments":[],"categories_sizes":[],"default_left":[0,0,0,0,0,0,0,0,0],"id":2,"left_children":[1,3,-1,5,-1,-1,7,-1,-1],"loss_changes":[4.078172E2,5.141626E1,0E0,6.08844E0,0E0,0E0,2.6391509E0,0E0,0E0],"parents":[2147483647,0,0,1,1,3,3,6,6],"right_children":[2,4,-1,6,-1,-1,8,-1,-1],"split_conditions":[3.2747E3,1E0,2.2009908E-1,2.93378E3,1.6820224E-1,-5.631135E-2,3E0,-2.9168183E-2,4.9941834E-2],"split_indices":[0,15,0,0,0,0,4,0,0],"split_type":[0,0,0,0,0,0,0,0,0],"sum_hessian":[6.479004E2,6.351206E2,1.2779815E1,6.3349225E2,1.6283367E0,6.310988E2,2.3934314E0,1.0260209E0,1.3674105E0],"tree_param":{"num_deleted":"0","num_feature":"17","num_nodes":"9","size_leaf_vector":"1"}},{"base_weights":[-9.7929084E-1,-1.09078E0,1.8664643E-1,-1.1112102E0,1.6143966E-1,-5.5957593E-2,4.7069043E-1,-3.004297E-2,5.731469E-2],"categories":[],"categories_nodes":[],"categories_segments":[],"categories_sizes":[],"default_left":[0,0,0,0,0,0,0,0,0],"id":3,"left_children":[1,3,-1,5,-1,-1,7,-1,-1],"loss_changes":[3.320691E2,5.747937E1,0E0,8.171753E0,0E0,0E0,3.3990073E0,0E0,0E0],"parents":[2147483647,0,0,1,1,3,3,6,6],"right_children":[2,4,-1,6,-1,-1,8,-1,-1],"split_conditions":[3.2747E3,1E0,1.8664643E-1,2.93378E3,1.6143966E-1,-5.5957593E-2,1E0,-3.004297E-2,5.731469E-2],"split_indices":[0,15,0,0,0,0,11,0,0],"split_type":[0,0,0,0,0,0,0,0,0],"sum_hessian":[6.23327E2,6.0967096E2,1.3656042E1,6.075402E2,2.1307206E0,6.047965E2,2.7437303E0,1.1037482E0,1.6399821E0],"tree_param":{"num_deleted":"0","num_feature":"17","num_nodes":"9","size_leaf_vector":"1"}},{"base_weights":[-9.546605E-1,-1.0063714E0,1.638295E-1,-5.560069E-2,-6.31824E-1,-5.5042874E-2,7.6640785E-2,4.7822246E-1,-5.6721177E-2,-2.6240302E-2,4.775695E-2,5.1026464E-2,-7.043908E-3],"categories":[],"categories_nodes":[],"categories_segments":[],"categories_sizes":[],"default_left":[0,0,0,0,0,0,0,0,0,0,0,0,0],"id":4,"left_children":[1,3,-1,-1,5,-1,7,9,11,-1,-1,-1,-1],"loss_changes":[1.351582E2,2.2885437E1,0E0,0E0,4.443462E1,0E0,2.9244306E0,7.0035915E0,3.9066234E0,0E0,0E0,0E0,0E0],"parents":[2147483647,0,0,1,1,4,4,6,6,7,7,8,8],"right_children":[2,4,-1,-1,6,-1,8,10,12,-1,-1,-1,-1],"split_conditions":[1E0,1E0,1.638295E-1,-5.560069E-2,1E0,-5.5042874E-2,2.2007446E0,1.343E2,1.0624E2,-2.6240302E-2,4.775695E-2,5.1026464E-2,-7.043908E-3],"split_indices":[15,14,0,0,11,0,8,6,6,0,0,0,0],"split_type":[0,0,0,0,0,0,0,0,0,0,0,0,0],"sum_hessian":[6.0164935E2,5.951382E2,6.511136E0,4.626712E2,1.3246701E2,7.936811E1,5.3098896E1,1.2592938E1,4.050596E1,4.025751E0,8.567187E0,2.1288712E0,3.8377087E1],"tree_param":{"num_deleted":"0","num_feature":"17","num_nodes":"13","size_leaf_vector":"1"}},{"base_weights":[-9.62973E-1,-1.0048373E0,1.433485E-1,-5.528749E-2,-6.455904E-1,-5.470248E-2,7.0163687E-3,4.324085E-1,-1.2370358E-1,-2.5485069E-2,4.5537625E-2,-1.5146188E-2,1.5600674E-2],"categories":[],"categories_nodes":[],"categories_segments":[],"categories_sizes":[],"default_left":[0,0,0,0,0,0,0,0,0,0,0,0,0],"id":5,"left_children":[1,3,-1,-1,5,-1,7,9,11,-1,-1,-1,-1],"loss_changes":[9.58562E1,2.0107483E1,0E0,0E0,3.7573223E1,0E0,3.0158167E0,6.2076235E0,3.3373818E0,0E0,0E0,0E0,0E0],"parents":[2147483647,0,0,1,1,4,4,6,6,7,7,8,8],"right_children":[2,4,-1,-1,6,-1,8,10,12,-1,-1,-1,-1],"split_conditions":[1E0,1E0,1.433485E-1,-5.528749E-2,1E0,-5.470248E-2,2.2007446E0,1.5331667E2,7.311343E0,-2.5485069E-2,4.5537625E-2,-1.5146188E-2,1.5600674E-2],"split_indices":[15,14,0,0,11,0,8,6,8,0,0,0,0],"split_type":[0,0,0,0,0,0,0,0,0,0,0,0,0],"sum_hessian":[5.7887146E2,5.73342E2,5.5294447E0,4.4598633E2,1.2735567E2,7.508335E1,5.2272312E1,1.1744656E1,4.0527657E1,3.9329877E0,7.811668E0,2.8932032E1,1.1595624E1],"tree_param":{"num_deleted":"0","num_feature":"17","num_nodes":"13","size_leaf_vector":"1"}},{"base_weights":[-9.6219194E-1,-1.0754681E0,1.5359336E-1,-1.0941764E0,1.1607715E-1,-5.506263E-2,2.5304615E-1,4.7907975E-2,-3.1430874E-2],"categories":[],"categories_nodes":[],"categories_segments":[],"categories_sizes":[],"default_left":[0,0,0,0,0,0,0,0,0],"id":6,"left_children":[1,3,-1,5,-1,-1,7,-1,-1],"loss_changes":[2.561328E2,3.678943E1,0E0,5.394409E0,0E0,0E0,2.8509192E0,0E0,0E0],"parents":[2147483647,0,0,1,1,3,3,6,6],"right_children":[2,4,-1,6,-1,-1,8,-1,-1],"split_conditions":[3.2747E3,1E0,1.5359336E-1,2.93378E3,1.1607715E-1,-5.506263E-2,1.2E1,4.7907975E-2,-3.1430874E-2],"split_indices":[0,15,0,0,0,0,3,0,0],"split_type":[0,0,0,0,0,0,0,0,0],"sum_hessian":[5.5228204E2,5.3791095E2,1.4371102E1,5.356389E2,2.2720275E0,5.330219E2,2.617021E0,1.4058918E0,1.2111294E0],"tree_param":{"num_deleted":"0","num_feature":"17","num_nodes":"9","size_leaf_vector":"1"}},{"base_weights":[-9.3769854E-1,-1.0763735E0,2.575201E0,-5.47825E-2,1.0858206E-1,1.1315427E0,1.393325E-1,1.472628E-1,1.02231205E-1,-2.9738E-2,4.10947E-2],"categories":[],"categories_nodes":[],"categories_segments":[],"categories_sizes":[],"default_left":[0,0,0,0,0,0,0,0,0,0,0],"id":7,"left_children":[1,3,5,-1,-1,7,-1,9,-1,-1,-1],"loss_changes":[2.6319568E2,3.4622986E1,3.1341095E0,0E0,0E0,3.5769057E0,0E0,2.0677717E0,0E0,0E0,0E0],"parents":[2147483647,0,0,1,1,2,2,5,5,7,7],"right_children":[2,4,6,-1,-1,8,-1,10,-1,-1,-1],"split_conditions":[2.93378E3,1E0,3.2747E3,-5.47825E-2,1.0858206E-1,7.9579186E0,1.393325E-1,3E0,1.02231205E-1,-2.9738E-2,4.10947E-2],"split_indices":[0,15,0,0,0,8,0,4,0,0,0],"split_type":[0,0,0,0,0,0,0,0,0,0,0],"sum_hessian":[5.335852E2,5.1398865E2,1.9596588E1,5.1161493E2,2.3736863E0,3.3149922E0,1.6281595E1,2.1541505E0,1.1608416E0,1.082218E0,1.0719326E0],"tree_param":{"num_deleted":"0","num_feature":"17","num_nodes":"11","size_leaf_vector":"1"}},{"base_weights":[-9.2631084E-1,-1.0651863E0,2.336965E0,-5.4516144E-2,1.0882838E-1,7.648567E-1,1.283239E-1,1.458699E0,-3.0091086E-2,2.0275434E-2,8.895367E-2],"categories":[],"categories_nodes":[],"categories_segments":[],"categories_sizes":[],"default_left":[0,0,0,0,0,0,0,0,0,0,0],"id":8,"left_children":[1,3,5,-1,-1,7,-1,9,-1,-1,-1],"loss_changes":[2.3531003E2,4.258319E1,5.7166214E0,0E0,0E0,4.799817E0,0E0,3.0272913E-1,0E0,0E0,0E0],"parents":[2147483647,0,0,1,1,2,2,5,5,7,7],"right_children":[2,4,6,-1,-1,8,-1,10,-1,-1,-1],"split_conditions":[2.93378E3,1E0,3.2747E3,-5.4516144E-2,1.0882838E-1,3E0,1.283239E-1,4E0,-3.0091086E-2,2.0275434E-2,8.895367E-2],"split_indices":[0,15,0,0,0,5,0,4,0,0,0],"split_type":[0,0,0,0,0,0,0,0,0,0,0],"sum_hessian":[5.1273895E2,4.924551E2,2.0283852E1,4.8932452E2,3.13057E0,3.1359363E0,1.7147917E1,2.0353088E0,1.1006275E0,1.003188E0,1.0321208E0],"tree_param":{"num_deleted":"0","num_feature":"17","num_nodes":"11","size_leaf_vector":"1"}},{"base_weights":[-9.2102915E-1,-1.0305545E0,5.343262E-1,-1.0579191E0,1.0821133E0,-5.0141394E-2,1.3439153E0,-1.0725805E0,-5.994642E-1,-3.32325E-2,8.986164E-2,7.3223263E-1,1.1472841E-1,-5.3726353E-2,-1.7155124E-2,-9.6305686E-1,8.238656E-2,-6.8966603E-1,1.2516263E0,-5.0625354E-2,-8.705875E-3,-4.043161E-2,-6.2958053E-3,1.5840901E-2,9.056139E-2],"categories":[],"categories_nodes":[],"categories_segments":[],"categories_sizes":[],"default_left":[0,0,0,0,0,0,0,0,0,0,0,0,0,0,0,0,0,0,0,0,0,0,0,0,0],"id":9,"left_children":[1,3,5,7,9,-1,11,13,15,-1,-1,17,-1,-1,-1,19,-1,21,23,-1,-1,-1,-1,-1,-1],"loss_changes":[7.866461E1,2.7512909E1,4.4850777E1,2.3869019E0,9.097232E0,0E0,1.1883228E1,2.498169E-1,1.485257E1,0E0,0E0,1.24295845E1,0E0,0E0,0E0,3.9352703E-1,0E0,2.2244763E-1,5.6128483E0,0E0,0E0,0E0,0E0,0E0,0E0],"parents":[2147483647,0,0,1,1,2,2,3,3,4,4,6,6,7,7,8,8,11,11,15,15,17,17,18,18],"right_children":[2,4,6,8,10,-1,12,14,16,-1,-1,18,-1,-1,-1,20,-1,22,24,-1,-1,-1,-1,-1,-1],"split_conditions":[7.0864773E0,3.603073E3,1E0,4.8537025E0,1.6703424E1,-5.0141394E-2,3.5115906E2,1.2004714E1,5.488806E2,-3.32325E-2,8.986164E-2,1.2264609E1,1.1472841E-1,-5.3726353E-2,-1.7155124E-2,8.945099E0,8.238656E-2,6.162148E0,1.40055E2,-5.0625354E-2,-8.705875E-3,-4.043161E-2,-6.2958053E-3,1.5840901E-2,9.056139E-2],"split_indices":[7,8,11,7,1,0,6,8,6,0,0,7,0,0,0,8,0,8,6,0,0,0,0,0,0],"split_type":[0,0,0,0,0,0,0,0,0,0,0,0,0,0,0,0,0,0,0,0,0,0,0,0,0],"sum_hessian":[4.89055E2,4.550977E2,3.3957287E1,4.497712E2,5.3264914E0,1.1632381E1,2.2324907E1,4.3453537E2,1.523583E1,1.5677217E0,3.7587695E0,1.4661461E1,7.6634455E0,4.3290714E2,1.6282325E0,1.3605864E1,1.6299667E0,3.8349698E0,1.0826491E1,1.2536693E1,1.0691708E0,2.808022E0,1.0269477E0,4.6405883E0,6.185903E0],"tree_param":{"num_deleted":"0","num_feature":"17","num_nodes":"25","size_leaf_vector":"1"}},{"base_weights":[-9.1736245E-1,-1.065433E0,2.0656643E0,-5.4038126E-2,8.330349E-2,5.733323E-1,1.134144E-1,4.4766754E-2,2.4802596E-3],"categories":[],"categories_nodes":[],"categories_segments":[],"categories_sizes":[],"default_left":[0,0,0,0,0,0,0,0,0],"id":10,"left_children":[1,3,5,-1,-1,7,-1,-1,-1],"loss_changes":[2.0826913E2,2.0439575E1,5.4737473E0,0E0,0E0,6.3292205E-1,0E0,0E0,0E0],"parents":[2147483647,0,0,1,1,2,2,5,5],"right_children":[2,4,6,-1,-1,8,-1,-1,-1],"split_conditions":[2.93378E3,1E0,3.2747E3,-5.4038126E-2,8.330349E-2,-7.248121E1,1.134144E-1,4.4766754E-2,2.4802596E-3],"split_indices":[0,15,0,0,0,2,0,0,0],"split_type":[0,0,0,0,0,0,0,0,0],"sum_hessian":[4.655362E2,4.4413327E2,2.1402916E1,4.422556E2,1.8776588E0,3.0164187E0,1.8386497E1,1.4285558E0,1.5878628E0],"tree_param":{"num_deleted":"0","num_feature":"17","num_nodes":"9","size_leaf_vector":"1"}},{"base_weights":[-9.017994E-1,-1.0546366E0,1.9827394E0,-5.3812355E-2,8.8581175E-2,7.765365E-1,1.06342554E-1,-8.463801E-3,5.8672942E-2],"categories":[],"categories_nodes":[],"categories_segments":[],"categories_sizes":[],"default_left":[0,0,0,0,0,0,0,0,0],"id":11,"left_children":[1,3,5,-1,-1,7,-1,-1,-1],"loss_changes":[1.9998114E2,2.7982483E1,2.3349533E0,0E0,0E0,1.7088053E0,0E0,0E0,0E0],"parents":[2147483647,0,0,1,1,2,2,5,5],"right_children":[2,4,6,-1,-1,8,-1,-1,-1],"split_conditions":[2.93378E3,1E0,3.2747E3,-5.3812355E-2,8.8581175E-2,3.3847272E2,1.06342554E-1,-8.463801E-3,5.8672942E-2],"split_indices":[0,15,0,0,0,6,0,0,0],"split_type":[0,0,0,0,0,0,0,0,0],"sum_hessian":[4.4786774E2,4.2593402E2,2.1933725E1,4.233164E2,2.6176164E0,3.0226681E0,1.8911057E1,1.0630623E0,1.9596058E0],"tree_param":{"num_deleted":"0","num_feature":"17","num_nodes":"9","size_leaf_vector":"1"}},{"base_weights":[-8.8857436E-1,-1.0441393E0,1.9073865E0,-5.3602614E-2,8.9980714E-2,8.478889E-1,1.0093098E-1,6.9380067E-3,5.92723E-2],"categories":[],"categories_nodes":[],"categories_segments":[],"categories_sizes":[],"default_left":[0,0,0,0,0,0,0,0,0],"id":12,"left_children":[1,3,5,-1,-1,7,-1,-1,-1],"loss_changes":[1.9079727E2,3.4621002E1,1.0264587E0,0E0,0E0,7.766261E-1,0E0,0E0,0E0],"parents":[2147483647,0,0,1,1,2,2,5,5],"right_children":[2,4,6,-1,-1,8,-1,-1,-1],"split_conditions":[2.93378E3,1E0,3.2747E3,-5.3602614E-2,8.9980714E-2,7.0864773E0,1.0093098E-1,6.9380067E-3,5.92723E-2],"split_indices":[0,15,0,0,0,7,0,0,0],"split_type":[0,0,0,0,0,0,0,0,0],"sum_hessian":[4.330828E2,4.1085E2,2.2232786E1,4.0747345E2,3.376566E0,2.931624E0,1.930116E1,1.4005231E0,1.5311007E0],"tree_param":{"num_deleted":"0","num_feature":"17","num_nodes":"9","size_leaf_vector":"1"}},{"base_weights":[-8.995501E-1,-1.0434989E0,1.7201818E0,-5.3402495E-2,8.295838E-2,-3.0310834E-2,9.387773E-2],"categories":[],"categories_nodes":[],"categories_segments":[],"categories_sizes":[],"default_left":[0,0,0,0,0,0,0],"id":13,"left_children":[1,3,5,-1,-1,-1,-1],"loss_changes":[1.5762549E2,2.7804169E1,9.156357E0,0E0,0E0,0E0,0E0],"parents":[2147483647,0,0,1,1,2,2],"right_children":[2,4,6,-1,-1,-1,-1],"split_conditions":[2.93378E3,1E0,1E0,-5.3402495E-2,8.295838E-2,-3.0310834E-2,9.387773E-2],"split_indices":[0,15,11,0,0,0,0],"split_type":[0,0,0,0,0,0,0],"sum_hessian":[4.12226E2,3.913252E2,2.0900822E1,3.8840176E2,2.9234343E0,1.1435738E0,1.9757248E1],"tree_param":{"num_deleted":"0","num_feature":"17","num_nodes":"7","size_leaf_vector":"1"}},{"base_weights":[-8.774381E-1,-1.03524E0,1.7192701E0,-5.3212997E-2,8.214674E-2,8.194955E-1,9.163366E-2,5.8985144E-2,-7.2224634E-3],"categories":[],"categories_nodes":[],"categories_segments":[],"categories_sizes":[],"default_left":[0,0,0,0,0,0,0,0,0],"id":14,"left_children":[1,3,5,-1,-1,7,-1,-1,-1],"loss_changes":[1.6540338E2,3.1053558E1,8.706665E-1,0E0,0E0,1.7021189E0,0E0,0E0,0E0],"parents":[2147483647,0,0,1,1,2,2,5,5],"right_children":[2,4,6,-1,-1,8,-1,-1,-1],"split_conditions":[2.93378E3,1E0,3.2747E3,-5.3212997E-2,8.214674E-2,3E0,9.163366E-2,5.8985144E-2,-7.2224634E-3],"split_indices":[0,15,0,0,0,5,0,0,0],"split_type":[0,0,0,0,0,0,0,0,0],"sum_hessian":[3.9831003E2,3.760583E2,2.2251734E1,3.726233E2,3.435006E0,3.4113588E0,1.8840376E1,2.320431E0,1.090928E0],"tree_param":{"num_deleted":"0","num_feature":"17","num_nodes":"9","size_leaf_vector":"1"}},{"base_weights":[-8.712078E-1,-1.0348278E0,1.5626445E0,-5.3030457E-2,7.6126814E-2,-2.9178843E-2,8.425849E-2],"categories":[],"categories_nodes":[],"categories_segments":[],"categories_sizes":[],"default_left":[0,0,0,0,0,0,0],"id":15,"left_children":[1,3,5,-1,-1,-1,-1],"loss_changes":[1.5218732E2,2.5013062E1,7.3513565E0,0E0,0E0,0E0,0E0],"parents":[2147483647,0,0,1,1,2,2],"right_children":[2,4,6,-1,-1,-1,-1],"split_conditions":[2.93378E3,1E0,1E0,-5.3030457E-2,7.6126814E-2,-2.9178843E-2,8.425849E-2],"split_indices":[0,15,11,0,0,0,0],"split_type":[0,0,0,0,0,0,0],"sum_hessian":[3.7710147E2,3.5388568E2,2.3215784E1,3.5093317E2,2.9525402E0,1.0505658E0,2.2165218E1],"tree_param":{"num_deleted":"0","num_feature":"17","num_nodes":"7","size_leaf_vector":"1"}},{"base_weights":[-8.744193E-1,-1.0085251E0,4.0213522E-1,-1.0359945E0,6.9858685E-2,-4.845343E-2,1.0050983E0,-5.2599084E-2,-7.022501E-1,9.700744E-2,1.1851237E0,-9.538922E-1,8.2485586E-1,-3.472616E-2,3.582905E-2,8.106961E-1,7.334181E-2,-1.0169415E-2,-4.9623452E-2,7.2536017E-3,5.4908615E-2,-3.1323597E-2,7.176716E-2],"categories":[],"categories_nodes":[],"categories_segments":[],"categories_sizes":[],"default_left":[0,0,0,0,0,0,0,0,0,0,0,0,0,0,0,0,0,0,0,0,0,0,0],"id":16,"left_children":[1,3,5,7,-1,-1,9,-1,11,13,15,17,19,-1,-1,21,-1,-1,-1,-1,-1,-1,-1],"loss_changes":[6.237088E1,2.3111816E1,3.0014904E1,9.9380493E-1,0E0,0E0,3.9536762E0,0E0,7.6467752E0,3.0511374E0,9.922981E-1,2.552843E-1,4.095404E-1,0E0,0E0,1.0877325E1,0E0,0E0,0E0,0E0,0E0,0E0,0E0],"parents":[2147483647,0,0,1,1,2,2,3,3,6,6,8,8,9,9,10,10,11,11,12,12,15,15],"right_children":[2,4,6,8,-1,-1,10,-1,12,14,16,18,20,-1,-1,22,-1,-1,-1,-1,-1,-1,-1],"split_conditions":[6.4541373E0,1E0,1E0,3.8191507E0,6.9858685E-2,-4.845343E-2,1.4245E2,-5.2599084E-2,6.5268E2,3.0541527E1,3.5115906E2,1.0572671E0,1E1,-3.472616E-2,3.582905E-2,1.2264609E1,7.334181E-2,-1.0169415E-2,-4.9623452E-2,7.2536017E-3,5.4908615E-2,-3.1323597E-2,7.176716E-2],"split_indices":[7,15,11,7,0,0,6,0,6,7,6,8,3,0,0,7,0,0,0,0,0,0,0],"split_type":[0,0,0,0,0,0,0,0,0,0,0,0,0,0,0,0,0,0,0,0,0,0,0],"sum_hessian":[3.6096048E2,3.268354E2,3.4125072E1,3.237085E2,3.1269045E0,1.0237257E1,2.3887815E1,3.0685724E2,1.6851252E1,4.2067604E0,1.9681055E1,1.4789537E1,2.061714E0,1.7939482E0,2.4128122E0,1.0114925E1,9.56613E0,1.0296777E0,1.3759859E1,1.030205E0,1.0315089E0,3.0635302E0,7.0513954E0],"tree_param":{"num_deleted":"0","num_feature":"17","num_nodes":"23","size_leaf_vector":"1"}},{"base_weights":[-8.5017586E-1,-1.0269417E0,1.5407233E0,-5.270139E-2,7.143687E-2,6.321315E-1,8.243542E-2,5.757186E-2,-4.15127E-3],"categories":[],"categories_nodes":[],"categories_segments":[],"categories_sizes":[],"default_left":[0,0,0,0,0,0,0,0,0],"id":17,"left_children":[1,3,5,-1,-1,7,-1,-1,-1],"loss_changes":[1.477483E2,2.296637E1,1.3330765E0,0E0,0E0,1.6529776E0,0E0,0E0,0E0],"parents":[2147483647,0,0,1,1,2,2,5,5],"right_children":[2,4,6,-1,-1,8,-1,-1,-1],"split_conditions":[2.93378E3,1E0,3.2747E3,-5.270139E-2,7.143687E-2,3.930789E2,8.243542E-2,5.757186E-2,-4.15127E-3],"split_indices":[0,15,0,0,0,6,0,0,0],"split_type":[0,0,0,0,0,0,0,0,0],"sum_hessian":[3.4484955E2,3.216403E2,2.3209276E1,3.1869583E2,2.944442E0,3.193436E0,2.001584E1,1.4966252E0,1.6968107E0],"tree_param":{"num_deleted":"0","num_feature":"17","num_nodes":"9","size_leaf_vector":"1"}},{"base_weights":[-8.485597E-1,-1.0215207E0,1.4271082E0,-5.2549135E-2,7.0321776E-2,-2.9589767E-2,7.745886E-2],"categories":[],"categories_nodes":[],"categories_segments":[],"categories_sizes":[],"default_left":[0,0,0,0,0,0,0],"id":18,"left_children":[1,3,5,-1,-1,-1,-1],"loss_changes":[1.3359404E2,2.3837738E1,6.8636284E0,0E0,0E0,0E0,0E0],"parents":[2147483647,0,0,1,1,2,2],"right_children":[2,4,6,-1,-1,-1,-1],"split_conditions":[2.93378E3,1E0,1E0,-5.2549135E-2,7.0321776E-2,-2.9589767E-2,7.745886E-2],"split_indices":[0,15,11,0,0,0,0],"split_type":[0,0,0,0,0,0,0],"sum_hessian":[3.3471036E2,3.1158E2,2.313038E1,3.084048E2,3.1751976E0,1.0993967E0,2.2030985E1],"tree_param":{"num_deleted":"0","num_feature":"17","num_nodes":"7","size_leaf_vector":"1"}},{"base_weights":[-8.527027E-1,-9.934923E-1,4.141549E-1,-1.0224826E0,6.396382E-2,-4.7149416E-2,9.21475E-1,-5.1974144E-2,-6.758994E-1,3.411837E-1,1.1976317E0,-9.3598413E-1,3.5616666E-2,-4.4531673E-1,7.875504E-1,4.9896687E-1,6.443073E-2,-1.0609376E-2,-4.8788894E-2,-3.5415493E-2,7.5119124E-3,-1.0108004E-2,5.081401E-2,-1.2356745E-2,4.705178E-2],"categories":[],"categories_nodes":[],"categories_segments":[],"categories_sizes":[],"default_left":[0,0,0,0,0,0,0,0,0,0,0,0,0,0,0,0,0,0,0,0,0,0,0,0,0],"id":19,"left_children":[1,3,5,7,-1,-1,9,-1,11,13,15,17,-1,19,21,23,-1,-1,-1,-1,-1,-1,-1,-1,-1],"loss_changes":[5.7033447E1,2.015216E1,2.321593E1,9.645996E-1,0E0,0E0,3.4584732E0,0E0,6.4758573E0,3.5732975E0,3.7103653E-1,1.9568825E-1,0E0,7.2700983E-1,1.6128662E0,1.3770225E0,0E0,0E0,0E0,0E0,0E0,0E0,0E0,0E0,0E0],"parents":[2147483647,0,0,1,1,2,2,3,3,6,6,8,8,9,9,10,10,11,11,13,13,14,14,15,15],"right_children":[2,4,6,8,-1,-1,10,-1,12,14,16,18,-1,20,22,24,-1,-1,-1,-1,-1,-1,-1,-1,-1],"split_conditions":[6.4541373E0,1E0,1E0,3.8191507E0,6.396382E-2,-4.7149416E-2,2.0610143E2,-5.1974144E-2,6.5268E2,1.9109316E1,7.0864773E0,1.1382178E0,3.5616666E-2,7.1124887E0,7.406E1,5.151222E2,6.443073E-2,-1.0609376E-2,-4.8788894E-2,-3.5415493E-2,7.5119124E-3,-1.0108004E-2,5.081401E-2,-1.2356745E-2,4.705178E-2],"split_indices":[7,15,11,7,0,0,6,0,6,7,7,8,0,8,6,6,0,0,0,0,0,0,0,0,0],"split_type":[0,0,0,0,0,0,0,0,0,0,0,0,0,0,0,0,0,0,0,0,0,0,0,0,0],"sum_hessian":[3.1645816E2,2.8500095E2,3.1457218E1,2.819546E2,3.0463603E0,8.325833E0,2.3131384E1,2.6686542E2,1.5089167E1,8.179396E0,1.4951989E1,1.2982646E1,2.1065197E0,2.9622493E0,5.2171464E0,2.4698656E0,1.2482123E1,1.0065731E0,1.1976073E1,1.9235119E0,1.0387373E0,1.0011872E0,4.215959E0,1.0829961E0,1.3868694E0],"tree_param":{"num_deleted":"0","num_feature":"17","num_nodes":"25","size_leaf_vector":"1"}},{"base_weights":[-8.529101E-1,-1.0217683E0,1.3756307E0,-1.0403646E0,4.856064E-1,-2.879625E-2,7.514052E-2,-5.2140065E-2,-1.299377E-2,-2.644862E-2,4.9377207E-2],"categories":[],"categories_nodes":[],"categories_segments":[],"categories_sizes":[],"default_left":[0,0,0,0,0,0,0,0,0,0,0],"id":20,"left_children":[1,3,5,7,9,-1,-1,-1,-1,-1,-1],"loss_changes":[1.15232544E2,8.403198E0,6.259178E0,2.5891113E-1,2.6181502E0,0E0,0E0,0E0,0E0,0E0,0E0],"parents":[2147483647,0,0,1,1,2,2,3,3,4,4],"right_children":[2,4,6,8,10,-1,-1,-1,-1,-1,-1],"split_conditions":[2.93378E3,3.603073E3,1E0,1.2004714E1,8.2268E2,-2.879625E-2,7.514052E-2,-5.2140065E-2,-1.299377E-2,-2.644862E-2,4.9377207E-2],"split_indices":[0,8,11,8,0,0,0,0,0,0,0],"split_type":[0,0,0,0,0,0,0,0,0,0,0],"sum_hessian":[3.01484E2,2.807527E2,2.0731335E1,2.7763733E2,3.115355E0,1.052495E0,1.967884E1,2.764382E2,1.1991072E0,1.0132957E0,2.1020596E0],"tree_param":{"num_deleted":"0","num_feature":"17","num_nodes":"11","size_leaf_vector":"1"}},{"base_weights":[-8.363671E-1,-1.011211E0,1.3291289E0,-5.213706E-2,6.458373E-2,5.2425236E-1,7.3441416E-2,9.6284986E-1,-1.7673934E-2,1.432603E-2,5.7495322E-2],"categories":[],"categories_nodes":[],"categories_segments":[],"categories_sizes":[],"default_left":[0,0,0,0,0,0,0,0,0,0,0],"id":21,"left_children":[1,3,5,-1,-1,7,-1,9,-1,-1,-1],"loss_changes":[1.1179431E2,2.0987274E1,1.7290459E0,0E0,0E0,2.2044225E0,0E0,1.1297417E-1,0E0,0E0,0E0],"parents":[2147483647,0,0,1,1,2,2,5,5,7,7],"right_children":[2,4,6,-1,-1,8,-1,10,-1,-1,-1],"split_conditions":[2.93378E3,1E0,3.2747E3,-5.213706E-2,6.458373E-2,3E0,7.3441416E-2,4E0,-1.7673934E-2,1.432603E-2,5.7495322E-2],"split_indices":[0,15,0,0,0,5,0,4,0,0,0],"split_type":[0,0,0,0,0,0,0,0,0,0,0],"sum_hessian":[2.907151E2,2.6948932E2,2.122576E1,2.6638922E2,3.1000893E0,3.8421233E0,1.7383635E1,2.4972732E0,1.3448501E0,1.0895573E0,1.407716E0],"tree_param":{"num_deleted":"0","num_feature":"17","num_nodes":"11","size_leaf_vector":"1"}},{"base_weights":[-8.5320675E-1,-1.0060917E0,1.8746914E-1,-1.0211188E0,4.672612E-2,-4.8118915E-2,7.254047E-1,-5.1538963E-2,-6.290615E-1,3.0805176E-1,1.1459702E0,-4.4818368E-2,2.2248005E-2,-3.516015E-2,7.603618E-1,6.400447E-1,6.602849E-2,-2.626147E-3,5.560757E-2,-1.782115E-2,5.420596E-2],"categories":[],"categories_nodes":[],"categories_segments":[],"categories_sizes":[],"default_left":[0,0,0,0,0,0,0,0,0,0,0,0,0,0,0,0,0,0,0,0,0],"id":22,"left_children":[1,3,5,7,-1,-1,9,-1,11,13,15,-1,-1,-1,17,19,-1,-1,-1,-1,-1],"loss_changes":[4.414447E1,7.983429E0,2.3108572E1,2.5930786E-1,0E0,0E0,4.07959E0,0E0,2.7901628E0,6.9578853E0,2.3340416E-1,0E0,0E0,0E0,2.9705033E0,2.6314013E0,0E0,0E0,0E0,0E0,0E0],"parents":[2147483647,0,0,1,1,2,2,3,3,6,6,8,8,9,9,10,10,14,14,15,15],"right_children":[2,4,6,8,-1,-1,10,-1,12,14,16,-1,-1,-1,18,20,-1,-1,-1,-1,-1],"split_conditions":[5.0698376E0,1E0,1E0,3.8191507E0,4.672612E-2,-4.8118915E-2,3.5115906E2,-5.1538963E-2,6.5268E2,1.2264609E1,7.0864773E0,-4.4818368E-2,2.2248005E-2,-3.516015E-2,1.5073734E2,5.0216922E2,6.602849E-2,-2.626147E-3,5.560757E-2,-1.782115E-2,5.420596E-2],"split_indices":[7,15,11,7,0,0,6,0,6,7,7,0,0,0,6,6,0,0,0,0,0],"split_type":[0,0,0,0,0,0,0,0,0,0,0,0,0,0,0,0,0,0,0,0,0],"sum_hessian":[2.7527182E2,2.4004083E2,3.5230995E1,2.3866655E2,1.3742863E0,1.0977455E1,2.425354E1,2.3133711E2,7.329433E0,1.3042822E1,1.1210719E1,6.0012374E0,1.3281958E0,3.8594167E0,9.183405E0,4.0733705E0,7.1373487E0,3.030798E0,6.1526074E0,1.31654E0,2.7568305E0],"tree_param":{"num_deleted":"0","num_feature":"17","num_nodes":"21","size_leaf_vector":"1"}},{"base_weights":[-8.296193E-1,-1.0099019E0,1.3234499E0,-1.0324078E0,6.348221E-1,6.706081E-1,7.060122E-2,-5.175283E-2,-1.0008234E-2,-1.9561816E-3,4.978846E-2,-7.742353E-3,6.764874E-2],"categories":[],"categories_nodes":[],"categories_segments":[],"categories_sizes":[],"default_left":[0,0,0,0,0,0,0,0,0,0,0,0,0],"id":23,"left_children":[1,3,5,7,9,11,-1,-1,-1,-1,-1,-1,-1],"loss_changes":[1.0547691E2,9.840134E0,2.7677917E-1,3.3328247E-1,1.0043852E0,2.7062483E0,0E0,0E0,0E0,0E0,0E0,0E0,0E0],"parents":[2147483647,0,0,1,1,2,2,3,3,4,4,5,5],"right_children":[2,4,6,8,10,12,-1,-1,-1,-1,-1,-1,-1],"split_conditions":[2.93378E3,3.603073E3,3.2747E3,1.2004714E1,1.5225E3,7.9579186E0,7.060122E-2,-5.175283E-2,-1.0008234E-2,-1.9561816E-3,4.978846E-2,-7.742353E-3,6.764874E-2],"split_indices":[0,8,0,8,0,8,0,0,0,0,0,0,0],"split_type":[0,0,0,0,0,0,0,0,0,0,0,0,0],"sum_hessian":[2.6729178E2,2.4712985E2,2.0161934E1,2.4416113E2,2.9687245E0,3.4326434E0,1.6729292E1,2.4314357E2,1.0175639E0,1.3463966E0,1.622328E0,1.9033024E0,1.529341E0],"tree_param":{"num_deleted":"0","num_feature":"17","num_nodes":"13","size_leaf_vector":"1"}},{"base_weights":[-8.246686E-1,-1.0068489E0,1.2690744E0,-5.177619E-2,5.780678E-2,5.061228E-1,6.9085784E-2,4.739886E-2,-1.4066331E-2],"categories":[],"categories_nodes":[],"categories_segments":[],"categories_sizes":[],"default_left":[0,0,0,0,0,0,0,0,0],"id":24,"left_children":[1,3,5,-1,-1,7,-1,-1,-1],"loss_changes":[9.832062E1,1.5748184E1,1.0888596E0,0E0,0E0,1.7470989E0,0E0,0E0,0E0],"parents":[2147483647,0,0,1,1,2,2,5,5],"right_children":[2,4,6,-1,-1,8,-1,-1,-1],"split_conditions":[2.93378E3,1E0,3.2747E3,-5.177619E-2,5.780678E-2,-4.3989376E1,6.9085784E-2,4.739886E-2,-1.4066331E-2],"split_indices":[0,15,0,0,0,2,0,0,0],"split_type":[0,0,0,0,0,0,0,0,0],"sum_hessian":[2.5341266E2,2.3360535E2,1.980731E1,2.3106339E2,2.5419722E0,3.254804E0,1.6552505E1,1.9543302E0,1.3004736E0],"tree_param":{"num_deleted":"0","num_feature":"17","num_nodes":"9","size_leaf_vector":"1"}},{"base_weights":[-8.123525E-1,-9.982667E-1,1.1611115E0,-5.1666208E-2,6.0177933E-2,2.5418276E-1,6.740632E-2,6.469115E-1,-1.9051624E-2,-7.6523335E-3,5.3174492E-2],"categories":[],"categories_nodes":[],"categories_segments":[],"categories_sizes":[],"default_left":[0,0,0,0,0,0,0,0,0,0,0],"id":25,"left_children":[1,3,5,-1,-1,7,-1,9,-1,-1,-1],"loss_changes":[9.1193726E1,1.8596542E1,3.3191872E0,0E0,0E0,1.4746873E0,0E0,1.3001264E0,0E0,0E0,0E0],"parents":[2147483647,0,0,1,1,2,2,5,5,7,7],"right_children":[2,4,6,-1,-1,8,-1,10,-1,-1,-1],"split_conditions":[2.93378E3,1E0,3.2747E3,-5.1666208E-2,6.0177933E-2,-4.3989376E1,6.740632E-2,4E0,-1.9051624E-2,-7.6523335E-3,5.3174492E-2],"split_indices":[0,15,0,0,0,2,0,4,0,0,0],"split_type":[0,0,0,0,0,0,0,0,0,0,0],"sum_hessian":[2.4439615E2,2.2380618E2,2.0589968E1,2.2082097E2,2.9852123E0,3.9232626E0,1.6666704E1,2.4129915E0,1.5102713E0,1.0429045E0,1.3700869E0],"tree_param":{"num_deleted":"0","num_feature":"17","num_nodes":"11","size_leaf_vector":"1"}},{"base_weights":[-8.1750274E-1,-1.0034275E0,1.178942E0,-5.1559087E-2,5.480749E-2,4.6795085E-1,6.5898046E-2,-1.0815359E-1,5.91167E-2,3.34568E-2,-3.5642188E-2],"categories":[],"categories_nodes":[],"categories_segments":[],"categories_sizes":[],"default_left":[0,0,0,0,0,0,0,0,0,0,0],"id":26,"left_children":[1,3,5,-1,-1,7,-1,9,-1,-1,-1],"loss_changes":[8.751744E1,1.3560577E1,1.3872623E0,0E0,0E0,2.1307242E0,0E0,2.1738372E0,0E0,0E0,0E0],"parents":[2147483647,0,0,1,1,2,2,5,5,7,7],"right_children":[2,4,6,-1,-1,8,-1,10,-1,-1,-1],"split_conditions":[2.93378E3,1E0,3.2747E3,-5.1559087E-2,5.480749E-2,7.9579186E0,6.5898046E-2,1.1654596E0,5.91167E-2,3.34568E-2,-3.5642188E-2],"split_indices":[0,15,0,0,0,8,0,8,0,0,0],"split_type":[0,0,0,0,0,0,0,0,0,0,0],"sum_hessian":[2.3158919E2,2.123142E2,1.9274994E1,2.1004646E2,2.2677274E0,3.8664937E0,1.5408501E1,2.6101663E0,1.2563274E0,1.0954547E0,1.5147116E0],"tree_param":{"num_deleted":"0","num_feature":"17","num_nodes":"11","size_leaf_vector":"1"}},{"base_weights":[-8.134129E-1,-9.988406E-1,1.1215334E0,-5.1460702E-2,5.4608703E-2,3.7583584E-1,6.440617E-2,-1.7617227E-1,5.711486E-2,3.6879327E-2,-3.8522583E-2],"categories":[],"categories_nodes":[],"categories_segments":[],"categories_sizes":[],"default_left":[0,0,0,0,0,0,0,0,0,0,0],"id":27,"left_children":[1,3,5,-1,-1,7,-1,9,-1,-1,-1],"loss_changes":[8.211334E1,1.4240814E1,2.026722E0,0E0,0E0,2.3602054E0,0E0,2.6495829E0,0E0,0E0,0E0],"parents":[2147483647,0,0,1,1,2,2,5,5,7,7],"right_children":[2,4,6,-1,-1,8,-1,10,-1,-1,-1],"split_conditions":[2.93378E3,1E0,3.2747E3,-5.1460702E-2,5.4608703E-2,7.9579186E0,6.440617E-2,1.1382178E0,5.711486E-2,3.6879327E-2,-3.8522583E-2],"split_indices":[0,15,0,0,0,8,0,8,0,0,0],"split_type":[0,0,0,0,0,0,0,0,0,0,0],"sum_hessian":[2.2473796E2,2.0552602E2,1.9211956E1,2.0308388E2,2.4421382E0,4.102814E0,1.5109142E1,2.8327827E0,1.2700315E0,1.0212985E0,1.8114841E0],"tree_param":{"num_deleted":"0","num_feature":"17","num_nodes":"11","size_leaf_vector":"1"}},{"base_weights":[-8.024849E-1,-9.9593073E-1,1.1498237E0,-5.1359355E-2,5.3138126E-2,5.4864043E-1,6.358115E-2,-6.866172E-2,5.763256E-2,3.566203E-2,-3.4987304E-2],"categories":[],"categories_nodes":[],"categories_segments":[],"categories_sizes":[],"default_left":[0,0,0,0,0,0,0,0,0,0,0],"id":28,"left_children":[1,3,5,-1,-1,7,-1,9,-1,-1,-1],"loss_changes":[8.158644E1,1.3596237E1,7.423763E-1,0E0,0E0,1.9702733E0,0E0,2.2025526E0,0E0,0E0,0E0],"parents":[2147483647,0,0,1,1,2,2,5,5,7,7],"right_children":[2,4,6,-1,-1,8,-1,10,-1,-1,-1],"split_conditions":[2.93378E3,1E0,3.2747E3,-5.1359355E-2,5.3138126E-2,7.9579186E0,6.358115E-2,1.1382178E0,5.763256E-2,3.566203E-2,-3.4987304E-2],"split_indices":[0,15,0,0,0,8,0,8,0,0,0],"split_type":[0,0,0,0,0,0,0,0,0,0,0],"sum_hessian":[2.1199593E2,1.933296E2,1.8666323E1,1.9093181E2,2.3977957E0,4.071996E0,1.4594326E1,2.4521797E0,1.6198165E0,1.0370771E0,1.4151026E0],"tree_param":{"num_deleted":"0","num_feature":"17","num_nodes":"11","size_leaf_vector":"1"}},{"base_weights":[-8.153926E-1,-1.0021157E0,8.03179E-2,-5.107162E-2,4.186395E-2,-4.779483E-2,6.1334825E-1,3.6577234E-1,5.81441E-2,-4.6820208E-1,6.561148E-1,-3.4682054E-2,1.1934011E-2,8.10095E-3,5.287793E-2],"categories":[],"categories_nodes":[],"categories_segments":[],"categories_sizes":[],"default_left":[0,0,0,0,0,0,0,0,0,0,0,0,0,0,0],"id":29,"left_children":[1,3,5,-1,-1,-1,7,9,-1,11,13,-1,-1,-1,-1],"loss_changes":[3.3917297E1,6.806244E0,2.0373878E1,0E0,0E0,0E0,2.8760204E0,4.711153E0,0E0,1.0070313E0,2.5872173E0,0E0,0E0,0E0,0E0],"parents":[2147483647,0,0,1,1,2,2,6,6,7,7,9,9,10,10],"right_children":[2,4,6,-1,-1,-1,8,10,-1,12,14,-1,-1,-1,-1],"split_conditions":[3.8191507E0,1E0,1E0,-5.107162E-2,4.186395E-2,-4.779483E-2,5.2866437E2,7.4902835E0,5.81441E-2,8.248642E0,2.2616412E2,-3.4682054E-2,1.1934011E-2,8.10095E-3,5.287793E-2],"split_indices":[7,15,11,0,0,0,6,7,0,8,6,0,0,0,0],"split_type":[0,0,0,0,0,0,0,0,0,0,0,0,0,0,0],"sum_hessian":[2.0131297E2,1.6648756E2,3.4825405E1,1.651974E2,1.2901537E0,1.1559784E1,2.3265623E1,1.7187788E1,6.0778346E0,4.280364E0,1.2907424E1,3.2595575E0,1.0208064E0,6.4152017E0,6.492222E0],"tree_param":{"num_deleted":"0","num_feature":"17","num_nodes":"15","size_leaf_vector":"1"}},{"base_weights":[-8.0897135E-1,-9.891417E-1,2.0174588E-1,-5.0398853E-2,4.1035097E-2,-4.6104234E-2,6.5095776E-1,4.5153034E-1,5.4209538E-2,-2.9688526E-2,6.590535E-1,1.4445071E-2,4.7261845E-2],"categories":[],"categories_nodes":[],"categories_segments":[],"categories_sizes":[],"default_left":[0,0,0,0,0,0,0,0,0,0,0,0,0],"id":30,"left_children":[1,3,5,-1,-1,-1,7,9,-1,-1,11,-1,-1],"loss_changes":[3.600305E1,6.521347E0,1.6036339E1,0E0,0E0,0E0,1.4484491E0,4.095069E0,0E0,0E0,1.2861934E0,0E0,0E0],"parents":[2147483647,0,0,1,1,2,2,6,6,7,7,10,10],"right_children":[2,4,6,-1,-1,-1,8,10,-1,-1,12,-1,-1],"split_conditions":[4.8537025E0,1E0,1E0,-5.0398853E-2,4.1035097E-2,-4.6104234E-2,5.2404724E2,7.0864773E0,5.4209538E-2,-2.9688526E-2,2.1365E2,1.4445071E-2,4.7261845E-2],"split_indices":[7,15,11,0,0,0,6,7,0,0,6,0,0],"split_type":[0,0,0,0,0,0,0,0,0,0,0,0,0],"sum_hessian":[1.956131E2,1.6603676E2,2.9576344E1,1.6476509E2,1.2716739E0,8.145473E0,2.1430872E1,1.6073906E1,5.3569665E0,2.3542497E0,1.3719656E1,6.8584166E0,6.8612394E0],"tree_param":{"num_deleted":"0","num_feature":"17","num_nodes":"13","size_leaf_vector":"1"}},{"base_weights":[-7.9057825E-1,-9.823918E-1,1.1304018E0,-5.110071E-2,5.341464E-2,5.880647E-1,6.0898658E-2,-9.00165E-3,6.285366E-2],"categories":[],"categories_nodes":[],"categories_segments":[],"categories_sizes":[],"default_left":[0,0,0,0,0,0,0,0,0],"id":31,"left_children":[1,3,5,-1,-1,7,-1,-1,-1],"loss_changes":[7.025759E1,1.4998901E1,1.149807E-1,0E0,0E0,2.470225E0,0E0,0E0,0E0],"parents":[2147483647,0,0,1,1,2,2,5,5],"right_children":[2,4,6,-1,-1,8,-1,-1,-1],"split_conditions":[2.93378E3,1E0,3.2747E3,-5.110071E-2,5.341464E-2,5.982694E0,6.0898658E-2,-9.00165E-3,6.285366E-2],"split_indices":[0,15,0,0,0,8,0,0,0],"split_type":[0,0,0,0,0,0,0,0,0],"sum_hessian":[1.866601E2,1.7015808E2,1.6502012E1,1.674248E2,2.7332795E0,3.3667417E0,1.3135269E1,1.9075515E0,1.4591902E0],"tree_param":{"num_deleted":"0","num_feature":"17","num_nodes":"9","size_leaf_vector":"1"}},{"base_weights":[-7.90971E-1,-9.9409086E-1,1.4063247E-1,-5.0568182E-2,3.637602E-2,3.5874277E-1,-4.311108E-2,1.0057956E-1,1.074367E0,-4.2421022E-1,3.8378167E-1,1.7493354E-2,5.7710122E-2,-4.0024247E-2,3.161421E-2,1.1549636E-3,5.2499127E-2],"categories":[],"categories_nodes":[],"categories_segments":[],"categories_sizes":[],"default_left":[0,0,0,0,0,0,0,0,0,0,0,0,0,0,0,0,0],"id":32,"left_children":[1,3,5,-1,-1,7,-1,9,11,13,15,-1,-1,-1,-1,-1,-1],"loss_changes":[3.3712296E1,5.070984E0,7.447605E0,0E0,0E0,4.9745636E0,0E0,3.331546E0,1.2072563E-2,3.6657085E0,3.4293664E0,0E0,0E0,0E0,0E0,0E0,0E0],"parents":[2147483647,0,0,1,1,2,2,5,5,7,7,8,8,9,9,10,10],"right_children":[2,4,6,-1,-1,8,-1,10,12,14,16,-1,-1,-1,-1,-1,-1],"split_conditions":[3.8191507E0,1E0,1E0,-5.0568182E-2,3.637602E-2,9.397335E0,-4.311108E-2,7.0864773E0,1.9957333E2,6.5268E2,3.361975E2,1.7493354E-2,5.7710122E-2,-4.0024247E-2,3.161421E-2,1.1549636E-3,5.2499127E-2],"split_indices":[7,15,10,0,0,8,0,7,6,6,6,0,0,0,0,0,0],"split_type":[0,0,0,0,0,0,0,0,0,0,0,0,0,0,0,0,0],"sum_hessian":[1.7641899E2,1.4478424E2,3.1634748E1,1.4375452E2,1.029728E0,2.6511131E1,5.1236167E0,2.0320875E1,6.190257E0,6.9479737E0,1.3372901E1,1.1486552E0,5.0416017E0,5.3019743E0,1.6459993E0,9.347059E0,4.025842E0],"tree_param":{"num_deleted":"0","num_feature":"17","num_nodes":"17","size_leaf_vector":"1"}},{"base_weights":[-7.856075E-1,-8.488264E-1,5.5303313E-2,-5.0819274E-2,-3.9807996E-1,-4.907151E-2,9.877378E-2,2.070127E-1,-3.2500878E-1,5.635123E-3,2.7144331E-2,-2.7553705E-2,1.009982E-2],"categories":[],"categories_nodes":[],"categories_segments":[],"categories_sizes":[],"default_left":[0,0,0,0,0,0,0,0,0,0,0,0,0],"id":33,"left_children":[1,3,-1,-1,5,-1,7,9,11,-1,-1,-1,-1],"loss_changes":[2.1484047E1,1.2193817E1,0E0,0E0,1.3675412E1,0E0,1.269451E0,6.194509E-1,7.929186E-1,0E0,0E0,0E0,0E0],"parents":[2147483647,0,0,1,1,4,4,6,6,7,7,8,8],"right_children":[2,4,-1,-1,6,-1,8,10,12,-1,-1,-1,-1],"split_conditions":[1E0,1E0,5.5303313E-2,-5.0819274E-2,1E0,-4.907151E-2,4.8424244E1,3.701115E1,8.3354614E1,5.635123E-3,2.7144331E-2,-2.7553705E-2,1.009982E-2],"split_indices":[15,14,0,0,11,0,1,1,1,0,0,0,0],"split_type":[0,0,0,0,0,0,0,0,0,0,0,0,0],"sum_hessian":[1.7079753E2,1.6580759E2,4.989931E0,1.1995939E2,4.5848206E1,2.0639875E1,2.5208328E1,2.048718E1,4.721149E0,1.7038483E1,3.4486966E0,3.2719395E0,1.4492092E0],"tree_param":{"num_deleted":"0","num_feature":"17","num_nodes":"13","size_leaf_vector":"1"}},{"base_weights":[-7.8416395E-1,-9.864975E-1,1.0774211E0,-4.975937E-2,-3.9591363E-1,5.2221763E-1,5.920365E-2,-3.2088026E-2,4.5227925E-3,4.2792372E-2,-2.017632E-3],"categories":[],"categories_nodes":[],"categories_segments":[],"categories_sizes":[],"default_left":[0,0,0,0,0,0,0,0,0,0,0],"id":34,"left_children":[1,3,5,-1,7,9,-1,-1,-1,-1,-1],"loss_changes":[6.2149338E1,3.5940552E-1,3.5139465E-1,0E0,5.111553E-1,8.656316E-1,0E0,0E0,0E0,0E0,0E0],"parents":[2147483647,0,0,1,1,2,2,4,4,5,5],"right_children":[2,4,6,-1,8,10,-1,-1,-1,-1,-1],"split_conditions":[2.93378E3,2.77936E3,3.2747E3,-4.975937E-2,4.008601E1,-4.3989376E1,5.920365E-2,-3.2088026E-2,4.5227925E-3,4.2792372E-2,-2.017632E-3],"split_indices":[0,0,0,0,1,2,0,0,0,0,0],"split_type":[0,0,0,0,0,0,0,0,0,0,0],"sum_hessian":[1.6117886E2,1.4580191E2,1.5376966E1,1.4301253E2,2.7893717E0,3.4280193E0,1.1948947E1,1.6406002E0,1.1487715E0,1.82462E0,1.6033992E0],"tree_param":{"num_deleted":"0","num_feature":"17","num_nodes":"11","size_leaf_vector":"1"}},{"base_weights":[-7.896139E-1,-9.8515224E-1,9.7395337E-1,-5.079757E-2,4.5483675E-2,1.4217846E-1,5.888024E-2,-2.9585967E-2,5.5251473E-1,4.0286195E-2,1.2129067E-3],"categories":[],"categories_nodes":[],"categories_segments":[],"categories_sizes":[],"default_left":[0,0,0,0,0,0,0,0,0,0,0],"id":35,"left_children":[1,3,5,-1,-1,7,-1,-1,9,-1,-1],"loss_changes":[5.5334473E1,9.236771E0,2.583643E0,0E0,0E0,1.6313795E0,0E0,0E0,4.2124283E-1,0E0,0E0],"parents":[2147483647,0,0,1,1,2,2,5,5,8,8],"right_children":[2,4,6,-1,-1,8,-1,-1,10,-1,-1],"split_conditions":[2.93378E3,1E0,3.2747E3,-5.079757E-2,4.5483675E-2,3E0,5.888024E-2,-2.9585967E-2,1.5E1,4.0286195E-2,1.2129067E-3],"split_indices":[0,15,0,0,0,4,0,0,3,0,0],"split_type":[0,0,0,0,0,0,0,0,0,0,0],"sum_hessian":[1.5667946E2,1.4143861E2,1.5240845E1,1.396328E2,1.8058159E0,3.3316226E0,1.1909222E1,1.0362412E0,2.2953813E0,1.1965759E0,1.0988054E0],"tree_param":{"num_deleted":"0","num_feature":"17","num_nodes":"11","size_leaf_vector":"1"}},{"base_weights":[-7.564985E-1,-9.7288465E-1,1.0086241E0,-5.071931E-2,4.8354123E-2,3.8538086E-1,5.7953436E-2,-3.225509E-3,3.260845E-2],"categories":[],"categories_nodes":[],"categories_segments":[],"categories_sizes":[],"default_left":[0,0,0,0,0,0,0,0,0],"id":36,"left_children":[1,3,5,-1,-1,7,-1,-1,-1],"loss_changes":[5.8515198E1,1.1825272E1,1.1417179E0,0E0,0E0,6.172597E-1,0E0,0E0,0E0],"parents":[2147483647,0,0,1,1,2,2,5,5],"right_children":[2,4,6,-1,-1,8,-1,-1,-1],"split_conditions":[2.93378E3,1E0,3.2747E3,-5.071931E-2,4.8354123E-2,3E0,5.7953436E-2,-3.225509E-3,3.260845E-2],"split_indices":[0,15,0,0,0,4,0,0,0],"split_type":[0,0,0,0,0,0,0,0,0],"sum_hessian":[1.4963287E2,1.3369237E2,1.5940502E1,1.3135933E2,2.3330417E0,3.7922127E0,1.214829E1,1.6939173E0,2.0982955E0],"tree_param":{"num_deleted":"0","num_feature":"17","num_nodes":"9","size_leaf_vector":"1"}},{"base_weights":[-7.58682E-1,-9.669703E-1,9.737814E-1,-5.0648075E-2,4.8795383E-2,2.5204396E-1,5.710376E-2,-2.9093167E-1,5.025344E-2,1.2672149E-2,-3.277158E-2],"categories":[],"categories_nodes":[],"categories_segments":[],"categories_sizes":[],"default_left":[0,0,0,0,0,0,0,0,0,0,0],"id":37,"left_children":[1,3,5,-1,-1,7,-1,9,-1,-1,-1],"loss_changes":[5.2757095E1,1.2487068E1,1.6445236E0,0E0,0E0,2.0470448E0,0E0,8.1475914E-1,0E0,0E0,0E0],"parents":[2147483647,0,0,1,1,2,2,5,5,7,7],"right_children":[2,4,6,-1,-1,8,-1,10,-1,-1,-1],"split_conditions":[2.93378E3,1E0,3.2747E3,-5.0648075E-2,4.8795383E-2,9.17933E0,5.710376E-2,3.2608755E0,5.025344E-2,1.2672149E-2,-3.277158E-2],"split_indices":[0,15,0,0,0,8,0,8,0,0,0],"split_type":[0,0,0,0,0,0,0,0,0,0,0],"sum_hessian":[1.425921E2,1.27683044E2,1.4909055E1,1.2519803E2,2.4850197E0,3.2913902E0,1.1617664E1,2.268974E0,1.0224159E0,1.0321532E0,1.2368209E0],"tree_param":{"num_deleted":"0","num_feature":"17","num_nodes":"11","size_leaf_vector":"1"}},{"base_weights":[-7.8119975E-1,-9.720483E-1,9.2777723E-1,-5.0575055E-2,4.5172043E-2,2.5766438E-1,5.5667963E-2,3.906319E-2,-1.1257712E-2],"categories":[],"categories_nodes":[],"categories_segments":[],"categories_sizes":[],"default_left":[0,0,0,0,0,0,0,0,0],"id":38,"left_children":[1,3,5,-1,-1,7,-1,-1,-1],"loss_changes":[4.5066765E1,9.9629135E0,1.4684095E0,0E0,0E0,1.2786933E0,0E0,0E0,0E0],"parents":[2147483647,0,0,1,1,2,2,5,5],"right_children":[2,4,6,-1,-1,8,-1,-1,-1],"split_conditions":[2.93378E3,1E0,3.2747E3,-5.0575055E-2,4.5172043E-2,-1.0139367E2,5.5667963E-2,3.906319E-2,-1.1257712E-2],"split_indices":[0,15,0,0,0,2,0,0,0],"split_type":[0,0,0,0,0,0,0,0,0],"sum_hessian":[1.3441052E2,1.2129609E2,1.3114426E1,1.1924826E2,2.0478303E0,3.362235E0,9.752191E0,1.3164555E0,2.0457797E0],"tree_param":{"num_deleted":"0","num_feature":"17","num_nodes":"9","size_leaf_vector":"1"}},{"base_weights":[-7.538143E-1,-9.5770174E-1,9.003467E-1,-5.049908E-2,4.821533E-2,9.7691946E-2,5.553003E-2,2.9755577E-2,-2.084142E-2],"categories":[],"categories_nodes":[],"categories_segments":[],"categories_sizes":[],"default_left":[0,0,0,0,0,0,0,0,0],"id":39,"left_children":[1,3,5,-1,-1,7,-1,-1,-1],"loss_changes":[4.4454994E1,1.2585251E1,2.3720913E0,0E0,0E0,1.3095499E0,0E0,0E0,0E0],"parents":[2147483647,0,0,1,1,2,2,5,5],"right_children":[2,4,6,-1,-1,8,-1,-1,-1],"split_conditions":[2.93378E3,1E0,3.2747E3,-5.049908E-2,4.821533E-2,-4.3989376E1,5.553003E-2,2.9755577E-2,-2.084142E-2],"split_indices":[0,15,0,0,0,2,0,0,0],"split_type":[0,0,0,0,0,0,0,0,0],"sum_hessian":[1.2825453E2,1.14555725E2,1.3698799E1,1.119842E2,2.571528E0,3.1475408E0,1.0551258E1,1.5207253E0,1.6268156E0],"tree_param":{"num_deleted":"0","num_feature":"17","num_nodes":"9","size_leaf_vector":"1"}},{"base_weights":[-7.525931E-1,-9.645425E-1,9.095053E-1,-5.0206352E-2,4.1098556E-1,3.16316E-1,5.4798108E-2,-9.268721E-3,3.7656244E-2,-3.366252E-1,5.4855537E-2,7.596731E-3,-3.2428842E-2],"categories":[],"categories_nodes":[],"categories_segments":[],"categories_sizes":[],"default_left":[0,0,0,0,0,0,0,0,0,0,0,0,0],"id":40,"left_children":[1,3,5,-1,7,9,-1,-1,-1,11,-1,-1,-1],"loss_changes":[4.4822586E1,6.4632416E0,1.2706957E0,0E0,9.186195E-1,2.8688736E0,0E0,0E0,0E0,6.220999E-1,0E0,0E0,0E0],"parents":[2147483647,0,0,1,1,2,2,4,4,5,5,9,9],"right_children":[2,4,6,-1,8,10,-1,-1,-1,12,-1,-1,-1],"split_conditions":[2.93378E3,1.2004714E1,3.2747E3,-5.0206352E-2,1.83151E3,7.9579186E0,5.4798108E-2,-9.268721E-3,3.7656244E-2,1.5970832E0,5.4855537E-2,7.596731E-3,-3.2428842E-2],"split_indices":[0,8,0,0,0,8,0,0,0,8,0,0,0],"split_type":[0,0,0,0,0,0,0,0,0,0,0,0,0],"sum_hessian":[1.2374518E2,1.1012218E2,1.3623006E1,1.07304214E2,2.8179593E0,3.902892E0,9.720114E0,1.1943531E0,1.6236062E0,2.4352653E0,1.4676268E0,1.148893E0,1.2863722E0],"tree_param":{"num_deleted":"0","num_feature":"17","num_nodes":"13","size_leaf_vector":"1"}},{"base_weights":[-7.4146986E-1,-9.692567E-1,9.22528E-1,-5.0123543E-2,3.055865E-1,3.5266548E-1,5.449262E-2,-1.5860643E-2,3.5063434E-2,7.5969946E-1,-1.8262805E-2,5.018838E-2,1.1574852E-2],"categories":[],"categories_nodes":[],"categories_segments":[],"categories_sizes":[],"default_left":[0,0,0,0,0,0,0,0,0,0,0,0,0],"id":41,"left_children":[1,3,5,-1,7,9,-1,-1,-1,11,-1,-1,-1],"loss_changes":[4.6382576E1,4.7967224E0,1.0423622E0,0E0,1.0748912E0,1.7019227E0,0E0,0E0,0E0,2.1052909E-1,0E0,0E0,0E0],"parents":[2147483647,0,0,1,1,2,2,4,4,5,5,9,9],"right_children":[2,4,6,-1,8,10,-1,-1,-1,12,-1,-1,-1],"split_conditions":[2.93378E3,1.2004714E1,3.2747E3,-5.0123543E-2,1.83151E3,3E0,5.449262E-2,-1.5860643E-2,3.5063434E-2,-1.0128939E1,-1.8262805E-2,5.018838E-2,1.1574852E-2],"split_indices":[0,8,0,0,0,5,0,0,0,1,0,0,0],"split_type":[0,0,0,0,0,0,0,0,0,0,0,0,0],"sum_hessian":[1.1901052E2,1.050479E2,1.396263E1,1.02588745E2,2.459147E0,3.874564E0,1.0088066E1,1.0324291E0,1.4267179E0,2.435523E0,1.4390408E0,1.05E0,1.3855232E0],"tree_param":{"num_deleted":"0","num_feature":"17","num_nodes":"13","size_leaf_vector":"1"}},{"base_weights":[-7.4543583E-1,-9.6721023E-1,1.4373466E-1,-4.919503E-2,1.812358E-3,-4.4591222E-2,5.8374494E-1,2.7953568E-1,5.0311353E-2,-2.1547133E-1,4.89672E-1,-2.9091207E-2,2.2128502E-2,4.262362E-3,4.7203284E-2],"categories":[],"categories_nodes":[],"categories_segments":[],"categories_sizes":[],"default_left":[0,0,0,0,0,0,0,0,0,0,0,0,0,0,0],"id":42,"left_children":[1,3,5,-1,-1,-1,7,9,-1,11,13,-1,-1,-1,-1],"loss_changes":[2.2619095E1,1.5659561E0,1.1286803E1,0E0,0E0,0E0,1.9275861E0,1.2888848E0,0E0,1.2422163E0,1.4432954E0,0E0,0E0,0E0,0E0],"parents":[2147483647,0,0,1,1,2,2,6,6,7,7,9,9,10,10],"right_children":[2,4,6,-1,-1,-1,8,10,-1,12,14,-1,-1,-1,-1],"split_conditions":[3.8191507E0,1.2004714E1,1E0,-4.919503E-2,1.812358E-3,-4.4591222E-2,7.50105E0,7.0864773E0,5.0311353E-2,5.5562E2,3.3847272E2,-2.9091207E-2,2.2128502E-2,4.262362E-3,4.7203284E-2],"split_indices":[7,8,11,0,0,0,8,7,0,6,6,0,0,0,0],"split_type":[0,0,0,0,0,0,0,0,0,0,0,0,0,0,0],"sum_hessian":[1.12999054E2,9.037116E1,2.2627892E1,8.89118E1,1.4593636E0,6.441372E0,1.618652E1,1.0376528E1,5.809993E0,3.0846925E0,7.291835E0,2.05592E0,1.0287726E0,4.4864016E0,2.8054335E0],"tree_param":{"num_deleted":"0","num_feature":"17","num_nodes":"15","size_leaf_vector":"1"}},{"base_weights":[-7.495145E-1,-9.5683044E-1,8.5187143E-1,-5.0249804E-2,4.344527E-2,9.727588E-2,5.3194966E-2,-1.5605867E-2,2.2608487E-2],"categories":[],"categories_nodes":[],"categories_segments":[],"categories_sizes":[],"default_left":[0,0,0,0,0,0,0,0,0],"id":43,"left_children":[1,3,5,-1,-1,7,-1,-1,-1],"loss_changes":[3.7109653E1,9.426384E0,1.9860163E0,0E0,0E0,7.172514E-1,0E0,0E0,0E0],"parents":[2147483647,0,0,1,1,2,2,5,5],"right_children":[2,4,6,-1,-1,8,-1,-1,-1],"split_conditions":[2.93378E3,1E0,3.2747E3,-5.0249804E-2,4.344527E-2,4E0,5.3194966E-2,-1.5605867E-2,2.2608487E-2],"split_indices":[0,15,0,0,0,4,0,0,0],"split_type":[0,0,0,0,0,0,0,0,0],"sum_hessian":[1.0832333E2,9.626353E1,1.2059809E1,9.422721E1,2.0363154E0,2.9652894E0,9.094519E0,1.4328904E0,1.532399E0],"tree_param":{"num_deleted":"0","num_feature":"17","num_nodes":"9","size_leaf_vector":"1"}},{"base_weights":[-7.329857E-1,-9.631468E-1,8.8752604E-1,-5.0180763E-2,2.859704E-2,3.0590844E-1,5.2851047E-2,-1.196581E-2,4.258488E-2],"categories":[],"categories_nodes":[],"categories_segments":[],"categories_sizes":[],"default_left":[0,0,0,0,0,0,0,0,0],"id":44,"left_children":[1,3,5,-1,-1,7,-1,-1,-1],"loss_changes":[3.9950916E1,6.305725E0,1.0130777E0,0E0,0E0,1.5329398E0,0E0,0E0,0E0],"parents":[2147483647,0,0,1,1,2,2,5,5],"right_children":[2,4,6,-1,-1,8,-1,-1,-1],"split_conditions":[2.93378E3,3.603073E3,3.2747E3,-5.0180763E-2,2.859704E-2,7.9579186E0,5.2851047E-2,-1.196581E-2,4.258488E-2],"split_indices":[0,8,0,0,0,8,0,0,0],"split_type":[0,0,0,0,0,0,0,0,0],"sum_hessian":[1.0382125E2,9.12646E1,1.2556647E1,8.925778E1,2.0068235E0,3.4664462E0,9.090201E0,2.0150266E0,1.4514197E0],"tree_param":{"num_deleted":"0","num_feature":"17","num_nodes":"9","size_leaf_vector":"1"}},{"base_weights":[-7.388719E-1,-9.662674E-1,1.2848571E-1,-4.946696E-2,4.969941E-3,2.952704E-1,-3.7386674E-2,3.5318717E-2,7.732945E-1,-1.1519431E-1,2.548862E-2,1.09350085E-2,4.8699364E-2,2.5461499E-2,-1.3427838E-2],"categories":[],"categories_nodes":[],"categories_segments":[],"categories_sizes":[],"default_left":[0,0,0,0,0,0,0,0,0,0,0,0,0,0,0],"id":45,"left_children":[1,3,5,-1,-1,7,-1,9,11,13,-1,-1,-1,-1,-1],"loss_changes":[1.9810886E1,2.0455933E0,3.3796713E0,0E0,0E0,2.3182688E0,0E0,1.0066912E0,5.217202E-1,1.1799456E0,0E0,0E0,0E0,0E0,0E0],"parents":[2147483647,0,0,1,1,2,2,5,5,7,7,8,8,9,9],"right_children":[2,4,6,-1,-1,8,-1,10,12,14,-1,-1,-1,-1,-1],"split_conditions":[3.8191507E0,1.2004714E1,1E0,-4.946696E-2,4.969941E-3,7.9579186E0,-3.7386674E-2,2.2698492E1,2.9880075E1,1.1382178E0,2.548862E-2,1.09350085E-2,4.8699364E-2,2.5461499E-2,-1.3427838E-2],"split_indices":[7,8,10,0,0,8,0,7,1,8,0,0,0,0,0],"split_type":[0,0,0,0,0,0,0,0,0,0,0,0,0,0,0],"sum_hessian":[9.881448E1,7.819899E1,2.0615498E1,7.661195E1,1.5870339E0,1.787591E1,2.739588E0,1.2274736E1,5.601173E0,9.893412E0,2.3813243E0,2.0436041E0,3.5575688E0,1.4932246E0,8.4001875E0],"tree_param":{"num_deleted":"0","num_feature":"17","num_nodes":"15","size_leaf_vector":"1"}},{"base_weights":[-7.60324E-1,-9.3294054E-1,5.1873285E-2,-9.7801805E-1,4.0189404E-2,-5.0068807E-2,-2.1382062E-1,8.493658E-3,-3.072529E-2],"categories":[],"categories_nodes":[],"categories_segments":[],"categories_sizes":[],"default_left":[0,0,0,0,0,0,0,0,0],"id":46,"left_children":[1,3,-1,5,-1,-1,7,-1,-1],"loss_changes":[3.0524864E1,7.630554E0,0E0,1.3150558E0,0E0,0E0,6.9048905E-1,0E0,0E0],"parents":[2147483647,0,0,1,1,3,3,6,6],"right_children":[2,4,-1,6,-1,-1,8,-1,-1],"split_conditions":[3.2747E3,1E0,5.1873285E-2,2.93378E3,4.0189404E-2,-5.0068807E-2,3E0,8.493658E-3,-3.072529E-2],"split_indices":[0,15,0,0,0,0,5,0,0],"split_type":[0,0,0,0,0,0,0,0,0],"sum_hessian":[9.424425E1,8.642694E1,7.8173037E0,8.466625E1,1.7606877E0,8.185397E1,2.8122768E0,1.7308594E0,1.0814176E0],"tree_param":{"num_deleted":"0","num_feature":"17","num_nodes":"9","size_leaf_vector":"1"}},{"base_weights":[-7.210923E-1,-9.575019E-1,8.0270475E-1,-5.000606E-2,3.891886E-2,2.2751693E-1,5.15723E-2,2.3792144E-2,-9.886689E-3],"categories":[],"categories_nodes":[],"categories_segments":[],"categories_sizes":[],"default_left":[0,0,0,0,0,0,0,0,0],"id":47,"left_children":[1,3,5,-1,-1,7,-1,-1,-1],"loss_changes":[3.421771E1,6.7589874E0,1.4776688E0,0E0,0E0,6.206244E-1,0E0,0E0,0E0],"parents":[2147483647,0,0,1,1,2,2,5,5],"right_children":[2,4,6,-1,-1,8,-1,-1,-1],"split_conditions":[2.93378E3,1E0,3.2747E3,-5.000606E-2,3.891886E-2,3E0,5.15723E-2,2.3792144E-2,-9.886689E-3],"split_indices":[0,15,0,0,0,5,0,0,0],"split_type":[0,0,0,0,0,0,0,0,0],"sum_hessian":[9.1852234E1,7.983748E1,1.2014756E1,7.8337975E1,1.4995021E0,3.9860835E0,8.028673E0,2.4414337E0,1.54465E0],"tree_param":{"num_deleted":"0","num_feature":"17","num_nodes":"9","size_leaf_vector":"1"}},{"base_weights":[-7.051305E-1,-9.3852246E-1,7.836226E-1,-4.9583685E-2,4.5483455E-1,1.6347197E-1,5.0926972E-2,-4.727073E-3,3.550765E-2,-3.0501175E-1,3.7275136E-2,1.0336592E-2,-3.1596046E-2],"categories":[],"categories_nodes":[],"categories_segments":[],"categories_sizes":[],"default_left":[0,0,0,0,0,0,0,0,0,0,0,0,0],"id":48,"left_children":[1,3,5,-1,7,9,-1,-1,-1,11,-1,-1,-1],"loss_changes":[3.1588375E1,6.1695633E0,1.6660256E0,0E0,5.612715E-1,1.4944978E0,0E0,0E0,0E0,6.800813E-1,0E0,0E0,0E0],"parents":[2147483647,0,0,1,1,2,2,4,4,5,5,9,9],"right_children":[2,4,6,-1,8,10,-1,-1,-1,12,-1,-1,-1],"split_conditions":[2.93378E3,1.2004714E1,3.2747E3,-4.9583685E-2,1.83151E3,7.9579186E0,5.0926972E-2,-4.727073E-3,3.550765E-2,1.2057557E0,3.7275136E-2,1.0336592E-2,-3.1596046E-2],"split_indices":[0,8,0,0,0,8,0,0,0,8,0,0,0],"split_type":[0,0,0,0,0,0,0,0,0,0,0,0,0],"sum_hessian":[8.779485E1,7.621604E1,1.1578805E1,7.3693214E1,2.5228286E0,3.6470158E0,7.931789E0,1.0002575E0,1.5225711E0,2.284304E0,1.3627119E0,1.0337259E0,1.250578E0],"tree_param":{"num_deleted":"0","num_feature":"17","num_nodes":"13","size_leaf_vector":"1"}},{"base_weights":[-7.025647E-1,-9.414499E-1,8.410444E-1,-4.988202E-2,4.0718224E-2,3.3867183E-1,5.0393082E-2,-6.076102E-2,3.8611922E-2,2.9220743E-2,-3.1142682E-2],"categories":[],"categories_nodes":[],"categories_segments":[],"categories_sizes":[],"default_left":[0,0,0,0,0,0,0,0,0,0,0],"id":49,"left_children":[1,3,5,-1,-1,7,-1,9,-1,-1,-1],"loss_changes":[3.196587E1,8.081993E0,6.524267E-1,0E0,0E0,8.1967354E-1,0E0,1.5424441E0,0E0,0E0,0E0],"parents":[2147483647,0,0,1,1,2,2,5,5,7,7],"right_children":[2,4,6,-1,-1,8,-1,10,-1,-1,-1],"split_conditions":[2.93378E3,1E0,3.2747E3,-4.988202E-2,4.0718224E-2,7.9579186E0,5.0393082E-2,1.1654596E0,3.8611922E-2,2.9220743E-2,-3.1142682E-2],"split_indices":[0,15,0,0,0,8,0,8,0,0,0],"split_type":[0,0,0,0,0,0,0,0,0,0,0],"sum_hessian":[8.3540924E1,7.2682816E1,1.0858113E1,7.084733E1,1.8354853E0,3.4621105E0,7.396003E0,2.2495344E0,1.212576E0,1.0288718E0,1.2206627E0],"tree_param":{"num_deleted":"0","num_feature":"17","num_nodes":"11","size_leaf_vector":"1"}},{"base_weights":[-6.927814E-1,-9.432923E-1,8.2859606E-1,-4.9814228E-2,3.8890414E-2,3.244203E-1,4.9965706E-2,5.521922E-1,-5.9593986E-3,3.939017E-3,3.84928E-2],"categories":[],"categories_nodes":[],"categories_segments":[],"categories_sizes":[],"default_left":[0,0,0,0,0,0,0,0,0,0,0],"id":50,"left_children":[1,3,5,-1,-1,7,-1,9,-1,-1,-1],"loss_changes":[3.1547592E1,7.139164E0,7.0395756E-1,0E0,0E0,5.207366E-1,0E0,2.6418823E-1,0E0,0E0,0E0],"parents":[2147483647,0,0,1,1,2,2,5,5,7,7],"right_children":[2,4,6,-1,-1,8,-1,10,-1,-1,-1],"split_conditions":[2.93378E3,1E0,3.2747E3,-4.9814228E-2,3.8890414E-2,3E0,4.9965706E-2,5.151222E2,-5.9593986E-3,3.939017E-3,3.84928E-2],"split_indices":[0,15,0,0,0,5,0,6,0,0,0],"split_type":[0,0,0,0,0,0,0,0,0,0,0],"sum_hessian":[7.972483E1,6.8779526E1,1.0945303E1,6.713364E1,1.6458936E0,3.5023274E0,7.4429755E0,2.152398E0,1.3499293E0,1.1068879E0,1.0455103E0],"tree_param":{"num_deleted":"0","num_feature":"17","num_nodes":"11","size_leaf_vector":"1"}},{"base_weights":[-7.020483E-1,-7.802317E-1,4.4492878E-2,-4.9505826E-2,-3.0459562E-1,-4.5855306E-2,1.2520625E-1,4.1040936E-1,4.2886995E-3,3.2224372E-2,4.344758E-3,-1.5967304E-2,3.922956E-3],"categories":[],"categories_nodes":[],"categories_segments":[],"categories_sizes":[],"default_left":[0,0,0,0,0,0,0,0,0,0,0,0,0],"id":51,"left_children":[1,3,-1,-1,5,-1,7,9,11,-1,-1,-1,-1],"loss_changes":[1.0211609E1,7.0280037E0,0E0,0E0,6.412931E0,0E0,5.134108E-1,2.80016E-1,3.0113477E-1,0E0,0E0,0E0,0E0],"parents":[2147483647,0,0,1,1,4,4,6,6,7,7,8,8],"right_children":[2,4,-1,-1,6,-1,8,10,12,-1,-1,-1,-1],"split_conditions":[1E0,1E0,4.4492878E-2,-4.9505826E-2,1E0,-4.5855306E-2,-9.9883934E1,1.9750131E0,-5.57261E1,3.2224372E-2,4.344758E-3,-1.5967304E-2,3.922956E-3],"split_indices":[15,14,0,0,11,0,2,8,2,0,0,0,0],"split_type":[0,0,0,0,0,0,0,0,0,0,0,0,0],"sum_hessian":[7.546851E1,7.242155E1,3.0469687E0,4.9497864E1,2.292368E1,8.985153E0,1.3938526E1,3.4372063E0,1.050132E1,1.4186206E0,2.018586E0,1.3416408E0,9.159678E0],"tree_param":{"num_deleted":"0","num_feature":"17","num_nodes":"13","size_leaf_vector":"1"}},{"base_weights":[-7.0117337E-1,-9.4417214E-1,7.576339E-1,-4.9287368E-2,1.3794986E-2,2.1775073E-1,4.8537545E-2,-1.3429885E-1,3.502124E-2,2.6557317E-2,-3.3399675E-2],"categories":[],"categories_nodes":[],"categories_segments":[],"categories_sizes":[],"default_left":[0,0,0,0,0,0,0,0,0,0,0],"id":52,"left_children":[1,3,5,-1,-1,7,-1,9,-1,-1,-1],"loss_changes":[2.6956417E1,3.513298E0,1.068615E0,0E0,0E0,8.481524E-1,0E0,1.5641456E0,0E0,0E0,0E0],"parents":[2147483647,0,0,1,1,2,2,5,5,7,7],"right_children":[2,4,6,-1,-1,8,-1,10,-1,-1,-1],"split_conditions":[2.93378E3,1.2004714E1,3.2747E3,-4.9287368E-2,1.3794986E-2,6.567647E0,4.8537545E-2,1.1382178E0,3.502124E-2,2.6557317E-2,-3.3399675E-2],"split_indices":[0,8,0,0,0,8,0,8,0,0,0],"split_type":[0,0,0,0,0,0,0,0,0,0,0],"sum_hessian":[7.302521E1,6.2900433E1,1.0124774E1,6.1013397E1,1.8870354E0,3.4377532E0,6.6870213E0,2.4052148E0,1.0325385E0,1.0726008E0,1.3326138E0],"tree_param":{"num_deleted":"0","num_feature":"17","num_nodes":"11","size_leaf_vector":"1"}},{"base_weights":[-6.82573E-1,-9.29751E-1,8.1816995E-1,-4.9646936E-2,3.9551105E-2,3.9900014E-1,4.8012793E-2,3.668401E-2,-1.3538997E-2],"categories":[],"categories_nodes":[],"categories_segments":[],"categories_sizes":[],"default_left":[0,0,0,0,0,0,0,0,0],"id":53,"left_children":[1,3,5,-1,-1,7,-1,-1,-1],"loss_changes":[2.7326042E1,7.521927E0,2.5169182E-1,0E0,0E0,1.1870693E0,0E0,0E0,0E0],"parents":[2147483647,0,0,1,1,2,2,5,5],"right_children":[2,4,6,-1,-1,8,-1,-1,-1],"split_conditions":[2.93378E3,1E0,3.2747E3,-4.9646936E-2,3.9551105E-2,3E0,4.8012793E-2,3.668401E-2,-1.3538997E-2],"split_indices":[0,15,0,0,0,5,0,0,0],"split_type":[0,0,0,0,0,0,0,0,0],"sum_hessian":[7.0614235E1,6.0955166E1,9.65907E0,5.920413E1,1.7510393E0,3.4093254E0,6.2497444E0,2.2097423E0,1.199583E0],"tree_param":{"num_deleted":"0","num_feature":"17","num_nodes":"9","size_leaf_vector":"1"}},{"base_weights":[-6.7234796E-1,-9.2616206E-1,7.823151E-1,-4.957149E-2,3.897227E-2,8.617844E-1,5.212912E-3,4.5830354E-2,1.3013889E-2],"categories":[],"categories_nodes":[],"categories_segments":[],"categories_sizes":[],"default_left":[0,0,0,0,0,0,0,0,0],"id":54,"left_children":[1,3,5,-1,-1,7,-1,-1,-1],"loss_changes":[2.5859594E1,7.2763023E0,4.8433447E-1,0E0,0E0,7.141256E-2,0E0,0E0,0E0],"parents":[2147483647,0,0,1,1,2,2,5,5],"right_children":[2,4,6,-1,-1,8,-1,-1,-1],"split_conditions":[2.93378E3,1E0,4.8424244E1,-4.957149E-2,3.897227E-2,6E0,5.212912E-3,4.5830354E-2,1.3013889E-2],"split_indices":[0,15,1,0,0,4,0,0,0],"split_type":[0,0,0,0,0,0,0,0,0],"sum_hessian":[6.7077156E1,5.7421406E1,9.655751E0,5.5708363E1,1.7130442E0,8.400265E0,1.2554861E0,7.218502E0,1.1817627E0],"tree_param":{"num_deleted":"0","num_feature":"17","num_nodes":"9","size_leaf_vector":"1"}},{"base_weights":[-6.4082503E-1,-9.2325646E-1,7.33766E-1,-4.9503986E-2,3.8419753E-2,2.3282036E-1,4.8551906E-2,4.5435795E-1,-9.689569E-3,4.7866856E-3,3.4750402E-2],"categories":[],"categories_nodes":[],"categories_segments":[],"categories_sizes":[],"default_left":[0,0,0,0,0,0,0,0,0,0,0],"id":55,"left_children":[1,3,5,-1,-1,7,-1,9,-1,-1,-1],"loss_changes":[2.6487247E1,7.045044E0,1.1870012E0,0E0,0E0,5.7350457E-1,0E0,2.5104523E-1,0E0,0E0,0E0],"parents":[2147483647,0,0,1,1,2,2,5,5,7,7],"right_children":[2,4,6,-1,-1,8,-1,10,-1,-1,-1],"split_conditions":[2.93378E3,1E0,3.2747E3,-4.9503986E-2,3.8419753E-2,3E0,4.8551906E-2,5.35212E2,-9.689569E-3,4.7866856E-3,3.4750402E-2],"split_indices":[0,15,0,0,0,5,0,6,0,0,0],"split_type":[0,0,0,0,0,0,0,0,0,0,0],"sum_hessian":[6.548107E1,5.4592518E1,1.0888554E1,5.291693E1,1.6755861E0,4.1365056E0,6.752048E0,2.6798387E0,1.4566672E0,1.6374592E0,1.0423795E0],"tree_param":{"num_deleted":"0","num_feature":"17","num_nodes":"11","size_leaf_vector":"1"}},{"base_weights":[-6.791021E-1,-9.275225E-1,6.490301E-1,-4.896644E-2,1.7632997E-2,-1.3560848E-2,4.7748696E-2,2.8311968E-2,-2.3559913E-2],"categories":[],"categories_nodes":[],"categories_segments":[],"categories_sizes":[],"default_left":[0,0,0,0,0,0,0,0,0],"id":56,"left_children":[1,3,5,-1,-1,7,-1,-1,-1],"loss_changes":[2.1265251E1,3.8717842E0,2.1327024E0,0E0,0E0,1.4048783E0,0E0,0E0,0E0],"parents":[2147483647,0,0,1,1,2,2,5,5],"right_children":[2,4,6,-1,-1,8,-1,-1,-1],"split_conditions":[2.93378E3,1.2004714E1,3.2747E3,-4.896644E-2,1.7632997E-2,-1.0139367E2,4.7748696E-2,2.8311968E-2,-2.3559913E-2],"split_indices":[0,8,0,0,0,2,0,0,0],"split_type":[0,0,0,0,0,0,0,0,0],"sum_hessian":[6.162827E1,5.217149E1,9.456778E0,5.0368202E1,1.8032882E0,3.2891188E0,6.167659E0,1.3462225E0,1.9428962E0],"tree_param":{"num_deleted":"0","num_feature":"17","num_nodes":"9","size_leaf_vector":"1"}},{"base_weights":[-6.8847764E-1,-9.1935855E-1,6.0414785E-1,-4.9370635E-2,3.687604E-2,3.213445E-2,4.5984898E-2,3.5324756E-2,-4.248053E-1,-3.1095285E-2,-8.6003944E-4],"categories":[],"categories_nodes":[],"categories_segments":[],"categories_sizes":[],"default_left":[0,0,0,0,0,0,0,0,0,0,0],"id":57,"left_children":[1,3,5,-1,-1,7,-1,-1,9,-1,-1],"loss_changes":[1.8204746E1,6.4306602E0,1.6970217E0,0E0,0E0,1.6673484E0,0E0,0E0,2.5195998E-1,0E0,0E0],"parents":[2147483647,0,0,1,1,2,2,5,5,8,8],"right_children":[2,4,6,-1,-1,8,-1,-1,10,-1,-1],"split_conditions":[2.93378E3,1E0,3.2747E3,-4.9370635E-2,3.687604E-2,-1.0139367E2,4.5984898E-2,3.5324756E-2,7.4902835E0,-3.1095285E-2,-8.6003944E-4],"split_indices":[0,15,0,0,0,2,0,0,7,0,0],"split_type":[0,0,0,0,0,0,0,0,0,0,0],"sum_hessian":[5.813806E1,4.957249E1,8.565571E0,4.800481E1,1.5676816E0,3.436995E0,5.1285753E0,1.1676337E0,2.2693615E0,1.1752856E0,1.0940759E0],"tree_param":{"num_deleted":"0","num_feature":"17","num_nodes":"11","size_leaf_vector":"1"}},{"base_weights":[-6.4482945E-1,-9.188416E-1,2.0858994E-1,-9.499852E-1,5.520306E-3,-3.913283E-2,5.610044E-1,-4.5792186E-1,-4.873384E-2,-2.0524363E-3,6.5182346E-1,-2.9549642E-2,-7.0685023E-3,7.5420433E-1,3.4676836E-4,1.8539973E-2,4.3419097E-2],"categories":[],"categories_nodes":[],"categories_segments":[],"categories_sizes":[],"default_left":[0,0,0,0,0,0,0,0,0,0,0,0,0,0,0,0,0],"id":58,"left_children":[1,3,5,7,-1,-1,9,11,-1,-1,13,-1,-1,15,-1,-1,-1],"loss_changes":[1.34101925E1,1.4823647E0,5.5229397E0,6.17218E-2,0E0,0E0,6.4563775E-1,8.006722E-2,0E0,0E0,6.480341E-1,0E0,0E0,5.13916E-2,0E0,0E0,0E0],"parents":[2147483647,0,0,1,1,2,2,3,3,6,6,7,7,10,10,13,13],"right_children":[2,4,6,8,-1,-1,10,12,-1,-1,14,-1,-1,16,-1,-1,-1],"split_conditions":[3.8191507E0,1.2004714E1,1E0,2E0,5.520306E-3,-3.913283E-2,1.5631154E2,1E0,-4.873384E-2,-2.0524363E-3,4.8424244E1,-2.9549642E-2,-7.0685023E-3,7.0864773E0,3.4676836E-4,1.8539973E-2,4.3419097E-2],"split_indices":[7,8,11,5,0,0,6,11,0,0,1,0,0,7,0,0,0],"split_type":[0,0,0,0,0,0,0,0,0,0,0,0,0,0,0,0,0],"sum_hessian":[5.5526333E1,4.1973125E1,1.3553206E1,4.081513E1,1.1579984E0,3.2345243E0,1.0318682E1,2.8841643E0,3.793096E1,1.4243653E0,8.894317E0,1.4201828E0,1.4639815E0,7.5294476E0,1.3648692E0,2.7024083E0,4.8270392E0],"tree_param":{"num_deleted":"0","num_feature":"17","num_nodes":"17","size_leaf_vector":"1"}},{"base_weights":[-6.2885237E-1,-9.213711E-1,7.423436E-1,-4.9247857E-2,3.4850657E-2,3.2454762E-1,4.6528652E-2,-1.00702524E-1,3.6238886E-2,2.1896055E-2,-2.9648555E-2],"categories":[],"categories_nodes":[],"categories_segments":[],"categories_sizes":[],"default_left":[0,0,0,0,0,0,0,0,0,0,0],"id":59,"left_children":[1,3,5,-1,-1,7,-1,9,-1,-1,-1],"loss_changes":[2.3036829E1,5.458992E0,5.120969E-1,0E0,0E0,8.815785E-1,0E0,1.1032288E0,0E0,0E0,0E0],"parents":[2147483647,0,0,1,1,2,2,5,5,7,7],"right_children":[2,4,6,-1,-1,8,-1,10,-1,-1,-1],"split_conditions":[2.93378E3,1E0,3.2747E3,-4.9247857E-2,3.4850657E-2,7.9579186E0,4.6528652E-2,1.1654596E0,3.6238886E-2,2.1896055E-2,-2.9648555E-2],"split_indices":[0,15,0,0,0,8,0,8,0,0,0],"split_type":[0,0,0,0,0,0,0,0,0,0,0],"sum_hessian":[5.4728813E1,4.537662E1,9.352192E0,4.4037777E1,1.3388426E0,3.7508905E0,5.6013017E0,2.1814535E0,1.5694369E0,1.0944E0,1.0870534E0],"tree_param":{"num_deleted":"0","num_feature":"17","num_nodes":"11","size_leaf_vector":"1"}},{"base_weights":[-6.4007914E-1,-9.157481E-1,6.728902E-1,-4.9185477E-2,3.4938045E-2,2.5468028E-1,4.5298647E-2,-1.643016E-1,3.516849E-2,2.1820247E-2,-3.222465E-2],"categories":[],"categories_nodes":[],"categories_segments":[],"categories_sizes":[],"default_left":[0,0,0,0,0,0,0,0,0,0,0],"id":60,"left_children":[1,3,5,-1,-1,7,-1,9,-1,-1,-1],"loss_changes":[2.0002546E1,5.591049E0,7.3144007E-1,0E0,0E0,1.041156E0,0E0,1.2495142E0,0E0,0E0,0E0],"parents":[2147483647,0,0,1,1,2,2,5,5,7,7],"right_children":[2,4,6,-1,-1,8,-1,10,-1,-1,-1],"split_conditions":[2.93378E3,1E0,3.2747E3,-4.9185477E-2,3.4938045E-2,7.9579186E0,4.5298647E-2,1.1382178E0,3.516849E-2,2.1820247E-2,-3.222465E-2],"split_indices":[0,15,0,0,0,8,0,8,0,0,0],"split_type":[0,0,0,0,0,0,0,0,0,0,0],"sum_hessian":[5.2561607E1,4.3690876E1,8.87073E0,4.230096E1,1.3899173E0,3.923546E0,4.9471846E0,2.356701E0,1.5668452E0,1.0874794E0,1.2692217E0],"tree_param":{"num_deleted":"0","num_feature":"17","num_nodes":"11","size_leaf_vector":"1"}},{"base_weights":[-6.1875117E-1,-9.1258055E-1,6.7600375E-1,-4.9106922E-2,3.439494E-2,2.411828E-1,4.568993E-2,4.7137317E-1,-9.702575E-3,6.4550894E-3,3.3224966E-2],"categories":[],"categories_nodes":[],"categories_segments":[],"categories_sizes":[],"default_left":[0,0,0,0,0,0,0,0,0,0,0],"id":61,"left_children":[1,3,5,-1,-1,7,-1,9,-1,-1,-1],"loss_changes":[2.0224838E1,5.3995056E0,8.2471085E-1,0E0,0E0,5.8558905E-1,0E0,1.4672261E-1,0E0,0E0,0E0],"parents":[2147483647,0,0,1,1,2,2,5,5,7,7],"right_children":[2,4,6,-1,-1,8,-1,10,-1,-1,-1],"split_conditions":[2.93378E3,1E0,3.2747E3,-4.9106922E-2,3.439494E-2,3E0,4.568993E-2,5.151222E2,-9.702575E-3,6.4550894E-3,3.3224966E-2],"split_indices":[0,15,0,0,0,5,0,6,0,0,0],"split_type":[0,0,0,0,0,0,0,0,0,0,0],"sum_hessian":[5.0540546E1,4.143299E1,9.107557E0,4.007754E1,1.3554503E0,3.9319737E0,5.1755834E0,2.5174766E0,1.4144971E0,1.5099407E0,1.0075359E0],"tree_param":{"num_deleted":"0","num_feature":"17","num_nodes":"11","size_leaf_vector":"1"}},{"base_weights":[-6.1395484E-1,-9.0516615E-1,6.587114E-1,-4.9024392E-2,3.4499492E-2,2.3722117E-1,4.5032766E-2,-1.7144574E-1,3.3932608E-2,2.3321507E-2,-3.2738045E-2],"categories":[],"categories_nodes":[],"categories_segments":[],"categories_sizes":[],"default_left":[0,0,0,0,0,0,0,0,0,0,0],"id":62,"left_children":[1,3,5,-1,-1,7,-1,9,-1,-1,-1],"loss_changes":[1.8793686E1,5.5280266E0,7.777543E-1,0E0,0E0,1.0008416E0,0E0,1.3364313E0,0E0,0E0,0E0],"parents":[2147483647,0,0,1,1,2,2,5,5,7,7],"right_children":[2,4,6,-1,-1,8,-1,10,-1,-1,-1],"split_conditions":[2.93378E3,1E0,3.2747E3,-4.9024392E-2,3.4499492E-2,7.9579186E0,4.5032766E-2,1.1382178E0,3.3932608E-2,2.3321507E-2,-3.2738045E-2],"split_indices":[0,15,0,0,0,8,0,8,0,0,0],"split_type":[0,0,0,0,0,0,0,0,0,0,0],"sum_hessian":[4.8100685E1,3.9378796E1,8.721887E0,3.7971172E1,1.4076266E0,3.9029841E0,4.818903E0,2.3442986E0,1.5586855E0,1.0256237E0,1.3186749E0],"tree_param":{"num_deleted":"0","num_feature":"17","num_nodes":"11","size_leaf_vector":"1"}},{"base_weights":[-6.127181E-1,-9.106582E-1,7.0520747E-1,-4.894763E-2,3.2557573E-2,2.802455E-1,4.474307E-2,-1.1839783E-1,3.6822863E-2,7.865202E-3,-1.6119258E-2],"categories":[],"categories_nodes":[],"categories_segments":[],"categories_sizes":[],"default_left":[0,0,0,0,0,0,0,0,0,0,0],"id":63,"left_children":[1,3,5,-1,-1,7,-1,9,-1,-1,-1],"loss_changes":[1.8923172E1,4.734213E0,4.8649502E-1,0E0,0E0,8.6535215E-1,0E0,2.2758313E-1,0E0,0E0,0E0],"parents":[2147483647,0,0,1,1,2,2,5,5,7,7],"right_children":[2,4,6,-1,-1,8,-1,10,-1,-1,-1],"split_conditions":[2.93378E3,1E0,3.2747E3,-4.894763E-2,3.2557573E-2,9.17933E0,4.474307E-2,3.4781978E0,3.6822863E-2,7.865202E-3,-1.6119258E-2],"split_indices":[0,15,0,0,0,8,0,8,0,0,0],"split_type":[0,0,0,0,0,0,0,0,0,0,0],"sum_hessian":[4.5556404E1,3.7408566E1,8.147839E0,3.6198868E1,1.2097002E0,3.278745E0,4.8690934E0,2.1449435E0,1.1338016E0,1.0094548E0,1.1354886E0],"tree_param":{"num_deleted":"0","num_feature":"17","num_nodes":"11","size_leaf_vector":"1"}},{"base_weights":[-6.3392454E-1,-9.006738E-1,1.4371309E-1,-9.215525E-1,-5.996393E-3,-3.7104826E-2,4.6298474E-1,-3.7298808E-1,-4.746449E-2,1.3237831E-1,3.4375396E-2,-2.6069969E-2,-2.4866906E-3,-1.914799E-2,3.637699E-1,-3.516579E-4,2.6708916E-2],"categories":[],"categories_nodes":[],"categories_segments":[],"categories_sizes":[],"default_left":[0,0,0,0,0,0,0,0,0,0,0,0,0,0,0,0,0],"id":64,"left_children":[1,3,5,7,-1,-1,9,11,-1,13,-1,-1,-1,-1,15,-1,-1],"loss_changes":[9.271774E0,4.2666435E-1,3.771082E0,1.320076E-1,0E0,0E0,6.159613E-1,1.2685704E-1,0E0,7.463323E-1,0E0,0E0,0E0,0E0,2.5815034E-1,0E0,0E0],"parents":[2147483647,0,0,1,1,2,2,3,3,6,6,7,7,9,9,14,14],"right_children":[2,4,6,8,-1,-1,10,12,-1,14,-1,-1,-1,-1,16,-1,-1],"split_conditions":[3.8191507E0,1.359755E3,1E0,2E0,-5.996393E-3,-3.7104826E-2,3.5115906E2,1E0,-4.746449E-2,1.2264609E1,3.4375396E-2,-2.6069969E-2,-2.4866906E-3,-1.914799E-2,1.5331667E2,-3.516579E-4,2.6708916E-2],"split_indices":[7,6,11,5,0,0,6,11,0,7,0,0,0,0,6,0,0],"split_type":[0,0,0,0,0,0,0,0,0,0,0,0,0,0,0,0,0],"sum_hessian":[4.3073414E1,3.1954126E1,1.1119286E1,3.0946215E1,1.007912E0,2.5950515E0,8.524234E0,2.184775E0,2.876144E1,4.090557E0,4.4336767E0,1.0772308E0,1.1075443E0,1.0645784E0,3.0259788E0,1.2546436E0,1.7713354E0],"tree_param":{"num_deleted":"0","num_feature":"17","num_nodes":"17","size_leaf_vector":"1"}},{"base_weights":[-5.967812E-1,-9.0903956E-1,6.7590684E-1,-4.881118E-2,3.1179402E-2,2.8256318E-1,4.4150963E-2,-1.0447368E-1,3.2203496E-2,1.9358275E-2,-2.8338432E-2],"categories":[],"categories_nodes":[],"categories_segments":[],"categories_sizes":[],"default_left":[0,0,0,0,0,0,0,0,0,0,0],"id":65,"left_children":[1,3,5,-1,-1,7,-1,9,-1,-1,-1],"loss_changes":[1.7934713E1,4.2562103E0,4.967308E-1,0E0,0E0,7.1511936E-1,0E0,9.232213E-1,0E0,0E0,0E0],"parents":[2147483647,0,0,1,1,2,2,5,5,7,7],"right_children":[2,4,6,-1,-1,8,-1,10,-1,-1,-1],"split_conditions":[2.93378E3,1E0,3.2747E3,-4.881118E-2,3.1179402E-2,7.9579186E0,4.4150963E-2,1.1654596E0,3.2203496E-2,1.9358275E-2,-2.8338432E-2],"split_indices":[0,15,0,0,0,8,0,8,0,0,0],"split_type":[0,0,0,0,0,0,0,0,0,0,0],"sum_hessian":[4.25832E1,3.4423103E1,8.160093E0,3.3325302E1,1.0978038E0,3.6301281E0,4.529965E0,2.0965362E0,1.5335919E0,1.0947795E0,1.0017567E0],"tree_param":{"num_deleted":"0","num_feature":"17","num_nodes":"11","size_leaf_vector":"1"}},{"base_weights":[-6.288389E-1,-9.0462565E-1,6.098938E-1,-4.8730813E-2,3.0425912E-2,2.5230242E-2,4.3849595E-2,1.7890878E-2,-1.4693658E-2],"categories":[],"categories_nodes":[],"categories_segments":[],"categories_sizes":[],"default_left":[0,0,0,0,0,0,0,0,0],"id":66,"left_children":[1,3,5,-1,-1,7,-1,-1,-1],"loss_changes":[1.4549541E1,4.184929E0,1.2363074E0,0E0,0E0,4.826169E-1,0E0,0E0,0E0],"parents":[2147483647,0,0,1,1,2,2,5,5],"right_children":[2,4,6,-1,-1,8,-1,-1,-1],"split_conditions":[2.93378E3,1E0,3.2747E3,-4.8730813E-2,3.0425912E-2,1.2E1,4.3849595E-2,1.7890878E-2,-1.4693658E-2],"split_indices":[0,15,0,0,0,3,0,0,0],"split_type":[0,0,0,0,0,0,0,0,0],"sum_hessian":[3.9974083E1,3.2915596E1,7.058487E0,3.1800558E1,1.1150373E0,2.556627E0,4.5018597E0,1.1924586E0,1.3641684E0],"tree_param":{"num_deleted":"0","num_feature":"17","num_nodes":"9","size_leaf_vector":"1"}},{"base_weights":[-5.987774E-1,-8.7344927E-1,5.396677E-1,-4.7954697E-2,2.122339E-2,8.677247E-2,4.2463068E-2,-2.0236062E-1,2.50521E-2,1.9133486E-2,-3.2281913E-2],"categories":[],"categories_nodes":[],"categories_segments":[],"categories_sizes":[],"default_left":[0,0,0,0,0,0,0,0,0,0,0],"id":67,"left_children":[1,3,5,-1,-1,7,-1,9,-1,-1,-1],"loss_changes":[1.3060491E1,4.0549297E0,1.1101971E0,0E0,0E0,6.454405E-1,0E0,1.1255211E0,0E0,0E0,0E0],"parents":[2147483647,0,0,1,1,2,2,5,5,7,7],"right_children":[2,4,6,-1,-1,8,-1,10,-1,-1,-1],"split_conditions":[2.93378E3,1.2004714E1,3.2747E3,-4.7954697E-2,2.122339E-2,7.9579186E0,4.2463068E-2,1.1382178E0,2.50521E-2,1.9133486E-2,-3.2281913E-2],"split_indices":[0,8,0,0,0,8,0,8,0,0,0],"split_type":[0,0,0,0,0,0,0,0,0,0,0],"sum_hessian":[3.9259563E1,3.1816086E1,7.4434752E0,3.009151E1,1.724575E0,3.542109E0,3.9013662E0,2.3873906E0,1.1547185E0,1.0880833E0,1.2993073E0],"tree_param":{"num_deleted":"0","num_feature":"17","num_nodes":"11","size_leaf_vector":"1"}},{"base_weights":[-6.0004276E-1,-9.008332E-1,5.898707E-1,-4.8554778E-2,2.9581172E-2,1.2912649E-1,4.2931654E-2,2.2518136E-2,-1.8128475E-2],"categories":[],"categories_nodes":[],"categories_segments":[],"categories_sizes":[],"default_left":[0,0,0,0,0,0,0,0,0],"id":68,"left_children":[1,3,5,-1,-1,7,-1,-1,-1],"loss_changes":[1.4181376E1,3.8083038E0,9.1687393E-1,0E0,0E0,8.3216393E-1,0E0,0E0,0E0],"parents":[2147483647,0,0,1,1,2,2,5,5],"right_children":[2,4,6,-1,-1,8,-1,-1,-1],"split_conditions":[2.93378E3,1E0,3.2747E3,-4.8554778E-2,2.9581172E-2,1.5E1,4.2931654E-2,2.2518136E-2,-1.8128475E-2],"split_indices":[0,15,0,0,0,3,0,0,0],"split_type":[0,0,0,0,0,0,0,0,0],"sum_hessian":[3.7137596E1,2.983799E1,7.2996078E0,2.883005E1,1.0079392E0,3.234719E0,4.064889E0,2.0073404E0,1.2273787E0],"tree_param":{"num_deleted":"0","num_feature":"17","num_nodes":"9","size_leaf_vector":"1"}},{"base_weights":[-5.5132306E-1,-8.761791E-1,6.5219647E-1,-4.7699135E-2,1.9313296E-2,-7.1057567E-4,3.7739094E-2],"categories":[],"categories_nodes":[],"categories_segments":[],"categories_sizes":[],"default_left":[0,0,0,0,0,0,0],"id":69,"left_children":[1,3,5,-1,-1,-1,-1],"loss_changes":[1.5136662E1,3.2918339E0,5.9124446E-1,0E0,0E0,0E0,0E0],"parents":[2147483647,0,0,1,1,2,2],"right_children":[2,4,6,-1,-1,-1,-1],"split_conditions":[2.93378E3,1.2004714E1,4.1556854E0,-4.7699135E-2,1.9313296E-2,-7.1057567E-4,3.7739094E-2],"split_indices":[0,8,7,0,0,0,0],"split_type":[0,0,0,0,0,0,0],"sum_hessian":[3.6254005E1,2.8762396E1,7.491609E0,2.7322847E1,1.4395497E0,1.1143184E0,6.3772907E0],"tree_param":{"num_deleted":"0","num_feature":"17","num_nodes":"7","size_leaf_vector":"1"}},{"base_weights":[-5.6341964E-1,-9.056587E-1,2.6913387E-1,-4.6450105E-2,-9.480504E-3,-1.1351201E-2,3.5756785E-2,2.404227E-2,-1.9061852E-1,-3.502061E-1,1.6415136E-2,-2.7255217E-2,1.2660495E-2],"categories":[],"categories_nodes":[],"categories_segments":[],"categories_sizes":[],"default_left":[0,0,0,0,0,0,0,0,0,0,0,0,0],"id":70,"left_children":[1,3,5,-1,-1,7,-1,-1,9,11,-1,-1,-1],"loss_changes":[1.0414892E1,2.5053406E-1,1.4054536E0,0E0,0E0,7.835804E-1,0E0,0E0,6.503073E-1,7.7635634E-1,0E0,0E0,0E0],"parents":[2147483647,0,0,1,1,2,2,5,5,8,8,9,9],"right_children":[2,4,6,-1,-1,8,-1,-1,10,12,-1,-1,-1],"split_conditions":[3.8191507E0,1.0549686E1,7.9579186E0,-4.6450105E-2,-9.480504E-3,1.1382178E0,3.5756785E-2,2.404227E-2,2.2698492E1,5.488806E2,1.6415136E-2,-2.7255217E-2,1.2660495E-2],"split_indices":[7,8,8,0,0,8,0,0,7,6,0,0,0],"split_type":[0,0,0,0,0,0,0,0,0,0,0,0,0],"sum_hessian":[3.4696716E1,2.4526686E1,1.0170032E1,2.346434E1,1.0623451E0,6.841835E0,3.3281965E0,1.3774967E0,5.4643383E0,4.427763E0,1.0365752E0,3.4198246E0,1.0079384E0],"tree_param":{"num_deleted":"0","num_feature":"17","num_nodes":"13","size_leaf_vector":"1"}},{"base_weights":[-5.9076023E-1,-8.9821315E-1,1.8118066E-1,-4.6601288E-2,-2.8500445E-3,-3.6667757E-2,5.375902E-1,2.4523897E-1,4.1023567E-2,-6.7126113E-3,5.06385E-1,3.719167E-2,2.5085253E-3],"categories":[],"categories_nodes":[],"categories_segments":[],"categories_sizes":[],"default_left":[0,0,0,0,0,0,0,0,0,0,0,0,0],"id":71,"left_children":[1,3,5,-1,-1,-1,7,9,-1,-1,11,-1,-1],"loss_changes":[8.178863E0,6.386986E-1,3.8012974E0,0E0,0E0,0E0,4.6853852E-1,6.040204E-1,0E0,0E0,3.32469E-1,0E0,0E0],"parents":[2147483647,0,0,1,1,2,2,6,6,7,7,10,10],"right_children":[2,4,6,-1,-1,-1,8,10,-1,-1,12,-1,-1],"split_conditions":[3.8191507E0,1.07564335E1,1E0,-4.6601288E-2,-2.8500445E-3,-3.6667757E-2,7.9579186E0,3.5115906E2,4.1023567E-2,-6.7126113E-3,1.9750131E0,3.719167E-2,2.5085253E-3],"split_indices":[7,8,11,0,0,0,8,6,0,0,8,0,0],"split_type":[0,0,0,0,0,0,0,0,0,0,0,0,0],"sum_hessian":[3.2775497E1,2.3322788E1,9.452708E0,2.231777E1,1.00502E0,2.3542242E0,7.0984845E0,4.4089093E0,2.6895752E0,1.9952993E0,2.41361E0,1.172767E0,1.2408428E0],"tree_param":{"num_deleted":"0","num_feature":"17","num_nodes":"13","size_leaf_vector":"1"}},{"base_weights":[-5.762355E-1,-9.078561E-1,2.3394902E-1,-4.6906423E-2,-1.81675E-2,-3.5706356E-2,2.8758032E-2],"categories":[],"categories_nodes":[],"categories_segments":[],"categories_sizes":[],"default_left":[0,0,0,0,0,0,0],"id":72,"left_children":[1,3,5,-1,-1,-1,-1],"loss_changes":[9.010853E0,4.553032E-2,3.74474E0,0E0,0E0,0E0,0E0],"parents":[2147483647,0,0,1,1,2,2],"right_children":[2,4,6,-1,-1,-1,-1],"split_conditions":[3.8191507E0,2.5939682E0,1E0,-4.6906423E-2,-1.81675E-2,-3.5706356E-2,2.8758032E-2],"split_indices":[7,7,11,0,0,0,0],"split_type":[0,0,0,0,0,0,0],"sum_hessian":[3.1747734E1,2.2441528E1,9.306207E0,2.0574757E1,1.8667712E0,2.173658E0,7.1325493E0],"tree_param":{"num_deleted":"0","num_feature":"17","num_nodes":"7","size_leaf_vector":"1"}},{"base_weights":[-5.39385E-1,-8.41159E-1,5.120362E-1,-4.8102543E-2,3.4441084E-2,1.4700643E-2,4.1950088E-2,1.992829E-2,-1.4864062E-2],"categories":[],"categories_nodes":[],"categories_segments":[],"categories_sizes":[],"default_left":[0,0,0,0,0,0,0,0,0],"id":73,"left_children":[1,3,5,-1,-1,7,-1,-1,-1],"loss_changes":[1.065363E1,5.3630447E0,1.2571414E0,0E0,0E0,6.112297E-1,0E0,0E0,0E0],"parents":[2147483647,0,0,1,1,2,2,5,5],"right_children":[2,4,6,-1,-1,8,-1,-1,-1],"split_conditions":[2.93378E3,1E0,3.2747E3,-4.8102543E-2,3.4441084E-2,-1.0139367E2,4.1950088E-2,1.992829E-2,-1.4864062E-2],"split_indices":[0,15,0,0,0,2,0,0,0],"split_type":[0,0,0,0,0,0,0,0,0],"sum_hessian":[3.1219347E1,2.4412552E1,6.8067956E0,2.296886E1,1.4436909E0,3.1144612E0,3.6923347E0,1.2719342E0,1.842527E0],"tree_param":{"num_deleted":"0","num_feature":"17","num_nodes":"9","size_leaf_vector":"1"}},{"base_weights":[-5.4756075E-1,-8.6274123E-1,1.6966783E-1,-1.376156E-2,-4.497504E-2,-3.5163693E-2,4.742791E-1,1.3595742E-1,3.4874927E-2,-8.6603165E-3,1.8523881E-2],"categories":[],"categories_nodes":[],"categories_segments":[],"categories_sizes":[],"default_left":[0,0,0,0,0,0,0,0,0,0,0],"id":74,"left_children":[1,3,5,-1,-1,-1,7,9,-1,-1,-1],"loss_changes":[7.1624565E0,2.2163582E-1,3.0752668E0,0E0,0E0,0E0,5.2751565E-1,3.9174268E-1,0E0,0E0,0E0],"parents":[2147483647,0,0,1,1,2,2,6,6,7,7],"right_children":[2,4,6,-1,-1,-1,8,10,-1,-1,-1],"split_conditions":[3.8191507E0,2E0,1E0,-1.376156E-2,-4.497504E-2,-3.5163693E-2,3.5115906E2,1.9109316E1,3.4874927E-2,-8.6603165E-3,1.8523881E-2],"split_indices":[7,5,11,0,0,0,6,7,0,0,0],"split_type":[0,0,0,0,0,0,0,0,0,0,0],"sum_hessian":[3.0036839E1,2.0726055E1,9.310784E0,1.7202014E0,1.9005854E1,2.0699768E0,7.240807E0,3.5179362E0,3.7228708E0,1.6302505E0,1.8876857E0],"tree_param":{"num_deleted":"0","num_feature":"17","num_nodes":"11","size_leaf_vector":"1"}},{"base_weights":[-5.3772193E-1,-8.642605E-1,5.2053183E-1,-4.7886197E-2,2.2415811E-2,8.304321E-2,4.097732E-2,-1.453618E-2,2.6123395E-2],"categories":[],"categories_nodes":[],"categories_segments":[],"categories_sizes":[],"default_left":[0,0,0,0,0,0,0,0,0],"id":75,"left_children":[1,3,5,-1,-1,7,-1,-1,-1],"loss_changes":[1.0734284E1,3.2656212E0,9.316304E-1,0E0,0E0,8.442302E-1,0E0,0E0,0E0],"parents":[2147483647,0,0,1,1,2,2,5,5],"right_children":[2,4,6,-1,-1,8,-1,-1,-1],"split_conditions":[2.83236E3,3.603073E3,3.2747E3,-4.7886197E-2,2.2415811E-2,7.9998145E0,4.097732E-2,-1.453618E-2,2.6123395E-2],"split_indices":[0,8,0,0,0,8,0,0,0],"split_type":[0,0,0,0,0,0,0,0,0],"sum_hessian":[2.876152E1,2.2119549E1,6.641972E0,2.0901577E1,1.2179704E0,3.2153344E0,3.4266376E0,1.920333E0,1.2950015E0],"tree_param":{"num_deleted":"0","num_feature":"17","num_nodes":"9","size_leaf_vector":"1"}},{"base_weights":[-5.171026E-1,-8.470281E-1,4.302412E-1,-4.7782023E-2,3.1142596E-2,-1.3543152E-2,4.100951E-2,2.4670012E-1,-2.379766E-2,-4.610039E-3,2.3913473E-2],"categories":[],"categories_nodes":[],"categories_segments":[],"categories_sizes":[],"default_left":[0,0,0,0,0,0,0,0,0,0,0],"id":76,"left_children":[1,3,5,-1,-1,7,-1,9,-1,-1,-1],"loss_changes":[9.547618E0,4.1280136E0,1.4392278E0,0E0,0E0,7.0028764E-1,0E0,3.39014E-1,0E0,0E0,0E0],"parents":[2147483647,0,0,1,1,2,2,5,5,7,7],"right_children":[2,4,6,-1,-1,8,-1,10,-1,-1,-1],"split_conditions":[2.83236E3,1E0,3.2747E3,-4.7782023E-2,3.1142596E-2,1.7E1,4.100951E-2,4E0,-2.379766E-2,-4.610039E-3,2.3913473E-2],"split_indices":[0,15,0,0,0,3,0,4,0,0,0],"split_type":[0,0,0,0,0,0,0,0,0,0,0],"sum_hessian":[2.8381243E1,2.1128756E1,7.252487E0,2.0000715E1,1.1280409E0,3.8435626E0,3.4089246E0,2.7579086E0,1.0856539E0,1.3638145E0,1.3940941E0],"tree_param":{"num_deleted":"0","num_feature":"17","num_nodes":"11","size_leaf_vector":"1"}},{"base_weights":[-5.860256E-1,-8.826175E-1,3.8071224E-1,-4.726399E-2,-4.4605675E-1,-8.1858136E-2,3.9036464E-2,8.1588374E-4,-3.3740904E-2,-2.128665E-2,2.1656344E-2],"categories":[],"categories_nodes":[],"categories_segments":[],"categories_sizes":[],"default_left":[0,0,0,0,0,0,0,0,0,0,0],"id":77,"left_children":[1,3,5,-1,7,9,-1,-1,-1,-1,-1],"loss_changes":[8.052375E0,1.4995575E-1,1.3622594E0,0E0,4.8871106E-1,9.209245E-1,0E0,0E0,0E0,0E0,0E0],"parents":[2147483647,0,0,1,1,2,2,4,4,5,5],"right_children":[2,4,6,-1,8,10,-1,-1,-1,-1,-1],"split_conditions":[2.83236E3,1.27736E3,3.2747E3,-4.726399E-2,-7.248121E1,5.647756E2,3.9036464E-2,8.1588374E-4,-3.3740904E-2,-2.128665E-2,2.1656344E-2],"split_indices":[0,0,0,0,2,6,0,0,0,0,0],"split_type":[0,0,0,0,0,0,0,0,0,0,0],"sum_hessian":[2.591188E1,1.9895136E1,6.0167446E0,1.6378881E1,3.5162542E0,3.1590526E0,2.857692E0,1.47124E0,2.0450141E0,1.9981335E0,1.160919E0],"tree_param":{"num_deleted":"0","num_feature":"17","num_nodes":"11","size_leaf_vector":"1"}},{"base_weights":[-5.0869745E-1,-8.544176E-1,1.9705842E-1,-9.050299E-3,-4.50377E-2,-3.3258792E-2,4.7998297E-1,5.616237E-1,-1.4544086E-3,7.6577923E-4,3.323803E-2],"categories":[],"categories_nodes":[],"categories_segments":[],"categories_sizes":[],"default_left":[0,0,0,0,0,0,0,0,0,0,0],"id":78,"left_children":[1,3,5,-1,-1,-1,7,9,-1,-1,-1],"loss_changes":[6.6071715E0,3.9549828E-1,2.6341417E0,0E0,0E0,0E0,3.37422E-1,3.6773038E-1,0E0,0E0,0E0],"parents":[2147483647,0,0,1,1,2,2,6,6,7,7],"right_children":[2,4,6,-1,-1,-1,8,10,-1,-1,-1],"split_conditions":[3.8191507E0,3.2696667E1,1E0,-9.050299E-3,-4.50377E-2,-3.3258792E-2,4.8424244E1,1.72E2,-1.4544086E-3,7.6577923E-4,3.323803E-2],"split_indices":[7,6,11,0,0,0,1,6,0,0,0],"split_type":[0,0,0,0,0,0,0,0,0,0,0],"sum_hessian":[2.538917E1,1.689995E1,8.48922E0,1.4038591E0,1.5496091E1,1.763561E0,6.7256584E0,5.707158E0,1.0185004E0,1.0887309E0,4.6184273E0],"tree_param":{"num_deleted":"0","num_feature":"17","num_nodes":"11","size_leaf_vector":"1"}},{"base_weights":[-5.1353765E-1,-8.202133E-1,1.4413737E-1,-1.2592706E-2,-8.603734E-1,-3.2190353E-2,4.0369046E-1,-4.587703E-2,-3.2897055E-1,3.0187776E-2,1.105813E-1,-2.7998388E-2,4.03146E-3,-1.3764615E-1,2.0741224E-2,-1.3526419E-2,3.4784426E-3],"categories":[],"categories_nodes":[],"categories_segments":[],"categories_sizes":[],"default_left":[0,0,0,0,0,0,0,0,0,0,0,0,0,0,0,0,0],"id":79,"left_children":[1,3,5,-1,7,-1,9,-1,11,-1,13,-1,-1,15,-1,-1,-1],"loss_changes":[5.387759E0,1.9342422E-1,2.1330576E0,0E0,1.9538975E-1,0E0,3.732909E-1,0E0,3.430697E-1,0E0,3.7945905E-1,0E0,0E0,1.0421999E-1,0E0,0E0,0E0],"parents":[2147483647,0,0,1,1,2,2,4,4,6,6,8,8,10,10,13,13],"right_children":[2,4,6,-1,8,-1,10,-1,12,-1,14,-1,-1,16,-1,-1,-1],"split_conditions":[3.8191507E0,3.2696667E1,1E0,-1.2592706E-2,2.038678E0,-3.2190353E-2,-3.5893246E1,-4.587703E-2,3.818195E1,3.0187776E-2,4.322775E2,-2.7998388E-2,4.03146E-3,1.5443792E1,2.0741224E-2,-1.3526419E-2,3.4784426E-3],"split_indices":[7,6,11,0,7,0,2,0,1,0,6,0,0,7,0,0,0],"split_type":[0,0,0,0,0,0,0,0,0,0,0,0,0,0,0,0,0],"sum_hessian":[2.5126532E1,1.6967432E1,8.159101E0,1.5996666E0,1.5367764E1,1.6548637E0,6.504236E0,1.321905E1,2.1487143E0,3.2357829E0,3.2684536E0,1.1391637E0,1.0095506E0,2.1014724E0,1.1669812E0,1.094226E0,1.0072464E0],"tree_param":{"num_deleted":"0","num_feature":"17","num_nodes":"17","size_leaf_vector":"1"}},{"base_weights":[-5.117559E-1,-8.3495575E-1,4.0219384E-1,-4.683964E-2,-3.151892E-1,-9.960823E-3,3.889E-2,-3.3196047E-2,9.655749E-3,1.1262332E-2,-1.5545763E-2],"categories":[],"categories_nodes":[],"categories_segments":[],"categories_sizes":[],"default_left":[0,0,0,0,0,0,0,0,0,0,0],"id":80,"left_children":[1,3,5,-1,7,9,-1,-1,-1,-1,-1],"loss_changes":[7.72981E0,7.007561E-1,1.1245705E0,0E0,9.418217E-1,3.8341457E-1,0E0,0E0,0E0,0E0,0E0],"parents":[2147483647,0,0,1,1,2,2,4,4,5,5],"right_children":[2,4,6,-1,8,10,-1,-1,-1,-1,-1],"split_conditions":[2.83236E3,1.27736E3,3.2747E3,-4.683964E-2,4.008601E1,1.2E1,3.889E-2,-3.3196047E-2,9.655749E-3,1.1262332E-2,-1.5545763E-2],"split_indices":[0,0,0,0,1,3,0,0,0,0,0],"split_type":[0,0,0,0,0,0,0,0,0,0,0],"sum_hessian":[2.4031439E1,1.7817184E1,6.2142553E0,1.4227315E1,3.5898697E0,3.4271288E0,2.7871263E0,1.9475602E0,1.6423095E0,2.064894E0,1.3622348E0],"tree_param":{"num_deleted":"0","num_feature":"17","num_nodes":"11","size_leaf_vector":"1"}},{"base_weights":[-4.8501575E-1,-8.516444E-1,5.591013E-1,-4.582286E-2,5.638639E-3,2.1436013E-1,3.890906E-2,2.1429608E-2,-8.634287E-3],"categories":[],"categories_nodes":[],"categories_segments":[],"categories_sizes":[],"default_left":[0,0,0,0,0,0,0,0,0],"id":81,"left_children":[1,3,5,-1,-1,7,-1,-1,-1],"loss_changes":[9.692423E0,1.2419195E0,3.5133815E-1,0E0,0E0,4.0949214E-1,0E0,0E0,0E0],"parents":[2147483647,0,0,1,1,2,2,5,5],"right_children":[2,4,6,-1,-1,8,-1,-1,-1],"split_conditions":[2.93378E3,1.07564335E1,3.2747E3,-4.582286E-2,5.638639E-3,3E0,3.890906E-2,2.1429608E-2,-8.634287E-3],"split_indices":[0,8,0,0,0,5,0,0,0],"split_type":[0,0,0,0,0,0,0,0,0],"sum_hessian":[2.3075731E1,1.7215178E1,5.8605537E0,1.61777E1,1.0374787E0,3.0459476E0,2.8146062E0,1.8915966E0,1.154351E0],"tree_param":{"num_deleted":"0","num_feature":"17","num_nodes":"9","size_leaf_vector":"1"}},{"base_weights":[-4.7472793E-1,-4.6135444E-2,-4.662586E-2,-2.575773E-1,3.1680893E-2,-3.441006E-2,6.505291E-2,2.1881675E-2,-1.0244154E-1,1.7259391E-3,-1.0668914E-2],"categories":[],"categories_nodes":[],"categories_segments":[],"categories_sizes":[],"default_left":[0,0,0,0,0,0,0,0,0,0,0],"id":82,"left_children":[1,-1,3,5,-1,-1,7,-1,9,-1,-1],"loss_changes":[4.5796814E0,0E0,2.0830262E0,1.5623056E0,0E0,0E0,4.9153212E-1,0E0,9.470697E-2,0E0,0E0],"parents":[2147483647,0,0,2,2,3,3,6,6,8,8],"right_children":[2,-1,4,6,-1,-1,8,-1,10,-1,-1],"split_conditions":[1E0,-4.6135444E-2,9.397335E0,1E0,3.1680893E-2,-3.441006E-2,1.1382178E0,2.1881675E-2,3E0,1.7259391E-3,-1.0668914E-2],"split_indices":[11,0,8,14,0,0,8,0,5,0,0],"split_type":[0,0,0,0,0,0,0,0,0,0,0],"sum_hessian":[2.3104006E1,1.0725315E1,1.2378692E1,9.922848E0,2.455844E0,3.7647846E0,6.1580634E0,1.4096233E0,4.74844E0,2.4332457E0,2.3151944E0],"tree_param":{"num_deleted":"0","num_feature":"17","num_nodes":"11","size_leaf_vector":"1"}},{"base_weights":[-4.3285015E-1,-8.1324255E-1,7.24615E-1,-9.1043276E-1,1.6906878E-2,8.0232453E-1,1.1424183E-2,-1.3084131E-2,-4.685835E-2,4.512759E-2,1.0893407E-2],"categories":[],"categories_nodes":[],"categories_segments":[],"categories_sizes":[],"default_left":[0,0,0,0,0,0,0,0,0,0,0],"id":83,"left_children":[1,3,5,7,-1,9,-1,-1,-1,-1,-1],"loss_changes":[1.05054035E1,2.2574348E0,5.184722E-2,3.8103104E-2,0E0,8.89585E-2,0E0,0E0,0E0,0E0,0E0],"parents":[2147483647,0,0,1,1,2,2,3,3,5,5],"right_children":[2,4,6,8,-1,10,-1,-1,-1,-1,-1],"split_conditions":[2.93378E3,1.2004714E1,4.565183E1,2E0,1.6906878E-2,1.7E1,1.1424183E-2,-1.3084131E-2,-4.685835E-2,4.512759E-2,1.0893407E-2],"split_indices":[0,8,1,5,0,3,0,0,0,0,0],"split_type":[0,0,0,0,0,0,0,0,0,0,0],"sum_hessian":[2.1521734E1,1.642212E1,5.099615E0,1.533678E1,1.0853386E0,3.8754394E0,1.2241756E0,1.033975E0,1.4302805E1,2.843547E0,1.0318924E0],"tree_param":{"num_deleted":"0","num_feature":"17","num_nodes":"11","size_leaf_vector":"1"}},{"base_weights":[-4.3517515E-1,-7.943817E-1,3.870247E-1,-9.0365E-1,2.1108758E-2,4.9749456E-2,3.7879147E-2,-1.3540548E-2,-4.659958E-2,-2.678131E-1,3.096133E-2,1.4502789E-2,-2.824229E-2],"categories":[],"categories_nodes":[],"categories_segments":[],"categories_sizes":[],"default_left":[0,0,0,0,0,0,0,0,0,0,0,0,0],"id":84,"left_children":[1,3,5,7,-1,9,-1,-1,-1,11,-1,-1,-1],"loss_changes":[7.0884976E0,2.5491714E0,9.1883934E-1,2.1686554E-2,0E0,1.083975E0,0E0,0E0,0E0,8.1961006E-1,0E0,0E0,0E0],"parents":[2147483647,0,0,1,1,2,2,3,3,5,5,9,9],"right_children":[2,4,6,8,-1,10,-1,-1,-1,12,-1,-1,-1],"split_conditions":[2.77936E3,3.603073E3,3.2747E3,1.2006329E-2,2.1108758E-2,9.17933E0,3.7879147E-2,-1.3540548E-2,-4.659958E-2,1.1382178E0,3.096133E-2,1.4502789E-2,-2.824229E-2],"split_indices":[0,8,0,7,0,8,0,0,0,8,0,0,0],"split_type":[0,0,0,0,0,0,0,0,0,0,0,0,0],"sum_hessian":[2.196019E1,1.5306743E1,6.6534476E0,1.4281241E1,1.0255009E0,4.076944E0,2.5765038E0,1.0646211E0,1.321662E1,2.9574666E0,1.119477E0,1.0357231E0,1.9217436E0],"tree_param":{"num_deleted":"0","num_feature":"17","num_nodes":"13","size_leaf_vector":"1"}},{"base_weights":[-5.782707E-1,-8.030737E-1,3.7234563E-2,-9.261051E-1,2.888726E-2,-1.2260497E-2,-4.7681898E-2],"categories":[],"categories_nodes":[],"categories_segments":[],"categories_sizes":[],"default_left":[0,0,0,0,0,0,0],"id":85,"left_children":[1,3,-1,5,-1,-1,-1],"loss_changes":[6.667436E0,3.5801945E0,0E0,8.190632E-2,0E0,0E0,0E0],"parents":[2147483647,0,0,1,1,3,3],"right_children":[2,4,-1,6,-1,-1,-1],"split_conditions":[3.2747E3,1E0,3.7234563E-2,-1.5281667E2,2.888726E-2,-1.2260497E-2,-4.7681898E-2],"split_indices":[0,15,0,2,0,0,0],"split_type":[0,0,0,0,0,0,0],"sum_hessian":[1.9407785E1,1.6924826E1,2.4829612E0,1.5842556E1,1.082269E0,1.0007145E0,1.4841842E1],"tree_param":{"num_deleted":"0","num_feature":"17","num_nodes":"7","size_leaf_vector":"1"}},{"base_weights":[-4.1322157E-1,-8.077132E-1,4.9419066E-1,-8.9500064E-1,9.970276E-3,1.8600057E-1,3.7406247E-2,-1.2835301E-2,-4.626399E-2,-1.1755637E-1,3.0061522E-2,1.5291847E-2,-2.1266146E-2],"categories":[],"categories_nodes":[],"categories_segments":[],"categories_sizes":[],"default_left":[0,0,0,0,0,0,0,0,0,0,0,0,0],"id":86,"left_children":[1,3,5,7,-1,9,-1,-1,-1,11,-1,-1,-1],"loss_changes":[7.937147E0,1.50208E0,4.0875912E-1,3.3784866E-2,0E0,6.3707757E-1,0E0,0E0,0E0,5.7733214E-1,0E0,0E0,0E0],"parents":[2147483647,0,0,1,1,2,2,3,3,5,5,9,9],"right_children":[2,4,6,8,-1,10,-1,-1,-1,12,-1,-1,-1],"split_conditions":[2.83236E3,1.103983E1,3.2747E3,2.1676895E-1,9.970276E-3,9.397335E0,3.7406247E-2,-1.2835301E-2,-4.626399E-2,1.1382178E0,3.0061522E-2,1.5291847E-2,-2.1266146E-2],"split_indices":[0,8,0,8,0,8,0,0,0,8,0,0,0],"split_type":[0,0,0,0,0,0,0,0,0,0,0,0,0],"sum_hessian":[2.0057787E1,1.405663E1,6.0011573E0,1.303795E1,1.0186797E0,3.4935942E0,2.5075634E0,1.0197275E0,1.2018223E1,2.432318E0,1.0612761E0,1.0264727E0,1.4058453E0],"tree_param":{"num_deleted":"0","num_feature":"17","num_nodes":"13","size_leaf_vector":"1"}},{"base_weights":[-4.611883E-1,-8.140937E-1,4.4381738E-1,-4.5780458E-2,-3.1492722E-1,1.2887648E-1,3.55315E-2,7.562255E-3,-3.0965624E-2,1.6801005E-2,-1.0148387E-2],"categories":[],"categories_nodes":[],"categories_segments":[],"categories_sizes":[],"default_left":[0,0,0,0,0,0,0,0,0,0,0],"id":87,"left_children":[1,3,5,-1,7,9,-1,-1,-1,-1,-1],"loss_changes":[6.6819954E0,4.5102406E-1,4.2934918E-1,0E0,6.598577E-1,3.4761125E-1,0E0,0E0,0E0,0E0,0E0],"parents":[2147483647,0,0,1,1,2,2,4,4,5,5],"right_children":[2,4,6,-1,8,10,-1,-1,-1,-1,-1],"split_conditions":[2.93378E3,1.27736E3,3.2747E3,-4.5780458E-2,-7.248121E1,3E0,3.55315E-2,7.562255E-3,-3.0965624E-2,1.6801005E-2,-1.0148387E-2],"split_indices":[0,0,0,0,2,5,0,0,0,0,0],"split_type":[0,0,0,0,0,0,0,0,0,0,0],"sum_hessian":[1.8790403E1,1.3591051E1,5.1993523E0,1.0600876E1,2.9901755E0,3.064772E0,2.1345806E0,1.3799168E0,1.6102586E0,1.8791722E0,1.1855996E0],"tree_param":{"num_deleted":"0","num_feature":"17","num_nodes":"11","size_leaf_vector":"1"}},{"base_weights":[-4.4261605E-1,-8.010504E-1,4.1687903E-1,-4.617796E-2,1.7192528E-2,8.5947074E-2,3.566928E-2,-1.5187298E-2,2.7541086E-2],"categories":[],"categories_nodes":[],"categories_segments":[],"categories_sizes":[],"default_left":[0,0,0,0,0,0,0,0,0],"id":88,"left_children":[1,3,5,-1,-1,7,-1,-1,-1],"loss_changes":[6.2203407E0,2.2568417E0,5.549927E-1,0E0,0E0,9.1098964E-1,0E0,0E0,0E0],"parents":[2147483647,0,0,1,1,2,2,5,5],"right_children":[2,4,6,-1,-1,8,-1,-1,-1],"split_conditions":[2.77936E3,1.2004714E1,3.2747E3,-4.617796E-2,1.7192528E-2,7.9998145E0,3.566928E-2,-1.5187298E-2,2.7541086E-2],"split_indices":[0,8,0,0,0,8,0,0,0],"split_type":[0,0,0,0,0,0,0,0,0],"sum_hessian":[1.8107182E1,1.2826259E1,5.2809234E0,1.1761105E1,1.0651543E0,3.1051357E0,2.1757874E0,1.8777068E0,1.2274289E0],"tree_param":{"num_deleted":"0","num_feature":"17","num_nodes":"9","size_leaf_vector":"1"}},{"base_weights":[-4.3032423E-1,-4.5407437E-2,1.4776824E-1,-3.2438267E-2,3.945041E-1,9.316897E-2,4.0212635E-2,-3.6437234E-1,3.390118E-2,-1.350065E-3,-3.016736E-2],"categories":[],"categories_nodes":[],"categories_segments":[],"categories_sizes":[],"default_left":[0,0,0,0,0,0,0,0,0,0,0],"id":89,"left_children":[1,-1,3,-1,5,7,-1,9,-1,-1,-1],"loss_changes":[5.46025E0,0E0,2.139776E0,0E0,9.0546095E-1,1.7740655E0,0E0,2.9428065E-1,0E0,0E0,0E0],"parents":[2147483647,0,0,2,2,4,4,5,5,7,7],"right_children":[2,-1,4,-1,6,8,-1,10,-1,-1,-1],"split_conditions":[1.27736E3,-4.5407437E-2,1E0,-3.2438267E-2,9.397335E0,3.2747E3,4.0212635E-2,3E0,3.390118E-2,-1.350065E-3,-3.016736E-2],"split_indices":[0,0,11,0,8,0,0,5,0,0,0],"split_type":[0,0,0,0,0,0,0,0,0,0,0],"sum_hessian":[1.8281456E1,9.696136E0,8.585319E0,1.6450942E0,6.9402246E0,4.7064285E0,2.233796E0,2.8521397E0,1.8542889E0,1.6440921E0,1.2080475E0],"tree_param":{"num_deleted":"0","num_feature":"17","num_nodes":"11","size_leaf_vector":"1"}},{"base_weights":[-4.3817443E-1,-8.2237285E-1,9.7911224E-2,-7.828164E-3,-4.3858767E-2,-3.134286E-2,3.5902175E-1,1.17422804E-1,3.4199234E-2,-6.8646334E-3,2.8262103E-1,2.2529384E-2,-2.5619238E-3],"categories":[],"categories_nodes":[],"categories_segments":[],"categories_sizes":[],"default_left":[0,0,0,0,0,0,0,0,0,0,0,0,0],"id":90,"left_children":[1,3,5,-1,-1,-1,7,9,-1,-1,11,-1,-1],"loss_changes":[3.7710934E0,2.4740887E-1,1.8098342E0,0E0,0E0,0E0,4.5294082E-1,2.5352973E-1,0E0,0E0,2.1500623E-1,0E0,0E0],"parents":[2147483647,0,0,1,1,2,2,6,6,7,7,10,10],"right_children":[2,4,6,-1,-1,-1,8,10,-1,-1,12,-1,-1],"split_conditions":[2.5939682E0,2.1676895E-1,1E0,-7.828164E-3,-4.3858767E-2,-3.134286E-2,9.268434E0,7.0864773E0,3.4199234E-2,-6.8646334E-3,4.0345543E1,2.2529384E-2,-2.5619238E-3],"split_indices":[7,8,11,0,0,0,8,7,0,0,2,0,0],"split_type":[0,0,0,0,0,0,0,0,0,0,0,0,0],"sum_hessian":[1.6918602E1,9.544371E0,7.3742313E0,1.019162E0,8.525208E0,1.5820833E0,5.7921476E0,4.1030273E0,1.6891207E0,1.6806271E0,2.4224E0,1.3789897E0,1.0434104E0],"tree_param":{"num_deleted":"0","num_feature":"17","num_nodes":"13","size_leaf_vector":"1"}},{"base_weights":[-4.6642768E-1,-4.341706E-2,1.8914601E-1,-2.7750105E-2,4.2565197E-1,5.5492175E-1,-2.7207562E-3,9.726688E-3,3.2308884E-2],"categories":[],"categories_nodes":[],"categories_segments":[],"categories_sizes":[],"default_left":[0,0,0,0,0,0,0,0,0],"id":91,"left_children":[1,-1,3,-1,5,7,-1,-1,-1],"loss_changes":[4.578209E0,0E0,1.5013106E0,0E0,4.0381634E-1,3.3227324E-2,0E0,0E0,0E0],"parents":[2147483647,0,0,2,2,4,4,5,5],"right_children":[2,-1,4,-1,6,8,-1,-1,-1],"split_conditions":[1.83151E3,-4.341706E-2,1E0,-2.7750105E-2,9.0453636E1,2.93378E3,-2.7207562E-3,9.726688E-3,3.2308884E-2],"split_indices":[0,0,11,0,2,0,0,0,0],"split_type":[0,0,0,0,0,0,0,0,0],"sum_hessian":[1.5752318E1,9.5642185E0,6.1881E0,1.1676149E0,5.020485E0,3.8325515E0,1.1879333E0,1.4071542E0,2.4253972E0],"tree_param":{"num_deleted":"0","num_feature":"17","num_nodes":"9","size_leaf_vector":"1"}},{"base_weights":[-4.1964194E-1,-4.4730663E-2,1.11577936E-1,-3.1790517E-2,3.5087034E-1,6.1630715E-2,3.7930626E-2,-3.9056787E-1,3.315972E-2,2.037938E-3,-3.225176E-2],"categories":[],"categories_nodes":[],"categories_segments":[],"categories_sizes":[],"default_left":[0,0,0,0,0,0,0,0,0,0,0],"id":92,"left_children":[1,-1,3,-1,5,7,-1,9,-1,-1,-1],"loss_changes":[4.5213757E0,0E0,1.8615323E0,0E0,8.476509E-1,1.7619871E0,0E0,4.4155896E-1,0E0,0E0,0E0],"parents":[2147483647,0,0,2,2,4,4,5,5,7,7],"right_children":[2,-1,4,-1,6,8,-1,10,-1,-1,-1],"split_conditions":[1.27736E3,-4.4730663E-2,1E0,-3.1790517E-2,9.397335E0,3.2747E3,3.7930626E-2,-4.3989376E1,3.315972E-2,2.037938E-3,-3.225176E-2],"split_indices":[0,0,11,0,8,0,0,2,0,0,0],"split_type":[0,0,0,0,0,0,0,0,0,0,0],"sum_hessian":[1.6524008E1,8.362713E0,8.161295E0,1.5774282E0,6.5838666E0,4.525072E0,2.0587943E0,2.7834694E0,1.7416029E0,1.3444426E0,1.4390268E0],"tree_param":{"num_deleted":"0","num_feature":"17","num_nodes":"11","size_leaf_vector":"1"}},{"base_weights":[-3.9612678E-1,-4.381482E-2,2.285578E-1,-2.8274788E-2,4.47299E-1,2.846505E-3,5.61354E-1,3.253789E-2,1.1491534E-2],"categories":[],"categories_nodes":[],"categories_segments":[],"categories_sizes":[],"default_left":[0,0,0,0,0,0,0,0,0],"id":93,"left_children":[1,-1,3,-1,5,-1,7,-1,-1],"loss_changes":[5.1975117E0,0E0,1.6483104E0,0E0,2.7333224E-1,0E0,4.37057E-3,0E0,0E0],"parents":[2147483647,0,0,2,2,4,4,6,6],"right_children":[2,-1,4,-1,6,-1,8,-1,-1],"split_conditions":[1.83151E3,-4.381482E-2,1E0,-2.8274788E-2,2.93378E3,2.846505E-3,3E0,3.253789E-2,1.1491534E-2],"split_indices":[0,0,11,0,0,0,5,0,0],"split_type":[0,0,0,0,0,0,0,0,0],"sum_hessian":[1.5659949E1,8.626403E0,7.033547E0,1.1767163E0,5.8568306E0,1.6632555E0,4.193575E0,2.5444632E0,1.6491117E0],"tree_param":{"num_deleted":"0","num_feature":"17","num_nodes":"9","size_leaf_vector":"1"}},{"base_weights":[-3.8424703E-1,-7.350638E-1,4.1834736E-1,-8.59395E-1,1.4470833E-2,5.4749127E-2,3.4877103E-2,-1.230333E-2,-4.49015E-2,-1.1715304E-2,1.8618846E-2],"categories":[],"categories_nodes":[],"categories_segments":[],"categories_sizes":[],"default_left":[0,0,0,0,0,0,0,0,0,0,0],"id":94,"left_children":[1,3,5,7,-1,9,-1,-1,-1,-1,-1],"loss_changes":[4.884365E0,1.7356658E0,5.284033E-1,3.1677246E-2,0E0,4.094578E-1,0E0,0E0,0E0,0E0,0E0],"parents":[2147483647,0,0,1,1,2,2,3,3,5,5],"right_children":[2,4,6,8,-1,10,-1,-1,-1,-1,-1],"split_conditions":[2.93378E3,1.103983E1,3.2747E3,6.572E1,1.4470833E-2,5.982694E0,3.4877103E-2,-1.230333E-2,-4.49015E-2,-1.1715304E-2,1.8618846E-2],"split_indices":[0,8,0,6,0,8,0,0,0,0,0],"split_type":[0,0,0,0,0,0,0,0,0,0,0],"sum_hessian":[1.5255132E1,1.0673743E1,4.581389E0,9.662268E0,1.0114752E0,2.5094292E0,2.0719597E0,1.0092639E0,8.653004E0,1.451147E0,1.0582823E0],"tree_param":{"num_deleted":"0","num_feature":"17","num_nodes":"11","size_leaf_vector":"1"}},{"base_weights":[-4.1412446E-1,-7.99341E-1,3.3498397E-1,-4.486475E-2,2.9198031E-3,-1.6034301E-3,3.4253933E-2,-1.8906048E-2,2.6599748E-2],"categories":[],"categories_nodes":[],"categories_segments":[],"categories_sizes":[],"default_left":[0,0,0,0,0,0,0,0,0],"id":95,"left_children":[1,3,5,-1,-1,7,-1,-1,-1],"loss_changes":[4.781307E0,9.450731E-1,7.100562E-1,0E0,0E0,1.017862E0,0E0,0E0,0E0],"parents":[2147483647,0,0,1,1,2,2,5,5],"right_children":[2,4,6,-1,-1,8,-1,-1,-1],"split_conditions":[2.77936E3,1.0093777E1,3.2747E3,-4.486475E-2,2.9198031E-3,7.9998145E0,3.4253933E-2,-1.8906048E-2,2.6599748E-2],"split_indices":[0,8,0,0,0,8,0,0,0],"split_type":[0,0,0,0,0,0,0,0,0],"sum_hessian":[1.4641116E1,9.624712E0,5.016404E0,8.59683E0,1.0278813E0,3.0650394E0,1.9513649E0,1.9678565E0,1.0971829E0],"tree_param":{"num_deleted":"0","num_feature":"17","num_nodes":"9","size_leaf_vector":"1"}},