{"learner":{"attributes":{"scikit_learn":"{\"_estimator_type\": \"classifier\"}"},"feature_names":[],"feature_types":[],"gradient_booster":{"model":{"cats":{"enc":[],"feature_segments":[],"sorted_idx":[]},"gbtree_model_param":{"num_parallel_tree":"1","num_trees":"500"},"iteration_indptr":[0,1,2,3,4,5,6,7,8,9,10,11,12,13,14,15,16,17,18,19,20,21,22,23,24,25,26,27,28,29,30,31,32,33,34,35,36,37,38,39,40,41,42,43,44,45,46,47,48,49,50,51,52,53,54,55,56,57,58,59,60,61,62,63,64,65,66,67,68,69,70,71,72,73,74,75,76,77,78,79,80,81,82,83,84,85,86,87,88,89,90,91,92,93,94,95,96,97,98,99,100,101,102,103,104,105,106,107,108,109,110,111,112,113,114,115,116,117,118,119,120,121,122,123,124,125,126,127,128,129,130,131,132,133,134,135,136,137,138,139,140,141,142,143,144,145,146,147,148,149,150,151,152,153,154,155,156,157,158,159,160,161,162,163,164,165,166,167,168,169,170,171,172,173,174,175,176,177,178,179,180,181,182,183,184,185,186,187,188,189,190,191,192,193,194,195,196,197,198,199,200,201,202,203,204,205,206,207,208,209,210,211,212,213,214,215,216,217,218,219,220,221,222,223,224,225,226,227,228,229,230,231,232,233,234,235,236,237,238,239,240,241,242,243,244,245,246,247,248,249,250,251,252,253,254,255,256,257,258,259,260,261,262,263,264,265,266,267,268,269,270,271,272,273,274,275,276,277,278,279,280,281,282,283,284,285,286,287,288,289,290,291,292,293,294,295,296,297,298,299,300,301,302,303,304,305,306,307,308,309,310,311,312,313,314,315,316,317,318,319,320,321,322,323,324,325,326,327,328,329,330,331,332,333,334,335,336,337,338,339,340,341,342,343,344,345,346,347,348,349,350,351,352,353,354,355,356,357,358,359,360,361,362,363,364,365,366,367,368,369,370,371,372,373,374,375,376,377,378,379,380,381,382,383,384,385,386,387,388,389,390,391,392,393,394,395,396,397,398,399,400,401,402,403,404,405,406,407,408,409,410,411,412,413,414,415,416,417,418,419,420,421,422,423,424,425,426,427,428,429,430,431,432,433,434,435,436,437,438,439,440,441,442,443,444,445,446,447,448,449,450,451,452,453,454,455,456,457,458,459,460,461,462,463,464,465,466,467,468,469,470,471,472,473,474,475,476,477,478,479,480,481,482,483,484,485,486,487,488,489,490,491,492,493,494,495,496,497,498,499,500],"tree_info":[0,0,0,0,0,0,0,0,0,0,0,0,0,0,0,0,0,0,0,0,0,0,0,0,0,0,0,0,0,0,0,0,0,0,0,0,0,0,0,0,0,0,0,0,0,0,0,0,0,0,0,0,0,0,0,0,0,0,0,0,0,0,0,0,0,0,0,0,0,0,0,0,0,0,0,0,0,0,0,0,0,0,0,0,0,0,0,0,0,0,0,0,0,0,0,0,0,0,0,0,0,0,0,0,0,0,0,0,0,0,0,0,0,0,0,0,0,0,0,0,0,0,0,0,0,0,0,0,0,0,0,0,0,0,0,0,0,0,0,0,0,0,0,0,0,0,0,0,0,0,0,0,0,0,0,0,0,0,0,0,0,0,0,0,0,0,0,0,0,0,0,0,0,0,0,0,0,0,0,0,0,0,0,0,0,0,0,0,0,0,0,0,0,0,0,0,0,0,0,0,0,0,0,0,0,0,0,0,0,0,0,0,0,0,0,0,0,0,0,0,0,0,0,0,0,0,0,0,0,0,0,0,0,0,0,0,0,0,0,0,0,0,0,0,0,0,0,0,0,0,0,0,0,0,0,0,0,0,0,0,0,0,0,0,0,0,0,0,0,0,0,0,0,0,0,0,0,0,0,0,0,0,0,0,0,0,0,0,0,0,0,0,0,0,0,0,0,0,0,0,0,0,0,0,0,0,0,0,0,0,0,0,0,0,0,0,0,0,0,0,0,0,0,0,0,0,0,0,0,0,0,0,0,0,0,0,0,0,0,0,0,0,0,0,0,0,0,0,0,0,0,0,0,0,0,0,0,0,0,0,0,0,0,0,0,0,0,0,0,0,0,0,0,0,0,0,0,0,0,0,0,0,0,0,0,0,0,0,0,0,0,0,0,0,0,0,0,0,0,0,0,0,0,0,0,0,0,0,0,0,0,0,0,0,0,0,0,0,0,0,0,0,0,0,0,0,0,0,0,0,0,0,0,0,0,0,0,0,0,0,0,0,0,0,0,0,0,0,0,0,0,0,0,0,0,0,0,0,0,0,0,0,0,0,0,0,0,0,0,0,0,0,0,0,0,0,0,0,0,0,0,0,0,0,0,0,0,0,0,0,0,0,0,0,0,0,0,0,0,0],"trees":[{"base_weights":[-8.989355E-2,-2.0506155E-2,1.5139458E0,-2.016597E-2,1.7887284E0,1.0465864E-2,1.92593E-2],"categories":[],"categories_nodes":[],"categories_segments":[],"categories_sizes":[],"default_left":[0,0,0,0,0,0,0],"id":0,"left_children":[1,-1,3,-1,5,-1,-1],"loss_changes":[9.707739E3,0E0,1.6543157E3,0E0,1.5500781E2,0E0,0E0],"parents":[2147483647,0,0,2,2,4,4],"right_children":[2,-1,4,-1,6,-1,-1],"split_conditions":[1.27736E3,-2.0506155E-2,1E0,-2.016597E-2,2.83236E3,1.0465864E-2,1.92593E-2],"split_indices":[0,0,11,0,0,0,0],"split_type":[0,0,0,0,0,0,0],"sum_hessian":[3.082973E3,1.387043E3,1.6959299E3,1.2141622E2,1.5745137E3,2.4892825E2,1.3255854E3],"tree_param":{"num_deleted":"0","num_feature":"17","num_nodes":"7","size_leaf_vector":"1"}},{"base_weights":[5.3764928E-2,-2.0292498E-2,1.5316093E0,-1.9979633E-2,1.7827744E0,9.300164E-3,1.9067423E-2],"categories":[],"categories_nodes":[],"categories_segments":[],"categories_sizes":[],"default_left":[0,0,0,0,0,0,0],"id":1,"left_children":[1,-1,3,-1,5,-1,-1],"loss_changes":[1.0289528E4,0E0,1.7405254E3,0E0,1.88146E2,0E0,0E0],"parents":[2147483647,0,0,2,2,4,4],"right_children":[2,-1,4,-1,6,-1,-1],"split_conditions":[1.27736E3,-2.0292498E-2,1E0,-1.9979633E-2,2.77936E3,9.300164E-3,1.9067423E-2],"split_indices":[0,0,11,0,0,0,0],"split_type":[0,0,0,0,0,0,0],"sum_hessian":[3.3385847E3,1.3851449E3,1.9534398E3,1.287163E2,1.8247235E3,2.3426752E2,1.590456E3],"tree_param":{"num_deleted":"0","num_feature":"17","num_nodes":"7","size_leaf_vector":"1"}},{"base_weights":[-1.2349911E-2,-1.7212989E0,1.8480309E0,-2.0111358E-2,1.8953837E-2,7.986111E-1,1.8986974E-2,-1.8339097E-2,1.836646E-2],"categories":[],"categories_nodes":[],"categories_segments":[],"categories_sizes":[],"default_left":[0,0,0,0,0,0,0,0,0],"id":2,"left_children":[1,3,5,-1,-1,7,-1,-1,-1],"loss_changes":[1.0205112E4,1.7615762E3,7.732715E1,0E0,0E0,2.1081937E2,0E0,0E0,0E0],"parents":[2147483647,0,0,1,1,2,2,5,5],"right_children":[2,4,6,-1,-1,8,-1,-1,-1],"split_conditions":[2.77936E3,1E0,2.93378E3,-2.0111358E-2,1.8953837E-2,1.2175956E1,1.8986974E-2,-1.8339097E-2,1.836646E-2],"split_indices":[0,15,0,0,0,8,0,0,0],"split_type":[0,0,0,0,0,0,0,0,0],"sum_hessian":[3.2058845E3,1.6711665E3,1.5347181E3,1.5481273E3,1.23039154E2,7.2682686E1,1.4620354E3,1.9984823E1,5.269786E1],"tree_param":{"num_deleted":"0","num_feature":"17","num_nodes":"9","size_leaf_vector":"1"}},{"base_weights":[-2.411873E-2,-1.6673363E0,1.8348695E0,-1.9908957E-2,1.8824372E-2,-1.6961738E-2,1.8677962E0,1.3650762E-2,1.8866511E-2],"categories":[],"categories_nodes":[],"categories_segments":[],"categories_sizes":[],"default_left":[0,0,0,0,0,0,0,0,0],"id":3,"left_children":[1,3,5,-1,-1,-1,7,-1,-1],"loss_changes":[9.754841E3,1.9545884E3,1.8060986E2,0E0,0E0,0E0,7.3032227E0,0E0,0E0],"parents":[2147483647,0,0,1,1,2,2,6,6],"right_children":[2,4,6,-1,-1,-1,8,-1,-1],"split_conditions":[2.77936E3,1E0,1E0,-1.9908957E-2,1.8824372E-2,-1.6961738E-2,2.93378E3,1.3650762E-2,1.8866511E-2],"split_indices":[0,15,11,0,0,0,0,0,0],"split_type":[0,0,0,0,0,0,0,0,0],"sum_hessian":[3.189389E3,1.6931957E3,1.4961932E3,1.5526884E3,1.4050732E2,1.2749294E1,1.483444E3,5.9892075E1,1.4235519E3],"tree_param":{"num_deleted":"0","num_feature":"17","num_nodes":"9","size_leaf_vector":"1"}},{"base_weights":[7.328051E-2,-1.9681534E-2,1.0207297E0,1.1584151E0,-1.9290544E-2,1.30314E-2,-1.9273194E-2],"categories":[],"categories_nodes":[],"categories_segments":[],"categories_sizes":[],"default_left":[0,0,0,0,0,0,0],"id":4,"left_children":[1,-1,3,5,-1,-1,-1],"loss_changes":[6.517151E3,0E0,9.388762E2,9.8737573E2,0E0,0E0,0E0],"parents":[2147483647,0,0,2,2,3,3],"right_children":[2,-1,4,6,-1,-1,-1],"split_conditions":[1E0,-1.9681534E-2,1E0,1E0,-1.9290544E-2,1.30314E-2,-1.9273194E-2],"split_indices":[11,0,13,16,0,0,0],"split_type":[0,0,0,0,0,0,0],"sum_hessian":[3.365676E3,1.0660388E3,2.2996372E3,2.1984075E3,1.0122975E2,2.1011768E3,9.723055E1],"tree_param":{"num_deleted":"0","num_feature":"17","num_nodes":"7","size_leaf_vector":"1"}},{"base_weights":[-5.151978E-2,-1.949259E-2,9.207044E-1,9.6465476E-2,1.517766E0,-1.9584084E-2,1.8647274E-2,1.57131E-2,1.0586241E-2],"categories":[],"categories_nodes":[],"categories_segments":[],"categories_sizes":[],"default_left":[0,0,0,0,0,0,0,0,0],"id":5,"left_children":[1,-1,3,5,7,-1,-1,-1,-1],"loss_changes":[5.840363E3,0E0,1.028835E3,3.2107932E3,2.5184082E1,0E0,0E0,0E0,0E0],"parents":[2147483647,0,0,2,2,3,3,4,4],"right_children":[2,-1,4,6,8,-1,-1,-1,-1],"split_conditions":[1E0,-1.949259E-2,1E0,1E0,4.840151E1,-1.9584084E-2,1.8647274E-2,1.57131E-2,1.0586241E-2],"split_indices":[11,0,14,15,1,0,0,0,0],"split_type":[0,0,0,0,0,0,0,0,0],"sum_hessian":[3.1612358E3,1.0703884E3,2.0908474E3,8.796533E2,1.2111941E3,4.0662357E2,4.7302972E2,1.0793851E3,1.3180885E2],"tree_param":{"num_deleted":"0","num_feature":"17","num_nodes":"9","size_leaf_vector":"1"}},{"base_weights":[-1.1094782E-1,-1.6641167E0,1.788416E0,-1.9426858E-2,1.8338379E-2,8.6193466E-1,1.8365296E-2,-1.77613E-2,1.781913E-2],"categories":[],"categories_nodes":[],"categories_segments":[],"categories_sizes":[],"default_left":[0,0,0,0,0,0,0,0,0],"id":6,"left_children":[1,3,5,-1,-1,7,-1,-1,-1],"loss_changes":[8.991199E3,1.6410947E3,5.6600098E1,0E0,0E0,1.8099261E2,0E0,0E0,0E0],"parents":[2147483647,0,0,1,1,2,2,5,5],"right_children":[2,4,6,-1,-1,8,-1,-1,-1],"split_conditions":[2.77936E3,1E0,2.93378E3,-1.9426858E-2,1.8338379E-2,1.2175956E1,1.8365296E-2,-1.77613E-2,1.781913E-2],"split_indices":[0,15,0,0,0,8,0,0,0],"split_type":[0,0,0,0,0,0,0,0,0],"sum_hessian":[3.0438335E3,1.6748046E3,1.3690288E3,1.5522214E3,1.2258319E2,6.996645E1,1.2990624E3,1.7468964E1,5.249749E1],"tree_param":{"num_deleted":"0","num_feature":"17","num_nodes":"9","size_leaf_vector":"1"}},{"base_weights":[-7.673897E-3,-1.6134768E0,1.7798245E0,-1.9244244E-2,1.82244E-2,-1.6401866E-2,1.8110981E0,1.2999839E-2,1.8300312E-2],"categories":[],"categories_nodes":[],"categories_segments":[],"categories_sizes":[],"default_left":[0,0,0,0,0,0,0,0,0],"id":7,"left_children":[1,3,5,-1,-1,-1,7,-1,-1],"loss_changes":[9.257602E3,1.8223896E3,1.6925635E2,0E0,0E0,0E0,8.321777E0,0E0,0E0],"parents":[2147483647,0,0,1,1,2,2,6,6],"right_children":[2,4,6,-1,-1,-1,8,-1,-1],"split_conditions":[2.77936E3,1E0,1E0,-1.9244244E-2,1.82244E-2,-1.6401866E-2,2.93378E3,1.2999839E-2,1.8300312E-2],"split_indices":[0,15,11,0,0,0,0,0,0],"split_type":[0,0,0,0,0,0,0,0,0],"sum_hessian":[3.221257E3,1.6971202E3,1.524137E3,1.5572185E3,1.399017E2,1.2733651E1,1.5114033E3,5.9906353E1,1.451497E3],"tree_param":{"num_deleted":"0","num_feature":"17","num_nodes":"9","size_leaf_vector":"1"}},{"base_weights":[1.1216746E-2,-1.9025033E-2,1.4431093E0,-1.867852E-2,1.6798412E0,9.560984E-3,1.7985165E-2],"categories":[],"categories_nodes":[],"categories_segments":[],"categories_sizes":[],"default_left":[0,0,0,0,0,0,0],"id":8,"left_children":[1,-1,3,-1,5,-1,-1],"loss_changes":[8.92735E3,0E0,1.4669832E3,0E0,1.4468018E2,0E0,0E0],"parents":[2147483647,0,0,2,2,4,4],"right_children":[2,-1,4,-1,6,-1,-1],"split_conditions":[1.27736E3,-1.9025033E-2,1E0,-1.867852E-2,2.77936E3,9.560984E-3,1.7985165E-2],"split_indices":[0,0,11,0,0,0,0],"split_type":[0,0,0,0,0,0,0],"sum_hessian":[3.2539497E3,1.3922307E3,1.8617189E3,1.2316906E2,1.7385498E3,2.4806287E2,1.4904869E3],"tree_param":{"num_deleted":"0","num_feature":"17","num_nodes":"7","size_leaf_vector":"1"}},{"base_weights":[-4.6347943E-3,-1.7067615E0,1.3669373E0,-1.7943679E0,1.2619601E0,-1.854651E-2,1.6441753E0,-7.4946936E-3,-1.8862123E-2,1.6149197E-2,8.608817E-3,1.0280146E-2,1.6865801E-2],"categories":[],"categories_nodes":[],"categories_segments":[],"categories_sizes":[],"default_left":[0,0,0,0,0,0,0,0,0,0,0,0,0],"id":9,"left_children":[1,3,5,7,9,-1,11,-1,-1,-1,-1,-1,-1],"loss_changes":[7.4986733E3,3.7759424E2,1.5944626E3,1.2956836E2,1.9411316E0,0E0,3.7993652E1,0E0,0E0,0E0,0E0,0E0,0E0],"parents":[2147483647,0,0,1,1,2,2,3,3,4,4,6,6],"right_children":[2,4,6,8,10,-1,12,-1,-1,-1,-1,-1,-1],"split_conditions":[2.5939682E0,4.365162E3,1E0,3.2696667E1,1E0,-1.854651E-2,3.8191507E0,-7.4946936E-3,-1.8862123E-2,1.6149197E-2,8.608817E-3,1.0280146E-2,1.6865801E-2],"split_indices":[7,8,11,6,3,0,7,0,0,0,0,0,0],"split_type":[0,0,0,0,0,0,0,0,0,0,0,0,0],"sum_hessian":[3.2079167E3,1.4314084E3,1.7765082E3,1.3913108E3,4.0097725E1,1.3972139E2,1.6367869E3,1.1433267E2,1.2769781E3,1.74456E1,2.2652126E1,1.09402306E2,1.5273845E3],"tree_param":{"num_deleted":"0","num_feature":"17","num_nodes":"13","size_leaf_vector":"1"}},{"base_weights":[-2.8186612E-2,-1.6072098E0,1.7642432E0,-1.8768221E-2,1.7845722E-2,7.2195586E-3,1.7798899E-2],"categories":[],"categories_nodes":[],"categories_segments":[],"categories_sizes":[],"default_left":[0,0,0,0,0,0,0],"id":10,"left_children":[1,3,5,-1,-1,-1,-1],"loss_changes":[8.897049E3,1.5351738E3,2.0187012E1,0E0,0E0,0E0,0E0],"parents":[2147483647,0,0,1,1,2,2],"right_children":[2,4,6,-1,-1,-1,-1],"split_conditions":[2.88E3,1E0,2.93378E3,-1.8768221E-2,1.7845722E-2,7.2195586E-3,1.7798899E-2],"split_indices":[0,15,0,0,0,0,0],"split_type":[0,0,0,0,0,0,0],"sum_hessian":[3.139537E3,1.6693901E3,1.470147E3,1.5474261E3,1.21963936E2,2.3610094E1,1.4465369E3],"tree_param":{"num_deleted":"0","num_feature":"17","num_nodes":"7","size_leaf_vector":"1"}},{"base_weights":[1.9056357E-2,-1.5562139E0,1.7287349E0,-1.8594163E-2,1.7733393E-2,-1.5577905E-2,1.7550352E0,1.2658733E-2,1.772625E-2],"categories":[],"categories_nodes":[],"categories_segments":[],"categories_sizes":[],"default_left":[0,0,0,0,0,0,0,0,0],"id":11,"left_children":[1,3,5,-1,-1,-1,7,-1,-1],"loss_changes":[8.69447E3,1.7026843E3,1.3939062E2,0E0,0E0,0E0,7.2177734E0,0E0,0E0],"parents":[2147483647,0,0,1,1,2,2,6,6],"right_children":[2,4,6,-1,-1,-1,8,-1,-1],"split_conditions":[2.77936E3,1E0,1E0,-1.8594163E-2,1.7733393E-2,-1.5577905E-2,2.93378E3,1.2658733E-2,1.772625E-2],"split_indices":[0,15,11,0,0,0,0,0,0],"split_type":[0,0,0,0,0,0,0,0,0],"sum_hessian":[3.224268E3,1.678038E3,1.5462301E3,1.53893E3,1.3910783E2,1.1199927E1,1.5350302E3,5.9334515E1,1.4756956E3],"tree_param":{"num_deleted":"0","num_feature":"17","num_nodes":"9","size_leaf_vector":"1"}},{"base_weights":[4.94205E-2,-1.838022E-2,1.4064237E0,-1.806239E-2,1.63458E0,9.236346E-3,1.7462678E-2],"categories":[],"categories_nodes":[],"categories_segments":[],"categories_sizes":[],"default_left":[0,0,0,0,0,0,0],"id":12,"left_children":[1,-1,3,-1,5,-1,-1],"loss_changes":[8.462099E3,0E0,1.4147542E3,0E0,1.3804199E2,0E0,0E0],"parents":[2147483647,0,0,2,2,4,4],"right_children":[2,-1,4,-1,6,-1,-1],"split_conditions":[1.27736E3,-1.838022E-2,1E0,-1.806239E-2,2.77936E3,9.236346E-3,1.7462678E-2],"split_indices":[0,0,11,0,0,0,0],"split_type":[0,0,0,0,0,0,0],"sum_hessian":[3.2999402E3,1.3797633E3,1.9201768E3,1.2626189E2,1.7939148E3,2.4668234E2,1.5472325E3],"tree_param":{"num_deleted":"0","num_feature":"17","num_nodes":"7","size_leaf_vector":"1"}},{"base_weights":[-4.4599947E-2,-1.822764E-2,1.3556486E0,-1.7926952E-2,1.6061237E0,8.684673E-3,1.7392535E-2],"categories":[],"categories_nodes":[],"categories_segments":[],"categories_sizes":[],"default_left":[0,0,0,0,0,0,0],"id":13,"left_children":[1,-1,3,-1,5,-1,-1],"loss_changes":[7.7762397E3,0E0,1.3833755E3,0E0,1.5471875E2,0E0,0E0],"parents":[2147483647,0,0,2,2,4,4],"right_children":[2,-1,4,-1,6,-1,-1],"split_conditions":[1.27736E3,-1.822764E-2,1E0,-1.7926952E-2,2.88E3,8.684673E-3,1.7392535E-2],"split_indices":[0,0,11,0,0,0,0],"split_type":[0,0,0,0,0,0,0],"sum_hessian":[3.11907E3,1.3739967E3,1.7450735E3,1.2754816E2,1.6175253E3,2.5016931E2,1.367356E3],"tree_param":{"num_deleted":"0","num_feature":"17","num_nodes":"7","size_leaf_vector":"1"}},{"base_weights":[3.640928E-2,-1.8080248E-2,1.3855363E0,-1.7760314E-2,1.6024292E0,9.672172E-3,1.7335044E-2],"categories":[],"categories_nodes":[],"categories_segments":[],"categories_sizes":[],"default_left":[0,0,0,0,0,0,0],"id":14,"left_children":[1,-1,3,-1,5,-1,-1],"loss_changes":[8.1595054E3,0E0,1.3043489E3,0E0,1.4296631E2,0E0,0E0],"parents":[2147483647,0,0,2,2,4,4],"right_children":[2,-1,4,-1,6,-1,-1],"split_conditions":[1.27736E3,-1.8080248E-2,1E0,-1.7760314E-2,2.93378E3,9.672172E-3,1.7335044E-2],"split_indices":[0,0,11,0,0,0,0],"split_type":[0,0,0,0,0,0,0],"sum_hessian":[3.2751199E3,1.3831377E3,1.8919822E3,1.2039181E2,1.7715903E3,3.0655386E2,1.4650365E3],"tree_param":{"num_deleted":"0","num_feature":"17","num_nodes":"7","size_leaf_vector":"1"}},{"base_weights":[4.662826E-2,-1.6732695E0,1.4998039E0,-1.79745E-2,1.6919788E-2,-1.7430922E-2,1.6418759E0,1.0249752E-2,1.7192526E-2],"categories":[],"categories_nodes":[],"categories_segments":[],"categories_sizes":[],"default_left":[0,0,0,0,0,0,0,0,0],"id":15,"left_children":[1,3,5,-1,-1,-1,7,-1,-1],"loss_changes":[8.127176E3,6.284263E2,8.1778955E2,0E0,0E0,0E0,7.576807E1,0E0,0E0],"parents":[2147483647,0,0,1,1,2,2,6,6],"right_children":[2,4,6,-1,-1,-1,8,-1,-1],"split_conditions":[1.99614E3,1E0,1E0,-1.79745E-2,1.6919788E-2,-1.7430922E-2,2.93378E3,1.0249752E-2,1.7192526E-2],"split_indices":[0,15,11,0,0,0,0,0,0],"split_type":[0,0,0,0,0,0,0,0,0],"sum_hessian":[3.2477898E3,1.4870972E3,1.7606925E3,1.4352168E3,5.1880386E1,7.280514E1,1.6878873E3,1.9200938E2,1.4958779E3],"tree_param":{"num_deleted":"0","num_feature":"17","num_nodes":"9","size_leaf_vector":"1"}},{"base_weights":[-3.5166752E-3,-1.6498982E0,1.293754E0,-1.7365918E0,1.652527E-2,-1.7515853E-2,1.5604236E0,-1.1356188E-2,-1.7794736E-2,1.0750943E-2,1.6216503E-2],"categories":[],"categories_nodes":[],"categories_segments":[],"categories_sizes":[],"default_left":[0,0,0,0,0,0,0,0,0,0,0],"id":16,"left_children":[1,3,5,7,-1,-1,9,-1,-1,-1,-1],"loss_changes":[6.7594766E3,4.0513452E2,1.4426885E3,2.9557129E1,0E0,0E0,4.3558594E1,0E0,0E0,0E0,0E0],"parents":[2147483647,0,0,1,1,2,2,3,3,6,6],"right_children":[2,4,6,8,-1,-1,10,-1,-1,-1,-1],"split_conditions":[2.5939682E0,1E0,1E0,3.2696667E1,1.652527E-2,-1.7515853E-2,4.8537025E0,-1.1356188E-2,-1.7794736E-2,1.0750943E-2,1.6216503E-2],"split_indices":[7,15,11,6,0,0,7,0,0,0,0],"split_type":[0,0,0,0,0,0,0,0,0,0,0],"sum_hessian":[3.1607593E3,1.3928802E3,1.7678789E3,1.3583219E3,3.4558292E1,1.4129483E2,1.6265841E3,9.4903656E1,1.2634182E3,1.872876E2,1.4392965E3],"tree_param":{"num_deleted":"0","num_feature":"17","num_nodes":"11","size_leaf_vector":"1"}},{"base_weights":[8.475876E-2,-1.765834E-2,1.3723599E0,6.994819E-2,1.693916E-2,1.7270774E-2,-1.8413728E-2],"categories":[],"categories_nodes":[],"categories_segments":[],"categories_sizes":[],"default_left":[0,0,0,0,0,0,0],"id":17,"left_children":[1,-1,3,5,-1,-1,-1],"loss_changes":[7.8587046E3,0E0,8.134441E2,1.2336871E3,0E0,0E0,0E0],"parents":[2147483647,0,0,2,2,3,3],"right_children":[2,-1,4,6,-1,-1,-1],"split_conditions":[1.27736E3,-1.765834E-2,2.93378E3,1E0,1.693916E-2,1.7270774E-2,-1.8413728E-2],"split_indices":[0,0,0,14,0,0,0],"split_type":[0,0,0,0,0,0,0],"sum_hessian":[3.29411E3,1.3511094E3,1.9430006E3,3.8551666E2,1.557484E3,2.067325E2,1.7878418E2],"tree_param":{"num_deleted":"0","num_feature":"17","num_nodes":"7","size_leaf_vector":"1"}},{"base_weights":[6.302496E-2,-1.752479E-2,1.3534777E0,-1.7230378E-2,1.5655266E0,8.891269E-3,1.6806398E-2],"categories":[],"categories_nodes":[],"categories_segments":[],"categories_sizes":[],"default_left":[0,0,0,0,0,0,0],"id":18,"left_children":[1,-1,3,-1,5,-1,-1],"loss_changes":[7.721643E3,0E0,1.2622212E3,0E0,1.3616162E2,0E0,0E0],"parents":[2147483647,0,0,2,2,4,4],"right_children":[2,-1,4,-1,6,-1,-1],"split_conditions":[1.27736E3,-1.752479E-2,1E0,-1.7230378E-2,2.88E3,8.891269E-3,1.6806398E-2],"split_indices":[0,0,11,0,0,0,0],"split_type":[0,0,0,0,0,0,0],"sum_hessian":[3.2919326E3,1.367263E3,1.9246698E3,1.2303307E2,1.8016367E3,2.6518896E2,1.5364478E3],"tree_param":{"num_deleted":"0","num_feature":"17","num_nodes":"7","size_leaf_vector":"1"}},{"base_weights":[2.5451701E-2,-1.5724375E0,1.2803546E0,-1.6548662E0,1.6110081E-2,-1.7118627E-2,1.530515E0,-7.3857275E-3,-1.7394777E-2,9.282031E-3,1.5712224E-2],"categories":[],"categories_nodes":[],"categories_segments":[],"categories_sizes":[],"default_left":[0,0,0,0,0,0,0,0,0,0,0],"id":19,"left_children":[1,3,5,7,-1,-1,9,-1,-1,-1,-1],"loss_changes":[6.3948315E3,3.734397E2,1.3423835E3,1.0228662E2,0E0,0E0,3.62854E1,0E0,0E0,0E0,0E0],"parents":[2147483647,0,0,1,1,2,2,3,3,6,6],"right_children":[2,4,6,8,-1,-1,10,-1,-1,-1,-1],"split_conditions":[2.5939682E0,1E0,1E0,3.2696667E1,1.6110081E-2,-1.7118627E-2,3.9812498E0,-7.3857275E-3,-1.7394777E-2,9.282031E-3,1.5712224E-2],"split_indices":[7,15,11,6,0,0,7,0,0,0,0],"split_type":[0,0,0,0,0,0,0,0,0,0,0],"sum_hessian":[3.1851956E3,1.4007246E3,1.784471E3,1.3664603E3,3.4264282E1,1.3662213E2,1.6478489E3,1.1765812E2,1.2488021E3,1.0811108E2,1.5397378E3],"tree_param":{"num_deleted":"0","num_feature":"17","num_nodes":"11","size_leaf_vector":"1"}},{"base_weights":[-8.273294E-3,-1.4841177E0,1.618866E0,-1.6992744E0,1.4911119E0,-1.4960822E-2,1.6488743E0,-1.1027169E-2,-1.7371466E-2,7.465917E-3,1.6635293E-2,1.2013947E-2,1.6652128E-2],"categories":[],"categories_nodes":[],"categories_segments":[],"categories_sizes":[],"default_left":[0,0,0,0,0,0,0,0,0,0,0,0,0],"id":20,"left_children":[1,3,5,7,9,-1,11,-1,-1,-1,-1,-1,-1],"loss_changes":[7.4678506E3,1.0491611E3,1.4325293E2,2.9135254E1,1.0546143E1,0E0,5.282959E0,0E0,0E0,0E0,0E0,0E0,0E0],"parents":[2147483647,0,0,1,1,2,2,3,3,4,4,6,6],"right_children":[2,4,6,8,10,-1,12,-1,-1,-1,-1,-1,-1],"split_conditions":[2.77936E3,4.365162E3,1E0,2E0,1.83151E3,-1.4960822E-2,2.93378E3,-1.1027169E-2,-1.7371466E-2,7.465917E-3,1.6635293E-2,1.2013947E-2,1.6652128E-2],"split_indices":[0,8,11,5,0,0,0,0,0,0,0,0,0],"split_type":[0,0,0,0,0,0,0,0,0,0,0,0,0],"sum_hessian":[3.105812E3,1.6288757E3,1.4769363E3,1.5199824E3,1.08893265E2,1.3001239E1,1.463935E3,9.5119095E1,1.4248633E3,2.3025684E1,8.5867584E1,5.7897747E1,1.4060374E3],"tree_param":{"num_deleted":"0","num_feature":"17","num_nodes":"13","size_leaf_vector":"1"}},{"base_weights":[4.2493362E-2,-1.7150847E-2,1.3144844E0,-1.6853638E-2,1.5260096E0,8.706352E-3,1.652825E-2],"categories":[],"categories_nodes":[],"categories_segments":[],"categories_sizes":[],"default_left":[0,0,0,0,0,0,0],"id":21,"left_children":[1,-1,3,-1,5,-1,-1],"loss_changes":[7.1691416E3,0E0,1.1856716E3,0E0,1.4040942E2,0E0,0E0],"parents":[2147483647,0,0,2,2,4,4],"right_children":[2,-1,4,-1,6,-1,-1],"split_conditions":[1.27736E3,-1.7150847E-2,1E0,-1.6853638E-2,2.93378E3,8.706352E-3,1.652825E-2],"split_indices":[0,0,11,0,0,0,0],"split_type":[0,0,0,0,0,0,0],"sum_hessian":[3.202848E3,1.3442861E3,1.8585619E3,1.2134529E2,1.7372166E3,2.848425E2,1.452374E3],"tree_param":{"num_deleted":"0","num_feature":"17","num_nodes":"7","size_leaf_vector":"1"}},{"base_weights":[-4.7128193E-2,-1.4752967E0,1.3414509E0,-1.587819E0,1.622997E-2,-1.662351E-2,1.529101E0,-6.8384465E-3,-1.6631186E-2,6.152182E-3,1.5426625E-2],"categories":[],"categories_nodes":[],"categories_segments":[],"categories_sizes":[],"default_left":[0,0,0,0,0,0,0,0,0,0,0],"id":22,"left_children":[1,3,5,7,-1,-1,9,-1,-1,-1,-1],"loss_changes":[5.999882E3,5.251489E2,8.6958545E2,9.4605225E1,0E0,0E0,1.4929932E1,0E0,0E0,0E0,0E0],"parents":[2147483647,0,0,1,1,2,2,3,3,6,6],"right_children":[2,4,6,8,-1,-1,10,-1,-1,-1,-1],"split_conditions":[3.8191507E0,1E0,1E0,2E0,1.622997E-2,-1.662351E-2,7.406E1,-6.8384465E-3,-1.6631186E-2,6.152182E-3,1.5426625E-2],"split_indices":[7,15,11,5,0,0,6,0,0,0,0],"split_type":[0,0,0,0,0,0,0,0,0,0,0],"sum_hessian":[3.021439E3,1.4896022E3,1.5318367E3,1.4384961E3,5.1106148E1,8.898769E1,1.442849E3,1.1267179E2,1.3258242E3,2.2992937E1,1.4198561E3],"tree_param":{"num_deleted":"0","num_feature":"17","num_nodes":"11","size_leaf_vector":"1"}},{"base_weights":[1.8023407E-2,-1.3937799E0,1.6034304E0,-1.6662503E0,1.5400029E-2,7.268589E-1,1.6294431E-2,-1.0576593E-2,-1.70295E-2,-1.6341638E-2,1.5710583E-2],"categories":[],"categories_nodes":[],"categories_segments":[],"categories_sizes":[],"default_left":[0,0,0,0,0,0,0,0,0,0,0],"id":23,"left_children":[1,3,5,7,-1,9,-1,-1,-1,-1,-1],"loss_changes":[7.0868706E3,1.3438367E3,3.0463379E1,2.9266602E1,0E0,9.908389E1,0E0,0E0,0E0,0E0,0E0],"parents":[2147483647,0,0,1,1,2,2,3,3,5,5],"right_children":[2,4,6,8,-1,10,-1,-1,-1,-1,-1],"split_conditions":[2.83236E3,4.365162E3,2.93378E3,2E0,1.5400029E-2,1.1085167E1,1.6294431E-2,-1.0576593E-2,-1.70295E-2,-1.6341638E-2,1.5710583E-2],"split_indices":[0,8,0,5,0,8,0,0,0,0,0],"split_type":[0,0,0,0,0,0,0,0,0,0,0],"sum_hessian":[3.162165E3,1.6726227E3,1.4895424E3,1.5314282E3,1.4119444E2,4.5151283E1,1.4443911E3,9.1263695E1,1.4401644E3,1.1243139E1,3.3908146E1],"tree_param":{"num_deleted":"0","num_feature":"17","num_nodes":"11","size_leaf_vector":"1"}},{"base_weights":[2.5254693E-2,-1.4115251E0,1.579635E0,-1.6920699E-2,1.6537264E-2,-1.4500563E-2,1.6079525E0,1.1656418E-2,1.6236259E-2],"categories":[],"categories_nodes":[],"categories_segments":[],"categories_sizes":[],"default_left":[0,0,0,0,0,0,0,0,0],"id":24,"left_children":[1,3,5,-1,-1,-1,7,-1,-1],"loss_changes":[7.0170356E3,1.4095518E3,1.3423608E2,0E0,0E0,0E0,5.19458E0,0E0,0E0],"parents":[2147483647,0,0,1,1,2,2,6,6],"right_children":[2,4,6,-1,-1,-1,8,-1,-1],"split_conditions":[2.77936E3,1E0,1E0,-1.6920699E-2,1.6537264E-2,-1.4500563E-2,2.93378E3,1.1656418E-2,1.6236259E-2],"split_indices":[0,15,11,0,0,0,0,0,0],"split_type":[0,0,0,0,0,0,0,0,0],"sum_hessian":[3.1379653E3,1.630597E3,1.5073682E3,1.4948419E3,1.357552E2,1.28650675E1,1.494503E3,5.7396194E1,1.4371069E3],"tree_param":{"num_deleted":"0","num_feature":"17","num_nodes":"9","size_leaf_vector":"1"}},{"base_weights":[6.4093426E-2,-1.6690973E-2,1.2894766E0,1.1177745E-1,1.605749E-2,-1.769247E-2,1.6540723E-2],"categories":[],"categories_nodes":[],"categories_segments":[],"categories_sizes":[],"default_left":[0,0,0,0,0,0,0],"id":25,"left_children":[1,-1,3,5,-1,-1,-1],"loss_changes":[6.836554E3,0E0,7.0123315E2,1.1712495E3,0E0,0E0,0E0],"parents":[2147483647,0,0,2,2,3,3],"right_children":[2,-1,4,6,-1,-1,-1],"split_conditions":[1.27736E3,-1.6690973E-2,2.93378E3,1E0,1.605749E-2,-1.769247E-2,1.6540723E-2],"split_indices":[0,0,0,15,0,0,0],"split_type":[0,0,0,0,0,0,0],"sum_hessian":[3.2150476E3,1.3311406E3,1.8839071E3,3.9972913E2,1.484178E3,1.7980977E2,2.1991936E2],"tree_param":{"num_deleted":"0","num_feature":"17","num_nodes":"7","size_leaf_vector":"1"}},{"base_weights":[1.5897093E-2,-1.364489E0,1.586536E0,-1.6709272E-2,1.638224E-2,7.901266E-3,1.596996E-2],"categories":[],"categories_nodes":[],"categories_segments":[],"categories_sizes":[],"default_left":[0,0,0,0,0,0,0],"id":26,"left_children":[1,3,5,-1,-1,-1,-1],"loss_changes":[6.7315396E3,1.5258608E3,8.382324E0,0E0,0E0,0E0,0E0],"parents":[2147483647,0,0,1,1,2,2],"right_children":[2,4,6,-1,-1,-1,-1],"split_conditions":[2.88E3,1E0,2.93378E3,-1.6709272E-2,1.638224E-2,7.901266E-3,1.596996E-2],"split_indices":[0,15,0,0,0,0,0],"split_type":[0,0,0,0,0,0,0],"sum_hessian":[3.1007793E3,1.6503137E3,1.4504657E3,1.4984453E3,1.518684E2,2.1407314E1,1.4290583E3],"tree_param":{"num_deleted":"0","num_feature":"17","num_nodes":"7","size_leaf_vector":"1"}},{"base_weights":[1.9781763E-2,-1.6110859E0,1.3350844E0,-1.6504163E-2,1.4426529E-2,-1.6117653E-2,1.4960649E0,8.472468E-3,1.5911803E-2],"categories":[],"categories_nodes":[],"categories_segments":[],"categories_sizes":[],"default_left":[0,0,0,0,0,0,0,0,0],"id":27,"left_children":[1,3,5,-1,-1,-1,7,-1,-1],"loss_changes":[6.7536978E3,1.736709E2,8.3163306E2,0E0,0E0,0E0,9.815381E1,0E0,0E0],"parents":[2147483647,0,0,1,1,2,2,6,6],"right_children":[2,4,6,-1,-1,-1,8,-1,-1],"split_conditions":[1.83151E3,1E0,1E0,-1.6504163E-2,1.4426529E-2,-1.6117653E-2,2.93378E3,8.472468E-3,1.5911803E-2],"split_indices":[0,15,11,0,0,0,0,0,0],"split_type":[0,0,0,0,0,0,0,0,0],"sum_hessian":[3.1445117E3,1.4034806E3,1.7410311E3,1.3867035E3,1.677715E1,8.908804E1,1.6519431E3,2.1441426E2,1.4375288E3],"tree_param":{"num_deleted":"0","num_feature":"17","num_nodes":"9","size_leaf_vector":"1"}},{"base_weights":[3.1602327E-2,-1.5620409E0,1.343187E0,-1.640208E-2,1.5343894E-2,-1.5994629E-2,1.4980229E0,8.445626E-3,1.5838357E-2],"categories":[],"categories_nodes":[],"categories_segments":[],"categories_sizes":[],"default_left":[0,0,0,0,0,0,0,0,0],"id":28,"left_children":[1,3,5,-1,-1,-1,7,-1,-1],"loss_changes":[6.51355E3,3.4556665E2,7.8366675E2,0E0,0E0,0E0,8.7249756E1,0E0,0E0],"parents":[2147483647,0,0,1,1,2,2,6,6],"right_children":[2,4,6,-1,-1,-1,8,-1,-1],"split_conditions":[1.83151E3,1E0,1E0,-1.640208E-2,1.5343894E-2,-1.5994629E-2,2.93378E3,8.445626E-3,1.5838357E-2],"split_indices":[0,15,11,0,0,0,0,0,0],"split_type":[0,0,0,0,0,0,0,0,0],"sum_hessian":[3.1122803E3,1.4047153E3,1.707565E3,1.3712024E3,3.3512974E1,8.4262886E1,1.623302E3,1.916219E2,1.4316802E3],"tree_param":{"num_deleted":"0","num_feature":"17","num_nodes":"9","size_leaf_vector":"1"}},{"base_weights":[-2.7227128E-2,-1.401915E0,1.2527657E0,-1.5899625E0,1.5991457E-2,-1.5929904E-2,1.4513855E0,-5.624137E-3,-1.6301226E-2,5.2929358E-3,1.4651964E-2],"categories":[],"categories_nodes":[],"categories_segments":[],"categories_sizes":[],"default_left":[0,0,0,0,0,0,0,0,0,0,0],"id":29,"left_children":[1,3,5,7,-1,-1,9,-1,-1,-1,-1],"loss_changes":[5.259038E3,8.184309E2,8.792434E2,5.3085693E1,0E0,0E0,1.5888916E1,0E0,0E0,0E0,0E0],"parents":[2147483647,0,0,1,1,2,2,3,3,6,6],"right_children":[2,4,6,8,-1,-1,10,-1,-1,-1,-1],"split_conditions":[3.3730159E0,1E0,1E0,-1.6444745E2,1.5991457E-2,-1.5929904E-2,7.406E1,-5.624137E-3,-1.6301226E-2,5.2929358E-3,1.4651964E-2],"split_indices":[7,15,11,2,0,0,6,0,0,0,0],"split_type":[0,0,0,0,0,0,0,0,0,0,0],"sum_hessian":[2.9847468E3,1.4392356E3,1.5455114E3,1.3554119E3,8.382362E1,9.975131E1,1.44576E3,5.2578617E1,1.3028333E3,2.3029736E1,1.4227303E3],"tree_param":{"num_deleted":"0","num_feature":"17","num_nodes":"11","size_leaf_vector":"1"}},{"base_weights":[3.7453363E-3,-1.3989017E0,1.2926445E0,-1.543129E0,1.5814718E-2,-1.5780479E-2,1.4588584E0,-6.352081E-3,-1.6182657E-2,1.02385925E-2,1.4803556E-2],"categories":[],"categories_nodes":[],"categories_segments":[],"categories_sizes":[],"default_left":[0,0,0,0,0,0,0,0,0,0,0],"id":30,"left_children":[1,3,5,7,-1,-1,9,-1,-1,-1,-1],"loss_changes":[5.567752E3,6.38728E2,7.7043506E2,9.284961E1,0E0,0E0,9.916504E0,0E0,0E0,0E0,0E0],"parents":[2147483647,0,0,1,1,2,2,3,3,6,6],"right_children":[2,4,6,8,-1,-1,10,-1,-1,-1,-1],"split_conditions":[3.8191507E0,1E0,1E0,2E0,1.5814718E-2,-1.5780479E-2,4.8537025E0,-6.352081E-3,-1.6182657E-2,1.02385925E-2,1.4803556E-2],"split_indices":[7,15,11,5,0,0,7,0,0,0,0],"split_type":[0,0,0,0,0,0,0,0,0,0,0],"sum_hessian":[3.075758E3,1.4726189E3,1.603139E3,1.4057249E3,6.689406E1,8.664747E1,1.5164916E3,1.093958E2,1.2963291E3,7.70896E1,1.439402E3],"tree_param":{"num_deleted":"0","num_feature":"17","num_nodes":"11","size_leaf_vector":"1"}},{"base_weights":[1.72845E-2,-1.6063403E-2,1.2271882E0,-1.5788477E-2,1.4306433E0,7.96591E-3,1.55835645E-2],"categories":[],"categories_nodes":[],"categories_segments":[],"categories_sizes":[],"default_left":[0,0,0,0,0,0,0],"id":31,"left_children":[1,-1,3,-1,5,-1,-1],"loss_changes":[6.048321E3,0E0,1.0117727E3,0E0,1.2965869E2,0E0,0E0],"parents":[2147483647,0,0,2,2,4,4],"right_children":[2,-1,4,-1,6,-1,-1],"split_conditions":[1.27736E3,-1.6063403E-2,1E0,-1.5788477E-2,2.93378E3,7.96591E-3,1.55835645E-2],"split_indices":[0,0,11,0,0,0,0],"split_type":[0,0,0,0,0,0,0],"sum_hessian":[3.075009E3,1.3125585E3,1.7624506E3,1.1806944E2,1.6443811E3,2.787705E2,1.3656106E3],"tree_param":{"num_deleted":"0","num_feature":"17","num_nodes":"7","size_leaf_vector":"1"}},{"base_weights":[-7.7038223E-4,-1.3454473E0,1.2762811E0,-1.5238334E0,1.5742742E-2,1.3636779E0,-1.5213264E-2,-1.5613839E-2,-2.2942503E-3,1.3970082E-2,7.7449684E-3],"categories":[],"categories_nodes":[],"categories_segments":[],"categories_sizes":[],"default_left":[0,0,0,0,0,0,0,0,0,0,0],"id":32,"left_children":[1,3,5,7,-1,9,-1,-1,-1,-1,-1],"loss_changes":[5.1576484E3,7.668552E2,3.8067114E2,6.546997E1,0E0,2.6105713E1,0E0,0E0,0E0,0E0,0E0],"parents":[2147483647,0,0,1,1,2,2,3,3,5,5],"right_children":[2,4,6,8,-1,10,-1,-1,-1,-1,-1],"split_conditions":[3.8191507E0,1E0,1E0,1.463615E3,1.5742742E-2,5.555189E1,-1.5213264E-2,-1.5613839E-2,-2.2942503E-3,1.3970082E-2,7.7449684E-3],"split_indices":[7,15,10,6,0,1,0,0,0,0,0],"split_type":[0,0,0,0,0,0,0,0,0,0,0],"sum_hessian":[2.9994646E3,1.4611864E3,1.5382782E3,1.3781152E3,8.307121E1,1.4928458E3,4.5432415E1,1.338487E3,3.9628155E1,1.4095177E3,8.332803E1],"tree_param":{"num_deleted":"0","num_feature":"17","num_nodes":"11","size_leaf_vector":"1"}},{"base_weights":[-7.839251E-3,-1.5829183E-2,7.7803963E-1,8.9739424E-1,-1.5479134E-2,1.0231654E-2,-1.565215E-2],"categories":[],"categories_nodes":[],"categories_segments":[],"categories_sizes":[],"default_left":[0,0,0,0,0,0,0],"id":33,"left_children":[1,-1,3,5,-1,-1,-1],"loss_changes":[3.7213218E3,0E0,5.591304E2,5.941427E2,0E0,0E0,0E0],"parents":[2147483647,0,0,2,2,3,3],"right_children":[2,-1,4,6,-1,-1,-1],"split_conditions":[1E0,-1.5829183E-2,1E0,1E0,-1.5479134E-2,1.0231654E-2,-1.565215E-2],"split_indices":[11,0,13,12,0,0,0],"split_type":[0,0,0,0,0,0,0],"sum_hessian":[3.0020332E3,9.988066E2,2.0032266E3,1.9068226E3,9.64039E1,1.8154742E3,9.134841E1],"tree_param":{"num_deleted":"0","num_feature":"17","num_nodes":"7","size_leaf_vector":"1"}},{"base_weights":[-1.4895946E-2,-1.3598014E0,1.4875035E0,-1.5813835E-2,-2.9475465E-1,-1.3943516E-2,1.519091E0,1.5650842E-2,-1.7005254E-2,1.0566013E-2,1.5368947E-2],"categories":[],"categories_nodes":[],"categories_segments":[],"categories_sizes":[],"default_left":[0,0,0,0,0,0,0,0,0,0,0],"id":34,"left_children":[1,3,5,-1,7,-1,9,-1,-1,-1,-1],"loss_changes":[5.9505737E3,3.648938E2,1.3091187E2,0E0,7.126028E2,0E0,6.793701E0,0E0,0E0,0E0,0E0],"parents":[2147483647,0,0,1,1,2,2,4,4,6,6],"right_children":[2,4,6,-1,8,-1,10,-1,-1,-1,-1],"split_conditions":[2.77936E3,1.27736E3,1E0,-1.5813835E-2,1E0,-1.3943516E-2,2.93378E3,1.5650842E-2,-1.7005254E-2,1.0566013E-2,1.5368947E-2],"split_indices":[0,0,11,0,14,0,0,0,0,0,0],"split_type":[0,0,0,0,0,0,0,0,0,0,0],"sum_hessian":[2.941005E3,1.5521167E3,1.3888883E3,1.2836213E3,2.6849542E2,1.3951191E1,1.3749371E3,1.1533049E2,1.5316492E2,5.6481476E1,1.3184556E3],"tree_param":{"num_deleted":"0","num_feature":"17","num_nodes":"11","size_leaf_vector":"1"}},{"base_weights":[-4.5397665E-2,-1.3008996E0,1.5221301E-2,-1.5902383E-2,1.5663778E-2],"categories":[],"categories_nodes":[],"categories_segments":[],"categories_sizes":[],"default_left":[0,0,0,0,0],"id":35,"left_children":[1,3,-1,-1,-1],"loss_changes":[5.7626704E3,1.3539946E3,0E0,0E0,0E0],"parents":[2147483647,0,0,1,1],"right_children":[2,4,-1,-1,-1],"split_conditions":[2.93378E3,1E0,1.5221301E-2,-1.5902383E-2,1.5663778E-2],"split_indices":[0,15,0,0,0],"split_type":[0,0,0,0,0],"sum_hessian":[2.9241792E3,1.6240583E3,1.3001207E3,1.4761631E3,1.4789534E2],"tree_param":{"num_deleted":"0","num_feature":"17","num_nodes":"5","size_leaf_vector":"1"}},{"base_weights":[4.6297323E-2,-1.2848034E0,1.4765201E0,-1.5778791E-2,1.5524959E-2,6.5179735E-1,1.5140469E-2,1.5064509E-2,-1.6642956E-2],"categories":[],"categories_nodes":[],"categories_segments":[],"categories_sizes":[],"default_left":[0,0,0,0,0,0,0,0,0],"id":36,"left_children":[1,3,5,-1,-1,7,-1,-1,-1],"loss_changes":[5.8170137E3,1.3207747E3,4.2533203E1,0E0,0E0,1.3993796E2,0E0,0E0,0E0],"parents":[2147483647,0,0,1,1,2,2,5,5],"right_children":[2,4,6,-1,-1,8,-1,-1,-1],"split_conditions":[2.77936E3,1E0,2.93378E3,-1.5778791E-2,1.5524959E-2,1E0,1.5140469E-2,1.5064509E-2,-1.6642956E-2],"split_indices":[0,15,0,0,0,14,0,0,0],"split_type":[0,0,0,0,0,0,0,0,0],"sum_hessian":[3.0514795E3,1.5804327E3,1.4710466E3,1.4334319E3,1.4700085E2,6.62018E1,1.4048448E3,4.9025932E1,1.7175865E1],"tree_param":{"num_deleted":"0","num_feature":"17","num_nodes":"9","size_leaf_vector":"1"}},{"base_weights":[3.1019816E-2,-1.2483068E0,1.4674363E0,-1.5699102E-2,1.5502538E-2,-1.3261123E-2,1.49111E0,9.653544E-3,1.5115803E-2],"categories":[],"categories_nodes":[],"categories_segments":[],"categories_sizes":[],"default_left":[0,0,0,0,0,0,0,0,0],"id":37,"left_children":[1,3,5,-1,-1,-1,7,-1,-1],"loss_changes":[5.5320825E3,1.4377988E3,9.783325E1,0E0,0E0,0E0,1.0990967E1,0E0,0E0],"parents":[2147483647,0,0,1,1,2,2,6,6],"right_children":[2,4,6,-1,-1,-1,8,-1,-1],"split_conditions":[2.77936E3,1E0,1E0,-1.5699102E-2,1.5502538E-2,-1.3261123E-2,2.93378E3,9.653544E-3,1.5115803E-2],"split_indices":[0,15,11,0,0,0,0,0,0],"split_type":[0,0,0,0,0,0,0,0,0],"sum_hessian":[3.0063652E3,1.5900874E3,1.4162778E3,1.4271407E3,1.6294667E2,1.0799143E1,1.4054786E3,5.7196724E1,1.348282E3],"tree_param":{"num_deleted":"0","num_feature":"17","num_nodes":"9","size_leaf_vector":"1"}},{"base_weights":[-6.993646E-2,-1.4759872E0,1.2398888E0,-1.550413E-2,1.4549078E-2,-1.5103124E-2,1.398316E0,7.4081114E-3,1.501525E-2],"categories":[],"categories_nodes":[],"categories_segments":[],"categories_sizes":[],"default_left":[0,0,0,0,0,0,0,0,0],"id":38,"left_children":[1,3,5,-1,-1,-1,7,-1,-1],"loss_changes":[5.1708613E3,2.9995947E2,6.3743384E2,0E0,0E0,0E0,8.99939E1,0E0,0E0],"parents":[2147483647,0,0,1,1,2,2,6,6],"right_children":[2,4,6,-1,-1,-1,8,-1,-1],"split_conditions":[1.83151E3,1E0,1E0,-1.550413E-2,1.4549078E-2,-1.5103124E-2,2.93378E3,7.4081114E-3,1.501525E-2],"split_indices":[0,15,11,0,0,0,0,0,0],"split_type":[0,0,0,0,0,0,0,0,0],"sum_hessian":[2.8036345E3,1.3522117E3,1.451423E3,1.3198096E3,3.240206E1,7.795464E1,1.3734683E3,1.8922003E2,1.1842483E3],"tree_param":{"num_deleted":"0","num_feature":"17","num_nodes":"9","size_leaf_vector":"1"}},{"base_weights":[2.5972767E-2,-1.5370902E-2,1.1685749E0,-1.513205E-2,1.3658348E0,7.819759E-3,1.4953632E-2],"categories":[],"categories_nodes":[],"categories_segments":[],"categories_sizes":[],"default_left":[0,0,0,0,0,0,0],"id":39,"left_children":[1,-1,3,-1,5,-1,-1],"loss_changes":[5.2379077E3,0E0,9.0047E2,0E0,1.1598511E2,0E0,0E0],"parents":[2147483647,0,0,2,2,4,4],"right_children":[2,-1,4,-1,6,-1,-1],"split_conditions":[1.27736E3,-1.5370902E-2,1E0,-1.513205E-2,2.93378E3,7.819759E-3,1.4953632E-2],"split_indices":[0,0,11,0,0,0,0],"split_type":[0,0,0,0,0,0,0],"sum_hessian":[2.928918E3,1.2364054E3,1.6925125E3,1.14876114E2,1.5776364E3,2.8970474E2,1.2879315E3],"tree_param":{"num_deleted":"0","num_feature":"17","num_nodes":"7","size_leaf_vector":"1"}},{"base_weights":[-7.4115647E-3,-1.4594504E0,1.245427E0,-1.533247E-2,9.8655003E-1,1.6942638E-1,1.4821172E-2,6.3822535E-3,1.3055262E-2,1.5348302E-2,-1.6801717E-2],"categories":[],"categories_nodes":[],"categories_segments":[],"categories_sizes":[],"default_left":[0,0,0,0,0,0,0,0,0,0,0],"id":40,"left_children":[1,3,5,-1,7,9,-1,-1,-1,-1,-1],"loss_changes":[5.260154E3,2.4507568E2,3.9393848E2,0E0,1.8333321E0,7.1847925E2,0E0,0E0,0E0,0E0,0E0],"parents":[2147483647,0,0,1,1,2,2,4,4,5,5],"right_children":[2,4,6,-1,8,10,-1,-1,-1,-1,-1],"split_conditions":[1.83151E3,4.365162E3,2.93378E3,-1.533247E-2,3.0092826E0,1E0,1.4821172E-2,6.3822535E-3,1.3055262E-2,1.5348302E-2,-1.6801717E-2],"split_indices":[0,8,0,0,7,14,0,0,0,0,0],"split_type":[0,0,0,0,0,0,0,0,0,0,0],"sum_hessian":[2.8874556E3,1.3374366E3,1.5500188E3,1.2991904E3,3.8246216E1,2.804823E2,1.2695365E3,2.1900219E1,1.6345995E1,1.6171346E2,1.18768845E2],"tree_param":{"num_deleted":"0","num_feature":"17","num_nodes":"11","size_leaf_vector":"1"}},{"base_weights":[2.0088345E-2,-1.3076096E0,1.43749E0,-1.4999673E0,1.3193433E0,6.1442566E-1,1.4762782E-2,-9.858604E-3,-1.5341123E-2,6.028093E-3,1.4906317E-2,-1.6057089E-2,1.4755161E-2],"categories":[],"categories_nodes":[],"categories_segments":[],"categories_sizes":[],"default_left":[0,0,0,0,0,0,0,0,0,0,0,0,0],"id":41,"left_children":[1,3,5,7,9,11,-1,-1,-1,-1,-1,-1,-1],"loss_changes":[5.540495E3,7.7211816E2,4.2605713E1,2.0596436E1,9.993271E0,1.3486102E2,0E0,0E0,0E0,0E0,0E0,0E0,0E0],"parents":[2147483647,0,0,1,1,2,2,3,3,4,4,5,5],"right_children":[2,4,6,8,10,12,-1,-1,-1,-1,-1,-1,-1],"split_conditions":[2.77936E3,4.365162E3,2.93378E3,2E0,1.83151E3,1.1085167E1,1.4762782E-2,-9.858604E-3,-1.5341123E-2,6.028093E-3,1.4906317E-2,-1.6057089E-2,1.4755161E-2],"split_indices":[0,8,0,5,0,8,0,0,0,0,0,0,0],"split_type":[0,0,0,0,0,0,0,0,0,0,0,0,0],"sum_hessian":[2.940094E3,1.5179827E3,1.4221112E3,1.4153895E3,1.0259312E2,6.609914E1,1.3560121E3,9.278315E1,1.3226064E3,2.2100376E1,8.049274E1,1.7826706E1,4.827243E1],"tree_param":{"num_deleted":"0","num_feature":"17","num_nodes":"13","size_leaf_vector":"1"}},{"base_weights":[-2.4025217E-2,-1.3604324E0,1.0955393E0,-1.4356817E0,1.4569978E-2,-1.4902453E-2,1.3228241E0,-6.160708E-3,-1.5117473E-2,8.4475055E-3,1.38968695E-2],"categories":[],"categories_nodes":[],"categories_segments":[],"categories_sizes":[],"default_left":[0,0,0,0,0,0,0,0,0,0,0],"id":42,"left_children":[1,3,5,7,-1,-1,9,-1,-1,-1,-1],"loss_changes":[4.2375503E3,2.7792505E2,9.094679E2,7.555347E1,0E0,0E0,4.1850586E1,0E0,0E0,0E0,0E0],"parents":[2147483647,0,0,1,1,2,2,3,3,6,6],"right_children":[2,4,6,8,-1,-1,10,-1,-1,-1,-1],"split_conditions":[2.5939682E0,1E0,1E0,3.2696667E1,1.4569978E-2,-1.4902453E-2,5.0698376E0,-6.160708E-3,-1.5117473E-2,8.4475055E-3,1.38968695E-2],"split_indices":[7,15,11,6,0,0,7,0,0,0,0],"split_type":[0,0,0,0,0,0,0,0,0,0,0],"sum_hessian":[2.8281387E3,1.2892257E3,1.5389128E3,1.2568164E3,3.2409344E1,1.2326234E2,1.4156505E3,1.0883934E2,1.147977E3,1.779614E2,1.2376892E3],"tree_param":{"num_deleted":"0","num_feature":"17","num_nodes":"11","size_leaf_vector":"1"}},{"base_weights":[-1.0786499E-2,-1.2362942E0,1.4232688E0,-1.5219766E-2,1.5117531E-2,-1.305142E-2,1.450131E0,1.0082457E-2,1.4674843E-2],"categories":[],"categories_nodes":[],"categories_segments":[],"categories_sizes":[],"default_left":[0,0,0,0,0,0,0,0,0],"id":43,"left_children":[1,3,5,-1,-1,-1,7,-1,-1],"loss_changes":[5.0204844E3,1.2140505E3,1.00323E2,0E0,0E0,0E0,5.805664E0,0E0,0E0],"parents":[2147483647,0,0,1,1,2,2,6,6],"right_children":[2,4,6,-1,-1,-1,8,-1,-1],"split_conditions":[2.77936E3,1E0,1E0,-1.5219766E-2,1.5117531E-2,-1.305142E-2,2.93378E3,1.0082457E-2,1.4674843E-2],"split_indices":[0,15,11,0,0,0,0,0,0],"split_type":[0,0,0,0,0,0,0,0,0],"sum_hessian":[2.8527446E3,1.538557E3,1.3141876E3,1.3946461E3,1.4391086E2,1.1703184E1,1.3024844E3,5.4772285E1,1.2477122E3],"tree_param":{"num_deleted":"0","num_feature":"17","num_nodes":"9","size_leaf_vector":"1"}},{"base_weights":[1.186988E-2,-1.466453E0,1.2312998E0,-1.5028705E-2,9.842404E-3,-1.465473E-2,1.3706839E0,6.643381E-3,1.4577275E-2],"categories":[],"categories_nodes":[],"categories_segments":[],"categories_sizes":[],"default_left":[0,0,0,0,0,0,0,0,0],"id":44,"left_children":[1,3,5,-1,-1,-1,7,-1,-1],"loss_changes":[5.2035293E3,1.1965112E2,5.986111E2,0E0,0E0,0E0,8.956006E1,0E0,0E0],"parents":[2147483647,0,0,1,1,2,2,6,6],"right_children":[2,4,6,-1,-1,-1,8,-1,-1],"split_conditions":[1.83151E3,1.2047815E4,1E0,-1.5028705E-2,9.842404E-3,-1.465473E-2,2.88E3,6.643381E-3,1.4577275E-2],"split_indices":[0,8,11,0,0,0,0,0,0],"split_type":[0,0,0,0,0,0,0,0,0],"sum_hessian":[2.8825642E3,1.3025992E3,1.5799648E3,1.2844891E3,1.8110119E1,7.653663E1,1.5034282E3,1.6746725E2,1.3359609E3],"tree_param":{"num_deleted":"0","num_feature":"17","num_nodes":"9","size_leaf_vector":"1"}},{"base_weights":[-3.526542E-2,-1.3778478E0,1.0705228E0,-1.4523734E0,1.4089798E-2,1.1806247E0,-1.4374403E-2,-1.4925711E-2,-5.7739858E-3,2.3785692E-3,1.2548675E-2],"categories":[],"categories_nodes":[],"categories_segments":[],"categories_sizes":[],"default_left":[0,0,0,0,0,0,0,0,0,0,0],"id":45,"left_children":[1,3,5,7,-1,9,-1,-1,-1,-1,-1],"loss_changes":[4.130603E3,2.6512427E2,4.2449304E2,4.0332764E1,0E0,1.0102905E2,0E0,0E0,0E0,0E0,0E0],"parents":[2147483647,0,0,1,1,2,2,3,3,5,5],"right_children":[2,4,6,8,-1,10,-1,-1,-1,-1,-1],"split_conditions":[2.5939682E0,1E0,1E0,1.6849194E2,1.4089798E-2,3.8191507E0,-1.4374403E-2,-1.4925711E-2,-5.7739858E-3,2.3785692E-3,1.2548675E-2],"split_indices":[7,15,10,2,0,7,0,0,0,0,0],"split_type":[0,0,0,0,0,0,0,0,0,0,0],"sum_hessian":[2.7781877E3,1.2547296E3,1.5234581E3,1.223157E3,3.1572662E1,1.4605945E3,6.2863594E1,1.1675355E3,5.5621517E1,1.0773026E2,1.3528643E3],"tree_param":{"num_deleted":"0","num_feature":"17","num_nodes":"11","size_leaf_vector":"1"}},{"base_weights":[-8.5698806E-2,-1.4146945E0,1.1760527E0,-1.4886159E-2,1.4282559E-2,4.822522E-2,1.4400369E0,-1.658465E-2,1.4884502E-2,1.0568876E-2,1.4556472E-2],"categories":[],"categories_nodes":[],"categories_segments":[],"categories_sizes":[],"default_left":[0,0,0,0,0,0,0,0,0,0,0],"id":46,"left_children":[1,3,5,-1,-1,7,9,-1,-1,-1,-1],"loss_changes":[4.4953467E3,2.7868457E2,4.0850574E2,0E0,0E0,6.518801E2,2.3283691E0,0E0,0E0,0E0,0E0],"parents":[2147483647,0,0,1,1,2,2,5,5,6,6],"right_children":[2,4,6,-1,-1,8,10,-1,-1,-1,-1],"split_conditions":[1.83151E3,1E0,2.93378E3,-1.4886159E-2,1.4282559E-2,4.365162E3,3.2747E3,-1.658465E-2,1.4884502E-2,1.0568876E-2,1.4556472E-2],"split_indices":[0,15,0,0,0,8,0,0,0,0,0],"split_type":[0,0,0,0,0,0,0,0,0,0,0],"sum_hessian":[2.6767527E3,1.303713E3,1.3730397E3,1.2717734E3,3.1939579E1,2.612316E2,1.1118081E3,1.192583E2,1.4197328E2,5.0157135E1,1.061651E3],"tree_param":{"num_deleted":"0","num_feature":"17","num_nodes":"11","size_leaf_vector":"1"}},{"base_weights":[-2.417927E-2,-1.2443897E0,1.4209363E0,-1.4953977E-2,1.4887564E-2,5.2349675E-3,1.4350783E-2],"categories":[],"categories_nodes":[],"categories_segments":[],"categories_sizes":[],"default_left":[0,0,0,0,0,0,0],"id":47,"left_children":[1,3,5,-1,-1,-1,-1],"loss_changes":[4.930504E3,1.0446445E3,1.3762939E1,0E0,0E0,0E0,0E0],"parents":[2147483647,0,0,1,1,2,2],"right_children":[2,4,6,-1,-1,-1,-1],"split_conditions":[2.88E3,1E0,2.93378E3,-1.4953977E-2,1.4887564E-2,5.2349675E-3,1.4350783E-2],"split_indices":[0,15,0,0,0,0,0],"split_type":[0,0,0,0,0,0,0],"sum_hessian":[2.792153E3,1.5142183E3,1.2779348E3,1.387849E3,1.263693E2,2.155361E1,1.2563811E3],"tree_param":{"num_deleted":"0","num_feature":"17","num_nodes":"7","size_leaf_vector":"1"}},{"base_weights":[2.764747E-2,-1.4014554E0,1.2006611E0,-1.4733813E-2,1.0090849E-2,-1.44444425E-2,1.3420517E0,7.874128E-3,1.43439965E-2],"categories":[],"categories_nodes":[],"categories_segments":[],"categories_sizes":[],"default_left":[0,0,0,0,0,0,0,0,0],"id":48,"left_children":[1,3,5,-1,-1,-1,7,-1,-1],"loss_changes":[4.799988E3,2.2697412E2,5.9203125E2,0E0,0E0,0E0,7.3161865E1,0E0,0E0],"parents":[2147483647,0,0,1,1,2,2,6,6],"right_children":[2,4,6,-1,-1,-1,8,-1,-1],"split_conditions":[1.83151E3,4.365162E3,1E0,-1.4733813E-2,1.0090849E-2,-1.44444425E-2,2.93378E3,7.874128E-3,1.43439965E-2],"split_indices":[0,8,11,0,0,0,0,0,0],"split_type":[0,0,0,0,0,0,0,0,0],"sum_hessian":[2.8593965E3,1.2886256E3,1.5707709E3,1.2522461E3,3.6379616E1,7.8588394E1,1.4921825E3,2.1647981E2,1.2757026E3],"tree_param":{"num_deleted":"0","num_feature":"17","num_nodes":"9","size_leaf_vector":"1"}},{"base_weights":[5.1423023E-3,-1.1986921E0,1.3838962E0,-1.4801676E-2,1.4808772E-2,-1.2947292E-2,1.4119276E0,9.39354E-3,1.4306569E-2],"categories":[],"categories_nodes":[],"categories_segments":[],"categories_sizes":[],"default_left":[0,0,0,0,0,0,0,0,0],"id":49,"left_children":[1,3,5,-1,-1,-1,7,-1,-1],"loss_changes":[4.6571035E3,1.1340134E3,1.0193091E2,0E0,0E0,0E0,7.595215E0,0E0,0E0],"parents":[2147483647,0,0,1,1,2,2,6,6],"right_children":[2,4,6,-1,-1,-1,8,-1,-1],"split_conditions":[2.77936E3,1E0,1E0,-1.4801676E-2,1.4808772E-2,-1.2947292E-2,2.93378E3,9.39354E-3,1.4306569E-2],"split_indices":[0,15,11,0,0,0,0,0,0],"split_type":[0,0,0,0,0,0,0,0,0],"sum_hessian":[2.801782E3,1.4957196E3,1.3060624E3,1.3545162E3,1.4120341E2,1.2405413E1,1.293657E3,5.423457E1,1.2394224E3],"tree_param":{"num_deleted":"0","num_feature":"17","num_nodes":"9","size_leaf_vector":"1"}},{"base_weights":[3.694776E-2,-1.4235734E0,1.1998312E0,-1.4605732E-2,1.3086107E-2,-1.4283435E-2,1.3330176E0,7.2296653E-3,1.4246987E-2],"categories":[],"categories_nodes":[],"categories_segments":[],"categories_sizes":[],"default_left":[0,0,0,0,0,0,0,0,0],"id":50,"left_children":[1,3,5,-1,-1,-1,7,-1,-1],"loss_changes":[4.8301177E3,1.3132153E2,5.580332E2,0E0,0E0,0E0,8.1225586E1,0E0,0E0],"parents":[2147483647,0,0,1,1,2,2,6,6],"right_children":[2,4,6,-1,-1,-1,8,-1,-1],"split_conditions":[1.83151E3,1E0,1E0,-1.4605732E-2,1.3086107E-2,-1.4283435E-2,2.93378E3,7.2296653E-3,1.4246987E-2],"split_indices":[0,15,11,0,0,0,0,0,0],"split_type":[0,0,0,0,0,0,0,0,0],"sum_hessian":[2.8399507E3,1.2584832E3,1.5814677E3,1.2427671E3,1.5716007E1,7.515847E1,1.5063091E3,1.9983307E2,1.3064761E3],"tree_param":{"num_deleted":"0","num_feature":"17","num_nodes":"9","size_leaf_vector":"1"}},{"base_weights":[2.7603831E-2,-1.4433407E-2,7.2340894E-1,8.2707196E-1,-1.4209068E-2,9.383716E-3,-1.406043E-2],"categories":[],"categories_nodes":[],"categories_segments":[],"categories_sizes":[],"default_left":[0,0,0,0,0,0,0],"id":51,"left_children":[1,-1,3,5,-1,-1,-1],"loss_changes":[2.8538538E3,0E0,4.229192E2,4.5165662E2,0E0,0E0,0E0],"parents":[2147483647,0,0,2,2,3,3],"right_children":[2,-1,4,6,-1,-1,-1],"split_conditions":[1E0,-1.4433407E-2,1E0,1E0,-1.4209068E-2,9.383716E-3,-1.406043E-2],"split_indices":[11,0,16,13,0,0,0],"split_type":[0,0,0,0,0,0,0],"sum_hessian":[2.7846643E3,8.933143E2,1.89135E3,1.8055269E3,8.582311E1,1.7211283E3,8.4398476E1],"tree_param":{"num_deleted":"0","num_feature":"17","num_nodes":"7","size_leaf_vector":"1"}},{"base_weights":[-6.324583E-3,-1.2401823E0,1.3663031E0,-1.4264741E0,1.291453E0,-1.2685926E-2,1.3936629E0,-9.161792E-3,-1.46053545E-2,6.6746674E-3,1.4247912E-2,9.809263E-3,1.4093254E-2],"categories":[],"categories_nodes":[],"categories_segments":[],"categories_sizes":[],"default_left":[0,0,0,0,0,0,0,0,0,0,0,0,0],"id":52,"left_children":[1,3,5,7,9,-1,11,-1,-1,-1,-1,-1,-1],"loss_changes":[4.651024E3,6.8590967E2,9.730298E1,1.957251E1,5.372406E0,0E0,4.3640137E0,0E0,0E0,0E0,0E0,0E0,0E0],"parents":[2147483647,0,0,1,1,2,2,3,3,4,4,6,6],"right_children":[2,4,6,8,10,-1,12,-1,-1,-1,-1,-1,-1],"split_conditions":[2.77936E3,4.365162E3,1E0,1.2006329E-2,2.6637206E0,-1.2685926E-2,2.93378E3,-9.161792E-3,-1.46053545E-2,6.6746674E-3,1.4247912E-2,9.809263E-3,1.4093254E-2],"split_indices":[0,8,11,7,7,0,0,0,0,0,0,0,0],"split_type":[0,0,0,0,0,0,0,0,0,0,0,0,0],"sum_hessian":[2.7422273E3,1.4444055E3,1.2978218E3,1.3464005E3,9.8005005E1,1.2217392E1,1.2856044E3,8.8656715E1,1.2577438E3,2.0030283E1,7.7974724E1,5.2821762E1,1.2327826E3],"tree_param":{"num_deleted":"0","num_feature":"17","num_nodes":"13","size_leaf_vector":"1"}},{"base_weights":[-1.0581197E-2,-1.3734604E0,1.1675214E0,-1.4438554E-2,1.369019E-2,-1.4084507E-2,1.3098352E0,7.1485555E-3,1.4061617E-2],"categories":[],"categories_nodes":[],"categories_segments":[],"categories_sizes":[],"default_left":[0,0,0,0,0,0,0,0,0],"id":53,"left_children":[1,3,5,-1,-1,-1,7,-1,-1],"loss_changes":[4.408984E3,2.4981177E2,5.43495E2,0E0,0E0,0E0,7.6979004E1,0E0,0E0],"parents":[2147483647,0,0,1,1,2,2,6,6],"right_children":[2,4,6,-1,-1,-1,8,-1,-1],"split_conditions":[1.83151E3,1E0,1E0,-1.4438554E-2,1.369019E-2,-1.4084507E-2,2.93378E3,7.1485555E-3,1.4061617E-2],"split_indices":[0,15,11,0,0,0,0,0,0],"split_type":[0,0,0,0,0,0,0,0,0],"sum_hessian":[2.7419229E3,1.27131E3,1.4706128E3,1.2405953E3,3.0714705E1,7.587734E1,1.3947355E3,1.9741222E2,1.1973232E3],"tree_param":{"num_deleted":"0","num_feature":"17","num_nodes":"9","size_leaf_vector":"1"}},{"base_weights":[-3.0220214E-3,-1.1471566E0,1.3648372E0,-1.4517806E-2,1.455535E-2,5.2423584E-1,1.3933799E-2,-1.5559556E-2,1.3718593E-2],"categories":[],"categories_nodes":[],"categories_segments":[],"categories_sizes":[],"default_left":[0,0,0,0,0,0,0,0,0],"id":54,"left_children":[1,3,5,-1,-1,7,-1,-1,-1],"loss_changes":[4.251992E3,1.1773708E3,2.726709E1,0E0,0E0,8.248984E1,0E0,0E0,0E0],"parents":[2147483647,0,0,1,1,2,2,5,5],"right_children":[2,4,6,-1,-1,8,-1,-1,-1],"split_conditions":[2.83236E3,1E0,2.93378E3,-1.4517806E-2,1.455535E-2,1.2175956E1,1.3933799E-2,-1.5559556E-2,1.3718593E-2],"split_indices":[0,15,0,0,0,8,0,0,0],"split_type":[0,0,0,0,0,0,0,0,0],"sum_hessian":[2.7129707E3,1.4776722E3,1.2352986E3,1.3238077E3,1.5386444E2,4.241466E1,1.1928839E3,1.1624709E1,3.0789951E1],"tree_param":{"num_deleted":"0","num_feature":"17","num_nodes":"9","size_leaf_vector":"1"}},{"base_weights":[6.502695E-2,-1.1665897E0,1.3540039E0,-1.4437925E-2,1.4452698E-2,-1.2639477E-2,1.3797829E0,9.345746E-3,1.3958288E-2],"categories":[],"categories_nodes":[],"categories_segments":[],"categories_sizes":[],"default_left":[0,0,0,0,0,0,0,0,0],"id":55,"left_children":[1,3,5,-1,-1,-1,7,-1,-1],"loss_changes":[4.491996E3,1.0516797E3,9.686206E1,0E0,0E0,0E0,6.0151367E0,0E0,0E0],"parents":[2147483647,0,0,1,1,2,2,6,6],"right_children":[2,4,6,-1,-1,-1,8,-1,-1],"split_conditions":[2.77936E3,1E0,1E0,-1.4437925E-2,1.4452698E-2,-1.2639477E-2,2.93378E3,9.345746E-3,1.3958288E-2],"split_indices":[0,15,11,0,0,0,0,0,0],"split_type":[0,0,0,0,0,0,0,0,0],"sum_hessian":[2.8255093E3,1.444803E3,1.3807063E3,1.3071571E3,1.3764583E2,1.2337434E1,1.3683689E3,5.2808228E1,1.3155607E3],"tree_param":{"num_deleted":"0","num_feature":"17","num_nodes":"9","size_leaf_vector":"1"}},{"base_weights":[-3.8001693E-3,-1.1647512E0,1.3545029E0,-1.403729E0,1.3116968E0,5.1815546E-1,1.38247665E-2,-9.37113E-3,-1.4373708E-2,6.5232343E-3,1.4148164E-2,-1.5746137E-2,1.360826E-2],"categories":[],"categories_nodes":[],"categories_segments":[],"categories_sizes":[],"default_left":[0,0,0,0,0,0,0,0,0,0,0,0,0],"id":56,"left_children":[1,3,5,7,9,11,-1,-1,-1,-1,-1,-1,-1],"loss_changes":[4.241961E3,8.622195E2,2.6615479E1,1.6904297E1,5.8588104E0,8.158514E1,0E0,0E0,0E0,0E0,0E0,0E0,0E0],"parents":[2147483647,0,0,1,1,2,2,3,3,4,4,5,5],"right_children":[2,4,6,8,10,12,-1,-1,-1,-1,-1,-1,-1],"split_conditions":[2.83236E3,4.365162E3,2.93378E3,1.2006329E-2,1.5422164E0,1.2175956E1,1.38247665E-2,-9.37113E-3,-1.4373708E-2,6.5232343E-3,1.4148164E-2,-1.5746137E-2,1.360826E-2],"split_indices":[0,8,0,7,7,8,0,0,0,0,0,0,0],"split_type":[0,0,0,0,0,0,0,0,0,0,0,0,0],"sum_hessian":[2.686083E3,1.4486041E3,1.2374788E3,1.3220903E3,1.2651381E2,4.189329E1,1.1955854E3,9.378966E1,1.2283007E3,1.9746988E1,1.0676682E2,1.1357193E1,3.0536098E1],"tree_param":{"num_deleted":"0","num_feature":"17","num_nodes":"13","size_leaf_vector":"1"}},{"base_weights":[-5.3954806E-2,-1.316766E0,1.1541504E0,-1.4208378E-2,1.3833268E-2,-1.38255935E-2,1.2912146E0,7.2549055E-3,1.3807982E-2],"categories":[],"categories_nodes":[],"categories_segments":[],"categories_sizes":[],"default_left":[0,0,0,0,0,0,0,0,0],"id":57,"left_children":[1,3,5,-1,-1,-1,7,-1,-1],"loss_changes":[3.9143035E3,3.5649683E2,4.5937915E2,0E0,0E0,0E0,6.0044434E1,0E0,0E0],"parents":[2147483647,0,0,1,1,2,2,6,6],"right_children":[2,4,6,-1,-1,-1,8,-1,-1],"split_conditions":[1.99614E3,1E0,1E0,-1.4208378E-2,1.3833268E-2,-1.38255935E-2,2.93378E3,7.2549055E-3,1.3807982E-2],"split_indices":[0,15,11,0,0,0,0,0,0],"split_type":[0,0,0,0,0,0,0,0,0],"sum_hessian":[2.5616865E3,1.2525997E3,1.3090867E3,1.2072024E3,4.539743E1,6.598836E1,1.2430984E3,1.7318806E2,1.0699103E3],"tree_param":{"num_deleted":"0","num_feature":"17","num_nodes":"9","size_leaf_vector":"1"}},{"base_weights":[3.3640552E-2,-1.2250316E0,1.0459414E0,-1.2931633E0,1.0077563E-2,-1.3874731E-2,1.242548E0,-2.457074E-3,-1.4062E-2,1.0014666E-2,1.3165143E-2],"categories":[],"categories_nodes":[],"categories_segments":[],"categories_sizes":[],"default_left":[0,0,0,0,0,0,0,0,0,0,0],"id":58,"left_children":[1,3,5,7,-1,-1,9,-1,-1,-1,-1],"loss_changes":[3.413188E3,1.843728E2,7.1380066E2,1.3578821E2,0E0,0E0,2.072583E1,0E0,0E0,0E0,0E0],"parents":[2147483647,0,0,1,1,2,2,3,3,6,6],"right_children":[2,4,6,8,-1,-1,10,-1,-1,-1,-1],"split_conditions":[2.6637206E0,4.365162E3,1E0,3.2696667E1,1.0077563E-2,-1.3874731E-2,6.754919E0,-2.457074E-3,-1.4062E-2,1.0014666E-2,1.3165143E-2],"split_indices":[7,8,11,6,0,0,7,0,0,0,0],"split_type":[0,0,0,0,0,0,0,0,0,0,0],"sum_hessian":[2.674845E3,1.1919219E3,1.4829232E3,1.1576624E3,3.425951E1,1.0975989E2,1.3731633E3,1.1381018E2,1.0438522E3,3.308036E2,1.0423597E3],"tree_param":{"num_deleted":"0","num_feature":"17","num_nodes":"11","size_leaf_vector":"1"}},{"base_weights":[3.304795E-2,-1.1774977E0,1.3429116E0,-1.423194E-2,1.4237264E-2,5.0400907E-1,1.3695386E-2,-1.5217039E-2,1.34637505E-2],"categories":[],"categories_nodes":[],"categories_segments":[],"categories_sizes":[],"default_left":[0,0,0,0,0,0,0,0,0],"id":59,"left_children":[1,3,5,-1,-1,7,-1,-1,-1],"loss_changes":[4.3008447E3,9.0482935E2,2.6785645E1,0E0,0E0,7.8791E1,0E0,0E0,0E0],"parents":[2147483647,0,0,1,1,2,2,5,5],"right_children":[2,4,6,-1,-1,8,-1,-1,-1],"split_conditions":[2.83236E3,1E0,2.93378E3,-1.423194E-2,1.4237264E-2,1.2175956E1,1.3695386E-2,-1.5217039E-2,1.34637505E-2],"split_indices":[0,15,0,0,0,8,0,0,0],"split_type":[0,0,0,0,0,0,0,0,0],"sum_hessian":[2.7083079E3,1.4074216E3,1.3008861E3,1.2869608E3,1.2046077E2,4.182411E1,1.259062E3,1.1635849E1,3.0188261E1],"tree_param":{"num_deleted":"0","num_feature":"17","num_nodes":"9","size_leaf_vector":"1"}},{"base_weights":[-8.119635E-3,-1.0986993E0,1.3615733E-2,-1.4197427E-2,1.4236234E-2],"categories":[],"categories_nodes":[],"categories_segments":[],"categories_sizes":[],"default_left":[0,0,0,0,0],"id":60,"left_children":[1,3,-1,-1,-1],"loss_changes":[3.9400444E3,1.1933553E3,0E0,0E0,0E0],"parents":[2147483647,0,0,1,1],"right_children":[2,4,-1,-1,-1],"split_conditions":[2.93378E3,1E0,1.3615733E-2,-1.4197427E-2,1.4236234E-2],"split_indices":[0,15,0,0,0],"split_type":[0,0,0,0,0],"sum_hessian":[2.6337551E3,1.4666982E3,1.1670568E3,1.3020454E3,1.646529E2],"tree_param":{"num_deleted":"0","num_feature":"17","num_nodes":"5","size_leaf_vector":"1"}},{"base_weights":[2.42325E-2,-1.1663984E0,1.3178056E0,-1.4104795E-2,1.4109558E-2,5.223152E-1,1.3570288E-2,1.3666436E-2,-1.5568165E-2],"categories":[],"categories_nodes":[],"categories_segments":[],"categories_sizes":[],"default_left":[0,0,0,0,0,0,0,0,0],"id":61,"left_children":[1,3,5,-1,-1,7,-1,-1,-1],"loss_changes":[4.1144814E3,8.789536E2,3.7597412E1,0E0,0E0,1.16550026E2,0E0,0E0,0E0],"parents":[2147483647,0,0,1,1,2,2,5,5],"right_children":[2,4,6,-1,-1,8,-1,-1,-1],"split_conditions":[2.77936E3,1E0,2.93378E3,-1.4104795E-2,1.4109558E-2,1E0,1.3570288E-2,1.3666436E-2,-1.5568165E-2],"split_indices":[0,15,0,0,0,14,0,0,0],"split_type":[0,0,0,0,0,0,0,0,0],"sum_hessian":[2.6674043E3,1.3888702E3,1.278534E3,1.269724E3,1.1914618E2,6.202267E1,1.2165114E3,4.476828E1,1.7254393E1],"tree_param":{"num_deleted":"0","num_feature":"17","num_nodes":"9","size_leaf_vector":"1"}},{"base_weights":[1.4453225E-2,-1.1328573E0,1.3136451E0,-1.4048037E-2,1.4083901E-2,5.4377735E-1,1.3524051E-2,-1.5549752E-2,1.3605707E-2],"categories":[],"categories_nodes":[],"categories_segments":[],"categories_sizes":[],"default_left":[0,0,0,0,0,0,0,0,0],"id":62,"left_children":[1,3,5,-1,-1,7,-1,-1,-1],"loss_changes":[3.90871E3,9.661603E2,3.4281494E1,0E0,0E0,1.11988525E2,0E0,0E0,0E0],"parents":[2147483647,0,0,1,1,2,2,5,5],"right_children":[2,4,6,-1,-1,8,-1,-1,-1],"split_conditions":[2.77936E3,1E0,2.93378E3,-1.4048037E-2,1.4083901E-2,1.2175956E1,1.3524051E-2,-1.5549752E-2,1.3605707E-2],"split_indices":[0,15,0,0,0,8,0,0,0],"split_type":[0,0,0,0,0,0,0,0,0],"sum_hessian":[2.6182231E3,1.3903141E3,1.227909E3,1.2569006E3,1.3341351E2,6.0916496E1,1.1669926E3,1.638795E1,4.4528545E1],"tree_param":{"num_deleted":"0","num_feature":"17","num_nodes":"9","size_leaf_vector":"1"}},{"base_weights":[3.267084E-2,-1.1573447E0,1.3232055E0,-1.3993376E-2,1.3991215E-2,5.0770384E-1,1.3488511E-2,-1.511973E-2,1.321584E-2],"categories":[],"categories_nodes":[],"categories_segments":[],"categories_sizes":[],"default_left":[0,0,0,0,0,0,0,0,0],"id":63,"left_children":[1,3,5,-1,-1,7,-1,-1,-1],"loss_changes":[4.0646667E3,8.5565015E2,2.426001E1,0E0,0E0,7.379198E1,0E0,0E0,0E0],"parents":[2147483647,0,0,1,1,2,2,5,5],"right_children":[2,4,6,-1,-1,8,-1,-1,-1],"split_conditions":[2.83236E3,1E0,2.93378E3,-1.3993376E-2,1.3991215E-2,1.2175956E1,1.3488511E-2,-1.511973E-2,1.321584E-2],"split_indices":[0,15,0,0,0,8,0,0,0],"split_type":[0,0,0,0,0,0,0,0,0],"sum_hessian":[2.642639E3,1.374769E3,1.2678699E3,1.2568933E3,1.1787569E2,4.051846E1,1.2273514E3,1.0968893E1,2.9549568E1],"tree_param":{"num_deleted":"0","num_feature":"17","num_nodes":"9","size_leaf_vector":"1"}},{"base_weights":[-5.3059775E-3,-1.1960962E0,9.976842E-1,-1.3011899E0,1.3667684E-2,-1.3557336E-2,1.2031322E0,-5.1328004E-3,-1.3733258E-2,9.288466E-3,1.27226645E-2],"categories":[],"categories_nodes":[],"categories_segments":[],"categories_sizes":[],"default_left":[0,0,0,0,0,0,0,0,0,0,0],"id":64,"left_children":[1,3,5,7,-1,-1,9,-1,-1,-1,-1],"loss_changes":[3.0396562E3,3.1697375E2,6.709935E2,6.125464E1,0E0,0E0,2.0647827E1,0E0,0E0,0E0,0E0],"parents":[2147483647,0,0,1,1,2,2,3,3,6,6],"right_children":[2,4,6,8,-1,-1,10,-1,-1,-1,-1],"split_conditions":[2.6637206E0,1E0,1E0,3.2696667E1,1.3667684E-2,-1.3557336E-2,6.4541373E0,-5.1328004E-3,-1.3733258E-2,9.288466E-3,1.27226645E-2],"split_indices":[7,15,11,6,0,0,7,0,0,0,0],"split_type":[0,0,0,0,0,0,0,0,0,0,0],"sum_hessian":[2.5409465E3,1.1617654E3,1.3791812E3,1.1171354E3,4.462996E1,1.0963815E2,1.269543E3,9.564191E1,1.0214935E3,2.628418E2,1.0067011E3],"tree_param":{"num_deleted":"0","num_feature":"17","num_nodes":"11","size_leaf_vector":"1"}},{"base_weights":[7.558349E-3,-1.1780833E0,1.3132836E0,-1.3901841E-2,1.3857942E-2,4.9583212E-1,1.3397703E-2,-1.4888766E-2,1.3108273E-2],"categories":[],"categories_nodes":[],"categories_segments":[],"categories_sizes":[],"default_left":[0,0,0,0,0,0,0,0,0],"id":65,"left_children":[1,3,5,-1,-1,7,-1,-1,-1],"loss_changes":[3.9971733E3,7.396083E2,2.4361816E1,0E0,0E0,7.22954E1,0E0,0E0,0E0],"parents":[2147483647,0,0,1,1,2,2,5,5],"right_children":[2,4,6,-1,-1,8,-1,-1,-1],"split_conditions":[2.83236E3,1E0,2.93378E3,-1.3901841E-2,1.3857942E-2,1.2175956E1,1.3397703E-2,-1.4888766E-2,1.3108273E-2],"split_indices":[0,15,0,0,0,8,0,0,0],"split_type":[0,0,0,0,0,0,0,0,0],"sum_hessian":[2.5779072E3,1.3509828E3,1.2269244E3,1.2487855E3,1.0219719E2,4.033688E1,1.1865875E3,1.1082101E1,2.9254778E1],"tree_param":{"num_deleted":"0","num_feature":"17","num_nodes":"9","size_leaf_vector":"1"}},{"base_weights":[1.2570636E-2,-1.101745E0,1.3357036E-2,-1.3886135E-2,1.3791503E-2],"categories":[],"categories_nodes":[],"categories_segments":[],"categories_sizes":[],"default_left":[0,0,0,0,0],"id":66,"left_children":[1,3,-1,-1,-1],"loss_changes":[3.8028918E3,1.0001316E3,0E0,0E0,0E0],"parents":[2147483647,0,0,1,1],"right_children":[2,4,-1,-1,-1],"split_conditions":[2.93378E3,1E0,1.3357036E-2,-1.3886135E-2,1.3791503E-2],"split_indices":[0,15,0,0,0],"split_type":[0,0,0,0,0],"sum_hessian":[2.5752268E3,1.3979004E3,1.1773265E3,1.2539832E3,1.4391733E2],"tree_param":{"num_deleted":"0","num_feature":"17","num_nodes":"5","size_leaf_vector":"1"}},{"base_weights":[1.651629E-2,-1.3603624E-2,1.0266987E0,-1.3426023E-2,1.197937E0,6.195462E-3,1.3339389E-2],"categories":[],"categories_nodes":[],"categories_segments":[],"categories_sizes":[],"default_left":[0,0,0,0,0,0,0],"id":67,"left_children":[1,-1,3,-1,5,-1,-1],"loss_changes":[3.5706116E3,0E0,6.0400854E2,0E0,1.0611609E2,0E0,0E0],"parents":[2147483647,0,0,2,2,4,4],"right_children":[2,-1,4,-1,6,-1,-1],"split_conditions":[1.27736E3,-1.3603624E-2,1E0,-1.3426023E-2,2.93378E3,6.195462E-3,1.3339389E-2],"split_indices":[0,0,11,0,0,0,0],"split_type":[0,0,0,0,0,0,0],"sum_hessian":[2.563237E3,1.0842356E3,1.4790013E3,9.856916E1,1.3804323E3,2.6561395E2,1.1148182E3],"tree_param":{"num_deleted":"0","num_feature":"17","num_nodes":"7","size_leaf_vector":"1"}},{"base_weights":[-1.2814752E-2,-1.1899422E0,1.2865884E0,-1.3737634E-2,1.36838E-2,-1.2061705E-2,1.3133562E0,8.579408E-3,1.3317092E-2],"categories":[],"categories_nodes":[],"categories_segments":[],"categories_sizes":[],"default_left":[0,0,0,0,0,0,0,0,0],"id":68,"left_children":[1,3,5,-1,-1,-1,7,-1,-1],"loss_changes":[3.813003E3,6.1896643E2,8.2272705E1,0E0,0E0,0E0,6.4266357E0,0E0,0E0],"parents":[2147483647,0,0,1,1,2,2,6,6],"right_children":[2,4,6,-1,-1,-1,8,-1,-1],"split_conditions":[2.77936E3,1E0,1E0,-1.3737634E-2,1.36838E-2,-1.2061705E-2,2.93378E3,8.579408E-3,1.3317092E-2],"split_indices":[0,15,11,0,0,0,0,0,0],"split_type":[0,0,0,0,0,0,0,0,0],"sum_hessian":[2.4889001E3,1.3061835E3,1.1827166E3,1.2196691E3,8.6514435E1,1.143063E1,1.1712859E3,5.0128693E1,1.1211572E3],"tree_param":{"num_deleted":"0","num_feature":"17","num_nodes":"9","size_leaf_vector":"1"}},{"base_weights":[5.764221E-2,-1.080248E0,1.2986296E0,-1.3349869E0,1.2636361E0,5.362962E-1,1.3216857E-2,-8.275672E-3,-1.3680843E-2,6.2849084E-3,1.3488735E-2,9.95414E-4,1.11823E-2],"categories":[],"categories_nodes":[],"categories_segments":[],"categories_sizes":[],"default_left":[0,0,0,0,0,0,0,0,0,0,0,0,0],"id":69,"left_children":[1,3,5,7,9,11,-1,-1,-1,-1,-1,-1,-1],"loss_changes":[3.6851953E3,8.1615967E2,1.9596191E1,1.7276855E1,4.5850677E0,9.500601E0,0E0,0E0,0E0,0E0,0E0,0E0,0E0],"parents":[2147483647,0,0,1,1,2,2,3,3,4,4,5,5],"right_children":[2,4,6,8,10,12,-1,-1,-1,-1,-1,-1,-1],"split_conditions":[2.83236E3,4.365162E3,2.93378E3,2E0,9.8982316E-1,1.0393225E3,1.3216857E-2,-8.275672E-3,-1.3680843E-2,6.2849084E-3,1.3488735E-2,9.95414E-4,1.11823E-2],"split_indices":[0,8,0,5,7,6,0,0,0,0,0,0,0],"split_type":[0,0,0,0,0,0,0,0,0,0,0,0,0],"sum_hessian":[2.605649E3,1.3592119E3,1.2464369E3,1.2269395E3,1.322725E2,3.865159E1,1.2077853E3,7.92387E1,1.1477008E3,1.8326387E1,1.1394612E2,2.3908794E1,1.4742793E1],"tree_param":{"num_deleted":"0","num_feature":"17","num_nodes":"13","size_leaf_vector":"1"}},{"base_weights":[8.616928E-3,-1.1542509E0,1.0846726E0,-1.2462268E0,9.937978E-1,1.1499938E0,-1.2608619E-2,-5.083412E-3,-1.3118367E-2,1.2449317E-2,5.151987E-3,1.0567568E-2,1.3084659E-2],"categories":[],"categories_nodes":[],"categories_segments":[],"categories_sizes":[],"default_left":[0,0,0,0,0,0,0,0,0,0,0,0,0],"id":70,"left_children":[1,3,5,7,9,11,-1,-1,-1,-1,-1,-1,-1],"loss_changes":[3.1297412E3,2.400597E2,2.0191516E2,5.360742E1,3.8755646E0,1.4748047E1,0E0,0E0,0E0,0E0,0E0,0E0,0E0],"parents":[2147483647,0,0,1,1,2,2,3,3,4,4,5,5],"right_children":[2,4,6,8,10,12,-1,-1,-1,-1,-1,-1,-1],"split_conditions":[3.8191507E0,4.365162E3,1E0,3.2696667E1,4.4197333E2,9.1690445E0,-1.2608619E-2,-5.083412E-3,-1.3118367E-2,1.2449317E-2,5.151987E-3,1.0567568E-2,1.3084659E-2],"split_indices":[7,8,10,6,6,8,0,0,0,0,0,0,0],"split_type":[0,0,0,0,0,0,0,0,0,0,0,0,0],"sum_hessian":[2.4971978E3,1.1998925E3,1.2973053E3,1.151653E3,4.8239464E1,1.2633545E3,3.3950764E1,9.608991E1,1.0555631E3,2.8852608E1,1.9386858E1,8.0703076E2,4.563237E2],"tree_param":{"num_deleted":"0","num_feature":"17","num_nodes":"13","size_leaf_vector":"1"}},{"base_weights":[-5.440555E-2,-1.26773E0,9.493721E-1,-5.089612E-1,-1.3391914E-2,-1.3275223E-2,1.1607833E0,6.0189385E-3,-1.3448818E-2,1.3502777E-3,1.17914695E-2],"categories":[],"categories_nodes":[],"categories_segments":[],"categories_sizes":[],"default_left":[0,0,0,0,0,0,0,0,0,0,0],"id":71,"left_children":[1,3,5,7,-1,-1,9,-1,-1,-1,-1],"loss_changes":[2.8813384E3,5.579773E1,6.2610596E2,9.1166275E1,0E0,0E0,2.1360352E1,0E0,0E0,0E0,0E0],"parents":[2147483647,0,0,1,1,2,2,3,3,6,6],"right_children":[2,4,6,8,-1,-1,10,-1,-1,-1,-1],"split_conditions":[2.5939682E0,3.2696667E1,1E0,-5.458009E1,-1.3391914E-2,-1.3275223E-2,9.577E1,6.0189385E-3,-1.3448818E-2,1.3502777E-3,1.17914695E-2],"split_indices":[7,6,11,1,0,0,6,0,0,0,0],"split_type":[0,0,0,0,0,0,0,0,0,0,0],"sum_hessian":[2.3617026E3,1.0692319E3,1.2924706E3,9.4033936E1,9.7519806E2,1.0871274E2,1.1837579E3,4.036056E1,5.367337E1,2.159229E1,1.1621655E3],"tree_param":{"num_deleted":"0","num_feature":"17","num_nodes":"11","size_leaf_vector":"1"}},{"base_weights":[-5.466356E-2,-1.2358774E0,9.7714484E-1,-1.34055205E-2,1.3120699E-2,-1.3209709E-2,1.1718866E0,8.004119E-3,1.2165825E-2],"categories":[],"categories_nodes":[],"categories_segments":[],"categories_sizes":[],"default_left":[0,0,0,0,0,0,0,0,0],"id":72,"left_children":[1,3,5,-1,-1,-1,7,-1,-1],"loss_changes":[2.8876455E3,2.9818774E2,5.688871E2,0E0,0E0,0E0,1.6418335E1,0E0,0E0],"parents":[2147483647,0,0,1,1,2,2,6,6],"right_children":[2,4,6,-1,-1,-1,8,-1,-1],"split_conditions":[2.929461E0,1E0,1E0,-1.34055205E-2,1.3120699E-2,-1.3209709E-2,4.8537025E0,8.004119E-3,1.2165825E-2],"split_indices":[7,15,11,0,0,0,7,0,0],"split_type":[0,0,0,0,0,0,0,0,0],"sum_hessian":[2.3651917E3,1.102798E3,1.2623937E3,1.0603795E3,4.2418484E1,9.751393E1,1.1648798E3,1.303687E2,1.034511E3],"tree_param":{"num_deleted":"0","num_feature":"17","num_nodes":"9","size_leaf_vector":"1"}},{"base_weights":[4.6592534E-2,-1.3328746E-2,1.0183581E0,1.01584256E-1,1.3048263E-2,-1.5095221E-2,1.3653624E-2],"categories":[],"categories_nodes":[],"categories_segments":[],"categories_sizes":[],"default_left":[0,0,0,0,0,0,0],"id":73,"left_children":[1,-1,3,5,-1,-1,-1],"loss_changes":[3.3553938E3,0E0,3.8476953E2,7.21299E2,0E0,0E0,0E0],"parents":[2147483647,0,0,2,2,3,3],"right_children":[2,-1,4,6,-1,-1,-1],"split_conditions":[1.27736E3,-1.3328746E-2,2.93378E3,1E0,1.3048263E-2,-1.5095221E-2,1.3653624E-2],"split_indices":[0,0,0,15,0,0,0],"split_type":[0,0,0,0,0,0,0],"sum_hessian":[2.4991484E3,1.0323794E3,1.466769E3,3.502694E2,1.1164996E3,1.5363098E2,1.9663843E2],"tree_param":{"num_deleted":"0","num_feature":"17","num_nodes":"7","size_leaf_vector":"1"}},{"base_weights":[4.731495E-2,-1.0736778E0,1.0584432E0,-1.3200118E-2,-6.90804E-1,-1.3061264E-2,1.1941773E0,5.123816E-5,-1.2032123E-2,3.770519E-3,1.2052578E-2],"categories":[],"categories_nodes":[],"categories_segments":[],"categories_sizes":[],"default_left":[0,0,0,0,0,0,0,0,0,0,0],"id":74,"left_children":[1,3,5,-1,7,-1,9,-1,-1,-1,-1],"loss_changes":[2.858867E3,1.0996594E2,4.2873962E2,0E0,1.6935432E2,0E0,9.667725E0,0E0,0E0,0E0,0E0],"parents":[2147483647,0,0,1,1,2,2,4,4,6,6],"right_children":[2,4,6,-1,8,-1,10,-1,-1,-1,-1],"split_conditions":[3.8191507E0,1E0,1E0,-1.3200118E-2,-7.3141815E1,-1.3061264E-2,7.406E1,5.123816E-5,-1.2032123E-2,3.770519E-3,1.2052578E-2],"split_indices":[7,11,11,0,2,0,6,0,0,0,0],"split_type":[0,0,0,0,0,0,0,0,0,0,0],"sum_hessian":[2.5182327E3,1.1939431E3,1.3242897E3,7.2274255E2,4.7120053E2,7.075557E1,1.253534E3,2.0024367E2,2.7095685E2,1.831195E1,1.2352222E3],"tree_param":{"num_deleted":"0","num_feature":"17","num_nodes":"11","size_leaf_vector":"1"}},{"base_weights":[3.4352686E-2,-1.0604178E0,1.2627307E0,-1.3438221E-2,1.248473E0,5.511274E-1,1.2972691E-2,6.046659E-3,1.3284051E-2,-1.5159633E-2,1.3039906E-2],"categories":[],"categories_nodes":[],"categories_segments":[],"categories_sizes":[],"default_left":[0,0,0,0,0,0,0,0,0,0,0],"id":75,"left_children":[1,3,5,-1,7,9,-1,-1,-1,-1,-1],"loss_changes":[3.341668E3,8.630105E2,2.6430054E1,0E0,4.8611755E0,9.466807E1,0E0,0E0,0E0,0E0,0E0],"parents":[2147483647,0,0,1,1,2,2,4,4,5,5],"right_children":[2,4,6,-1,8,10,-1,-1,-1,-1,-1],"split_conditions":[2.77936E3,4.365162E3,2.93378E3,-1.3438221E-2,1.5422164E0,1.2175956E1,1.2972691E-2,6.046659E-3,1.3284051E-2,-1.5159633E-2,1.3039906E-2],"split_indices":[0,8,0,0,7,8,0,0,0,0,0],"split_type":[0,0,0,0,0,0,0,0,0,0,0],"sum_hessian":[2.480829E3,1.3116819E3,1.1691471E3,1.1692188E3,1.4246301E2,5.6359024E1,1.1127881E3,1.8316782E1,1.2414623E2,1.4328049E1,4.2030975E1],"tree_param":{"num_deleted":"0","num_feature":"17","num_nodes":"11","size_leaf_vector":"1"}},{"base_weights":[3.842994E-2,-1.0520577E0,1.252991E0,-1.3403137E-2,1.3471569E-2,-1.1681582E-2,1.2780844E0,7.902619E-3,1.2978633E-2],"categories":[],"categories_nodes":[],"categories_segments":[],"categories_sizes":[],"default_left":[0,0,0,0,0,0,0,0,0],"id":76,"left_children":[1,3,5,-1,-1,-1,7,-1,-1],"loss_changes":[3.2683389E3,9.02693E2,7.397656E1,0E0,0E0,0E0,8.065796E0,0E0,0E0],"parents":[2147483647,0,0,1,1,2,2,6,6],"right_children":[2,4,6,-1,-1,-1,8,-1,-1],"split_conditions":[2.77936E3,1E0,1E0,-1.3403137E-2,1.3471569E-2,-1.1681582E-2,2.93378E3,7.902619E-3,1.2978633E-2],"split_indices":[0,15,11,0,0,0,0,0,0],"split_type":[0,0,0,0,0,0,0,0,0],"sum_hessian":[2.463603E3,1.2980295E3,1.1655735E3,1.159778E3,1.3825159E2,1.0817416E1,1.1547561E3,4.917251E1,1.1055835E3],"tree_param":{"num_deleted":"0","num_feature":"17","num_nodes":"9","size_leaf_vector":"1"}},{"base_weights":[-5.317477E-2,-1.1316907E0,1.2440047E0,-1.3347644E-2,1.319669E-2,-1.1430221E-2,1.270481E0,7.847076E-3,1.292551E-2],"categories":[],"categories_nodes":[],"categories_segments":[],"categories_sizes":[],"default_left":[0,0,0,0,0,0,0,0,0],"id":77,"left_children":[1,3,5,-1,-1,-1,7,-1,-1],"loss_changes":[3.219048E3,6.290393E2,6.897461E1,0E0,0E0,0E0,8.019653E0,0E0,0E0],"parents":[2147483647,0,0,1,1,2,2,6,6],"right_children":[2,4,6,-1,-1,-1,8,-1,-1],"split_conditions":[2.77936E3,1E0,1E0,-1.3347644E-2,1.319669E-2,-1.1430221E-2,2.93378E3,7.847076E-3,1.292551E-2],"split_indices":[0,15,11,0,0,0,0,0,0],"split_type":[0,0,0,0,0,0,0,0,0],"sum_hessian":[2.2969438E3,1.2545293E3,1.0424147E3,1.159583E3,9.4946365E1,1.0302934E1,1.0321117E3,4.9015675E1,9.83096E2],"tree_param":{"num_deleted":"0","num_feature":"17","num_nodes":"9","size_leaf_vector":"1"}},{"base_weights":[7.250357E-3,-1.1394974E0,1.0152096E0,-1.2417219E0,1.3234399E-2,-1.2889354E-2,1.1725008E0,-4.76979E-3,-1.3125497E-2,8.076856E-3,1.2018914E-2],"categories":[],"categories_nodes":[],"categories_segments":[],"categories_sizes":[],"default_left":[0,0,0,0,0,0,0,0,0,0,0],"id":78,"left_children":[1,3,5,7,-1,-1,9,-1,-1,-1,-1],"loss_changes":[2.72505E3,2.8086353E2,4.5779016E2,5.5264893E1,0E0,0E0,9.663208E0,0E0,0E0,0E0,0E0],"parents":[2147483647,0,0,1,1,2,2,3,3,6,6],"right_children":[2,4,6,8,-1,-1,10,-1,-1,-1,-1],"split_conditions":[3.3730159E0,1E0,1E0,3.2696667E1,1.3234399E-2,-1.2889354E-2,4.8537025E0,-4.76979E-3,-1.3125497E-2,8.076856E-3,1.2018914E-2],"split_indices":[7,15,11,6,0,0,7,0,0,0,0],"split_type":[0,0,0,0,0,0,0,0,0,0,0],"sum_hessian":[2.3536167E3,1.1006539E3,1.2529629E3,1.0579387E3,4.271515E1,7.894447E1,1.1740184E3,9.1586685E1,9.6635205E2,9.304582E1,1.0809725E3],"tree_param":{"num_deleted":"0","num_feature":"17","num_nodes":"11","size_leaf_vector":"1"}},{"base_weights":[-2.5719302E-3,-1.1014633E0,9.607461E-1,-1.2351835E0,1.3265291E-2,-1.2879307E-2,1.1403977E0,-5.078914E-3,-1.3066335E-2,6.4750006E-3,1.1698442E-2],"categories":[],"categories_nodes":[],"categories_segments":[],"categories_sizes":[],"default_left":[0,0,0,0,0,0,0,0,0,0,0],"id":79,"left_children":[1,3,5,7,-1,-1,9,-1,-1,-1,-1],"loss_changes":[2.4869863E3,3.5961072E2,5.0849463E2,5.1892212E1,0E0,0E0,1.4417236E1,0E0,0E0,0E0,0E0],"parents":[2147483647,0,0,1,1,2,2,3,3,6,6],"right_children":[2,4,6,8,-1,-1,10,-1,-1,-1,-1],"split_conditions":[2.929461E0,1E0,1E0,3.2696667E1,1.3265291E-2,-1.2879307E-2,3.9812498E0,-5.078914E-3,-1.3066335E-2,6.4750006E-3,1.1698442E-2],"split_indices":[7,15,11,6,0,0,7,0,0,0,0],"split_type":[0,0,0,0,0,0,0,0,0,0,0],"sum_hessian":[2.3452908E3,1.095662E3,1.2496287E3,1.0395955E3,5.606655E1,9.13308E1,1.158298E3,9.5071754E1,9.445237E2,6.8846825E1,1.089451E3],"tree_param":{"num_deleted":"0","num_feature":"17","num_nodes":"11","size_leaf_vector":"1"}},{"base_weights":[-1.7473469E-2,-1.0635273E0,1.2514632E0,-1.32484455E-2,1.329783E-2,5.3238547E-1,1.2763514E-2,9.1738586E-4,1.1120104E-2],"categories":[],"categories_nodes":[],"categories_segments":[],"categories_sizes":[],"default_left":[0,0,0,0,0,0,0,0,0],"id":80,"left_children":[1,3,5,-1,-1,7,-1,-1,-1],"loss_changes":[3.031963E3,7.8671606E2,1.62052E1,0E0,0E0,9.059527E0,0E0,0E0,0E0],"parents":[2147483647,0,0,1,1,2,2,5,5],"right_children":[2,4,6,-1,-1,8,-1,-1,-1],"split_conditions":[2.83236E3,1E0,2.93378E3,-1.32484455E-2,1.329783E-2,8.836211E2,1.2763514E-2,9.1738586E-4,1.1120104E-2],"split_indices":[0,15,0,0,0,6,0,0,0],"split_type":[0,0,0,0,0,0,0,0,0],"sum_hessian":[2.2802432E3,1.2502838E3,1.0299595E3,1.1282012E3,1.2208259E2,3.662586E1,9.933336E2,2.261357E1,1.4012288E1],"tree_param":{"num_deleted":"0","num_feature":"17","num_nodes":"9","size_leaf_vector":"1"}},{"base_weights":[-2.1575443E-2,-1.1385204E0,1.2370398E0,-1.3190783E-2,1.3164674E-2,-1.1301352E-2,1.262755E0,6.131109E-3,1.2823332E-2],"categories":[],"categories_nodes":[],"categories_segments":[],"categories_sizes":[],"default_left":[0,0,0,0,0,0,0,0,0],"id":81,"left_children":[1,3,5,-1,-1,-1,7,-1,-1],"loss_changes":[3.1903804E3,5.3654675E2,6.786365E1,0E0,0E0,0E0,1.0917969E1,0E0,0E0],"parents":[2147483647,0,0,1,1,2,2,6,6],"right_children":[2,4,6,-1,-1,-1,8,-1,-1],"split_conditions":[2.77936E3,1E0,1E0,-1.3190783E-2,1.3164674E-2,-1.1301352E-2,2.93378E3,6.131109E-3,1.2823332E-2],"split_indices":[0,15,11,0,0,0,0,0,0],"split_type":[0,0,0,0,0,0,0,0,0],"sum_hessian":[2.2654663E3,1.200597E3,1.0648693E3,1.1193973E3,8.119973E1,1.0311595E1,1.0545576E3,3.3489235E1,1.0210684E3],"tree_param":{"num_deleted":"0","num_feature":"17","num_nodes":"9","size_leaf_vector":"1"}},{"base_weights":[-1.5758012E-3,-1.2901691E-2,6.1514366E-1,9.000371E-2,9.738539E-1,-1.167453E-2,1.2740516E-2,4.3688146E-3,9.949825E-3],"categories":[],"categories_nodes":[],"categories_segments":[],"categories_sizes":[],"default_left":[0,0,0,0,0,0,0,0,0],"id":82,"left_children":[1,-1,3,5,7,-1,-1,-1,-1],"loss_changes":[1.8379401E3,0E0,2.93833E2,9.519805E2,8.946045E0,0E0,0E0,0E0,0E0],"parents":[2147483647,0,0,2,2,3,3,4,4],"right_children":[2,-1,4,6,8,-1,-1,-1,-1],"split_conditions":[1E0,-1.2901691E-2,1E0,1.2175956E1,7.406E1,-1.167453E-2,1.2740516E-2,4.3688146E-3,9.949825E-3],"split_indices":[11,0,14,8,6,0,0,0,0],"split_type":[0,0,0,0,0,0,0,0,0],"sum_hessian":[2.3083235E3,7.467231E2,1.5616003E3,6.35356E2,9.262444E2,3.0793518E2,3.2742084E2,3.7602898E1,8.886415E2],"tree_param":{"num_deleted":"0","num_feature":"17","num_nodes":"9","size_leaf_vector":"1"}},{"base_weights":[-1.9662794E-2,-1.0368401E0,1.257045E0,-1.2803956E0,1.2051842E0,3.7271294E-3,1.2730634E-2,-7.619194E-3,-1.3145182E-2,5.996174E-3,1.2871849E-2],"categories":[],"categories_nodes":[],"categories_segments":[],"categories_sizes":[],"default_left":[0,0,0,0,0,0,0,0,0,0,0],"id":83,"left_children":[1,3,5,7,9,-1,-1,-1,-1,-1,-1],"loss_changes":[2.9456394E3,6.9262256E2,1.2473511E1,1.7129639E1,3.6980286E0,0E0,0E0,0E0,0E0,0E0,0E0],"parents":[2147483647,0,0,1,1,2,2,3,3,4,4],"right_children":[2,4,6,8,10,-1,-1,-1,-1,-1,-1],"split_conditions":[2.88E3,4.365162E3,2.93378E3,2E0,9.8982316E-1,3.7271294E-3,1.2730634E-2,-7.619194E-3,-1.3145182E-2,5.996174E-3,1.2871849E-2],"split_indices":[0,8,0,5,7,0,0,0,0,0,0],"split_type":[0,0,0,0,0,0,0,0,0,0,0],"sum_hessian":[2.26433E3,1.2606854E3,1.0036446E3,1.138129E3,1.2255636E2,1.9275005E1,9.843696E2,7.406453E1,1.0640646E3,1.7326214E1,1.0523015E2],"tree_param":{"num_deleted":"0","num_feature":"17","num_nodes":"11","size_leaf_vector":"1"}},{"base_weights":[8.223986E-3,-1.2891173E-2,9.6028996E-1,7.514679E-2,1.2614001E-2,1.3219243E-2,-1.46866245E-2],"categories":[],"categories_nodes":[],"categories_segments":[],"categories_sizes":[],"default_left":[0,0,0,0,0,0,0],"id":84,"left_children":[1,-1,3,5,-1,-1,-1],"loss_changes":[2.8189194E3,0E0,3.500409E2,6.5195496E2,0E0,0E0,0E0],"parents":[2147483647,0,0,2,2,3,3],"right_children":[2,-1,4,6,-1,-1,-1],"split_conditions":[1.27736E3,-1.2891173E-2,2.93378E3,1E0,1.2614001E-2,1.3219243E-2,-1.46866245E-2],"split_indices":[0,0,0,14,0,0,0],"split_type":[0,0,0,0,0,0,0],"sum_hessian":[2.278369E3,9.6380206E2,1.3145668E3,3.347362E2,9.798306E2,1.8552106E2,1.4921513E2],"tree_param":{"num_deleted":"0","num_feature":"17","num_nodes":"7","size_leaf_vector":"1"}},{"base_weights":[-2.7153032E-2,-1.05419E0,1.2145504E0,-1.3058203E-2,1.2935047E-2,-1.1525546E-2,1.2436671E0,8.333107E-3,1.2735024E-2],"categories":[],"categories_nodes":[],"categories_segments":[],"categories_sizes":[],"default_left":[0,0,0,0,0,0,0,0,0],"id":85,"left_children":[1,3,5,-1,-1,-1,7,-1,-1],"loss_changes":[2.8274463E3,7.203679E2,7.207617E1,0E0,0E0,0E0,8.97522E0,0E0,0E0],"parents":[2147483647,0,0,1,1,2,2,6,6],"right_children":[2,4,6,-1,-1,-1,8,-1,-1],"split_conditions":[2.77936E3,1E0,1E0,-1.3058203E-2,1.2935047E-2,-1.1525546E-2,3.2747E3,8.333107E-3,1.2735024E-2],"split_indices":[0,15,11,0,0,0,0,0,0],"split_type":[0,0,0,0,0,0,0,0,0],"sum_hessian":[2.2131812E3,1.211681E3,1.0015002E3,1.095377E3,1.16303986E2,1.1023007E1,9.904772E2,7.219016E1,9.18287E2],"tree_param":{"num_deleted":"0","num_feature":"17","num_nodes":"9","size_leaf_vector":"1"}},{"base_weights":[2.1414697E-2,-1.0488291E0,1.2298979E0,-1.30313225E-2,1.3024902E-2,4.261361E-1,1.2572409E-2,-1.5139869E-2,1.2336037E-2],"categories":[],"categories_nodes":[],"categories_segments":[],"categories_sizes":[],"default_left":[0,0,0,0,0,0,0,0,0],"id":86,"left_children":[1,3,5,-1,-1,7,-1,-1,-1],"loss_changes":[2.9602083E3,7.2904395E2,2.1714966E1,0E0,0E0,6.4689285E1,0E0,0E0,0E0],"parents":[2147483647,0,0,1,1,2,2,5,5],"right_children":[2,4,6,-1,-1,8,-1,-1,-1],"split_conditions":[2.83236E3,1E0,2.93378E3,-1.30313225E-2,1.3024902E-2,1.1085167E1,1.2572409E-2,-1.5139869E-2,1.2336037E-2],"split_indices":[0,15,0,0,0,8,0,0,0],"split_type":[0,0,0,0,0,0,0,0,0],"sum_hessian":[2.2846885E3,1.2115654E3,1.0731229E3,1.0943157E3,1.1724973E2,3.699827E1,1.0361248E3,1.0176867E1,2.68214E1],"tree_param":{"num_deleted":"0","num_feature":"17","num_nodes":"9","size_leaf_vector":"1"}},{"base_weights":[-7.741283E-2,-1.118947E0,1.2041782E0,-1.29661895E-2,1.2927613E-2,-1.150136E-2,1.2360388E0,5.7871724E-3,1.2580691E-2],"categories":[],"categories_nodes":[],"categories_segments":[],"categories_sizes":[],"default_left":[0,0,0,0,0,0,0,0,0],"id":87,"left_children":[1,3,5,-1,-1,-1,7,-1,-1],"loss_changes":[2.8051138E3,5.0018237E2,7.354761E1,0E0,0E0,0E0,1.1101807E1,0E0,0E0],"parents":[2147483647,0,0,1,1,2,2,6,6],"right_children":[2,4,6,-1,-1,-1,8,-1,-1],"split_conditions":[2.77936E3,1E0,1E0,-1.29661895E-2,1.2927613E-2,-1.150136E-2,2.93378E3,5.7871724E-3,1.2580691E-2],"split_indices":[0,15,11,0,0,0,0,0,0],"split_type":[0,0,0,0,0,0,0,0,0],"sum_hessian":[2.0975037E3,1.1574784E3,9.400254E2,1.0791117E3,7.83667E1,1.1404579E1,9.2862085E2,3.2618225E1,8.960026E2],"tree_param":{"num_deleted":"0","num_feature":"17","num_nodes":"9","size_leaf_vector":"1"}},{"base_weights":[-1.6080916E-2,-1.0188612E0,1.2098386E0,-1.293562E-2,1.2843985E-2,4.8865256E-1,1.2501398E-2,-1.4836461E-2,1.2560416E-2],"categories":[],"categories_nodes":[],"categories_segments":[],"categories_sizes":[],"default_left":[0,0,0,0,0,0,0,0,0],"id":88,"left_children":[1,3,5,-1,-1,7,-1,-1,-1],"loss_changes":[2.683795E3,7.6327783E2,2.645337E1,0E0,0E0,8.82451E1,0E0,0E0,0E0],"parents":[2147483647,0,0,1,1,2,2,5,5],"right_children":[2,4,6,-1,-1,8,-1,-1,-1],"split_conditions":[2.77936E3,1E0,2.93378E3,-1.293562E-2,1.2843985E-2,1.1085167E1,1.2501398E-2,-1.4836461E-2,1.2560416E-2],"split_indices":[0,15,0,0,0,8,0,0,0],"split_type":[0,0,0,0,0,0,0,0,0],"sum_hessian":[2.1792122E3,1.1991085E3,9.8010364E2,1.0723119E3,1.2679666E2,5.391722E1,9.261864E2,1.4396885E1,3.9520332E1],"tree_param":{"num_deleted":"0","num_feature":"17","num_nodes":"9","size_leaf_vector":"1"}},{"base_weights":[1.1234404E-2,-1.0131159E0,1.2024457E0,-1.290476E-2,1.2924541E-2,-1.1250208E-2,1.2283447E0,7.37376E-3,1.2496408E-2],"categories":[],"categories_nodes":[],"categories_segments":[],"categories_sizes":[],"default_left":[0,0,0,0,0,0,0,0,0],"id":89,"left_children":[1,3,5,-1,-1,-1,7,-1,-1],"loss_changes":[2.7270854E3,7.715742E2,6.511267E1,0E0,0E0,0E0,7.862793E0,0E0,0E0],"parents":[2147483647,0,0,1,1,2,2,6,6],"right_children":[2,4,6,-1,-1,-1,8,-1,-1],"split_conditions":[2.77936E3,1E0,1E0,-1.290476E-2,1.2924541E-2,-1.1250208E-2,2.93378E3,7.37376E-3,1.2496408E-2],"split_indices":[0,15,11,0,0,0,0,0,0],"split_type":[0,0,0,0,0,0,0,0,0],"sum_hessian":[2.230843E3,1.1993625E3,1.0314803E3,1.0715521E3,1.2781038E2,1.0205008E1,1.0212754E3,4.6394947E1,9.7488043E2],"tree_param":{"num_deleted":"0","num_feature":"17","num_nodes":"9","size_leaf_vector":"1"}},{"base_weights":[-2.9882953E-2,-1.1570197E0,8.933515E-1,-1.2297329E0,1.251323E-2,-1.2496884E-2,1.0880497E0,-3.4508752E-3,-1.2677585E-2,7.3648817E-3,1.1435918E-2],"categories":[],"categories_nodes":[],"categories_segments":[],"categories_sizes":[],"default_left":[0,0,0,0,0,0,0,0,0,0,0],"id":90,"left_children":[1,3,5,7,-1,-1,9,-1,-1,-1,-1],"loss_changes":[2.2393438E3,1.7278003E2,4.9611542E2,3.0004883E1,0E0,0E0,1.8571045E1,0E0,0E0,0E0,0E0],"parents":[2147483647,0,0,1,1,2,2,3,3,6,6],"right_children":[2,4,6,8,-1,-1,10,-1,-1,-1,-1],"split_conditions":[2.5939682E0,1E0,1E0,-1.6444745E2,1.251323E-2,-1.2496884E-2,4.8537025E0,-3.4508752E-3,-1.2677585E-2,7.3648817E-3,1.1435918E-2],"split_indices":[7,15,11,2,0,0,7,0,0,0,0],"split_type":[0,0,0,0,0,0,0,0,0,0,0],"sum_hessian":[2.1478364E3,9.671366E2,1.1807E3,9.3994403E2,2.7192562E1,9.721796E1,1.0834819E3,4.010989E1,8.9983417E2,1.5294127E2,9.305407E2],"tree_param":{"num_deleted":"0","num_feature":"17","num_nodes":"11","size_leaf_vector":"1"}},{"base_weights":[-1.5301121E-2,-1.0286143E0,1.1956471E0,-1.2836337E-2,1.286007E-2,4.2077085E-1,1.2397662E-2,-1.5639683E-2,1.2454886E-2],"categories":[],"categories_nodes":[],"categories_segments":[],"categories_sizes":[],"default_left":[0,0,0,0,0,0,0,0,0],"id":91,"left_children":[1,3,5,-1,-1,7,-1,-1,-1],"loss_changes":[2.623086E3,6.904127E2,3.1413696E1,0E0,0E0,9.554812E1,0E0,0E0,0E0],"parents":[2147483647,0,0,1,1,2,2,5,5],"right_children":[2,4,6,-1,-1,8,-1,-1,-1],"split_conditions":[2.77936E3,1E0,2.93378E3,-1.2836337E-2,1.286007E-2,1.2175956E1,1.2397662E-2,-1.5639683E-2,1.2454886E-2],"split_indices":[0,15,0,0,0,8,0,0,0],"split_type":[0,0,0,0,0,0,0,0,0],"sum_hessian":[2.133746E3,1.162058E3,9.716881E2,1.0477286E3,1.1432936E2,5.40904E1,9.175977E2,1.5174041E1,3.891636E1],"tree_param":{"num_deleted":"0","num_feature":"17","num_nodes":"9","size_leaf_vector":"1"}},{"base_weights":[9.944703E-3,-1.1694392E0,1.0071752E0,-1.2649442E-2,9.578966E-3,-1.2363649E-2,1.133888E0,5.7772826E-3,1.2415053E-2],"categories":[],"categories_nodes":[],"categories_segments":[],"categories_sizes":[],"default_left":[0,0,0,0,0,0,0,0,0],"id":92,"left_children":[1,3,5,-1,-1,-1,7,-1,-1],"loss_changes":[2.5351577E3,2.031842E2,3.34859E2,0E0,0E0,0E0,6.3913574E1,0E0,0E0],"parents":[2147483647,0,0,1,1,2,2,6,6],"right_children":[2,4,6,-1,-1,-1,8,-1,-1],"split_conditions":[1.83151E3,4.365162E3,1E0,-1.2649442E-2,9.578966E-3,-1.2363649E-2,2.93378E3,5.7772826E-3,1.2415053E-2],"split_indices":[0,8,11,0,0,0,0,0,0],"split_type":[0,0,0,0,0,0,0,0,0],"sum_hessian":[2.151597E3,9.853806E2,1.1662162E3,9.440444E2,4.1336285E1,6.119818E1,1.1050181E3,1.8197353E2,9.230445E2],"tree_param":{"num_deleted":"0","num_feature":"17","num_nodes":"9","size_leaf_vector":"1"}},{"base_weights":[-3.1091006E-2,-1.0472639E0,1.1869637E0,-1.2779964E-2,1.2773481E-2,-1.11261355E-2,1.2165306E0,7.1747564E-3,1.2401186E-2],"categories":[],"categories_nodes":[],"categories_segments":[],"categories_sizes":[],"default_left":[0,0,0,0,0,0,0,0,0],"id":93,"left_children":[1,3,5,-1,-1,-1,7,-1,-1],"loss_changes":[2.5604565E3,6.0828186E2,6.671704E1,0E0,0E0,0E0,8.188477E0,0E0,0E0],"parents":[2147483647,0,0,1,1,2,2,6,6],"right_children":[2,4,6,-1,-1,-1,8,-1,-1],"split_conditions":[2.77936E3,1E0,1E0,-1.2779964E-2,1.2773481E-2,-1.11261355E-2,2.93378E3,7.1747564E-3,1.2401186E-2],"split_indices":[0,15,11,0,0,0,0,0,0],"split_type":[0,0,0,0,0,0,0,0,0],"sum_hessian":[2.0646787E3,1.1259968E3,9.386818E2,1.0253408E3,1.0065608E2,1.0771241E1,9.279106E2,4.5671276E1,8.822393E2],"tree_param":{"num_deleted":"0","num_feature":"17","num_nodes":"9","size_leaf_vector":"1"}},{"base_weights":[3.3369143E-2,-1.0210626E0,1.1885525E0,-1.2738635E-2,1.2740861E-2,-1.1065999E-2,1.2139753E0,4.6519614E-3,1.23710465E-2],"categories":[],"categories_nodes":[],"categories_segments":[],"categories_sizes":[],"default_left":[0,0,0,0,0,0,0,0,0],"id":94,"left_children":[1,3,5,-1,-1,-1,7,-1,-1],"loss_changes":[2.6586533E3,6.652019E2,6.352588E1,0E0,0E0,0E0,1.5862305E1,0E0,0E0],"parents":[2147483647,0,0,1,1,2,2,6,6],"right_children":[2,4,6,-1,-1,-1,8,-1,-1],"split_conditions":[2.77936E3,1E0,1E0,-1.2738635E-2,1.2740861E-2,-1.1065999E-2,2.93378E3,4.6519614E-3,1.23710465E-2],"split_indices":[0,15,11,0,0,0,0,0,0],"split_type":[0,0,0,0,0,0,0,0,0],"sum_hessian":[2.17863E3,1.1388794E3,1.0397505E3,1.0268806E3,1.1199874E2,1.0243594E1,1.0295068E3,3.2760956E1,9.967459E2],"tree_param":{"num_deleted":"0","num_feature":"17","num_nodes":"9","size_leaf_vector":"1"}},{"base_weights":[-3.1175828E-3,-1.0748322E0,1.1900327E0,-1.2713655E-2,1.0966414E0,4.8706058E-1,1.2271383E-2,4.475593E-3,1.2277807E-2,-1.5007074E-2,1.2352732E-2],"categories":[],"categories_nodes":[],"categories_segments":[],"categories_sizes":[],"default_left":[0,0,0,0,0,0,0,0,0,0,0],"id":95,"left_children":[1,3,5,-1,7,9,-1,-1,-1,-1,-1],"loss_changes":[2.681263E3,4.743999E2,2.382312E1,0E0,5.9422073E0,8.348382E1,0E0,0E0,0E0,0E0,0E0],"parents":[2147483647,0,0,1,1,2,2,4,4,5,5],"right_children":[2,4,6,-1,8,10,-1,-1,-1,-1,-1],"split_conditions":[2.77936E3,4.365162E3,2.93378E3,-1.2713655E-2,1.5422164E0,1.1085167E1,1.2271383E-2,4.475593E-3,1.2277807E-2,-1.5007074E-2,1.2352732E-2],"split_indices":[0,8,0,0,7,8,0,0,0,0,0],"split_type":[0,0,0,0,0,0,0,0,0,0,0],"sum_hessian":[2.0928833E3,1.1028743E3,9.9000916E2,1.01231226E3,9.056198E1,5.172851E1,9.3828064E2,1.7345884E1,7.32161E1,1.3413449E1,3.8315063E1],"tree_param":{"num_deleted":"0","num_feature":"17","num_nodes":"11","size_leaf_vector":"1"}},{"base_weights":[8.999974E-3,-9.963761E-1,1.210526E0,-1.2725732E-2,1.2708312E-2,4.367938E-3,1.2234203E-2],"categories":[],"categories_nodes":[],"categories_segments":[],"categories_sizes":[],"default_left":[0,0,0,0,0,0,0],"id":96,"left_children":[1,3,5,-1,-1,-1,-1],"loss_changes":[2.540111E3,7.1995776E2,7.659912E0,0E0,0E0,0E0,0E0],"parents":[2147483647,0,0,1,1,2,2],"right_children":[2,4,6,-1,-1,-1,-1],"split_conditions":[2.88E3,1E0,2.93378E3,-1.2725732E-2,1.2708312E-2,4.367938E-3,1.2234203E-2],"split_indices":[0,15,0,0,0,0,0],"split_type":[0,0,0,0,0,0,0],"sum_hessian":[2.0986807E3,1.1425653E3,9.561153E2,1.0194688E3,1.2309642E2,1.7451351E1,9.3866394E2],"tree_param":{"num_deleted":"0","num_feature":"17","num_nodes":"7","size_leaf_vector":"1"}},{"base_weights":[-4.7449004E-2,-9.8815167E-1,1.1688104E0,-1.263906E-2,1.2663191E-2,1.7579119E-1,1.2145302E-2,-1.4857424E-2,1.1854429E-2],"categories":[],"categories_nodes":[],"categories_segments":[],"categories_sizes":[],"default_left":[0,0,0,0,0,0,0,0,0],"id":97,"left_children":[1,3,5,-1,-1,7,-1,-1,-1],"loss_changes":[2.295004E3,7.064999E2,3.8587646E1,0E0,0E0,7.2685165E1,0E0,0E0,0E0],"parents":[2147483647,0,0,1,1,2,2,5,5],"right_children":[2,4,6,-1,-1,8,-1,-1,-1],"split_conditions":[2.77936E3,1E0,2.93378E3,-1.263906E-2,1.2663191E-2,1.2175956E1,1.2145302E-2,-1.4857424E-2,1.1854429E-2],"split_indices":[0,15,0,0,0,8,0,0,0],"split_type":[0,0,0,0,0,0,0,0,0],"sum_hessian":[2.0019397E3,1.1292893E3,8.726504E2,1.0071953E3,1.22094E2,3.931737E1,8.33333E2,1.4317491E1,2.499988E1],"tree_param":{"num_deleted":"0","num_feature":"17","num_nodes":"9","size_leaf_vector":"1"}},{"base_weights":[1.8886306E-3,-1.0282605E0,1.1748484E0,-1.2211884E0,1.1121955E-2,4.1352046E-1,1.2180199E-2,-7.221597E-3,-1.2565315E-2,-1.5101288E-2,1.2240206E-2],"categories":[],"categories_nodes":[],"categories_segments":[],"categories_sizes":[],"default_left":[0,0,0,0,0,0,0,0,0,0,0],"id":98,"left_children":[1,3,5,7,-1,9,-1,-1,-1,-1,-1],"loss_changes":[2.4479888E3,4.480902E2,2.9319092E1,1.466333E1,0E0,8.851799E1,0E0,0E0,0E0,0E0,0E0],"parents":[2147483647,0,0,1,1,2,2,3,3,5,5],"right_children":[2,4,6,8,-1,10,-1,-1,-1,-1,-1],"split_conditions":[2.77936E3,4.365162E3,2.93378E3,2E0,1.1121955E-2,1.2175956E1,1.2180199E-2,-7.221597E-3,-1.2565315E-2,-1.5101288E-2,1.2240206E-2],"split_indices":[0,8,0,5,0,8,0,0,0,0,0],"split_type":[0,0,0,0,0,0,0,0,0,0,0],"sum_hessian":[2.0218782E3,1.076375E3,9.4550323E2,9.883807E2,8.799425E1,5.249503E1,8.9300824E2,6.9141594E1,9.1923914E2,1.486677E1,3.762826E1],"tree_param":{"num_deleted":"0","num_feature":"17","num_nodes":"11","size_leaf_vector":"1"}},{"base_weights":[-4.2257383E-2,-1.0631361E0,1.1678193E0,-1.2569707E-2,1.2334134E-2,4.2439166E-1,1.21142315E-2,-1.4994229E-2,1.2200389E-2],"categories":[],"categories_nodes":[],"categories_segments":[],"categories_sizes":[],"default_left":[0,0,0,0,0,0,0,0,0],"id":99,"left_children":[1,3,5,-1,-1,7,-1,-1,-1],"loss_changes":[2.443453E3,4.8078333E2,2.7488647E1,0E0,0E0,8.59458E1,0E0,0E0,0E0],"parents":[2147483647,0,0,1,1,2,2,5,5],"right_children":[2,4,6,-1,-1,8,-1,-1,-1],"split_conditions":[2.77936E3,1E0,2.93378E3,-1.2569707E-2,1.2334134E-2,1.2175956E1,1.21142315E-2,-1.4994229E-2,1.2200389E-2],"split_indices":[0,15,0,0,0,8,0,0,0],"split_type":[0,0,0,0,0,0,0,0,0],"sum_hessian":[1.9739899E3,1.0710537E3,9.029362E2,9.8872577E2,8.232792E1,5.184987E1,8.5108636E2,1.4468544E1,3.7381325E1],"tree_param":{"num_deleted":"0","num_feature":"17","num_nodes":"9","size_leaf_vector":"1"}},{"base_weights":[3.4354776E-2,-1.1763474E0,9.9834055E-1,-1.2394925E-2,1.1434915E-2,1.3346528E-1,1.21079665E-2,1.2647578E-2,-1.4373139E-2],"categories":[],"categories_nodes":[],"categories_segments":[],"categories_sizes":[],"default_left":[0,0,0,0,0,0,0,0,0],"id":100,"left_children":[1,3,5,-1,-1,7,-1,-1,-1],"loss_changes":[2.4230095E3,1.3766687E2,2.114259E2,0E0,0E0,4.1349008E2,0E0,0E0,0E0],"parents":[2147483647,0,0,1,1,2,2,5,5],"right_children":[2,4,6,-1,-1,8,-1,-1,-1],"split_conditions":[1.83151E3,1E0,2.93378E3,-1.2394925E-2,1.1434915E-2,1E0,1.21079665E-2,1.2647578E-2,-1.4373139E-2],"split_indices":[0,15,0,0,0,14,0,0,0],"split_type":[0,0,0,0,0,0,0,0,0],"sum_hessian":[2.0721587E3,9.181119E2,1.1540468E3,8.948999E2,2.3211939E1,2.2869113E2,9.2535565E2,1.333552E2,9.533592E1],"tree_param":{"num_deleted":"0","num_feature":"17","num_nodes":"9","size_leaf_vector":"1"}},{"base_weights":[-2.1001859E-2,-1.1352651E0,1.1692426E0,-1.2504115E-2,9.9862087E-1,4.2987174E-1,1.2098718E-2,4.8596035E-3,1.1814255E-2,-1.4518803E-2,1.2120716E-2],"categories":[],"categories_nodes":[],"categories_segments":[],"categories_sizes":[],"default_left":[0,0,0,0,0,0,0,0,0,0,0],"id":101,"left_children":[1,3,5,-1,7,9,-1,-1,-1,-1,-1],"loss_changes":[2.606498E3,2.5208313E2,2.6680054E1,0E0,2.9727936E0,8.175109E1,0E0,0E0,0E0,0E0,0E0],"parents":[2147483647,0,0,1,1,2,2,4,4,5,5],"right_children":[2,4,6,-1,8,10,-1,-1,-1,-1,-1],"split_conditions":[2.77936E3,4.365162E3,2.93378E3,-1.2504115E-2,1.57927E3,1.2175956E1,1.2098718E-2,4.8596035E-3,1.1814255E-2,-1.4518803E-2,1.2120716E-2],"split_indices":[0,8,0,0,0,8,0,0,0,0,0],"split_type":[0,0,0,0,0,0,0,0,0,0,0],"sum_hessian":[1.9613318E3,1.0132638E3,9.4806793E2,9.623945E2,5.086933E1,5.123126E1,8.9683673E2,1.6013285E1,3.485605E1,1.4352257E1,3.6878998E1],"tree_param":{"num_deleted":"0","num_feature":"17","num_nodes":"11","size_leaf_vector":"1"}},{"base_weights":[-1.8130947E-3,-1.1709605E0,9.8237556E-1,-1.229317E-2,-3.459587E-1,-1.20589575E-2,1.1022633E0,1.1374269E-2,-1.25988405E-2,5.496236E-3,1.2134932E-2],"categories":[],"categories_nodes":[],"categories_segments":[],"categories_sizes":[],"default_left":[0,0,0,0,0,0,0,0,0,0,0],"id":102,"left_children":[1,3,5,-1,7,-1,9,-1,-1,-1,-1],"loss_changes":[2.2813757E3,4.1998535E1,2.849464E2,0E0,8.864353E1,0E0,6.0580444E1,0E0,0E0,0E0,0E0],"parents":[2147483647,0,0,1,1,2,2,4,4,6,6],"right_children":[2,4,6,-1,8,-1,10,-1,-1,-1,-1],"split_conditions":[1.83151E3,1.27736E3,1E0,-1.229317E-2,1E0,-1.20589575E-2,2.93378E3,1.1374269E-2,-1.25988405E-2,5.496236E-3,1.2134932E-2],"split_indices":[0,0,11,0,14,0,0,0,0,0,0],"split_type":[0,0,0,0,0,0,0,0,0,0,0],"sum_hessian":[1.9785831E3,9.0437604E2,1.0742072E3,8.4314966E2,6.122639E1,5.463761E1,1.01956946E3,2.2946274E1,3.8280117E1,1.7357062E2,8.4599884E2],"tree_param":{"num_deleted":"0","num_feature":"17","num_nodes":"11","size_leaf_vector":"1"}},{"base_weights":[-3.3758633E-2,-1.0809287E0,8.514509E-1,-1.1894658E0,1.2359492E-2,-1.2086004E-2,1.0372704E0,-3.4237313E-3,-1.2278974E-2,7.1459743E-3,1.0978474E-2],"categories":[],"categories_nodes":[],"categories_segments":[],"categories_sizes":[],"default_left":[0,0,0,0,0,0,0,0,0,0,0],"id":103,"left_children":[1,3,5,7,-1,-1,9,-1,-1,-1,-1],"loss_changes":[1.770867E3,2.2302893E2,3.9860632E2,2.5634766E1,0E0,0E0,1.6106445E1,0E0,0E0,0E0,0E0],"parents":[2147483647,0,0,1,1,2,2,3,3,6,6],"right_children":[2,4,6,8,-1,-1,10,-1,-1,-1,-1],"split_conditions":[2.5939682E0,1E0,1E0,-1.6444745E2,1.2359492E-2,-1.2086004E-2,4.8537025E0,-3.4237313E-3,-1.2278974E-2,7.1459743E-3,1.0978474E-2],"split_indices":[7,15,11,2,0,0,7,0,0,0,0],"split_type":[0,0,0,0,0,0,0,0,0,0,0],"sum_hessian":[1.9062831E3,8.7331104E2,1.0329719E3,8.353663E2,3.794477E1,8.433288E1,9.486391E2,3.767946E1,7.976868E2,1.5529315E2,7.9334595E2],"tree_param":{"num_deleted":"0","num_feature":"17","num_nodes":"11","size_leaf_vector":"1"}},{"base_weights":[-9.098057E-3,-9.743156E-1,1.1853433E0,-1.2476002E-2,1.2463021E-2,3.412906E-3,1.2012769E-2],"categories":[],"categories_nodes":[],"categories_segments":[],"categories_sizes":[],"default_left":[0,0,0,0,0,0,0],"id":104,"left_children":[1,3,5,-1,-1,-1,-1],"loss_changes":[2.2517168E3,6.588052E2,1.0145752E1,0E0,0E0,0E0,0E0],"parents":[2147483647,0,0,1,1,2,2],"right_children":[2,4,6,-1,-1,-1,-1],"split_conditions":[2.88E3,1E0,2.93378E3,-1.2476002E-2,1.2463021E-2,3.412906E-3,1.2012769E-2],"split_indices":[0,15,0,0,0,0,0],"split_type":[0,0,0,0,0,0,0],"sum_hessian":[1.9491848E3,1.07847E3,8.707149E2,9.612708E2,1.1719914E2,1.7544594E1,8.531703E2],"tree_param":{"num_deleted":"0","num_feature":"17","num_nodes":"7","size_leaf_vector":"1"}},{"base_weights":[1.3792508E-3,-1.0141691E0,1.1532712E0,-1.24013685E-2,1.2402927E-2,4.021691E-1,1.1953724E-2,-1.4852525E-2,1.2005178E-2],"categories":[],"categories_nodes":[],"categories_segments":[],"categories_sizes":[],"default_left":[0,0,0,0,0,0,0,0,0],"id":105,"left_children":[1,3,5,-1,-1,7,-1,-1,-1],"loss_changes":[2.2934106E3,5.33734E2,2.729419E1,0E0,0E0,8.239858E1,0E0,0E0,0E0],"parents":[2147483647,0,0,1,1,2,2,5,5],"right_children":[2,4,6,-1,-1,8,-1,-1,-1],"split_conditions":[2.77936E3,1E0,2.93378E3,-1.24013685E-2,1.2402927E-2,1.2175956E1,1.1953724E-2,-1.4852525E-2,1.2005178E-2],"split_indices":[0,15,0,0,0,8,0,0,0],"split_type":[0,0,0,0,0,0,0,0,0],"sum_hessian":[1.9564526E3,1.0396583E3,9.1679425E2,9.4596466E2,9.369369E1,5.0411545E1,8.663827E2,1.4287219E1,3.612433E1],"tree_param":{"num_deleted":"0","num_feature":"17","num_nodes":"9","size_leaf_vector":"1"}},{"base_weights":[7.312358E-3,-1.2180537E-2,9.109346E-1,-1.1983984E-2,1.0588375E0,5.206701E-3,1.1999303E-2],"categories":[],"categories_nodes":[],"categories_segments":[],"categories_sizes":[],"default_left":[0,0,0,0,0,0,0],"id":106,"left_children":[1,-1,3,-1,5,-1,-1],"loss_changes":[2.1343303E3,0E0,3.4868066E2,0E0,7.673047E1,0E0,0E0],"parents":[2147483647,0,0,2,2,4,4],"right_children":[2,-1,4,-1,6,-1,-1],"split_conditions":[1.27736E3,-1.2180537E-2,1E0,-1.1983984E-2,2.93378E3,5.206701E-3,1.1999303E-2],"split_indices":[0,0,11,0,0,0,0],"split_type":[0,0,0,0,0,0,0],"sum_hessian":[1.9236989E3,8.159595E2,1.1077394E3,7.143111E1,1.0363082E3,2.179418E2,8.1836646E2],"tree_param":{"num_deleted":"0","num_feature":"17","num_nodes":"7","size_leaf_vector":"1"}},{"base_weights":[-1.8945638E-2,-1.1565812E0,9.638824E-1,-1.2199298E-2,1.123458E-2,-1.1931285E-2,1.0819393E0,5.3277942E-3,1.19873565E-2],"categories":[],"categories_nodes":[],"categories_segments":[],"categories_sizes":[],"default_left":[0,0,0,0,0,0,0,0,0],"id":107,"left_children":[1,3,5,-1,-1,-1,7,-1,-1],"loss_changes":[2.0949539E3,1.2825085E2,2.5844208E2,0E0,0E0,0E0,5.9052124E1,0E0,0E0],"parents":[2147483647,0,0,1,1,2,2,6,6],"right_children":[2,4,6,-1,-1,-1,8,-1,-1],"split_conditions":[1.83151E3,1E0,1E0,-1.2199298E-2,1.123458E-2,-1.1931285E-2,2.93378E3,5.3277942E-3,1.19873565E-2],"split_indices":[0,15,11,0,0,0,0,0,0],"split_type":[0,0,0,0,0,0,0,0,0],"sum_hessian":[1.8695928E3,8.6662213E2,1.00297064E3,8.443129E2,2.230922E1,5.0880894E1,9.520897E2,1.696806E2,7.824091E2],"tree_param":{"num_deleted":"0","num_feature":"17","num_nodes":"9","size_leaf_vector":"1"}},{"base_weights":[3.2020023E-4,-9.9735427E-1,1.1900665E-2,-1.2399897E-2,1.2215449E-2],"categories":[],"categories_nodes":[],"categories_segments":[],"categories_sizes":[],"default_left":[0,0,0,0,0],"id":108,"left_children":[1,3,-1,-1,-1],"loss_changes":[2.272422E3,5.635005E2,0E0,0E0,0E0],"parents":[2147483647,0,0,1,1],"right_children":[2,4,-1,-1,-1],"split_conditions":[2.93378E3,1E0,1.1900665E-2,-1.2399897E-2,1.2215449E-2],"split_indices":[0,15,0,0,0],"split_type":[0,0,0,0,0],"sum_hessian":[1.9103766E3,1.0390083E3,8.713683E2,9.375909E2,1.01417404E2],"tree_param":{"num_deleted":"0","num_feature":"17","num_nodes":"5","size_leaf_vector":"1"}},{"base_weights":[2.28159E-3,-1.0383246E0,1.143585E0,-1.230567E-2,1.2043213E-2,3.9613345E-1,1.1853598E-2,-1.4559082E-2,1.1899279E-2],"categories":[],"categories_nodes":[],"categories_segments":[],"categories_sizes":[],"default_left":[0,0,0,0,0,0,0,0,0],"id":109,"left_children":[1,3,5,-1,-1,7,-1,-1,-1],"loss_changes":[2.2566294E3,4.3136572E2,2.6572266E1,0E0,0E0,7.921245E1,0E0,0E0,0E0],"parents":[2147483647,0,0,1,1,2,2,5,5],"right_children":[2,4,6,-1,-1,8,-1,-1,-1],"split_conditions":[2.77936E3,1E0,2.93378E3,-1.230567E-2,1.2043213E-2,1.2175956E1,1.1853598E-2,-1.4559082E-2,1.1899279E-2],"split_indices":[0,15,0,0,0,8,0,0,0],"split_type":[0,0,0,0,0,0,0,0,0],"sum_hessian":[1.8960396E3,9.91637E2,9.0440247E2,9.143806E2,7.7256386E1,4.9614513E1,8.5478796E2,1.4195702E1,3.541881E1],"tree_param":{"num_deleted":"0","num_feature":"17","num_nodes":"9","size_leaf_vector":"1"}},