{"learner":{"attributes":{"scikit_learn":"{\"_estimator_type\": \"classifier\"}"},"feature_names":["amount","lat","lon","hour","day_of_week","tx_count_24h","avg_spend_user","amount_ratio","dist_from_last_tx_km","travel_velocity_kmph","auth_method_PIN","auth_method_Password","category_food","category_grocery","category_tech","category_travel","category_utilities"],"feature_types":["float","float","float","int","int","float","float","float","float","float","i","i","i","i","i","i","i"],"gradient_booster":{"model":{"cats":{"enc":[],"feature_segments":[],"sorted_idx":[]},"gbtree_model_param":{"num_parallel_tree":"1","num_trees":"500"},"iteration_indptr":[0,1,2,3,4,5,6,7,8,9,10,11,12,13,14,15,16,17,18,19,20,21,22,23,24,25,26,27,28,29,30,31,32,33,34,35,36,37,38,39,40,41,42,43,44,45,46,47,48,49,50,51,52,53,54,55,56,57,58,59,60,61,62,63,64,65,66,67,68,69,70,71,72,73,74,75,76,77,78,79,80,81,82,83,84,85,86,87,88,89,90,91,92,93,94,95,96,97,98,99,100,101,102,103,104,105,106,107,108,109,110,111,112,113,114,115,116,117,118,119,120,121,122,123,124,125,126,127,128,129,130,131,132,133,134,135,136,137,138,139,140,141,142,143,144,145,146,147,148,149,150,151,152,153,154,155,156,157,158,159,160,161,162,163,164,165,166,167,168,169,170,171,172,173,174,175,176,177,178,179,180,181,182,183,184,185,186,187,188,189,190,191,192,193,194,195,196,197,198,199,200,201,202,203,204,205,206,207,208,209,210,211,212,213,214,215,216,217,218,219,220,221,222,223,224,225,226,227,228,229,230,231,232,233,234,235,236,237,238,239,240,241,242,243,244,245,246,247,248,249,250,251,252,253,254,255,256,257,258,259,260,261,262,263,264,265,266,267,268,269,270,271,272,273,274,275,276,277,278,279,280,281,282,283,284,285,286,287,288,289,290,291,292,293,294,295,296,297,298,299,300,301,302,303,304,305,306,307,308,309,310,311,312,313,314,315,316,317,318,319,320,321,322,323,324,325,326,327,328,329,330,331,332,333,334,335,336,337,338,339,340,341,342,343,344,345,346,347,348,349,350,351,352,353,354,355,356,357,358,359,360,361,362,363,364,365,366,367,368,369,370,371,372,373,374,375,376,377,378,379,380,381,382,383,384,385,386,387,388,389,390,391,392,393,394,395,396,397,398,399,400,401,402,403,404,405,406,407,408,409,410,411,412,413,414,415,416,417,418,419,420,421,422,423,424,425,426,427,428,429,430,431,432,433,434,435,436,437,438,439,440,441,442,443,444,445,446,447,448,449,450,451,452,453,454,455,456,457,458,459,460,461,462,463,464,465,466,467,468,469,470,471,472,473,474,475,476,477,478,479,480,481,482,483,484,485,486,487,488,489,490,491,492,493,494,495,496,497,498,499,500],"tree_info":[0,0,0,0,0,0,0,0,0,0,0,0,0,0,0,0,0,0,0,0,0,0,0,0,0,0,0,0,0,0,0,0,0,0,0,0,0,0,0,0,0,0,0,0,0,0,0,0,0,0,0,0,0,0,0,0,0,0,0,0,0,0,0,0,0,0,0,0,0,0,0,0,0,0,0,0,0,0,0,0,0,0,0,0,0,0,0,0,0,0,0,0,0,0,0,0,0,0,0,0,0,0,0,0,0,0,0,0,0,0,0,0,0,0,0,0,0,0,0,0,0,0,0,0,0,0,0,0,0,0,0,0,0,0,0,0,0,0,0,0,0,0,0,0,0,0,0,0,0,0,0,0,0,0,0,0,0,0,0,0,0,0,0,0,0,0,0,0,0,0,0,0,0,0,0,0,0,0,0,0,0,0,0,0,0,0,0,0,0,0,0,0,0,0,0,0,0,0,0,0,0,0,0,0,0,0,0,0,0,0,0,0,0,0,0,0,0,0,0,0,0,0,0,0,0,0,0,0,0,0,0,0,0,0,0,0,0,0,0,0,0,0,0,0,0,0,0,0,0,0,0,0,0,0,0,0,0,0,0,0,0,0,0,0,0,0,0,0,0,0,0,0,0,0,0,0,0,0,0,0,0,0,0,0,0,0,0,0,0,0,0,0,0,0,0,0,0,0,0,0,0,0,0,0,0,0,0,0,0,0,0,0,0,0,0,0,0,0,0,0,0,0,0,0,0,0,0,0,0,0,0,0,0,0,0,0,0,0,0,0,0,0,0,0,0,0,0,0,0,0,0,0,0,0,0,0,0,0,0,0,0,0,0,0,0,0,0,0,0,0,0,0,0,0,0,0,0,0,0,0,0,0,0,0,0,0,0,0,0,0,0,0,0,0,0,0,0,0,0,0,0,0,0,0,0,0,0,0,0,0,0,0,0,0,0,0,0,0,0,0,0,0,0,0,0,0,0,0,0,0,0,0,0,0,0,0,0,0,0,0,0,0,0,0,0,0,0,0,0,0,0,0,0,0,0,0,0,0,0,0,0,0,0,0,0,0,0,0,0,0,0,0,0,0,0,0,0,0,0,0,0,0,0,0,0,0,0,0,0,0,0,0,0,0,0,0,0,0,0,0],"trees":[{"base_weights":[-8.989355E-2,-2.0506155E-2,1.5139458E0,-2.016597E-2,1.7887284E0,1.0465864E-2,1.92593E-2],"categories":[],"categories_nodes":[],"categories_segments":[],"categories_sizes":[],"default_left":[0,0,0,0,0,0,0],"id":0,"left_children":[1,-1,3,-1,5,-1,-1],"loss_changes":[9.707739E3,0E0,1.6543157E3,0E0,1.5500781E2,0E0,0E0],"parents":[2147483647,0,0,2,2,4,4],"right_children":[2,-1,4,-1,6,-1,-1],"split_conditions":[1.27736E3,-2.0506155E-2,1E0,-2.016597E-2,2.83236E3,1.0465864E-2,1.92593E-2],"split_indices":[0,0,11,0,0,0,0],"split_type":[0,0,0,0,0,0,0],"sum_hessian":[3.082973E3,1.387043E3,1.6959299E3,1.2141622E2,1.5745137E3,2.4892825E2,1.3255854E3],"tree_param":{"num_deleted":"0","num_feature":"17","num_nodes":"7","size_leaf_vector":"1"}},{"base_weights":[5.3764928E-2,-2.0292498E-2,1.5316093E0,-1.9979633E-2,1.7827744E0,9.300164E-3,1.9067423E-2],"categories":[],"categories_nodes":[],"categories_segments":[],"categories_sizes":[],"default_left":[0,0,0,0,0,0,0],"id":1,"left_children":[1,-1,3,-1,5,-1,-1],"loss_changes":[1.0289528E4,0E0,1.7405254E3,0E0,1.88146E2,0E0,0E0],"parents":[2147483647,0,0,2,2,4,4],"right_children":[2,-1,4,-1,6,-1,-1],"split_conditions":[1.27736E3,-2.0292498E-2,1E0,-1.9979633E-2,2.77936E3,9.300164E-3,1.9067423E-2],"split_indices":[0,0,11,0,0,0,0],"split_type":[0,0,0,0,0,0,0],"sum_hessian":[3.3385847E3,1.3851449E3,1.9534398E3,1.287163E2,1.8247235E3,2.3426752E2,1.590456E3],"tree_param":{"num_deleted":"0","num_feature":"17","num_nodes":"7","size_leaf_vector":"1"}},{"base_weights":[-1.2349911E-2,-1.7212989E0,1.8480309E0,-2.0111358E-2,1.8953837E-2,7.986111E-1,1.8986974E-2,-1.8339097E-2,1.836646E-2],"categories":[],"categories_nodes":[],"categories_segments":[],"categories_sizes":[],"default_left":[0,0,0,0,0,0,0,0,0],"id":2,"left_children":[1,3,5,-1,-1,7,-1,-1,-1],"loss_changes":[1.0205112E4,1.7615762E3,7.732715E1,0E0,0E0,2.1081937E2,0E0,0E0,0E0],"parents":[2147483647,0,0,1,1,2,2,5,5],"right_children":[2,4,6,-1,-1,8,-1,-1,-1],"split_conditions":[2.77936E3,1E0,2.93378E3,-2.0111358E-2,1.8953837E-2,1.2175956E1,1.8986974E-2,-1.8339097E-2,1.836646E-2],"split_indices":[0,15,0,0,0,8,0,0,0],"split_type":[0,0,0,0,0,0,0,0,0],"sum_hessian":[3.2058845E3,1.6711665E3,1.5347181E3,1.5481273E3,1.23039154E2,7.2682686E1,1.4620354E3,1.9984823E1,5.269786E1],"tree_param":{"num_deleted":"0","num_feature":"17","num_nodes":"9","size_leaf_vector":"1"}},{"base_weights":[-2.411873E-2,-1.6673363E0,1.8348695E0,-1.9908957E-2,1.8824372E-2,-1.6961738E-2,1.8677962E0,1.3650762E-2,1.8866511E-2],"categories":[],"categories_nodes":[],"categories_segments":[],"categories_sizes":[],"default_left":[0,0,0,0,0,0,0,0,0],"id":3,"left_children":[1,3,5,-1,-1,-1,7,-1,-1],"loss_changes":[9.754841E3,1.9545884E3,1.8060986E2,0E0,0E0,0E0,7.3032227E0,0E0,0E0],"parents":[2147483647,0,0,1,1,2,2,6,6],"right_children":[2,4,6,-1,-1,-1,8,-1,-1],"split_conditions":[2.77936E3,1E0,1E0,-1.9908957E-2,1.8824372E-2,-1.6961738E-2,2.93378E3,1.3650762E-2,1.8866511E-2],"split_indices":[0,15,11,0,0,0,0,0,0],"split_type":[0,0,0,0,0,0,0,0,0],"sum_hessian":[3.189389E3,1.6931957E3,1.4961932E3,1.5526884E3,1.4050732E2,1.2749294E1,1.483444E3,5.9892075E1,1.4235519E3],"tree_param":{"num_deleted":"0","num_feature":"17","num_nodes":"9","size_leaf_vector":"1"}},{"base_weights":[7.328051E-2,-1.9681534E-2,1.0207297E0,1.1584151E0,-1.9290544E-2,1.30314E-2,-1.9273194E-2],"categories":[],"categories_nodes":[],"categories_segments":[],"categories_sizes":[],"default_left":[0,0,0,0,0,0,0],"id":4,"left_children":[1,-1,3,5,-1,-1,-1],"loss_changes":[6.517151E3,0E0,9.388762E2,9.8737573E2,0E0,0E0,0E0],"parents":[2147483647,0,0,2,2,3,3],"right_children":[2,-1,4,6,-1,-1,-1],"split_conditions":[1E0,-1.9681534E-2,1E0,1E0,-1.9290544E-2,1.30314E-2,-1.9273194E-2],"split_indices":[11,0,13,16,0,0,0],"split_type":[0,0,0,0,0,0,0],"sum_hessian":[3.365676E3,1.0660388E3,2.2996372E3,2.1984075E3,1.0122975E2,2.1011768E3,9.723055E1],"tree_param":{"num_deleted":"0","num_feature":"17","num_nodes":"7","size_leaf_vector":"1"}},{"base_weights":[-5.151978E-2,-1.949259E-2,9.207044E-1,9.6465476E-2,1.517766E0,-1.9584084E-2,1.8647274E-2,1.57131E-2,1.0586241E-2],"categories":[],"categories_nodes":[],"categories_segments":[],"categories_sizes":[],"default_left":[0,0,0,0,0,0,0,0,0],"id":5,"left_children":[1,-1,3,5,7,-1,-1,-1,-1],"loss_changes":[5.840363E3,0E0,1.028835E3,3.2107932E3,2.5184082E1,0E0,0E0,0E0,0E0],"parents":[2147483647,0,0,2,2,3,3,4,4],"right_children":[2,-1,4,6,8,-1,-1,-1,-1],"split_conditions":[1E0,-1.949259E-2,1E0,1E0,4.840151E1,-1.9584084E-2,1.8647274E-2,1.57131E-2,1.0586241E-2],"split_indices":[11,0,14,15,1,0,0,0,0],"split_type":[0,0,0,0,0,0,0,0,0],"sum_hessian":[3.1612358E3,1.0703884E3,2.0908474E3,8.796533E2,1.2111941E3,4.0662357E2,4.7302972E2,1.0793851E3,1.3180885E2],"tree_param":{"num_deleted":"0","num_feature":"17","num_nodes":"9","size_leaf_vector":"1"}},{"base_weights":[-1.1094782E-1,-1.6641167E0,1.788416E0,-1.9426858E-2,1.8338379E-2,8.6193466E-1,1.8365296E-2,-1.77613E-2,1.781913E-2],"categories":[],"categories_nodes":[],"categories_segments":[],"categories_sizes":[],"default_left":[0,0,0,0,0,0,0,0,0],"id":6,"left_children":[1,3,5,-1,-1,7,-1,-1,-1],"loss_changes":[8.991199E3,1.6410947E3,5.6600098E1,0E0,0E0,1.8099261E2,0E0,0E0,0E0],"parents":[2147483647,0,0,1,1,2,2,5,5],"right_children":[2,4,6,-1,-1,8,-1,-1,-1],"split_conditions":[2.77936E3,1E0,2.93378E3,-1.9426858E-2,1.8338379E-2,1.2175956E1,1.8365296E-2,-1.77613E-2,1.781913E-2],"split_indices":[0,15,0,0,0,8,0,0,0],"split_type":[0,0,0,0,0,0,0,0,0],"sum_hessian":[3.0438335E3,1.6748046E3,1.3690288E3,1.5522214E3,1.2258319E2,6.996645E1,1.2990624E3,1.7468964E1,5.249749E1],"tree_param":{"num_deleted":"0","num_feature":"17","num_nodes":"9","size_leaf_vector":"1"}},{"base_weights":[-7.673897E-3,-1.6134768E0,1.7798245E0,-1.9244244E-2,1.82244E-2,-1.6401866E-2,1.8110981E0,1.2999839E-2,1.8300312E-2],"categories":[],"categories_nodes":[],"categories_segments":[],"categories_sizes":[],"default_left":[0,0,0,0,0,0,0,0,0],"id":7,"left_children":[1,3,5,-1,-1,-1,7,-1,-1],"loss_changes":[9.257602E3,1.8223896E3,1.6925635E2,0E0,0E0,0E0,8.321777E0,0E0,0E0],"parents":[2147483647,0,0,1,1,2,2,6,6],"right_children":[2,4,6,-1,-1,-1,8,-1,-1],"split_conditions":[2.77936E3,1E0,1E0,-1.9244244E-2,1.82244E-2,-1.6401866E-2,2.93378E3,1.2999839E-2,1.8300312E-2],"split_indices":[0,15,11,0,0,0,0,0,0],"split_type":[0,0,0,0,0,0,0,0,0],"sum_hessian":[3.221257E3,1.6971202E3,1.524137E3,1.5572185E3,1.399017E2,1.2733651E1,1.5114033E3,5.9906353E1,1.451497E3],"tree_param":{"num_deleted":"0","num_feature":"17","num_nodes":"9","size_leaf_vector":"1"}},{"base_weights":[1.1216746E-2,-1.9025033E-2,1.4431093E0,-1.867852E-2,1.6798412E0,9.560984E-3,1.7985165E-2],"categories":[],"categories_nodes":[],"categories_segments":[],"categories_sizes":[],"default_left":[0,0,0,0,0,0,0],"id":8,"left_children":[1,-1,3,-1,5,-1,-1],"loss_changes":[8.92735E3,0E0,1.4669832E3,0E0,1.4468018E2,0E0,0E0],"parents":[2147483647,0,0,2,2,4,4],"right_children":[2,-1,4,-1,6,-1,-1],"split_conditions":[1.27736E3,-1.9025033E-2,1E0,-1.867852E-2,2.77936E3,9.560984E-3,1.7985165E-2],"split_indices":[0,0,11,0,0,0,0],"split_type":[0,0,0,0,0,0,0],"sum_hessian":[3.2539497E3,1.3922307E3,1.8617189E3,1.2316906E2,1.7385498E3,2.4806287E2,1.4904869E3],"tree_param":{"num_deleted":"0","num_feature":"17","num_nodes":"7","size_leaf_vector":"1"}},{"base_weights":[-4.6347943E-3,-1.7067615E0,1.3669373E0,-1.7943679E0,1.2619601E0,-1.854651E-2,1.6441753E0,-7.4946936E-3,-1.8862123E-2,8.70899E-3,1.603211E-2,1.0280146E-2,1.6865801E-2],"categories":[],"categories_nodes":[],"categories_segments":[],"categories_sizes":[],"default_left":[0,0,0,0,0,0,0,0,0,0,0,0,0],"id":9,"left_children":[1,3,5,7,9,-1,11,-1,-1,-1,-1,-1,-1],"loss_changes":[7.4986733E3,3.7759424E2,1.5944626E3,1.2956836E2,1.588417E0,0E0,3.7993652E1,0E0,0E0,0E0,0E0,0E0,0E0],"parents":[2147483647,0,0,1,1,2,2,3,3,4,4,6,6],"right_children":[2,4,6,8,10,-1,12,-1,-1,-1,-1,-1,-1],"split_conditions":[2.5939682E0,4.365162E3,1E0,3.2696667E1,9.8982316E-1,-1.854651E-2,3.8191507E0,-7.4946936E-3,-1.8862123E-2,8.70899E-3,1.603211E-2,1.0280146E-2,1.6865801E-2],"split_indices":[7,8,11,6,7,0,7,0,0,0,0,0,0],"split_type":[0,0,0,0,0,0,0,0,0,0,0,0,0],"sum_hessian":[3.2079167E3,1.4314084E3,1.7765082E3,1.3913108E3,4.0097725E1,1.3972139E2,1.6367869E3,1.1433267E2,1.2769781E3,2.2678436E1,1.741929E1,1.09402306E2,1.5273845E3],"tree_param":{"num_deleted":"0","num_feature":"17","num_nodes":"13","size_leaf_vector":"1"}},{"base_weights":[-2.8187359E-2,-1.6072111E0,1.7642432E0,-1.8768234E-2,1.7845722E-2,7.2195586E-3,1.7798899E-2],"categories":[],"categories_nodes":[],"categories_segments":[],"categories_sizes":[],"default_left":[0,0,0,0,0,0,0],"id":10,"left_children":[1,3,5,-1,-1,-1,-1],"loss_changes":[8.897057E3,1.5351748E3,2.0187012E1,0E0,0E0,0E0,0E0],"parents":[2147483647,0,0,1,1,2,2],"right_children":[2,4,6,-1,-1,-1,-1],"split_conditions":[2.88E3,1E0,2.93378E3,-1.8768234E-2,1.7845722E-2,7.2195586E-3,1.7798899E-2],"split_indices":[0,15,0,0,0,0,0],"split_type":[0,0,0,0,0,0,0],"sum_hessian":[3.1395374E3,1.6693903E3,1.470147E3,1.5474264E3,1.21963936E2,2.3610094E1,1.4465369E3],"tree_param":{"num_deleted":"0","num_feature":"17","num_nodes":"7","size_leaf_vector":"1"}},{"base_weights":[1.9016339E-2,-1.5562142E0,1.7286683E0,-1.8594166E-2,1.7733393E-2,-1.5577905E-2,1.7549684E0,1.2640808E-2,1.772625E-2],"categories":[],"categories_nodes":[],"categories_segments":[],"categories_sizes":[],"default_left":[0,0,0,0,0,0,0,0,0],"id":11,"left_children":[1,3,5,-1,-1,-1,7,-1,-1],"loss_changes":[8.694075E3,1.7026846E3,1.3938525E2,0E0,0E0,0E0,7.3217773E0,0E0,0E0],"parents":[2147483647,0,0,1,1,2,2,6,6],"right_children":[2,4,6,-1,-1,-1,8,-1,-1],"split_conditions":[2.77936E3,1E0,1E0,-1.8594166E-2,1.7733393E-2,-1.5577905E-2,2.93378E3,1.2640808E-2,1.772625E-2],"split_indices":[0,15,11,0,0,0,0,0,0],"split_type":[0,0,0,0,0,0,0,0,0],"sum_hessian":[3.224253E3,1.678038E3,1.5462151E3,1.53893E3,1.3910783E2,1.1199927E1,1.5350151E3,5.9319534E1,1.4756956E3],"tree_param":{"num_deleted":"0","num_feature":"17","num_nodes":"9","size_leaf_vector":"1"}},{"base_weights":[4.942027E-2,-1.8380221E-2,1.4064237E0,-1.8062517E-2,1.6345812E0,9.240976E-3,1.746203E-2],"categories":[],"categories_nodes":[],"categories_segments":[],"categories_sizes":[],"default_left":[0,0,0,0,0,0,0],"id":12,"left_children":[1,-1,3,-1,5,-1,-1],"loss_changes":[8.4621E3,0E0,1.4147668E3,0E0,1.3786377E2,0E0,0E0],"parents":[2147483647,0,0,2,2,4,4],"right_children":[2,-1,4,-1,6,-1,-1],"split_conditions":[1.27736E3,-1.8380221E-2,1E0,-1.8062517E-2,2.77936E3,9.240976E-3,1.746203E-2],"split_indices":[0,0,11,0,0,0,0],"split_type":[0,0,0,0,0,0,0],"sum_hessian":[3.2999397E3,1.3797634E3,1.9201764E3,1.26262024E2,1.7939144E3,2.4669751E2,1.5472169E3],"tree_param":{"num_deleted":"0","num_feature":"17","num_nodes":"7","size_leaf_vector":"1"}},{"base_weights":[-4.460027E-2,-1.8227642E-2,1.355649E0,-1.792707E-2,1.6061256E0,8.6847115E-3,1.7392544E-2],"categories":[],"categories_nodes":[],"categories_segments":[],"categories_sizes":[],"default_left":[0,0,0,0,0,0,0],"id":13,"left_children":[1,-1,3,-1,5,-1,-1],"loss_changes":[7.776241E3,0E0,1.3833887E3,0E0,1.5471729E2,0E0,0E0],"parents":[2147483647,0,0,2,2,4,4],"right_children":[2,-1,4,-1,6,-1,-1],"split_conditions":[1.27736E3,-1.8227642E-2,1E0,-1.792707E-2,2.88E3,8.6847115E-3,1.7392544E-2],"split_indices":[0,0,11,0,0,0,0],"split_type":[0,0,0,0,0,0,0],"sum_hessian":[3.1190693E3,1.3739967E3,1.7450726E3,1.2754832E2,1.6175243E3,2.5016817E2,1.3673561E3],"tree_param":{"num_deleted":"0","num_feature":"17","num_nodes":"7","size_leaf_vector":"1"}},{"base_weights":[3.6409076E-2,-1.8080251E-2,1.3855369E0,-1.7760439E-2,1.602431E0,9.6722245E-3,1.7335052E-2],"categories":[],"categories_nodes":[],"categories_segments":[],"categories_sizes":[],"default_left":[0,0,0,0,0,0,0],"id":14,"left_children":[1,-1,3,-1,5,-1,-1],"loss_changes":[8.159509E3,0E0,1.3043618E3,0E0,1.4296436E2,0E0,0E0],"parents":[2147483647,0,0,2,2,4,4],"right_children":[2,-1,4,-1,6,-1,-1],"split_conditions":[1.27736E3,-1.8080251E-2,1E0,-1.7760439E-2,2.93378E3,9.6722245E-3,1.7335052E-2],"split_indices":[0,0,11,0,0,0,0],"split_type":[0,0,0,0,0,0,0],"sum_hessian":[3.2751191E3,1.3831378E3,1.8919813E3,1.20391975E2,1.7715892E3,3.065528E2,1.4650365E3],"tree_param":{"num_deleted":"0","num_feature":"17","num_nodes":"7","size_leaf_vector":"1"}},{"base_weights":[4.6628058E-2,-1.6731658E0,1.4997472E0,-1.7974515E-2,1.693834E-2,-1.7430918E-2,1.6418183E0,1.0244115E-2,1.7192531E-2],"categories":[],"categories_nodes":[],"categories_segments":[],"categories_sizes":[],"default_left":[0,0,0,0,0,0,0,0,0],"id":15,"left_children":[1,3,5,-1,-1,-1,7,-1,-1],"loss_changes":[8.126367E3,6.292905E2,8.177612E2,0E0,0E0,0E0,7.5896484E1,0E0,0E0],"parents":[2147483647,0,0,1,1,2,2,6,6],"right_children":[2,4,6,-1,-1,-1,8,-1,-1],"split_conditions":[1.99614E3,1E0,1E0,-1.7974515E-2,1.693834E-2,-1.7430918E-2,2.93378E3,1.0244115E-2,1.7192531E-2],"split_indices":[0,15,11,0,0,0,0,0,0],"split_type":[0,0,0,0,0,0,0,0,0],"sum_hessian":[3.247789E3,1.4871143E3,1.7606747E3,1.435217E3,5.189721E1,7.280514E1,1.6878695E3,1.9199152E2,1.495878E3],"tree_param":{"num_deleted":"0","num_feature":"17","num_nodes":"9","size_leaf_vector":"1"}},{"base_weights":[-3.5575484E-3,-1.6500129E0,1.2937543E0,-1.7365932E0,1.6498752E-2,-1.7515851E-2,1.560424E0,-1.1356184E-2,-1.779475E-2,1.0750911E-2,1.621651E-2],"categories":[],"categories_nodes":[],"categories_segments":[],"categories_sizes":[],"default_left":[0,0,0,0,0,0,0,0,0,0,0],"id":16,"left_children":[1,3,5,7,-1,-1,9,-1,-1,-1,-1],"loss_changes":[6.7599546E3,4.0429346E2,1.442689E3,2.9557617E1,0E0,0E0,4.3559082E1,0E0,0E0,0E0,0E0],"parents":[2147483647,0,0,1,1,2,2,3,3,6,6],"right_children":[2,4,6,8,-1,-1,10,-1,-1,-1,-1],"split_conditions":[2.5939682E0,1E0,1E0,3.2696667E1,1.6498752E-2,-1.7515851E-2,4.8537025E0,-1.1356184E-2,-1.779475E-2,1.0750911E-2,1.621651E-2],"split_indices":[7,15,11,6,0,0,7,0,0,0,0],"split_type":[0,0,0,0,0,0,0,0,0,0,0],"sum_hessian":[3.160741E3,1.3928619E3,1.7678789E3,1.3583221E3,3.4539795E1,1.4129482E2,1.6265841E3,9.4903656E1,1.2634186E3,1.872875E2,1.4392966E3],"tree_param":{"num_deleted":"0","num_feature":"17","num_nodes":"11","size_leaf_vector":"1"}},{"base_weights":[8.4759235E-2,-1.7658344E-2,1.3723611E0,6.995064E-2,1.6939161E-2,1.7270861E-2,-1.841372E-2],"categories":[],"categories_nodes":[],"categories_segments":[],"categories_sizes":[],"default_left":[0,0,0,0,0,0,0],"id":17,"left_children":[1,-1,3,5,-1,-1,-1],"loss_changes":[7.858711E3,0E0,8.134409E2,1.233691E3,0E0,0E0,0E0],"parents":[2147483647,0,0,2,2,3,3],"right_children":[2,-1,4,6,-1,-1,-1],"split_conditions":[1.27736E3,-1.7658344E-2,2.93378E3,1E0,1.6939161E-2,1.7270861E-2,-1.841372E-2],"split_indices":[0,0,0,14,0,0,0],"split_type":[0,0,0,0,0,0,0],"sum_hessian":[3.2941096E3,1.3511094E3,1.9430004E3,3.8551608E2,1.5574843E3,2.0673189E2,1.787842E2],"tree_param":{"num_deleted":"0","num_feature":"17","num_nodes":"7","size_leaf_vector":"1"}},{"base_weights":[6.302486E-2,-1.7524794E-2,1.3534778E0,-1.7230492E-2,1.5655279E0,8.891306E-3,1.6806403E-2],"categories":[],"categories_nodes":[],"categories_segments":[],"categories_sizes":[],"default_left":[0,0,0,0,0,0,0],"id":18,"left_children":[1,-1,3,-1,5,-1,-1],"loss_changes":[7.7216445E3,0E0,1.2622336E3,0E0,1.3616113E2,0E0,0E0],"parents":[2147483647,0,0,2,2,4,4],"right_children":[2,-1,4,-1,6,-1,-1],"split_conditions":[1.27736E3,-1.7524794E-2,1E0,-1.7230492E-2,2.88E3,8.891306E-3,1.6806403E-2],"split_indices":[0,0,11,0,0,0,0],"split_type":[0,0,0,0,0,0,0],"sum_hessian":[3.2919324E3,1.3672628E3,1.9246697E3,1.230333E2,1.8016364E3,2.651883E2,1.536448E3],"tree_param":{"num_deleted":"0","num_feature":"17","num_nodes":"7","size_leaf_vector":"1"}},{"base_weights":[2.545159E-2,-1.5724382E0,1.2803547E0,-1.6548674E0,1.6110701E-2,-1.7118623E-2,1.5305151E0,-7.385723E-3,-1.739479E-2,9.281939E-3,1.5712231E-2],"categories":[],"categories_nodes":[],"categories_segments":[],"categories_sizes":[],"default_left":[0,0,0,0,0,0,0,0,0,0,0],"id":19,"left_children":[1,3,5,7,-1,-1,9,-1,-1,-1,-1],"loss_changes":[6.394835E3,3.7344897E2,1.3423843E3,1.0228711E2,0E0,0E0,3.6286133E1,0E0,0E0,0E0,0E0],"parents":[2147483647,0,0,1,1,2,2,3,3,6,6],"right_children":[2,4,6,8,-1,-1,10,-1,-1,-1,-1],"split_conditions":[2.5939682E0,1E0,1E0,3.2696667E1,1.6110701E-2,-1.7118623E-2,3.9812498E0,-7.385723E-3,-1.739479E-2,9.281939E-3,1.5712231E-2],"split_indices":[7,15,11,6,0,0,7,0,0,0,0],"split_type":[0,0,0,0,0,0,0,0,0,0,0],"sum_hessian":[3.1851956E3,1.4007245E3,1.7844711E3,1.3664607E3,3.4263786E1,1.3662212E2,1.6478489E3,1.17658134E2,1.2488025E3,1.0811089E2,1.539738E3],"tree_param":{"num_deleted":"0","num_feature":"17","num_nodes":"11","size_leaf_vector":"1"}},{"base_weights":[-8.272946E-3,-1.4840214E0,1.6188056E0,-1.6992738E0,1.4919412E0,-1.4960819E-2,1.648814E0,-1.7382203E-2,-9.324128E-3,7.4647437E-3,1.6645698E-2,1.1997446E-2,1.6652131E-2],"categories":[],"categories_nodes":[],"categories_segments":[],"categories_sizes":[],"default_left":[0,0,0,0,0,0,0,0,0,0,0,0,0],"id":20,"left_children":[1,3,5,7,9,-1,11,-1,-1,-1,-1,-1,-1],"loss_changes":[7.467087E3,1.0498999E3,1.4324756E2,4.0879395E1,1.05828705E1,0E0,5.3674316E0,0E0,0E0,0E0,0E0,0E0,0E0],"parents":[2147483647,0,0,1,1,2,2,3,3,4,4,6,6],"right_children":[2,4,6,8,10,-1,12,-1,-1,-1,-1,-1,-1],"split_conditions":[2.77936E3,4.365162E3,1E0,2.3E1,1.83151E3,-1.4960819E-2,2.93378E3,-1.7382203E-2,-9.324128E-3,7.4647437E-3,1.6645698E-2,1.1997446E-2,1.6652131E-2],"split_indices":[0,8,11,3,0,0,0,0,0,0,0,0,0],"split_type":[0,0,0,0,0,0,0,0,0,0,0,0,0],"sum_hessian":[3.1058123E3,1.6288973E3,1.4769149E3,1.5199824E3,1.0891487E2,1.3001238E1,1.4639137E3,1.4434868E3,7.6495674E1,2.3025955E1,8.588891E1,5.7876038E1,1.4060376E3],"tree_param":{"num_deleted":"0","num_feature":"17","num_nodes":"13","size_leaf_vector":"1"}},{"base_weights":[4.250504E-2,-1.7150663E-2,1.314494E0,-1.6853195E-2,1.5260155E0,8.706672E-3,1.6528254E-2],"categories":[],"categories_nodes":[],"categories_segments":[],"categories_sizes":[],"default_left":[0,0,0,0,0,0,0],"id":21,"left_children":[1,-1,3,-1,5,-1,-1],"loss_changes":[7.169105E3,0E0,1.185636E3,0E0,1.4039697E2,0E0,0E0],"parents":[2147483647,0,0,2,2,4,4],"right_children":[2,-1,4,-1,6,-1,-1],"split_conditions":[1.27736E3,-1.7150663E-2,1E0,-1.6853195E-2,2.93378E3,8.706672E-3,1.6528254E-2],"split_indices":[0,0,11,0,0,0,0],"split_type":[0,0,0,0,0,0,0],"sum_hessian":[3.2028486E3,1.3442881E3,1.8585604E3,1.21344475E2,1.737216E3,2.8484158E2,1.4523744E3],"tree_param":{"num_deleted":"0","num_feature":"17","num_nodes":"7","size_leaf_vector":"1"}},{"base_weights":[-4.7128107E-2,-1.4752748E0,1.3414302E0,-1.5877963E0,1.6230218E-2,-1.662451E-2,1.52909E0,-6.802799E-3,-1.66335E-2,6.1522187E-3,1.5426512E-2],"categories":[],"categories_nodes":[],"categories_segments":[],"categories_sizes":[],"default_left":[0,0,0,0,0,0,0,0,0,0,0],"id":22,"left_children":[1,3,5,7,-1,-1,9,-1,-1,-1,-1],"loss_changes":[5.9997104E3,5.251477E2,8.6965454E2,9.533423E1,0E0,0E0,1.4928711E1,0E0,0E0,0E0,0E0],"parents":[2147483647,0,0,1,1,2,2,3,3,6,6],"right_children":[2,4,6,8,-1,-1,10,-1,-1,-1,-1],"split_conditions":[3.8191507E0,1E0,1E0,2E0,1.6230218E-2,-1.662451E-2,7.406E1,-6.802799E-3,-1.66335E-2,6.1522187E-3,1.5426512E-2],"split_indices":[7,15,11,5,0,0,6,0,0,0,0],"split_type":[0,0,0,0,0,0,0,0,0,0,0],"sum_hessian":[3.0214438E3,1.4896049E3,1.531839E3,1.438499E3,5.1105873E1,8.898994E1,1.442849E3,1.1260176E2,1.3258972E3,2.2992937E1,1.4198561E3],"tree_param":{"num_deleted":"0","num_feature":"17","num_nodes":"11","size_leaf_vector":"1"}},{"base_weights":[1.8013317E-2,-1.3937023E0,1.6033729E0,-1.6662668E0,1.5406146E0,7.245965E-1,1.6294431E-2,-1.0540946E-2,-1.7031655E-2,9.651425E-3,1.6178396E-2,-1.6341478E-2,1.5686417E-2],"categories":[],"categories_nodes":[],"categories_segments":[],"categories_sizes":[],"default_left":[0,0,0,0,0,0,0,0,0,0,0,0,0],"id":23,"left_children":[1,3,5,7,9,11,-1,-1,-1,-1,-1,-1,-1],"loss_changes":[7.086226E3,1.3445669E3,3.0632324E1,2.9667969E1,1.9503479E0,9.891965E1,0E0,0E0,0E0,0E0,0E0,0E0,0E0],"parents":[2147483647,0,0,1,1,2,2,3,3,4,4,5,5],"right_children":[2,4,6,8,10,12,-1,-1,-1,-1,-1,-1,-1],"split_conditions":[2.83236E3,4.365162E3,2.93378E3,2E0,5E0,1.1085167E1,1.6294431E-2,-1.0540946E-2,-1.7031655E-2,9.651425E-3,1.6178396E-2,-1.6341478E-2,1.5686417E-2],"split_indices":[0,8,0,5,4,8,0,0,0,0,0,0,0],"split_type":[0,0,0,0,0,0,0,0,0,0,0,0,0],"sum_hessian":[3.1621685E3,1.6726499E3,1.4895187E3,1.531432E3,1.4121788E2,4.5127544E1,1.4443911E3,9.119155E1,1.4402405E3,2.0668514E1,1.2054937E2,1.1243163E1,3.388438E1],"tree_param":{"num_deleted":"0","num_feature":"17","num_nodes":"13","size_leaf_vector":"1"}},{"base_weights":[2.5305385E-2,-1.4113963E0,1.5796243E0,-1.6920265E-2,1.6542872E-2,-1.4500561E-2,1.6079419E0,1.1653326E-2,1.6236259E-2],"categories":[],"categories_nodes":[],"categories_segments":[],"categories_sizes":[],"default_left":[0,0,0,0,0,0,0,0,0],"id":24,"left_children":[1,3,5,-1,-1,-1,7,-1,-1],"loss_changes":[7.0164062E3,1.4101946E3,1.342351E2,0E0,0E0,0E0,5.210205E0,0E0,0E0],"parents":[2147483647,0,0,1,1,2,2,6,6],"right_children":[2,4,6,-1,-1,-1,8,-1,-1],"split_conditions":[2.77936E3,1E0,1E0,-1.6920265E-2,1.6542872E-2,-1.4500561E-2,2.93378E3,1.1653326E-2,1.6236259E-2],"split_indices":[0,15,11,0,0,0,0,0,0],"split_type":[0,0,0,0,0,0,0,0,0],"sum_hessian":[3.1379788E3,1.6306158E3,1.5073629E3,1.4948387E3,1.357771E2,1.2865067E1,1.4944978E3,5.7390854E1,1.4371069E3],"tree_param":{"num_deleted":"0","num_feature":"17","num_nodes":"9","size_leaf_vector":"1"}},{"base_weights":[6.4161144E-2,-1.6690671E-2,1.2895519E0,1.12223804E-1,1.6057491E-2,-1.7692072E-2,1.654578E-2],"categories":[],"categories_nodes":[],"categories_segments":[],"categories_sizes":[],"default_left":[0,0,0,0,0,0,0],"id":25,"left_children":[1,-1,3,5,-1,-1,-1],"loss_changes":[6.836818E3,0E0,7.0085547E2,1.1716411E3,0E0,0E0,0E0],"parents":[2147483647,0,0,2,2,3,3],"right_children":[2,-1,4,6,-1,-1,-1],"split_conditions":[1.27736E3,-1.6690671E-2,2.93378E3,1E0,1.6057491E-2,-1.7692072E-2,1.654578E-2],"split_indices":[0,0,0,15,0,0,0],"split_type":[0,0,0,0,0,0,0],"sum_hessian":[3.215082E3,1.3311427E3,1.8839393E3,3.9976117E2,1.4841781E3,1.7980672E2,2.1995444E2],"tree_param":{"num_deleted":"0","num_feature":"17","num_nodes":"7","size_leaf_vector":"1"}},{"base_weights":[1.5982868E-2,-1.3642935E0,1.5865363E0,-1.6708905E-2,1.6390946E-2,7.901653E-3,1.5969956E-2],"categories":[],"categories_nodes":[],"categories_segments":[],"categories_sizes":[],"default_left":[0,0,0,0,0,0,0],"id":26,"left_children":[1,3,5,-1,-1,-1,-1],"loss_changes":[6.73073E3,1.5270317E3,8.3811035E0,0E0,0E0,0E0,0E0],"parents":[2147483647,0,0,1,1,2,2],"right_children":[2,4,6,-1,-1,-1,-1],"split_conditions":[2.88E3,1E0,2.93378E3,-1.6708905E-2,1.6390946E-2,7.901653E-3,1.5969956E-2],"split_indices":[0,15,0,0,0,0,0],"split_type":[0,0,0,0,0,0,0],"sum_hessian":[3.1008215E3,1.6503557E3,1.450466E3,1.4984429E3,1.5191287E2,2.140755E1,1.4290585E3],"tree_param":{"num_deleted":"0","num_feature":"17","num_nodes":"7","size_leaf_vector":"1"}},{"base_weights":[1.9902918E-2,-1.6110542E0,1.335217E0,-1.650371E-2,1.442149E-2,-1.6117388E-2,1.4961962E0,8.484544E-3,1.5911806E-2],"categories":[],"categories_nodes":[],"categories_segments":[],"categories_sizes":[],"default_left":[0,0,0,0,0,0,0,0,0],"id":27,"left_children":[1,3,5,-1,-1,-1,7,-1,-1],"loss_changes":[6.7542563E3,1.7358008E2,8.3168896E2,0E0,0E0,0E0,9.784375E1,0E0,0E0],"parents":[2147483647,0,0,1,1,2,2,6,6],"right_children":[2,4,6,-1,-1,-1,8,-1,-1],"split_conditions":[1.83151E3,1E0,1E0,-1.650371E-2,1.442149E-2,-1.6117388E-2,2.93378E3,8.484544E-3,1.5911806E-2],"split_indices":[0,15,11,0,0,0,0,0,0],"split_type":[0,0,0,0,0,0,0,0,0],"sum_hessian":[3.1445718E3,1.4034717E3,1.7411001E3,1.3866975E3,1.6774172E1,8.908785E1,1.6520123E3,2.1448337E2,1.4375289E3],"tree_param":{"num_deleted":"0","num_feature":"17","num_nodes":"9","size_leaf_vector":"1"}},{"base_weights":[3.1677272E-2,-1.5620382E0,1.3432801E0,-1.6401786E-2,1.5338788E-2,-1.599424E-2,1.4981133E0,8.454808E-3,1.5838359E-2],"categories":[],"categories_nodes":[],"categories_segments":[],"categories_sizes":[],"default_left":[0,0,0,0,0,0,0,0,0],"id":28,"left_children":[1,3,5,-1,-1,-1,7,-1,-1],"loss_changes":[6.5140215E3,3.4539062E2,7.836892E2,0E0,0E0,0E0,8.7038086E1,0E0,0E0],"parents":[2147483647,0,0,1,1,2,2,6,6],"right_children":[2,4,6,-1,-1,-1,8,-1,-1],"split_conditions":[1.83151E3,1E0,1E0,-1.6401786E-2,1.5338788E-2,-1.599424E-2,2.93378E3,8.454808E-3,1.5838359E-2],"split_indices":[0,15,11,0,0,0,0,0,0],"split_type":[0,0,0,0,0,0,0,0,0],"sum_hessian":[3.1123218E3,1.4047098E3,1.707612E3,1.3712029E3,3.3506992E1,8.426239E1,1.6233496E3,1.9166945E2,1.4316802E3],"tree_param":{"num_deleted":"0","num_feature":"17","num_nodes":"9","size_leaf_vector":"1"}},{"base_weights":[-2.7152333E-2,-1.4019294E0,1.25286E0,-1.5899113E0,1.598604E-2,-1.5930666E-2,1.4514896E0,-5.6232903E-3,-1.6300725E-2,5.292959E-3,1.4653016E-2],"categories":[],"categories_nodes":[],"categories_segments":[],"categories_sizes":[],"default_left":[0,0,0,0,0,0,0,0,0,0,0],"id":29,"left_children":[1,3,5,7,-1,-1,9,-1,-1,-1,-1],"loss_changes":[5.2595317E3,8.179927E2,8.7937256E2,5.308911E1,0E0,0E0,1.5893066E1,0E0,0E0,0E0,0E0],"parents":[2147483647,0,0,1,1,2,2,3,3,6,6],"right_children":[2,4,6,8,-1,-1,10,-1,-1,-1,-1],"split_conditions":[3.3730159E0,1E0,1E0,-1.6444745E2,1.598604E-2,-1.5930666E-2,7.406E1,-5.6232903E-3,-1.6300725E-2,5.292959E-3,1.4653016E-2],"split_indices":[7,15,11,2,0,0,6,0,0,0,0],"split_type":[0,0,0,0,0,0,0,0,0,0,0],"sum_hessian":[2.9847878E3,1.4392183E3,1.5455697E3,1.3554094E3,8.380887E1,9.975414E1,1.4458156E3,5.2577915E1,1.3028315E3,2.3029732E1,1.4227858E3],"tree_param":{"num_deleted":"0","num_feature":"17","num_nodes":"11","size_leaf_vector":"1"}},{"base_weights":[3.8498265E-3,-1.3988179E0,1.2927336E0,-1.5430923E0,1.5819246E-2,-1.5780946E-2,1.4589521E0,-6.317723E-3,-1.6184513E-2,1.024726E-2,1.4804128E-2],"categories":[],"categories_nodes":[],"categories_segments":[],"categories_sizes":[],"default_left":[0,0,0,0,0,0,0,0,0,0,0],"id":30,"left_children":[1,3,5,7,-1,-1,9,-1,-1,-1,-1],"loss_changes":[5.567896E3,6.3902124E2,7.7052026E2,9.350708E1,0E0,0E0,9.864502E0,0E0,0E0,0E0,0E0],"parents":[2147483647,0,0,1,1,2,2,3,3,6,6],"right_children":[2,4,6,8,-1,-1,10,-1,-1,-1,-1],"split_conditions":[3.8191507E0,1E0,1E0,2E0,1.5819246E-2,-1.5780946E-2,4.8537025E0,-6.317723E-3,-1.6184513E-2,1.024726E-2,1.4804128E-2],"split_indices":[7,15,11,5,0,0,7,0,0,0,0],"split_type":[0,0,0,0,0,0,0,0,0,0,0],"sum_hessian":[3.0758293E3,1.4726327E3,1.6031967E3,1.4057249E3,6.690778E1,8.664904E1,1.5165476E3,1.09304405E2,1.2964204E3,7.711152E1,1.439436E3],"tree_param":{"num_deleted":"0","num_feature":"17","num_nodes":"11","size_leaf_vector":"1"}},{"base_weights":[1.7349336E-2,-1.6063094E-2,1.2272546E0,-1.5788304E-2,1.4307092E0,7.970705E-3,1.5583551E-2],"categories":[],"categories_nodes":[],"categories_segments":[],"categories_sizes":[],"default_left":[0,0,0,0,0,0,0],"id":31,"left_children":[1,-1,3,-1,5,-1,-1],"loss_changes":[6.0485347E3,0E0,1.0118096E3,0E0,1.2950269E2,0E0,0E0],"parents":[2147483647,0,0,2,2,4,4],"right_children":[2,-1,4,-1,6,-1,-1],"split_conditions":[1.27736E3,-1.6063094E-2,1E0,-1.5788304E-2,2.93378E3,7.970705E-3,1.5583551E-2],"split_indices":[0,0,11,0,0,0,0],"split_type":[0,0,0,0,0,0,0],"sum_hessian":[3.075049E3,1.3125608E3,1.7624883E3,1.18069786E2,1.6444185E3,2.788085E2,1.36561E3],"tree_param":{"num_deleted":"0","num_feature":"17","num_nodes":"7","size_leaf_vector":"1"}},{"base_weights":[-6.9582387E-4,-1.3454653E0,1.2763752E0,-1.5237864E0,1.57375E-2,1.3637741E0,-1.5213683E-2,-1.5613337E-2,-2.29537E-3,1.3971154E-2,7.743936E-3],"categories":[],"categories_nodes":[],"categories_segments":[],"categories_sizes":[],"default_left":[0,0,0,0,0,0,0,0,0,0,0],"id":32,"left_children":[1,3,5,7,-1,9,-1,-1,-1,-1,-1],"loss_changes":[5.1581616E3,7.664353E2,3.807146E2,6.545508E1,0E0,2.6126709E1,0E0,0E0,0E0,0E0,0E0],"parents":[2147483647,0,0,1,1,2,2,3,3,5,5],"right_children":[2,4,6,8,-1,10,-1,-1,-1,-1,-1],"split_conditions":[3.8191507E0,1E0,1E0,1.463615E3,1.57375E-2,5.555189E1,-1.5213683E-2,-1.5613337E-2,-2.29537E-3,1.3971154E-2,7.743936E-3],"split_indices":[7,15,10,6,0,1,0,0,0,0,0],"split_type":[0,0,0,0,0,0,0,0,0,0,0],"sum_hessian":[2.9995107E3,1.4611687E3,1.5383419E3,1.3781135E3,8.305519E1,1.4929087E3,4.5433235E1,1.3384839E3,3.962963E1,1.4095792E3,8.332944E1],"tree_param":{"num_deleted":"0","num_feature":"17","num_nodes":"11","size_leaf_vector":"1"}},{"base_weights":[-7.7747866E-3,-1.582905E-2,7.781165E-1,8.974797E-1,-1.5479716E-2,1.0232489E-2,-1.5651625E-2],"categories":[],"categories_nodes":[],"categories_segments":[],"categories_sizes":[],"default_left":[0,0,0,0,0,0,0],"id":33,"left_children":[1,-1,3,5,-1,-1,-1],"loss_changes":[3.721566E3,0E0,5.592156E2,5.9415393E2,0E0,0E0,0E0],"parents":[2147483647,0,0,2,2,3,3],"right_children":[2,-1,4,6,-1,-1,-1],"split_conditions":[1E0,-1.582905E-2,1E0,1E0,-1.5479716E-2,1.0232489E-2,-1.5651625E-2],"split_indices":[11,0,13,12,0,0,0],"split_type":[0,0,0,0,0,0,0],"sum_hessian":[3.0020847E3,9.988127E2,2.0032721E3,1.9068647E3,9.640744E1,1.8155168E3,9.134791E1],"tree_param":{"num_deleted":"0","num_feature":"17","num_nodes":"7","size_leaf_vector":"1"}},{"base_weights":[-1.4858396E-2,-1.3596739E0,1.4874905E0,-1.5813706E-2,-2.9420152E-1,-1.39435325E-2,1.5190781E0,1.5657717E-2,-1.700508E-2,1.056292E-2,1.5368924E-2],"categories":[],"categories_nodes":[],"categories_segments":[],"categories_sizes":[],"default_left":[0,0,0,0,0,0,0,0,0,0,0],"id":34,"left_children":[1,3,5,-1,7,-1,9,-1,-1,-1,-1],"loss_changes":[5.9500435E3,3.652422E2,1.3091089E2,0E0,7.1300964E2,0E0,6.8083496E0,0E0,0E0,0E0,0E0],"parents":[2147483647,0,0,1,1,2,2,4,4,6,6],"right_children":[2,4,6,-1,8,-1,10,-1,-1,-1,-1],"split_conditions":[2.77936E3,1.27736E3,1E0,-1.5813706E-2,1E0,-1.39435325E-2,2.93378E3,1.5657717E-2,-1.700508E-2,1.056292E-2,1.5368924E-2],"split_indices":[0,0,11,0,14,0,0,0,0,0,0],"split_type":[0,0,0,0,0,0,0,0,0,0,0],"sum_hessian":[2.9410386E3,1.5521588E3,1.3888796E3,1.2836312E3,2.6852765E2,1.39512E1,1.3749285E3,1.15364655E2,1.53163E2,5.6474213E1,1.3184542E3],"tree_param":{"num_deleted":"0","num_feature":"17","num_nodes":"11","size_leaf_vector":"1"}},{"base_weights":[-4.5309335E-2,-1.3007004E0,1.5221273E-2,-1.5902007E-2,1.5671533E-2],"categories":[],"categories_nodes":[],"categories_segments":[],"categories_sizes":[],"default_left":[0,0,0,0,0],"id":35,"left_children":[1,3,-1,-1,-1],"loss_changes":[5.761916E3,1.3550615E3,0E0,0E0,0E0],"parents":[2147483647,0,0,1,1],"right_children":[2,4,-1,-1,-1],"split_conditions":[2.93378E3,1E0,1.5221273E-2,-1.5902007E-2,1.5671533E-2],"split_indices":[0,15,0,0,0],"split_type":[0,0,0,0,0],"sum_hessian":[2.9242246E3,1.6241056E3,1.300119E3,1.4761577E3,1.4794789E2],"tree_param":{"num_deleted":"0","num_feature":"17","num_nodes":"5","size_leaf_vector":"1"}},{"base_weights":[4.6359107E-2,-1.2846097E0,1.4765074E0,-1.5778612E-2,1.5533201E-2,6.514916E-1,1.5140441E-2,1.5061683E-2,-1.6642913E-2],"categories":[],"categories_nodes":[],"categories_segments":[],"categories_sizes":[],"default_left":[0,0,0,0,0,0,0,0,0],"id":36,"left_children":[1,3,5,-1,-1,7,-1,-1,-1],"loss_changes":[5.8162397E3,1.3219119E3,4.256201E1,0E0,0E0,1.3990749E2,0E0,0E0,0E0],"parents":[2147483647,0,0,1,1,2,2,5,5],"right_children":[2,4,6,-1,-1,8,-1,-1,-1],"split_conditions":[2.77936E3,1E0,2.93378E3,-1.5778612E-2,1.5533201E-2,1E0,1.5140441E-2,1.5061683E-2,-1.6642913E-2],"split_indices":[0,15,0,0,0,14,0,0,0],"split_type":[0,0,0,0,0,0,0,0,0],"sum_hessian":[3.0515344E3,1.5804972E3,1.4710372E3,1.43344E3,1.4705734E2,6.619423E1,1.404843E3,4.901835E1,1.717588E1],"tree_param":{"num_deleted":"0","num_feature":"17","num_nodes":"9","size_leaf_vector":"1"}},{"base_weights":[3.104196E-2,-1.248226E0,1.4674238E0,-1.5698891E-2,1.5504974E-2,-1.3261124E-2,1.4910975E0,9.650489E-3,1.5115777E-2],"categories":[],"categories_nodes":[],"categories_segments":[],"categories_sizes":[],"default_left":[0,0,0,0,0,0,0,0,0],"id":37,"left_children":[1,3,5,-1,-1,-1,7,-1,-1],"loss_changes":[5.531722E3,1.4381697E3,9.783203E1,0E0,0E0,0E0,1.1008057E1,0E0,0E0],"parents":[2147483647,0,0,1,1,2,2,6,6],"right_children":[2,4,6,-1,-1,-1,8,-1,-1],"split_conditions":[2.77936E3,1E0,1E0,-1.5698891E-2,1.5504974E-2,-1.3261124E-2,2.93378E3,9.650489E-3,1.5115777E-2],"split_indices":[0,15,11,0,0,0,0,0,0],"split_type":[0,0,0,0,0,0,0,0,0],"sum_hessian":[3.0063796E3,1.5901112E3,1.4162683E3,1.4271434E3,1.6296774E2,1.0799143E1,1.4054692E3,5.7189045E1,1.3482802E3],"tree_param":{"num_deleted":"0","num_feature":"17","num_nodes":"9","size_leaf_vector":"1"}},{"base_weights":[-6.986687E-2,-1.4759916E0,1.2399755E0,-1.5503884E-2,1.454444E-2,-1.5102774E-2,1.3983979E0,7.415998E-3,1.5015228E-2],"categories":[],"categories_nodes":[],"categories_segments":[],"categories_sizes":[],"default_left":[0,0,0,0,0,0,0,0,0],"id":38,"left_children":[1,3,5,-1,-1,-1,7,-1,-1],"loss_changes":[5.1712856E3,2.9979565E2,6.374497E2,0E0,0E0,0E0,8.9818115E1,0E0,0E0],"parents":[2147483647,0,0,1,1,2,2,6,6],"right_children":[2,4,6,-1,-1,-1,8,-1,-1],"split_conditions":[1.83151E3,1E0,1E0,-1.5503884E-2,1.454444E-2,-1.5102774E-2,2.93378E3,7.415998E-3,1.5015228E-2],"split_indices":[0,15,11,0,0,0,0,0,0],"split_type":[0,0,0,0,0,0,0,0,0],"sum_hessian":[2.8036807E3,1.352206E3,1.4514745E3,1.3198116E3,3.239443E1,7.795388E1,1.3735206E3,1.892738E2,1.1842468E3],"tree_param":{"num_deleted":"0","num_feature":"17","num_nodes":"9","size_leaf_vector":"1"}},{"base_weights":[2.6023502E-2,-1.5370712E-2,1.1686295E0,-1.513181E-2,1.3658857E0,7.823377E-3,1.4953611E-2],"categories":[],"categories_nodes":[],"categories_segments":[],"categories_sizes":[],"default_left":[0,0,0,0,0,0,0],"id":39,"left_children":[1,-1,3,-1,5,-1,-1],"loss_changes":[5.2381064E3,0E0,9.0048267E2,0E0,1.1587402E2,0E0,0E0],"parents":[2147483647,0,0,2,2,4,4],"right_children":[2,-1,4,-1,6,-1,-1],"split_conditions":[1.27736E3,-1.5370712E-2,1E0,-1.513181E-2,2.93378E3,7.823377E-3,1.4953611E-2],"split_indices":[0,0,11,0,0,0,0],"split_type":[0,0,0,0,0,0,0],"sum_hessian":[2.9289597E3,1.2364109E3,1.6925487E3,1.148754E2,1.5776733E3,2.8974313E2,1.2879302E3],"tree_param":{"num_deleted":"0","num_feature":"17","num_nodes":"7","size_leaf_vector":"1"}},{"base_weights":[-7.351701E-3,-1.4594581E0,1.2454969E0,-1.5332352E-2,9.8676103E-1,1.7003681E-1,1.4821145E-2,1.3111553E-2,6.345973E-3,1.5354719E-2,-1.6802361E-2],"categories":[],"categories_nodes":[],"categories_segments":[],"categories_sizes":[],"default_left":[0,0,0,0,0,0,0,0,0,0,0],"id":40,"left_children":[1,3,5,-1,7,9,-1,-1,-1,-1,-1],"loss_changes":[5.26053E3,2.4503296E2,3.936306E2,0E0,1.9591789E0,7.189002E2,0E0,0E0,0E0,0E0,0E0],"parents":[2147483647,0,0,1,1,2,2,4,4,5,5],"right_children":[2,4,6,-1,8,10,-1,-1,-1,-1,-1],"split_conditions":[1.83151E3,4.365162E3,2.93378E3,-1.5332352E-2,4E0,1E0,1.4821145E-2,1.3111553E-2,6.345973E-3,1.5354719E-2,-1.6802361E-2],"split_indices":[0,8,0,0,3,14,0,0,0,0,0],"split_type":[0,0,0,0,0,0,0,0,0,0,0],"sum_hessian":[2.887505E3,1.3374319E3,1.550073E3,1.2991993E3,3.823255E1,2.8053833E2,1.2695347E3,1.6326958E1,2.1905592E1,1.6176907E2,1.1876927E2],"tree_param":{"num_deleted":"0","num_feature":"17","num_nodes":"11","size_leaf_vector":"1"}},{"base_weights":[2.016752E-2,-1.3073809E0,1.4374776E0,-1.4999781E0,1.3211133E0,6.141183E-1,1.4762757E-2,-9.828368E-3,-1.5342857E-2,6.0722167E-3,1.49168E-2,-1.605709E-2,1.4752418E-2],"categories":[],"categories_nodes":[],"categories_segments":[],"categories_sizes":[],"default_left":[0,0,0,0,0,0,0,0,0,0,0,0,0],"id":41,"left_children":[1,3,5,7,9,11,-1,-1,-1,-1,-1,-1,-1],"loss_changes":[5.5396113E3,7.735613E2,4.2634277E1,2.0872559E1,9.883087E0,1.348312E2,0E0,0E0,0E0,0E0,0E0,0E0,0E0],"parents":[2147483647,0,0,1,1,2,2,3,3,4,4,5,5],"right_children":[2,4,6,8,10,12,-1,-1,-1,-1,-1,-1,-1],"split_conditions":[2.77936E3,4.365162E3,2.93378E3,2E0,1.83151E3,1.1085167E1,1.4762757E-2,-9.828368E-3,-1.5342857E-2,6.0722167E-3,1.49168E-2,-1.605709E-2,1.4752418E-2],"split_indices":[0,8,0,5,0,8,0,0,0,0,0,0,0],"split_type":[0,0,0,0,0,0,0,0,0,0,0,0,0],"sum_hessian":[2.9401458E3,1.5180448E3,1.4221011E3,1.4153845E3,1.0266034E2,6.609088E1,1.3560101E3,9.2651634E1,1.3227328E3,2.2122026E1,8.0538315E1,1.7826717E1,4.8264164E1],"tree_param":{"num_deleted":"0","num_feature":"17","num_nodes":"13","size_leaf_vector":"1"}},{"base_weights":[-2.3952577E-2,-1.3605393E0,1.0956429E0,-1.4356275E0,1.4545437E-2,-1.4903313E-2,1.3229418E0,-6.1291805E-3,-1.51189845E-2,8.453658E-3,1.3897475E-2],"categories":[],"categories_nodes":[],"categories_segments":[],"categories_sizes":[],"default_left":[0,0,0,0,0,0,0,0,0,0,0],"id":42,"left_children":[1,3,5,7,-1,-1,9,-1,-1,-1,-1],"loss_changes":[4.238303E3,2.7709375E2,9.0964905E2,7.6073E1,0E0,0E0,4.176587E1,0E0,0E0,0E0,0E0],"parents":[2147483647,0,0,1,1,2,2,3,3,6,6],"right_children":[2,4,6,8,-1,-1,10,-1,-1,-1,-1],"split_conditions":[2.5939682E0,1E0,1E0,3.2696667E1,1.4545437E-2,-1.4903313E-2,5.0698376E0,-6.1291805E-3,-1.51189845E-2,8.453658E-3,1.3897475E-2],"split_indices":[7,15,11,6,0,0,7,0,0,0,0],"split_type":[0,0,0,0,0,0,0,0,0,0,0],"sum_hessian":[2.828183E3,1.2891711E3,1.539012E3,1.2568054E3,3.2365753E1,1.23269066E2,1.4157429E3,1.0871891E2,1.1480864E3,1.7800763E2,1.2377352E3],"tree_param":{"num_deleted":"0","num_feature":"17","num_nodes":"11","size_leaf_vector":"1"}},{"base_weights":[-1.0755689E-2,-1.2361951E0,1.4232552E0,-1.5219471E-2,1.5120264E-2,-1.3051419E-2,1.4501176E0,1.0079491E-2,1.4674808E-2],"categories":[],"categories_nodes":[],"categories_segments":[],"categories_sizes":[],"default_left":[0,0,0,0,0,0,0,0,0],"id":43,"left_children":[1,3,5,-1,-1,-1,7,-1,-1],"loss_changes":[5.020074E3,1.2144419E3,1.0032202E2,0E0,0E0,0E0,5.8188477E0,0E0,0E0],"parents":[2147483647,0,0,1,1,2,2,6,6],"right_children":[2,4,6,-1,-1,-1,8,-1,-1],"split_conditions":[2.77936E3,1E0,1E0,-1.5219471E-2,1.5120264E-2,-1.3051419E-2,2.93378E3,1.0079491E-2,1.4674808E-2],"split_indices":[0,15,11,0,0,0,0,0,0],"split_type":[0,0,0,0,0,0,0,0,0],"sum_hessian":[2.8527585E3,1.538582E3,1.3141765E3,1.3946453E3,1.4393677E2,1.1703183E1,1.3024733E3,5.4763866E1,1.2477095E3],"tree_param":{"num_deleted":"0","num_feature":"17","num_nodes":"9","size_leaf_vector":"1"}},{"base_weights":[1.2022065E-2,-1.4663181E0,1.2314196E0,-1.5028426E-2,9.879006E-3,-1.4654328E-2,1.3707966E0,6.6577606E-3,1.4577243E-2],"categories":[],"categories_nodes":[],"categories_segments":[],"categories_sizes":[],"default_left":[0,0,0,0,0,0,0,0,0],"id":44,"left_children":[1,3,5,-1,-1,-1,7,-1,-1],"loss_changes":[5.203674E3,1.2017261E2,5.9863354E2,0E0,0E0,0E0,8.926465E1,0E0,0E0],"parents":[2147483647,0,0,1,1,2,2,6,6],"right_children":[2,4,6,-1,-1,-1,8,-1,-1],"split_conditions":[1.83151E3,1.2047815E4,1E0,-1.5028426E-2,9.879006E-3,-1.4654328E-2,2.88E3,6.6577606E-3,1.4577243E-2],"split_indices":[0,8,11,0,0,0,0,0,0],"split_type":[0,0,0,0,0,0,0,0,0],"sum_hessian":[2.8826873E3,1.3026276E3,1.5800596E3,1.2844904E3,1.8137201E1,7.6535355E1,1.5035242E3,1.6756595E2,1.3359583E3],"tree_param":{"num_deleted":"0","num_feature":"17","num_nodes":"9","size_leaf_vector":"1"}},{"base_weights":[-3.5117295E-2,-1.3778133E0,1.0706614E0,-1.4523238E0,1.4087359E-2,1.1807609E0,-1.4374503E-2,-1.4925205E-2,-5.773464E-3,2.3827069E-3,1.25499135E-2],"categories":[],"categories_nodes":[],"categories_segments":[],"categories_sizes":[],"default_left":[0,0,0,0,0,0,0,0,0,0,0],"id":45,"left_children":[1,3,5,7,-1,9,-1,-1,-1,-1,-1],"loss_changes":[4.1310938E3,2.6504272E2,4.2454492E2,4.0331543E1,0E0,1.0098987E2,0E0,0E0,0E0,0E0,0E0],"parents":[2147483647,0,0,1,1,2,2,3,3,5,5],"right_children":[2,4,6,8,-1,10,-1,-1,-1,-1,-1],"split_conditions":[2.5939682E0,1E0,1E0,1.6849194E2,1.4087359E-2,3.8191507E0,-1.4374503E-2,-1.4925205E-2,-5.773464E-3,2.3827069E-3,1.25499135E-2],"split_indices":[7,15,10,2,0,7,0,0,0,0,0],"split_type":[0,0,0,0,0,0,0,0,0,0,0],"sum_hessian":[2.778307E3,1.2547192E3,1.5235876E3,1.2231501E3,3.1569164E1,1.4607235E3,6.2864136E1,1.1675303E3,5.5619804E1,1.0775355E2,1.3529698E3],"tree_param":{"num_deleted":"0","num_feature":"17","num_nodes":"11","size_leaf_vector":"1"}},{"base_weights":[-8.563719E-2,-1.4147129E0,1.176139E0,-1.4886018E-2,1.4277769E-2,4.8966337E-2,1.4400328E0,-1.6584603E-2,1.4891596E-2,1.0568828E-2,1.455643E-2],"categories":[],"categories_nodes":[],"categories_segments":[],"categories_sizes":[],"default_left":[0,0,0,0,0,0,0,0,0,0,0],"id":46,"left_children":[1,3,5,-1,-1,7,9,-1,-1,-1,-1],"loss_changes":[4.495813E3,2.785183E2,4.0814307E2,0E0,0E0,6.5230255E2,2.3288574E0,0E0,0E0,0E0,0E0],"parents":[2147483647,0,0,1,1,2,2,5,5,6,6],"right_children":[2,4,6,-1,-1,8,10,-1,-1,-1,-1],"split_conditions":[1.83151E3,1E0,2.93378E3,-1.4886018E-2,1.4277769E-2,4.365162E3,3.2747E3,-1.6584603E-2,1.4891596E-2,1.0568828E-2,1.455643E-2],"split_indices":[0,15,0,0,0,8,0,0,0,0,0],"split_type":[0,0,0,0,0,0,0,0,0,0,0],"sum_hessian":[2.676817E3,1.303717E3,1.3730997E3,1.2717863E3,3.1930813E1,2.612946E2,1.1118052E3,1.1925778E2,1.420368E2,5.0156986E1,1.0616482E3],"tree_param":{"num_deleted":"0","num_feature":"17","num_nodes":"11","size_leaf_vector":"1"}},{"base_weights":[-2.4090677E-2,-1.2441825E0,1.4209324E0,-1.4953585E-2,1.4894432E-2,5.234949E-3,1.4350744E-2],"categories":[],"categories_nodes":[],"categories_segments":[],"categories_sizes":[],"default_left":[0,0,0,0,0,0,0],"id":47,"left_children":[1,3,5,-1,-1,-1,-1],"loss_changes":[4.9297847E3,1.0455581E3,1.3762451E1,0E0,0E0,0E0,0E0],"parents":[2147483647,0,0,1,1,2,2],"right_children":[2,4,6,-1,-1,-1,-1],"split_conditions":[2.88E3,1E0,2.93378E3,-1.4953585E-2,1.4894432E-2,5.234949E-3,1.4350744E-2],"split_indices":[0,15,0,0,0,0,0],"split_type":[0,0,0,0,0,0,0],"sum_hessian":[2.7921963E3,1.5142648E3,1.2779314E3,1.387834E3,1.26430756E2,2.1553617E1,1.2563778E3],"tree_param":{"num_deleted":"0","num_feature":"17","num_nodes":"7","size_leaf_vector":"1"}},{"base_weights":[2.7785288E-2,-1.4012158E0,1.2007266E0,-1.4733566E-2,1.0129339E-2,-1.4444064E-2,1.3421113E0,7.879791E-3,1.4343966E-2],"categories":[],"categories_nodes":[],"categories_segments":[],"categories_sizes":[],"default_left":[0,0,0,0,0,0,0,0,0],"id":48,"left_children":[1,3,5,-1,-1,-1,7,-1,-1],"loss_changes":[4.7995244E3,2.2799829E2,5.920325E2,0E0,0E0,0E0,7.304077E1,0E0,0E0],"parents":[2147483647,0,0,1,1,2,2,6,6],"right_children":[2,4,6,-1,-1,-1,8,-1,-1],"split_conditions":[1.83151E3,4.365162E3,1E0,-1.4733566E-2,1.0129339E-2,-1.4444064E-2,2.93378E3,7.879791E-3,1.4343966E-2],"split_indices":[0,8,11,0,0,0,0,0,0],"split_type":[0,0,0,0,0,0,0,0,0],"sum_hessian":[2.859501E3,1.2886797E3,1.5708213E3,1.2522458E3,3.643375E1,7.858704E1,1.4922343E3,2.1653456E2,1.2756996E3],"tree_param":{"num_deleted":"0","num_feature":"17","num_nodes":"9","size_leaf_vector":"1"}},{"base_weights":[5.162037E-3,-1.1986072E0,1.3838826E0,-1.480149E-2,1.4810966E-2,-1.2947311E-2,1.4119141E0,9.390503E-3,1.4306532E-2],"categories":[],"categories_nodes":[],"categories_segments":[],"categories_sizes":[],"default_left":[0,0,0,0,0,0,0,0,0],"id":49,"left_children":[1,3,5,-1,-1,-1,7,-1,-1],"loss_changes":[4.656768E3,1.1343594E3,1.01930176E2,0E0,0E0,0E0,7.609131E0,0E0,0E0],"parents":[2147483647,0,0,1,1,2,2,6,6],"right_children":[2,4,6,-1,-1,-1,8,-1,-1],"split_conditions":[2.77936E3,1E0,1E0,-1.480149E-2,1.4810966E-2,-1.2947311E-2,2.93378E3,9.390503E-3,1.4306532E-2],"split_indices":[0,15,11,0,0,0,0,0,0],"split_type":[0,0,0,0,0,0,0,0,0],"sum_hessian":[2.8017996E3,1.4957499E3,1.3060496E3,1.3545198E3,1.4123009E2,1.2405426E1,1.2936442E3,5.422517E1,1.239419E3],"tree_param":{"num_deleted":"0","num_feature":"17","num_nodes":"9","size_leaf_vector":"1"}},{"base_weights":[3.6939453E-2,-1.423686E0,1.1998563E0,-1.4605454E-2,1.3047343E-2,-1.42831355E-2,1.3330389E0,7.232107E-3,1.4246951E-2],"categories":[],"categories_nodes":[],"categories_segments":[],"categories_sizes":[],"default_left":[0,0,0,0,0,0,0,0,0],"id":50,"left_children":[1,3,5,-1,-1,-1,7,-1,-1],"loss_changes":[4.8305566E3,1.3064941E2,5.580217E2,0E0,0E0,0E0,8.117236E1,0E0,0E0],"parents":[2147483647,0,0,1,1,2,2,6,6],"right_children":[2,4,6,-1,-1,-1,8,-1,-1],"split_conditions":[1.83151E3,1E0,1E0,-1.4605454E-2,1.3047343E-2,-1.42831355E-2,2.93378E3,7.232107E-3,1.4246951E-2],"split_indices":[0,15,11,0,0,0,0,0,0],"split_type":[0,0,0,0,0,0,0,0,0],"sum_hessian":[2.8399243E3,1.2584414E3,1.5814829E3,1.2427649E3,1.5676445E1,7.5157295E1,1.5063256E3,1.9985315E2,1.3064724E3],"tree_param":{"num_deleted":"0","num_feature":"17","num_nodes":"9","size_leaf_vector":"1"}},{"base_weights":[2.7705912E-2,-1.4433129E-2,7.2350883E-1,8.271729E-1,-1.4209049E-2,9.384804E-3,-1.4060923E-2],"categories":[],"categories_nodes":[],"categories_segments":[],"categories_sizes":[],"default_left":[0,0,0,0,0,0,0],"id":51,"left_children":[1,-1,3,5,-1,-1,-1],"loss_changes":[2.854078E3,0E0,4.229632E2,4.5174207E2,0E0,0E0,0E0],"parents":[2147483647,0,0,2,2,3,3],"right_children":[2,-1,4,6,-1,-1,-1],"split_conditions":[1E0,-1.4433129E-2,1E0,1E0,-1.4209049E-2,9.384804E-3,-1.4060923E-2],"split_indices":[11,0,16,13,0,0,0],"split_type":[0,0,0,0,0,0,0],"sum_hessian":[2.7847517E3,8.9331E2,1.8914418E3,1.8056173E3,8.582443E1,1.7212141E3,8.4403206E1],"tree_param":{"num_deleted":"0","num_feature":"17","num_nodes":"7","size_leaf_vector":"1"}},{"base_weights":[-6.2869326E-3,-1.2400578E0,1.3662907E0,-1.4264892E0,1.2924225E0,-1.2685948E-2,1.3936509E0,-1.4618809E-2,-7.3647066E-3,6.7186696E-3,1.425014E-2,9.806302E-3,1.4093226E-2],"categories":[],"categories_nodes":[],"categories_segments":[],"categories_sizes":[],"default_left":[0,0,0,0,0,0,0,0,0,0,0,0,0],"id":52,"left_children":[1,3,5,7,9,-1,11,-1,-1,-1,-1,-1,-1],"loss_changes":[4.650565E3,6.8666846E2,9.7302734E1,2.967627E1,5.268509E0,0E0,4.375244E0,0E0,0E0,0E0,0E0,0E0,0E0],"parents":[2147483647,0,0,1,1,2,2,3,3,4,4,6,6],"right_children":[2,4,6,8,10,-1,12,-1,-1,-1,-1,-1,-1],"split_conditions":[2.77936E3,4.365162E3,1E0,2.3E1,2.6637206E0,-1.2685948E-2,2.93378E3,-1.4618809E-2,-7.3647066E-3,6.7186696E-3,1.425014E-2,9.806302E-3,1.4093226E-2],"split_indices":[0,8,11,3,7,0,0,0,0,0,0,0,0],"split_type":[0,0,0,0,0,0,0,0,0,0,0,0,0],"sum_hessian":[2.7422498E3,1.4444407E3,1.2978091E3,1.346395E3,9.8045555E1,1.2217411E1,1.2855917E3,1.2778893E3,6.850579E1,2.0061054E1,7.7984505E1,5.2812157E1,1.2327795E3],"tree_param":{"num_deleted":"0","num_feature":"17","num_nodes":"13","size_leaf_vector":"1"}},{"base_weights":[-1.0531009E-2,-1.3734539E0,1.1675644E0,-1.4438149E-2,1.3684413E-2,-1.40850255E-2,1.3098869E0,7.1537793E-3,1.4061583E-2],"categories":[],"categories_nodes":[],"categories_segments":[],"categories_sizes":[],"default_left":[0,0,0,0,0,0,0,0,0],"id":53,"left_children":[1,3,5,-1,-1,-1,7,-1,-1],"loss_changes":[4.409161E3,2.496377E2,5.435654E2,0E0,0E0,0E0,7.687085E1,0E0,0E0],"parents":[2147483647,0,0,1,1,2,2,6,6],"right_children":[2,4,6,-1,-1,-1,8,-1,-1],"split_conditions":[1.83151E3,1E0,1E0,-1.4438149E-2,1.3684413E-2,-1.40850255E-2,2.93378E3,7.1537793E-3,1.4061583E-2],"split_indices":[0,15,11,0,0,0,0,0,0],"split_type":[0,0,0,0,0,0,0,0,0],"sum_hessian":[2.741962E3,1.2713021E3,1.4706598E3,1.2405958E3,3.070626E1,7.5881584E1,1.3947782E3,1.9745851E2,1.1973196E3],"tree_param":{"num_deleted":"0","num_feature":"17","num_nodes":"9","size_leaf_vector":"1"}},{"base_weights":[-2.9819403E-3,-1.1469793E0,1.3647871E0,-1.4517282E-2,1.4558703E-2,5.221609E-1,1.3933766E-2,-1.5559648E-2,1.370107E-2],"categories":[],"categories_nodes":[],"categories_segments":[],"categories_sizes":[],"default_left":[0,0,0,0,0,0,0,0,0],"id":54,"left_children":[1,3,5,-1,-1,7,-1,-1,-1],"loss_changes":[4.2511753E3,1.1779456E3,2.7392822E1,0E0,0E0,8.236372E1,0E0,0E0,0E0],"parents":[2147483647,0,0,1,1,2,2,5,5],"right_children":[2,4,6,-1,-1,8,-1,-1,-1],"split_conditions":[2.83236E3,1E0,2.93378E3,-1.4517282E-2,1.4558703E-2,1.2175956E1,1.3933766E-2,-1.5559648E-2,1.370107E-2],"split_indices":[0,15,0,0,0,8,0,0,0],"split_type":[0,0,0,0,0,0,0,0,0],"sum_hessian":[2.7129534E3,1.4776992E3,1.2352543E3,1.3237836E3,1.5391568E2,4.237391E1,1.1928804E3,1.1624716E1,3.0749191E1],"tree_param":{"num_deleted":"0","num_feature":"17","num_nodes":"9","size_leaf_vector":"1"}},{"base_weights":[6.509281E-2,-1.1664007E0,1.3539915E0,-1.4437447E-2,1.4456793E-2,-1.2639494E-2,1.3797706E0,9.342825E-3,1.395825E-2],"categories":[],"categories_nodes":[],"categories_segments":[],"categories_sizes":[],"default_left":[0,0,0,0,0,0,0,0,0],"id":55,"left_children":[1,3,5,-1,-1,-1,7,-1,-1],"loss_changes":[4.4913184E3,1.0523331E3,9.686157E1,0E0,0E0,0E0,6.027588E0,0E0,0E0],"parents":[2147483647,0,0,1,1,2,2,6,6],"right_children":[2,4,6,-1,-1,-1,8,-1,-1],"split_conditions":[2.77936E3,1E0,1E0,-1.4437447E-2,1.4456793E-2,-1.2639494E-2,2.93378E3,9.342825E-3,1.395825E-2],"split_indices":[0,15,11,0,0,0,0,0,0],"split_type":[0,0,0,0,0,0,0,0,0],"sum_hessian":[2.8255374E3,1.4448451E3,1.3806921E3,1.307142E3,1.3770306E2,1.2337448E1,1.3683547E3,5.2798557E1,1.3155562E3],"tree_param":{"num_deleted":"0","num_feature":"17","num_nodes":"9","size_leaf_vector":"1"}},{"base_weights":[-3.786997E-3,-1.1646485E0,1.3544542E0,-1.4037375E0,1.3122779E0,5.1609296E-1,1.3824729E-2,-1.4387654E-2,-7.368088E-3,6.5664565E-3,1.41483005E-2,-1.5746217E-2,1.3591179E-2],"categories":[],"categories_nodes":[],"categories_segments":[],"categories_sizes":[],"default_left":[0,0,0,0,0,0,0,0,0,0,0,0,0],"id":56,"left_children":[1,3,5,7,9,11,-1,-1,-1,-1,-1,-1,-1],"loss_changes":[4.241357E3,8.627816E2,2.6738037E1,2.7723389E1,5.749069E0,8.146265E1,0E0,0E0,0E0,0E0,0E0,0E0,0E0],"parents":[2147483647,0,0,1,1,2,2,3,3,4,4,5,5],"right_children":[2,4,6,8,10,12,-1,-1,-1,-1,-1,-1,-1],"split_conditions":[2.83236E3,4.365162E3,2.93378E3,2.3E1,1.5422164E0,1.2175956E1,1.3824729E-2,-1.4387654E-2,-7.368088E-3,6.5664565E-3,1.41483005E-2,-1.5746217E-2,1.3591179E-2],"split_indices":[0,8,0,3,7,8,0,0,0,0,0,0,0],"split_type":[0,0,0,0,0,0,0,0,0,0,0,0,0],"sum_hessian":[2.68603E3,1.4485966E3,1.2374333E3,1.322052E3,1.26544624E2,4.1851986E1,1.1955814E3,1.2531697E3,6.888233E1,1.97786E1,1.0676602E2,1.1357202E1,3.0494783E1],"tree_param":{"num_deleted":"0","num_feature":"17","num_nodes":"13","size_leaf_vector":"1"}},{"base_weights":[-5.38903E-2,-1.3166357E0,1.1541831E0,-1.4207891E-2,1.3840042E-2,-1.3824214E-2,1.2912267E0,7.2561353E-3,1.3807951E-2],"categories":[],"categories_nodes":[],"categories_segments":[],"categories_sizes":[],"default_left":[0,0,0,0,0,0,0,0,0],"id":57,"left_children":[1,3,5,-1,-1,-1,7,-1,-1],"loss_changes":[3.9140303E3,3.5685327E2,4.5928918E2,0E0,0E0,0E0,6.0021484E1,0E0,0E0],"parents":[2147483647,0,0,1,1,2,2,6,6],"right_children":[2,4,6,-1,-1,-1,8,-1,-1],"split_conditions":[1.99614E3,1E0,1E0,-1.4207891E-2,1.3840042E-2,-1.3824214E-2,2.93378E3,7.2561353E-3,1.3807951E-2],"split_indices":[0,15,11,0,0,0,0,0,0],"split_type":[0,0,0,0,0,0,0,0,0],"sum_hessian":[2.5617083E3,1.2526271E3,1.3090812E3,1.2072029E3,4.542422E1,6.598112E1,1.2431001E3,1.7319301E2,1.069907E3],"tree_param":{"num_deleted":"0","num_feature":"17","num_nodes":"9","size_leaf_vector":"1"}},{"base_weights":[3.372962E-2,-1.2250348E0,1.04595E0,-1.2931614E0,1.0080629E-2,-1.3877138E-2,1.242608E0,-2.3859378E-3,-1.4065336E-2,1.0014245E-2,1.3166032E-2],"categories":[],"categories_nodes":[],"categories_segments":[],"categories_sizes":[],"default_left":[0,0,0,0,0,0,0,0,0,0,0],"id":58,"left_children":[1,3,5,7,-1,-1,9,-1,-1,-1,-1],"loss_changes":[3.4132334E3,1.8437305E2,7.1412134E2,1.3714612E2,0E0,0E0,2.0747559E1,0E0,0E0,0E0,0E0],"parents":[2147483647,0,0,1,1,2,2,3,3,6,6],"right_children":[2,4,6,8,-1,-1,10,-1,-1,-1,-1],"split_conditions":[2.6637206E0,4.365162E3,1E0,3.2696667E1,1.0080629E-2,-1.3877138E-2,6.754919E0,-2.3859378E-3,-1.4065336E-2,1.0014245E-2,1.3166032E-2],"split_indices":[7,8,11,6,0,0,7,0,0,0,0],"split_type":[0,0,0,0,0,0,0,0,0,0,0],"sum_hessian":[2.6748967E3,1.191844E3,1.4830529E3,1.1575942E3,3.4249733E1,1.0978582E2,1.3732671E3,1.1339889E2,1.0441953E3,3.3081546E2,1.0424517E3],"tree_param":{"num_deleted":"0","num_feature":"17","num_nodes":"11","size_leaf_vector":"1"}},{"base_weights":[3.305538E-2,-1.1774019E0,1.3428658E0,-1.4231236E-2,1.4236928E-2,5.0197643E-1,1.369534E-2,-1.5217191E-2,1.344718E-2],"categories":[],"categories_nodes":[],"categories_segments":[],"categories_sizes":[],"default_left":[0,0,0,0,0,0,0,0,0],"id":59,"left_children":[1,3,5,-1,-1,7,-1,-1,-1],"loss_changes":[4.300271E3,9.0487366E2,2.6905518E1,0E0,0E0,7.8672165E1,0E0,0E0,0E0],"parents":[2147483647,0,0,1,1,2,2,5,5],"right_children":[2,4,6,-1,-1,8,-1,-1,-1],"split_conditions":[2.83236E3,1E0,2.93378E3,-1.4231236E-2,1.4236928E-2,1.2175956E1,1.369534E-2,-1.5217191E-2,1.344718E-2],"split_indices":[0,15,0,0,0,8,0,0,0],"split_type":[0,0,0,0,0,0,0,0,0],"sum_hessian":[2.7082544E3,1.4074159E3,1.3008386E3,1.2869386E3,1.2047728E2,4.1781986E1,1.2590566E3,1.1635861E1,3.0146124E1],"tree_param":{"num_deleted":"0","num_feature":"17","num_nodes":"9","size_leaf_vector":"1"}},{"base_weights":[-8.037778E-3,-1.0984858E0,1.3615683E-2,-1.4196975E-2,1.4240104E-2],"categories":[],"categories_nodes":[],"categories_segments":[],"categories_sizes":[],"default_left":[0,0,0,0,0],"id":60,"left_children":[1,3,-1,-1,-1],"loss_changes":[3.9394263E3,1.1941249E3,0E0,0E0,0E0],"parents":[2147483647,0,0,1,1],"right_children":[2,4,-1,-1,-1],"split_conditions":[2.93378E3,1E0,1.3615683E-2,-1.4196975E-2,1.4240104E-2],"split_indices":[0,15,0,0,0],"split_type":[0,0,0,0,0],"sum_hessian":[2.6338274E3,1.466776E3,1.1670514E3,1.3020474E3,1.6472864E2],"tree_param":{"num_deleted":"0","num_feature":"17","num_nodes":"5","size_leaf_vector":"1"}},{"base_weights":[2.4224559E-2,-1.1664158E0,1.3177888E0,-1.4104138E-2,1.4105453E-2,5.219611E-1,1.3570241E-2,1.3664225E-2,-1.5569435E-2],"categories":[],"categories_nodes":[],"categories_segments":[],"categories_sizes":[],"default_left":[0,0,0,0,0,0,0,0,0],"id":61,"left_children":[1,3,5,-1,-1,7,-1,-1,-1],"loss_changes":[4.1144077E3,8.784984E2,3.762744E1,0E0,0E0,1.1653946E2,0E0,0E0,0E0],"parents":[2147483647,0,0,1,1,2,2,5,5],"right_children":[2,4,6,-1,-1,8,-1,-1,-1],"split_conditions":[2.77936E3,1E0,2.93378E3,-1.4104138E-2,1.4105453E-2,1E0,1.3570241E-2,1.3664225E-2,-1.5569435E-2],"split_indices":[0,15,0,0,0,14,0,0,0],"split_type":[0,0,0,0,0,0,0,0,0],"sum_hessian":[2.6673535E3,1.388834E3,1.2785197E3,1.2697114E3,1.191225E2,6.2013855E1,1.2165059E3,4.475863E1,1.7255228E1],"tree_param":{"num_deleted":"0","num_feature":"17","num_nodes":"9","size_leaf_vector":"1"}},{"base_weights":[1.45124085E-2,-1.1326909E0,1.3136281E0,-1.4047446E-2,1.4086273E-2,5.434252E-1,1.3524004E-2,-1.5551039E-2,1.3603535E-2],"categories":[],"categories_nodes":[],"categories_segments":[],"categories_sizes":[],"default_left":[0,0,0,0,0,0,0,0,0],"id":62,"left_children":[1,3,5,-1,-1,7,-1,-1,-1],"loss_changes":[3.9081426E3,9.66589E2,3.431006E1,0E0,0E0,1.1197919E2,0E0,0E0,0E0],"parents":[2147483647,0,0,1,1,2,2,5,5],"right_children":[2,4,6,-1,-1,8,-1,-1,-1],"split_conditions":[2.77936E3,1E0,2.93378E3,-1.4047446E-2,1.4086273E-2,1.2175956E1,1.3524004E-2,-1.5551039E-2,1.3603535E-2],"split_indices":[0,15,0,0,0,8,0,0,0],"split_type":[0,0,0,0,0,0,0,0,0],"sum_hessian":[2.6182412E3,1.3903464E3,1.2278948E3,1.2568854E3,1.334611E2,6.0907646E1,1.1669872E3,1.6388792E1,4.4518856E1],"tree_param":{"num_deleted":"0","num_feature":"17","num_nodes":"9","size_leaf_vector":"1"}},{"base_weights":[3.2712035E-2,-1.157147E0,1.323162E0,-1.3992648E-2,1.399423E-2,5.0569695E-1,1.3488467E-2,-1.5119872E-2,1.3200094E-2],"categories":[],"categories_nodes":[],"categories_segments":[],"categories_sizes":[],"default_left":[0,0,0,0,0,0,0,0,0],"id":63,"left_children":[1,3,5,-1,-1,7,-1,-1,-1],"loss_changes":[4.0638472E3,8.561472E2,2.4370117E1,0E0,0E0,7.368312E1,0E0,0E0,0E0],"parents":[2147483647,0,0,1,1,2,2,5,5],"right_children":[2,4,6,-1,-1,8,-1,-1,-1],"split_conditions":[2.83236E3,1E0,2.93378E3,-1.3992648E-2,1.399423E-2,1.2175956E1,1.3488467E-2,-1.5119872E-2,1.3200094E-2],"split_indices":[0,15,0,0,0,8,0,0,0],"split_type":[0,0,0,0,0,0,0,0,0],"sum_hessian":[2.6426272E3,1.3748064E3,1.2678208E3,1.2568759E3,1.17930435E2,4.0474953E1,1.2273458E3,1.0968906E1,2.9506044E1],"tree_param":{"num_deleted":"0","num_feature":"17","num_nodes":"9","size_leaf_vector":"1"}},{"base_weights":[-5.2938904E-3,-1.1961112E0,9.975987E-1,-1.3010795E0,1.3655962E-2,-1.356015E-2,1.203123E0,-5.0535304E-3,-1.3736257E-2,9.287929E-3,1.2722707E-2],"categories":[],"categories_nodes":[],"categories_segments":[],"categories_sizes":[],"default_left":[0,0,0,0,0,0,0,0,0,0,0],"id":64,"left_children":[1,3,5,7,-1,-1,9,-1,-1,-1,-1],"loss_changes":[3.0394321E3,3.1643542E2,6.713352E2,6.227417E1,0E0,0E0,2.0657227E1,0E0,0E0,0E0,0E0],"parents":[2147483647,0,0,1,1,2,2,3,3,6,6],"right_children":[2,4,6,8,-1,-1,10,-1,-1,-1,-1],"split_conditions":[2.6637206E0,1E0,1E0,3.2696667E1,1.3655962E-2,-1.356015E-2,6.4541373E0,-5.0535304E-3,-1.3736257E-2,9.287929E-3,1.2722707E-2],"split_indices":[7,15,11,6,0,0,7,0,0,0,0],"split_type":[0,0,0,0,0,0,0,0,0,0,0],"sum_hessian":[2.5409487E3,1.1616906E3,1.379258E3,1.117096E3,4.459466E1,1.0967367E2,1.2695844E3,9.524306E1,1.0218529E3,2.6285486E2,1.0067295E3],"tree_param":{"num_deleted":"0","num_feature":"17","num_nodes":"11","size_leaf_vector":"1"}},{"base_weights":[7.518166E-3,-1.1780188E0,1.3132393E0,-1.3901538E-2,1.3858059E-2,4.938509E-1,1.3397649E-2,-1.4888952E-2,1.3092997E-2],"categories":[],"categories_nodes":[],"categories_segments":[],"categories_sizes":[],"default_left":[0,0,0,0,0,0,0,0,0],"id":65,"left_children":[1,3,5,-1,-1,7,-1,-1,-1],"loss_changes":[3.996822E3,7.39744E2,2.4469482E1,0E0,0E0,7.218944E1,0E0,0E0,0E0],"parents":[2147483647,0,0,1,1,2,2,5,5],"right_children":[2,4,6,-1,-1,8,-1,-1,-1],"split_conditions":[2.83236E3,1E0,2.93378E3,-1.3901538E-2,1.3858059E-2,1.2175956E1,1.3397649E-2,-1.4888952E-2,1.3092997E-2],"split_indices":[0,15,0,0,0,8,0,0,0],"split_type":[0,0,0,0,0,0,0,0,0],"sum_hessian":[2.5779163E3,1.3510424E3,1.226874E3,1.2488232E3,1.022191E2,4.029294E1,1.186581E3,1.1082122E1,2.9210815E1],"tree_param":{"num_deleted":"0","num_feature":"17","num_nodes":"9","size_leaf_vector":"1"}},{"base_weights":[1.2659754E-2,-1.1015234E0,1.3356984E-2,-1.3885579E-2,1.3795713E-2],"categories":[],"categories_nodes":[],"categories_segments":[],"categories_sizes":[],"default_left":[0,0,0,0,0],"id":66,"left_children":[1,3,-1,-1,-1],"loss_changes":[3.8022466E3,1.00083044E3,0E0,0E0,0E0],"parents":[2147483647,0,0,1,1],"right_children":[2,4,-1,-1,-1],"split_conditions":[2.93378E3,1E0,1.3356984E-2,-1.3885579E-2,1.3795713E-2],"split_indices":[0,15,0,0,0],"split_type":[0,0,0,0,0],"sum_hessian":[2.5752798E3,1.3979596E3,1.1773201E3,1.2539716E3,1.4398805E2],"tree_param":{"num_deleted":"0","num_feature":"17","num_nodes":"5","size_leaf_vector":"1"}},{"base_weights":[1.6592452E-2,-1.3603109E-2,1.0267719E0,-1.3424639E-2,1.1979765E0,6.199153E-3,1.3339336E-2],"categories":[],"categories_nodes":[],"categories_segments":[],"categories_sizes":[],"default_left":[0,0,0,0,0,0,0],"id":67,"left_children":[1,-1,3,-1,5,-1,-1],"loss_changes":[3.570743E3,0E0,6.0389185E2,0E0,1.0602136E2,0E0,0E0],"parents":[2147483647,0,0,2,2,4,4],"right_children":[2,-1,4,-1,6,-1,-1],"split_conditions":[1.27736E3,-1.3603109E-2,1E0,-1.3424639E-2,2.93378E3,6.199153E-3,1.3339336E-2],"split_indices":[0,0,11,0,0,0,0],"split_type":[0,0,0,0,0,0,0],"sum_hessian":[2.563293E3,1.0842463E3,1.4790468E3,9.85565E1,1.3804902E3,2.6567838E2,1.1148118E3],"tree_param":{"num_deleted":"0","num_feature":"17","num_nodes":"7","size_leaf_vector":"1"}},{"base_weights":[-1.2725733E-2,-1.1896425E0,1.2865732E0,-1.3737225E-2,1.3692772E-2,-1.2061821E-2,1.3133417E0,8.576457E-3,1.3317041E-2],"categories":[],"categories_nodes":[],"categories_segments":[],"categories_sizes":[],"default_left":[0,0,0,0,0,0,0,0,0],"id":68,"left_children":[1,3,5,-1,-1,-1,7,-1,-1],"loss_changes":[3.8121624E3,6.200316E2,8.2273926E1,0E0,0E0,0E0,6.4384766E0,0E0,0E0],"parents":[2147483647,0,0,1,1,2,2,6,6],"right_children":[2,4,6,-1,-1,-1,8,-1,-1],"split_conditions":[2.77936E3,1E0,1E0,-1.3737225E-2,1.3692772E-2,-1.2061821E-2,2.93378E3,8.576457E-3,1.3317041E-2],"split_indices":[0,15,11,0,0,0,0,0,0],"split_type":[0,0,0,0,0,0,0,0,0],"sum_hessian":[2.4889968E3,1.3062958E3,1.182701E3,1.219678E3,8.661777E1,1.1430862E1,1.1712701E3,5.0119053E1,1.1211511E3],"tree_param":{"num_deleted":"0","num_feature":"17","num_nodes":"9","size_leaf_vector":"1"}},{"base_weights":[5.765365E-2,-1.080112E0,1.2985885E0,-1.3350538E0,1.2643751E0,5.343416E-1,1.3216807E-2,-1.3691683E-2,-6.9144773E-3,6.3269087E-3,1.3491542E-2,9.957039E-4,1.1150213E-2],"categories":[],"categories_nodes":[],"categories_segments":[],"categories_sizes":[],"default_left":[0,0,0,0,0,0,0,0,0,0,0,0,0],"id":69,"left_children":[1,3,5,7,9,11,-1,-1,-1,-1,-1,-1,-1],"loss_changes":[3.6846128E3,8.1703955E2,1.9691162E1,2.4058594E1,4.4963074E0,9.422362E0,0E0,0E0,0E0,0E0,0E0,0E0,0E0],"parents":[2147483647,0,0,1,1,2,2,3,3,4,4,5,5],"right_children":[2,4,6,8,10,12,-1,-1,-1,-1,-1,-1,-1],"split_conditions":[2.83236E3,4.365162E3,2.93378E3,2.3E1,9.8982316E-1,1.0393225E3,1.3216807E-2,-1.3691683E-2,-6.9144773E-3,6.3269087E-3,1.3491542E-2,9.957039E-4,1.1150213E-2],"split_indices":[0,8,0,3,7,6,0,0,0,0,0,0,0],"split_type":[0,0,0,0,0,0,0,0,0,0,0,0,0],"sum_hessian":[2.6056328E3,1.3592473E3,1.2463855E3,1.2269066E3,1.3234064E2,3.860679E1,1.2077787E3,1.1622687E3,6.463797E1,1.8360538E1,1.139801E2,2.3909262E1,1.4697527E1],"tree_param":{"num_deleted":"0","num_feature":"17","num_nodes":"13","size_leaf_vector":"1"}},{"base_weights":[8.745927E-3,-1.1541778E0,1.0846877E0,-1.24625E0,9.9507755E-1,1.1500198E0,-1.26102315E-2,-4.992875E-3,-1.3122402E-2,1.2445826E-2,5.195756E-3,1.0566262E-2,1.3087268E-2],"categories":[],"categories_nodes":[],"categories_segments":[],"categories_sizes":[],"default_left":[0,0,0,0,0,0,0,0,0,0,0,0,0],"id":70,"left_children":[1,3,5,7,9,11,-1,-1,-1,-1,-1,-1,-1],"loss_changes":[3.129693E3,2.404353E2,2.0198694E2,5.464673E1,3.7874718E0,1.4809204E1,0E0,0E0,0E0,0E0,0E0,0E0,0E0],"parents":[2147483647,0,0,1,1,2,2,3,3,4,4,5,5],"right_children":[2,4,6,8,10,12,-1,-1,-1,-1,-1,-1,-1],"split_conditions":[3.8191507E0,4.365162E3,1E0,3.2696667E1,4.4197333E2,9.1690445E0,-1.26102315E-2,-4.992875E-3,-1.3122402E-2,1.2445826E-2,5.195756E-3,1.0566262E-2,1.3087268E-2],"split_indices":[7,8,10,6,6,8,0,0,0,0,0,0,0],"split_type":[0,0,0,0,0,0,0,0,0,0,0,0,0],"sum_hessian":[2.4973035E3,1.1998473E3,1.2974563E3,1.1515873E3,4.8260025E1,1.2634983E3,3.3957973E1,9.548417E1,1.0561031E3,2.8840513E1,1.9419512E1,8.070458E2,4.564525E2],"tree_param":{"num_deleted":"0","num_feature":"17","num_nodes":"13","size_leaf_vector":"1"}},{"base_weights":[-5.4259397E-2,-1.2675791E0,9.4934815E-1,-4.9864945E-1,-1.3395621E-2,-1.3277428E-2,1.1608196E0,6.0825013E-3,-1.3369926E-2,1.3503091E-3,1.1791821E-2],"categories":[],"categories_nodes":[],"categories_segments":[],"categories_sizes":[],"default_left":[0,0,0,0,0,0,0,0,0,0,0],"id":71,"left_children":[1,3,5,7,-1,-1,9,-1,-1,-1,-1],"loss_changes":[2.8809507E3,5.7034546E1,6.2640894E2,9.058751E1,0E0,0E0,2.1361572E1,0E0,0E0,0E0,0E0],"parents":[2147483647,0,0,1,1,2,2,3,3,6,6],"right_children":[2,4,6,8,-1,-1,10,-1,-1,-1,-1],"split_conditions":[2.5939682E0,3.2696667E1,1E0,-5.458009E1,-1.3395621E-2,-1.3277428E-2,9.577E1,6.0825013E-3,-1.3369926E-2,1.3503091E-3,1.1791821E-2],"split_indices":[7,6,11,1,0,0,6,0,0,0,0],"split_type":[0,0,0,0,0,0,0,0,0,0,0],"sum_hessian":[2.3617944E3,1.0691766E3,1.2926178E3,9.347451E1,9.757021E2,1.087452E2,1.1838726E3,4.026433E1,5.321018E1,2.1592218E1,1.1622804E3],"tree_param":{"num_deleted":"0","num_feature":"17","num_nodes":"11","size_leaf_vector":"1"}},{"base_weights":[-5.4636665E-2,-1.2358063E0,9.7705555E-1,-1.3404361E-2,1.3117595E-2,-1.3212133E-2,1.1718667E0,8.001006E-3,1.2165913E-2],"categories":[],"categories_nodes":[],"categories_segments":[],"categories_sizes":[],"default_left":[0,0,0,0,0,0,0,0,0],"id":72,"left_children":[1,3,5,-1,-1,-1,7,-1,-1],"loss_changes":[2.8872805E3,2.980116E2,5.6916003E2,0E0,0E0,0E0,1.6447266E1,0E0,0E0],"parents":[2147483647,0,0,1,1,2,2,6,6],"right_children":[2,4,6,-1,-1,-1,8,-1,-1],"split_conditions":[2.929461E0,1E0,1E0,-1.3404361E-2,1.3117595E-2,-1.3212133E-2,4.8537025E0,8.001006E-3,1.2165913E-2],"split_indices":[7,15,11,0,0,0,7,0,0],"split_type":[0,0,0,0,0,0,0,0,0],"sum_hessian":[2.3652478E3,1.1027798E3,1.2624679E3,1.0603737E3,4.2406155E1,9.7546E1,1.1649219E3,1.3035199E2,1.03457E3],"tree_param":{"num_deleted":"0","num_feature":"17","num_nodes":"9","size_leaf_vector":"1"}},{"base_weights":[4.6643585E-2,-1.3328097E-2,1.0183933E0,1.0189176E-1,1.3048193E-2,-1.5095627E-2,1.3654696E-2],"categories":[],"categories_nodes":[],"categories_segments":[],"categories_sizes":[],"default_left":[0,0,0,0,0,0,0],"id":73,"left_children":[1,-1,3,5,-1,-1,-1],"loss_changes":[3.3553938E3,0E0,3.8460815E2,7.214438E2,0E0,0E0,0E0],"parents":[2147483647,0,0,2,2,3,3],"right_children":[2,-1,4,6,-1,-1,-1],"split_conditions":[1.27736E3,-1.3328097E-2,2.93378E3,1E0,1.3048193E-2,-1.5095627E-2,1.3654696E-2],"split_indices":[0,0,0,15,0,0,0],"split_type":[0,0,0,0,0,0,0],"sum_hessian":[2.4992144E3,1.0324028E3,1.4668114E3,3.5032E2,1.1164915E3,1.5362076E2,1.9669926E2],"tree_param":{"num_deleted":"0","num_feature":"17","num_nodes":"7","size_leaf_vector":"1"}},{"base_weights":[4.7352836E-2,-1.0737677E0,1.0584316E0,-1.3199361E-2,-6.91064E-1,-1.3063039E-2,1.1941969E0,4.8530073E-5,-1.20314E-2,3.7705498E-3,1.2052767E-2],"categories":[],"categories_nodes":[],"categories_segments":[],"categories_sizes":[],"default_left":[0,0,0,0,0,0,0,0,0,0,0],"id":74,"left_children":[1,3,5,-1,7,-1,9,-1,-1,-1,-1],"loss_changes":[2.859078E3,1.0983081E2,4.2890454E2,0E0,1.692067E2,0E0,9.668091E0,0E0,0E0,0E0,0E0],"parents":[2147483647,0,0,1,1,2,2,4,4,6,6],"right_children":[2,4,6,-1,8,-1,10,-1,-1,-1,-1],"split_conditions":[3.8191507E0,1E0,1E0,-1.3199361E-2,-7.3141815E1,-1.3063039E-2,7.406E1,4.8530073E-5,-1.20314E-2,3.7705498E-3,1.2052767E-2],"split_indices":[7,11,11,0,2,0,6,0,0,0,0],"split_type":[0,0,0,0,0,0,0,0,0,0,0],"sum_hessian":[2.518255E3,1.1938512E3,1.3244037E3,7.2274896E2,4.7110217E2,7.0772606E1,1.253631E3,2.001291E2,2.7097305E2,1.8311897E1,1.2353191E3],"tree_param":{"num_deleted":"0","num_feature":"17","num_nodes":"11","size_leaf_vector":"1"}},{"base_weights":[3.4496963E-2,-1.0600622E0,1.262712E0,-1.3437427E-2,1.2492944E0,5.507401E-1,1.29726445E-2,6.0866773E-3,1.3288334E-2,-1.51616465E-2,1.3037365E-2],"categories":[],"categories_nodes":[],"categories_segments":[],"categories_sizes":[],"default_left":[0,0,0,0,0,0,0,0,0,0,0],"id":75,"left_children":[1,3,5,-1,7,9,-1,-1,-1,-1,-1],"loss_changes":[3.3406443E3,8.6406445E2,2.6457275E1,0E0,4.7801056E0,9.4662125E1,0E0,0E0,0E0,0E0,0E0],"parents":[2147483647,0,0,1,1,2,2,4,4,5,5],"right_children":[2,4,6,-1,8,10,-1,-1,-1,-1,-1],"split_conditions":[2.77936E3,4.365162E3,2.93378E3,-1.3437427E-2,1.5422164E0,1.2175956E1,1.29726445E-2,6.0866773E-3,1.3288334E-2,-1.51616465E-2,1.3037365E-2],"split_indices":[0,8,0,0,7,8,0,0,0,0,0],"split_type":[0,0,0,0,0,0,0,0,0,0,0],"sum_hessian":[2.4808772E3,1.3117448E3,1.1691323E3,1.1691764E3,1.4256844E2,5.6350437E1,1.1127819E3,1.8351568E1,1.2421686E2,1.4328638E1,4.20218E1],"tree_param":{"num_deleted":"0","num_feature":"17","num_nodes":"11","size_leaf_vector":"1"}},{"base_weights":[3.844504E-2,-1.0519583E0,1.2529664E0,-1.34025775E-2,1.347109E-2,-1.1682476E-2,1.2780644E0,7.89879E-3,1.2978564E-2],"categories":[],"categories_nodes":[],"categories_segments":[],"categories_sizes":[],"default_left":[0,0,0,0,0,0,0,0,0],"id":76,"left_children":[1,3,5,-1,-1,-1,7,-1,-1],"loss_changes":[3.2680122E3,9.028009E2,7.39906E1,0E0,0E0,0E0,8.082397E0,0E0,0E0],"parents":[2147483647,0,0,1,1,2,2,6,6],"right_children":[2,4,6,-1,-1,-1,8,-1,-1],"split_conditions":[2.77936E3,1E0,1E0,-1.34025775E-2,1.347109E-2,-1.1682476E-2,2.93378E3,7.89879E-3,1.2978564E-2],"split_indices":[0,15,11,0,0,0,0,0,0],"split_type":[0,0,0,0,0,0,0,0,0],"sum_hessian":[2.4636277E3,1.2980701E3,1.1655577E3,1.1597877E3,1.3828232E2,1.0819039E1,1.1547386E3,4.916361E1,1.1055751E3],"tree_param":{"num_deleted":"0","num_feature":"17","num_nodes":"9","size_leaf_vector":"1"}},{"base_weights":[-5.3114317E-2,-1.1314347E0,1.2439818E0,-1.3347205E-2,1.3203274E-2,-1.143032E-2,1.2704592E0,7.843275E-3,1.2925436E-2],"categories":[],"categories_nodes":[],"categories_segments":[],"categories_sizes":[],"default_left":[0,0,0,0,0,0,0,0,0],"id":77,"left_children":[1,3,5,-1,-1,-1,7,-1,-1],"loss_changes":[3.2184119E3,6.2985986E2,6.897583E1,0E0,0E0,0E0,8.035889E0,0E0,0E0],"parents":[2147483647,0,0,1,1,2,2,6,6],"right_children":[2,4,6,-1,-1,-1,8,-1,-1],"split_conditions":[2.77936E3,1E0,1E0,-1.3347205E-2,1.3203274E-2,-1.143032E-2,2.93378E3,7.843275E-3,1.2925436E-2],"split_indices":[0,15,11,0,0,0,0,0,0],"split_type":[0,0,0,0,0,0,0,0,0],"sum_hessian":[2.2970542E3,1.2546564E3,1.0423978E3,1.1596224E3,9.503397E1,1.0303254E1,1.0320946E3,4.900679E1,9.830878E2],"tree_param":{"num_deleted":"0","num_feature":"17","num_nodes":"9","size_leaf_vector":"1"}},{"base_weights":[7.278406E-3,-1.1395731E0,1.0151675E0,-1.241623E0,1.3219712E-2,-1.2891369E-2,1.172503E0,-4.6679727E-3,-1.3129141E-2,8.074273E-3,1.2019121E-2],"categories":[],"categories_nodes":[],"categories_segments":[],"categories_sizes":[],"default_left":[0,0,0,0,0,0,0,0,0,0,0],"id":78,"left_children":[1,3,5,7,-1,-1,9,-1,-1,-1,-1],"loss_changes":[2.725177E3,2.8021338E2,4.5799585E2,5.6432495E1,0E0,0E0,9.682007E0,0E0,0E0,0E0,0E0],"parents":[2147483647,0,0,1,1,2,2,3,3,6,6],"right_children":[2,4,6,8,-1,-1,10,-1,-1,-1,-1],"split_conditions":[3.3730159E0,1E0,1E0,3.2696667E1,1.3219712E-2,-1.2891369E-2,4.8537025E0,-4.6679727E-3,-1.3129141E-2,8.074273E-3,1.2019121E-2],"split_indices":[7,15,11,6,0,0,7,0,0,0,0],"split_type":[0,0,0,0,0,0,0,0,0,0,0],"sum_hessian":[2.3536772E3,1.1005883E3,1.253089E3,1.0579235E3,4.2664787E1,7.896841E1,1.1741206E3,9.1000015E1,9.669235E2,9.304188E1,1.0810787E3],"tree_param":{"num_deleted":"0","num_feature":"17","num_nodes":"11","size_leaf_vector":"1"}},{"base_weights":[-2.4417283E-3,-1.1014675E0,9.607254E-1,-1.2350136E0,1.32539105E-2,-1.28813535E-2,1.1404318E0,-4.9781874E-3,-1.3069541E-2,6.4713936E-3,1.1698916E-2],"categories":[],"categories_nodes":[],"categories_segments":[],"categories_sizes":[],"default_left":[0,0,0,0,0,0,0,0,0,0,0],"id":79,"left_children":[1,3,5,7,-1,-1,9,-1,-1,-1,-1],"loss_changes":[2.4868694E3,3.5892078E2,5.0875E2,5.303003E1,0E0,0E0,1.4440674E1,0E0,0E0,0E0,0E0],"parents":[2147483647,0,0,1,1,2,2,3,3,6,6],"right_children":[2,4,6,8,-1,-1,10,-1,-1,-1,-1],"split_conditions":[2.929461E0,1E0,1E0,3.2696667E1,1.32539105E-2,-1.28813535E-2,3.9812498E0,-4.9781874E-3,-1.3069541E-2,6.4713936E-3,1.1698916E-2],"split_indices":[7,15,11,6,0,0,7,0,0,0,0],"split_type":[0,0,0,0,0,0,0,0,0,0,0],"sum_hessian":[2.345261E3,1.0954852E3,1.2497758E3,1.0394729E3,5.6012283E1,9.136075E1,1.158415E3,9.444628E1,9.450267E2,6.882778E1,1.0895873E3],"tree_param":{"num_deleted":"0","num_feature":"17","num_nodes":"11","size_leaf_vector":"1"}},{"base_weights":[-1.750532E-2,-1.0634925E0,1.2514132E0,-1.3247815E-2,1.3295758E-2,5.304575E-1,1.2763412E-2,9.177004E-4,1.1090151E-2],"categories":[],"categories_nodes":[],"categories_segments":[],"categories_sizes":[],"default_left":[0,0,0,0,0,0,0,0,0],"id":80,"left_children":[1,3,5,-1,-1,7,-1,-1,-1],"loss_changes":[3.0316409E3,7.865471E2,1.628772E1,0E0,0E0,8.987806E0,0E0,0E0,0E0],"parents":[2147483647,0,0,1,1,2,2,5,5],"right_children":[2,4,6,-1,-1,8,-1,-1,-1],"split_conditions":[2.83236E3,1E0,2.93378E3,-1.3247815E-2,1.3295758E-2,8.836211E2,1.2763412E-2,9.177004E-4,1.1090151E-2],"split_indices":[0,15,0,0,0,6,0,0,0],"split_type":[0,0,0,0,0,0,0,0,0],"sum_hessian":[2.2801787E3,1.2502764E3,1.0299023E3,1.1281953E3,1.2208116E2,3.657966E1,9.9332275E2,2.261411E1,1.3965547E1],"tree_param":{"num_deleted":"0","num_feature":"17","num_nodes":"9","size_leaf_vector":"1"}},{"base_weights":[-2.1519385E-2,-1.1383269E0,1.2370154E0,-1.319018E-2,1.31670255E-2,-1.1301438E-2,1.2627318E0,6.125361E-3,1.2823235E-2],"categories":[],"categories_nodes":[],"categories_segments":[],"categories_sizes":[],"default_left":[0,0,0,0,0,0,0,0,0],"id":81,"left_children":[1,3,5,-1,-1,-1,7,-1,-1],"loss_changes":[3.189825E3,5.369707E2,6.78645E1,0E0,0E0,0E0,1.0940186E1,0E0,0E0],"parents":[2147483647,0,0,1,1,2,2,6,6],"right_children":[2,4,6,-1,-1,-1,8,-1,-1],"split_conditions":[2.77936E3,1E0,1E0,-1.319018E-2,1.31670255E-2,-1.1301438E-2,2.93378E3,6.125361E-3,1.2823235E-2],"split_indices":[0,15,11,0,0,0,0,0,0],"split_type":[0,0,0,0,0,0,0,0,0],"sum_hessian":[2.2654954E3,1.200646E3,1.0648494E3,1.1193878E3,8.125824E1,1.031193E1,1.0545375E3,3.3480064E1,1.02105743E3],"tree_param":{"num_deleted":"0","num_feature":"17","num_nodes":"9","size_leaf_vector":"1"}},{"base_weights":[-1.5068173E-3,-1.2900957E-2,6.152081E-1,9.014438E-2,9.738874E-1,-1.1678543E-2,1.2742435E-2,4.40468E-3,9.9482965E-3],"categories":[],"categories_nodes":[],"categories_segments":[],"categories_sizes":[],"default_left":[0,0,0,0,0,0,0,0,0],"id":82,"left_children":[1,-1,3,5,7,-1,-1,-1,-1],"loss_changes":[1.837929E3,0E0,2.9376617E2,9.5247095E2,8.7752075E0,0E0,0E0,0E0,0E0],"parents":[2147483647,0,0,2,2,3,3,4,4],"right_children":[2,-1,4,6,8,-1,-1,-1,-1],"split_conditions":[1E0,-1.2900957E-2,1E0,1.2175956E1,7.406E1,-1.1678543E-2,1.2742435E-2,4.40468E-3,9.9482965E-3],"split_indices":[11,0,14,8,6,0,0,0,0],"split_type":[0,0,0,0,0,0,0,0,0],"sum_hessian":[2.3083342E3,7.467247E2,1.5616095E3,6.3538226E2,9.262273E2,3.0788614E2,3.2749612E2,3.7556927E1,8.8867035E2],"tree_param":{"num_deleted":"0","num_feature":"17","num_nodes":"9","size_leaf_vector":"1"}},{"base_weights":[-1.9545173E-2,-1.0365154E0,1.2570348E0,-1.2804887E0,1.2064124E0,3.727345E-3,1.2730532E-2,-1.3156746E-2,-6.2543014E-3,6.037423E-3,1.287968E-2],"categories":[],"categories_nodes":[],"categories_segments":[],"categories_sizes":[],"default_left":[0,0,0,0,0,0,0,0,0,0,0],"id":83,"left_children":[1,3,5,7,9,-1,-1,-1,-1,-1,-1],"loss_changes":[2.9448835E3,6.9415125E2,1.2473022E1,2.3661255E1,3.628769E0,0E0,0E0,0E0,0E0,0E0,0E0],"parents":[2147483647,0,0,1,1,2,2,3,3,4,4],"right_children":[2,4,6,8,10,-1,-1,-1,-1,-1,-1],"split_conditions":[2.88E3,4.365162E3,2.93378E3,2.3E1,9.8982316E-1,3.727345E-3,1.2730532E-2,-1.3156746E-2,-6.2543014E-3,6.037423E-3,1.287968E-2],"split_indices":[0,8,0,3,7,0,0,0,0,0,0],"split_type":[0,0,0,0,0,0,0,0,0,0,0],"sum_hessian":[2.2644373E3,1.2608031E3,1.00363403E3,1.1380891E3,1.2271399E2,1.9275654E1,9.843584E2,1.0774355E3,6.065359E1,1.7360678E1,1.0535331E2],"tree_param":{"num_deleted":"0","num_feature":"17","num_nodes":"11","size_leaf_vector":"1"}},{"base_weights":[8.284721E-3,-1.2890286E-2,9.60332E-1,7.544232E-2,1.2613901E-2,1.3219204E-2,-1.4686453E-2],"categories":[],"categories_nodes":[],"categories_segments":[],"categories_sizes":[],"default_left":[0,0,0,0,0,0,0],"id":84,"left_children":[1,-1,3,5,-1,-1,-1],"loss_changes":[2.8188567E3,0E0,3.4988525E2,6.519833E2,0E0,0E0,0E0],"parents":[2147483647,0,0,2,2,3,3],"right_children":[2,-1,4,6,-1,-1,-1],"split_conditions":[1.27736E3,-1.2890286E-2,2.93378E3,1E0,1.2613901E-2,1.3219204E-2,-1.4686453E-2],"split_indices":[0,0,0,14,0,0,0],"split_type":[0,0,0,0,0,0,0],"sum_hessian":[2.2784119E3,9.638214E2,1.3145906E3,3.3477115E2,9.798194E2,1.855754E2,1.4919576E2],"tree_param":{"num_deleted":"0","num_feature":"17","num_nodes":"7","size_leaf_vector":"1"}},{"base_weights":[-2.7038125E-2,-1.05391E0,1.2145144E0,-1.3057243E-2,1.2938875E-2,-1.15273595E-2,1.2436428E0,8.3306935E-3,1.2734921E-2],"categories":[],"categories_nodes":[],"categories_segments":[],"categories_sizes":[],"default_left":[0,0,0,0,0,0,0,0,0],"id":85,"left_children":[1,3,5,-1,-1,-1,7,-1,-1],"loss_changes":[2.8266638E3,7.209409E2,7.2107056E1,0E0,0E0,0E0,8.987671E0,0E0,0E0],"parents":[2147483647,0,0,1,1,2,2,6,6],"right_children":[2,4,6,-1,-1,-1,8,-1,-1],"split_conditions":[2.77936E3,1E0,1E0,-1.3057243E-2,1.2938875E-2,-1.15273595E-2,3.2747E3,8.3306935E-3,1.2734921E-2],"split_indices":[0,15,11,0,0,0,0,0,0],"split_type":[0,0,0,0,0,0,0,0,0],"sum_hessian":[2.2131934E3,1.2117094E3,1.00148395E3,1.0953297E3,1.1637955E2,1.102681E1,9.9045715E2,7.218121E1,9.1827594E2],"tree_param":{"num_deleted":"0","num_feature":"17","num_nodes":"9","size_leaf_vector":"1"}},{"base_weights":[2.1492707E-2,-1.0485609E0,1.2298511E0,-1.30302785E-2,1.3026352E-2,4.241563E-1,1.2572316E-2,-1.5139427E-2,1.2323077E-2],"categories":[],"categories_nodes":[],"categories_segments":[],"categories_sizes":[],"default_left":[0,0,0,0,0,0,0,0,0],"id":86,"left_children":[1,3,5,-1,-1,7,-1,-1,-1],"loss_changes":[2.9593367E3,7.294889E2,2.1809326E1,0E0,0E0,6.460101E1,0E0,0E0,0E0],"parents":[2147483647,0,0,1,1,2,2,5,5],"right_children":[2,4,6,-1,-1,8,-1,-1,-1],"split_conditions":[2.83236E3,1E0,2.93378E3,-1.30302785E-2,1.3026352E-2,1.1085167E1,1.2572316E-2,-1.5139427E-2,1.2323077E-2],"split_indices":[0,15,0,0,0,8,0,0,0],"split_type":[0,0,0,0,0,0,0,0,0],"sum_hessian":[2.2846577E3,1.2115917E3,1.073066E3,1.094265E3,1.1732666E2,3.695258E1,1.0361134E3,1.0178131E1,2.6774448E1],"tree_param":{"num_deleted":"0","num_feature":"17","num_nodes":"9","size_leaf_vector":"1"}},{"base_weights":[-7.738496E-2,-1.1188747E0,1.2041452E0,-1.2965401E-2,1.2924448E-2,-1.1502999E-2,1.2360178E0,5.7812897E-3,1.2580633E-2],"categories":[],"categories_nodes":[],"categories_segments":[],"categories_sizes":[],"default_left":[0,0,0,0,0,0,0,0,0],"id":87,"left_children":[1,3,5,-1,-1,-1,7,-1,-1],"loss_changes":[2.8048167E3,5.000746E2,7.357727E1,0E0,0E0,0E0,1.112439E1,0E0,0E0],"parents":[2147483647,0,0,1,1,2,2,6,6],"right_children":[2,4,6,-1,-1,-1,8,-1,-1],"split_conditions":[2.77936E3,1E0,1E0,-1.2965401E-2,1.2924448E-2,-1.1502999E-2,2.93378E3,5.7812897E-3,1.2580633E-2],"split_indices":[0,15,11,0,0,0,0,0,0],"split_type":[0,0,0,0,0,0,0,0,0],"sum_hessian":[2.0974707E3,1.1574578E3,9.4001306E2,1.0790831E3,7.8374596E1,1.1408302E1,9.2860474E2,3.2608944E1,8.959958E2],"tree_param":{"num_deleted":"0","num_feature":"17","num_nodes":"9","size_leaf_vector":"1"}},{"base_weights":[-1.592273E-2,-1.0184839E0,1.2098037E0,-1.2934634E-2,1.28492E-2,4.8814726E-1,1.2501301E-2,-1.4839043E-2,1.2558313E-2],"categories":[],"categories_nodes":[],"categories_segments":[],"categories_sizes":[],"default_left":[0,0,0,0,0,0,0,0,0],"id":88,"left_children":[1,3,5,-1,-1,7,-1,-1,-1],"loss_changes":[2.6828333E3,7.641317E2,2.6490845E1,0E0,0E0,8.82596E1,0E0,0E0,0E0],"parents":[2147483647,0,0,1,1,2,2,5,5],"right_children":[2,4,6,-1,-1,8,-1,-1,-1],"split_conditions":[2.77936E3,1E0,2.93378E3,-1.2934634E-2,1.28492E-2,1.1085167E1,1.2501301E-2,-1.4839043E-2,1.2558313E-2],"split_indices":[0,15,0,0,0,8,0,0,0],"split_type":[0,0,0,0,0,0,0,0,0],"sum_hessian":[2.1792507E3,1.1991628E3,9.800878E2,1.0722517E3,1.2691109E2,5.391245E1,9.261754E2,1.4401129E1,3.951132E1],"tree_param":{"num_deleted":"0","num_feature":"17","num_nodes":"9","size_leaf_vector":"1"}},{"base_weights":[1.1333387E-2,-1.0128806E0,1.2024145E0,-1.2903858E-2,1.29254E-2,-1.1252549E-2,1.2283267E0,7.37017E-3,1.2496356E-2],"categories":[],"categories_nodes":[],"categories_segments":[],"categories_sizes":[],"default_left":[0,0,0,0,0,0,0,0,0],"id":89,"left_children":[1,3,5,-1,-1,-1,7,-1,-1],"loss_changes":[2.7264302E3,7.719359E2,6.514966E1,0E0,0E0,0E0,7.8774414E0,0E0,0E0],"parents":[2147483647,0,0,1,1,2,2,6,6],"right_children":[2,4,6,-1,-1,-1,8,-1,-1],"split_conditions":[2.77936E3,1E0,1E0,-1.2903858E-2,1.29254E-2,-1.1252549E-2,2.93378E3,7.37017E-3,1.2496356E-2],"split_indices":[0,15,11,0,0,0,0,0,0],"split_type":[0,0,0,0,0,0,0,0,0],"sum_hessian":[2.2308477E3,1.1993783E3,1.0314692E3,1.0714987E3,1.27879654E2,1.0209531E1,1.02125977E3,4.6386433E1,9.748733E2],"tree_param":{"num_deleted":"0","num_feature":"17","num_nodes":"9","size_leaf_vector":"1"}},{"base_weights":[-2.9773748E-2,-1.1568962E0,8.932461E-1,-1.2295531E0,1.2502535E-2,-1.2499334E-2,1.0880357E0,-3.4473063E-3,-1.2675741E-2,7.3618E-3,1.1436119E-2],"categories":[],"categories_nodes":[],"categories_segments":[],"categories_sizes":[],"default_left":[0,0,0,0,0,0,0,0,0,0,0],"id":90,"left_children":[1,3,5,7,-1,-1,9,-1,-1,-1,-1],"loss_changes":[2.2388152E3,1.7254333E2,4.9643292E2,3.0005615E1,0E0,0E0,1.8604248E1,0E0,0E0,0E0,0E0],"parents":[2147483647,0,0,1,1,2,2,3,3,6,6],"right_children":[2,4,6,8,-1,-1,10,-1,-1,-1,-1],"split_conditions":[2.5939682E0,1E0,1E0,-1.6444745E2,1.2502535E-2,-1.2499334E-2,4.8537025E0,-3.4473063E-3,-1.2675741E-2,7.3618E-3,1.1436119E-2],"split_indices":[7,15,11,2,0,0,7,0,0,0,0],"split_type":[0,0,0,0,0,0,0,0,0,0,0],"sum_hessian":[2.1478562E3,9.6702856E2,1.1808276E3,9.3984656E2,2.718198E1,9.726503E1,1.0835626E3,4.009288E1,8.9975366E2,1.529183E2,9.306443E2],"tree_param":{"num_deleted":"0","num_feature":"17","num_nodes":"11","size_leaf_vector":"1"}},{"base_weights":[-1.5272716E-2,-1.028576E0,1.1956196E0,-1.2835405E-2,1.2857167E-2,4.2035964E-1,1.2397566E-2,-1.564203E-2,1.2452887E-2],"categories":[],"categories_nodes":[],"categories_segments":[],"categories_sizes":[],"default_left":[0,0,0,0,0,0,0,0,0],"id":91,"left_children":[1,3,5,-1,-1,7,-1,-1,-1],"loss_changes":[2.622838E3,6.9012866E2,3.1444336E1,0E0,0E0,9.555143E1,0E0,0E0,0E0],"parents":[2147483647,0,0,1,1,2,2,5,5],"right_children":[2,4,6,-1,-1,8,-1,-1,-1],"split_conditions":[2.77936E3,1E0,2.93378E3,-1.2835405E-2,1.2857167E-2,1.2175956E1,1.2397566E-2,-1.564203E-2,1.2452887E-2],"split_indices":[0,15,0,0,0,8,0,0,0],"split_type":[0,0,0,0,0,0,0,0,0],"sum_hessian":[2.1336636E3,1.1619938E3,9.716698E2,1.0476783E3,1.1431542E2,5.4083202E1,9.175866E2,1.5175791E1,3.8907413E1],"tree_param":{"num_deleted":"0","num_feature":"17","num_nodes":"9","size_leaf_vector":"1"}},{"base_weights":[9.961707E-3,-1.1693074E0,1.0071566E0,-1.2648885E-2,9.588584E-3,-1.2364181E-2,1.1338953E0,5.77858E-3,1.2414959E-2],"categories":[],"categories_nodes":[],"categories_segments":[],"categories_sizes":[],"default_left":[0,0,0,0,0,0,0,0,0],"id":92,"left_children":[1,3,5,-1,-1,-1,7,-1,-1],"loss_changes":[2.534916E3,2.0343884E2,3.3493542E2,0E0,0E0,0E0,6.3888428E1,0E0,0E0],"parents":[2147483647,0,0,1,1,2,2,6,6],"right_children":[2,4,6,-1,-1,-1,8,-1,-1],"split_conditions":[1.83151E3,4.365162E3,1E0,-1.2648885E-2,9.588584E-3,-1.2364181E-2,2.93378E3,5.77858E-3,1.2414959E-2],"split_indices":[0,8,11,0,0,0,0,0,0],"split_type":[0,0,0,0,0,0,0,0,0],"sum_hessian":[2.151678E3,9.854508E2,1.1662273E3,9.4409534E2,4.135543E1,6.1209957E1,1.1050173E3,1.8198407E2,9.2303326E2],"tree_param":{"num_deleted":"0","num_feature":"17","num_nodes":"9","size_leaf_vector":"1"}},{"base_weights":[-3.1088788E-2,-1.0471553E0,1.1869277E0,-1.2779522E-2,1.2773162E-2,-1.11277485E-2,1.2165061E0,7.1709286E-3,1.2401092E-2],"categories":[],"categories_nodes":[],"categories_segments":[],"categories_sizes":[],"default_left":[0,0,0,0,0,0,0,0,0],"id":93,"left_children":[1,3,5,-1,-1,-1,7,-1,-1],"loss_changes":[2.5601682E3,6.0844836E2,6.674487E1,0E0,0E0,0E0,8.204224E0,0E0,0E0],"parents":[2147483647,0,0,1,1,2,2,6,6],"right_children":[2,4,6,-1,-1,-1,8,-1,-1],"split_conditions":[2.77936E3,1E0,1E0,-1.2779522E-2,1.2773162E-2,-1.11277485E-2,2.93378E3,7.1709286E-3,1.2401092E-2],"split_indices":[0,15,11,0,0,0,0,0,0],"split_type":[0,0,0,0,0,0,0,0,0],"sum_hessian":[2.0647275E3,1.126061E3,9.3866644E2,1.0253677E3,1.006933E2,1.0774968E1,9.278915E2,4.5662914E1,8.822285E2],"tree_param":{"num_deleted":"0","num_feature":"17","num_nodes":"9","size_leaf_vector":"1"}},{"base_weights":[3.340838E-2,-1.0208584E0,1.1885262E0,-1.2738169E-2,1.2742278E-2,-1.1066707E-2,1.213954E0,4.6461844E-3,1.2370961E-2],"categories":[],"categories_nodes":[],"categories_segments":[],"categories_sizes":[],"default_left":[0,0,0,0,0,0,0,0,0],"id":94,"left_children":[1,3,5,-1,-1,-1,7,-1,-1],"loss_changes":[2.658177E3,6.6565076E2,6.353784E1,0E0,0E0,0E0,1.5886719E1,0E0,0E0],"parents":[2147483647,0,0,1,1,2,2,6,6],"right_children":[2,4,6,-1,-1,-1,8,-1,-1],"split_conditions":[2.77936E3,1E0,1E0,-1.2738169E-2,1.2742278E-2,-1.1066707E-2,2.93378E3,4.6461844E-3,1.2370961E-2],"split_indices":[0,15,11,0,0,0,0,0,0],"split_type":[0,0,0,0,0,0,0,0,0],"sum_hessian":[2.1787039E3,1.1389724E3,1.0397314E3,1.0268982E3,1.1207426E2,1.0245335E1,1.0294861E3,3.275176E1,9.967344E2],"tree_param":{"num_deleted":"0","num_feature":"17","num_nodes":"9","size_leaf_vector":"1"}},{"base_weights":[-2.9348726E-3,-1.0743796E0,1.1900067E0,-1.2712793E-2,1.0979747E0,4.8665267E-1,1.2271295E-2,4.516929E-3,1.228488E-2,-1.5009072E-2,1.2350813E-2],"categories":[],"categories_nodes":[],"categories_segments":[],"categories_sizes":[],"default_left":[0,0,0,0,0,0,0,0,0,0,0],"id":95,"left_children":[1,3,5,-1,7,9,-1,-1,-1,-1,-1],"loss_changes":[2.6801797E3,4.7550085E2,2.3850098E1,0E0,5.8683167E0,8.3488434E1,0E0,0E0,0E0,0E0,0E0],"parents":[2147483647,0,0,1,1,2,2,4,4,5,5],"right_children":[2,4,6,-1,8,10,-1,-1,-1,-1,-1],"split_conditions":[2.77936E3,4.365162E3,2.93378E3,-1.2712793E-2,1.5422164E0,1.1085167E1,1.2271295E-2,4.516929E-3,1.228488E-2,-1.5009072E-2,1.2350813E-2],"split_indices":[0,8,0,0,7,8,0,0,0,0,0],"split_type":[0,0,0,0,0,0,0,0,0,0,0],"sum_hessian":[2.0929314E3,1.1029398E3,9.8999146E2,1.01225037E3,9.068949E1,5.172192E1,9.3826953E2,1.7379875E1,7.3309616E1,1.3415703E1,3.8306217E1],"tree_param":{"num_deleted":"0","num_feature":"17","num_nodes":"11","size_leaf_vector":"1"}},{"base_weights":[9.182908E-3,-9.959335E-1,1.2105216E0,-1.2724953E-2,1.2712826E-2,4.3684663E-3,1.2234155E-2],"categories":[],"categories_nodes":[],"categories_segments":[],"categories_sizes":[],"default_left":[0,0,0,0,0,0,0],"id":96,"left_children":[1,3,5,-1,-1,-1,-1],"loss_changes":[2.5391853E3,7.209767E2,7.6586914E0,0E0,0E0,0E0,0E0],"parents":[2147483647,0,0,1,1,2,2],"right_children":[2,4,6,-1,-1,-1,-1],"split_conditions":[2.88E3,1E0,2.93378E3,-1.2724953E-2,1.2712826E-2,4.3684663E-3,1.2234155E-2],"split_indices":[0,15,0,0,0,0,0],"split_type":[0,0,0,0,0,0,0],"sum_hessian":[2.0987852E3,1.1426757E3,9.561094E2,1.0194216E3,1.2325409E2,1.745229E1,9.386571E2],"tree_param":{"num_deleted":"0","num_feature":"17","num_nodes":"7","size_leaf_vector":"1"}},{"base_weights":[-4.740632E-2,-9.880368E-1,1.1687847E0,-1.2638177E-2,1.2661982E-2,1.751796E-1,1.2145251E-2,-1.4859273E-2,1.1851278E-2],"categories":[],"categories_nodes":[],"categories_segments":[],"categories_sizes":[],"default_left":[0,0,0,0,0,0,0,0,0],"id":97,"left_children":[1,3,5,-1,-1,7,-1,-1,-1],"loss_changes":[2.294688E3,7.0649646E2,3.8629883E1,0E0,0E0,7.267444E1,0E0,0E0,0E0],"parents":[2147483647,0,0,1,1,2,2,5,5],"right_children":[2,4,6,-1,-1,8,-1,-1,-1],"split_conditions":[2.77936E3,1E0,2.93378E3,-1.2638177E-2,1.2661982E-2,1.2175956E1,1.2145251E-2,-1.4859273E-2,1.1851278E-2],"split_indices":[0,15,0,0,0,8,0,0,0],"split_type":[0,0,0,0,0,0,0,0,0],"sum_hessian":[2.0019303E3,1.1292942E3,8.726361E2,1.0071776E3,1.2211656E2,3.93099E1,8.3332623E2,1.4319811E1,2.4990088E1],"tree_param":{"num_deleted":"0","num_feature":"17","num_nodes":"9","size_leaf_vector":"1"}},{"base_weights":[1.8959237E-3,-1.0282342E0,1.1748242E0,-1.2213101E0,1.1128306E0,4.1311598E-1,1.218015E-2,-7.1268394E-3,-1.25691565E-2,5.6218454E-3,1.2062E-2,-1.5101446E-2,1.22383535E-2],"categories":[],"categories_nodes":[],"categories_segments":[],"categories_sizes":[],"default_left":[0,0,0,0,0,0,0,0,0,0,0,0,0],"id":98,"left_children":[1,3,5,7,9,11,-1,-1,-1,-1,-1,-1,-1],"loss_changes":[2.4478362E3,4.485503E2,2.9349365E1,1.5158325E1,2.3884277E0,8.851512E1,0E0,0E0,0E0,0E0,0E0,0E0,0E0],"parents":[2147483647,0,0,1,1,2,2,3,3,4,4,5,5],"right_children":[2,4,6,8,10,12,-1,-1,-1,-1,-1,-1,-1],"split_conditions":[2.77936E3,4.365162E3,2.93378E3,2E0,5E0,1.2175956E1,1.218015E-2,-7.1268394E-3,-1.25691565E-2,5.6218454E-3,1.2062E-2,-1.5101446E-2,1.22383535E-2],"split_indices":[0,8,0,5,4,8,0,0,0,0,0,0,0],"split_type":[0,0,0,0,0,0,0,0,0,0,0,0,0],"sum_hessian":[2.0218431E3,1.076352E3,9.4549115E2,9.8832043E2,8.803159E1,5.248987E1,8.930013E2,6.832795E1,9.199925E2,1.5575026E1,7.2456566E1,1.4870519E1,3.7619347E1],"tree_param":{"num_deleted":"0","num_feature":"17","num_nodes":"13","size_leaf_vector":"1"}},{"base_weights":[-4.2092223E-2,-1.0627898E0,1.1677974E0,-1.2568606E-2,1.2339221E-2,4.2401215E-1,1.211418E-2,-1.4995955E-2,1.2198557E-2],"categories":[],"categories_nodes":[],"categories_segments":[],"categories_sizes":[],"default_left":[0,0,0,0,0,0,0,0,0],"id":99,"left_children":[1,3,5,-1,-1,7,-1,-1,-1],"loss_changes":[2.4426345E3,4.8140356E2,2.7514526E1,0E0,0E0,8.594598E1,0E0,0E0,0E0],"parents":[2147483647,0,0,1,1,2,2,5,5],"right_children":[2,4,6,-1,-1,8,-1,-1,-1],"split_conditions":[2.77936E3,1E0,2.93378E3,-1.2568606E-2,1.2339221E-2,1.2175956E1,1.211418E-2,-1.4995955E-2,1.2198557E-2],"split_indices":[0,15,0,0,0,8,0,0,0],"split_type":[0,0,0,0,0,0,0,0,0],"sum_hessian":[1.973984E3,1.071062E3,9.0292206E2,9.8864526E2,8.241673E1,5.1842674E1,8.510794E2,1.4470257E1,3.7372417E1],"tree_param":{"num_deleted":"0","num_feature":"17","num_nodes":"9","size_leaf_vector":"1"}},{"base_weights":[3.4455676E-2,-1.1763169E0,9.9838126E-1,-1.2393761E-2,1.1427463E-2,1.3388738E-1,1.21078845E-2,1.2647782E-2,-1.4374474E-2],"categories":[],"categories_nodes":[],"categories_segments":[],"categories_sizes":[],"default_left":[0,0,0,0,0,0,0,0,0],"id":100,"left_children":[1,3,5,-1,-1,7,-1,-1,-1],"loss_changes":[2.422944E3,1.374248E2,2.112887E2,0E0,0E0,4.1357275E2,0E0,0E0,0E0],"parents":[2147483647,0,0,1,1,2,2,5,5],"right_children":[2,4,6,-1,-1,8,-1,-1,-1],"split_conditions":[1.83151E3,1E0,2.93378E3,-1.2393761E-2,1.1427463E-2,1E0,1.21078845E-2,1.2647782E-2,-1.4374474E-2],"split_indices":[0,15,0,0,0,14,0,0,0],"split_type":[0,0,0,0,0,0,0,0,0],"sum_hessian":[2.0721113E3,9.1802924E2,1.1540822E3,8.948436E2,2.3185608E1,2.287378E2,9.2534436E2,1.3342215E2,9.5315636E1],"tree_param":{"num_deleted":"0","num_feature":"17","num_nodes":"9","size_leaf_vector":"1"}},{"base_weights":[-2.088218E-2,-1.1349461E0,1.1692114E0,-1.2503332E-2,1.0006626E0,4.293971E-1,1.2098637E-2,4.9048914E-3,1.1821404E-2,-1.4520773E-2,1.2118924E-2],"categories":[],"categories_nodes":[],"categories_segments":[],"categories_sizes":[],"default_left":[0,0,0,0,0,0,0,0,0,0,0],"id":101,"left_children":[1,3,5,-1,7,9,-1,-1,-1,-1,-1],"loss_changes":[2.605729E3,2.5281934E2,2.6714233E1,0E0,2.9049034E0,8.176206E1,0E0,0E0,0E0,0E0,0E0],"parents":[2147483647,0,0,1,1,2,2,4,4,5,5],"right_children":[2,4,6,-1,8,10,-1,-1,-1,-1,-1],"split_conditions":[2.77936E3,4.365162E3,2.93378E3,-1.2503332E-2,1.57927E3,1.2175956E1,1.2098637E-2,4.9048914E-3,1.1821404E-2,-1.4520773E-2,1.2118924E-2],"split_indices":[0,8,0,0,0,8,0,0,0,0,0],"split_type":[0,0,0,0,0,0,0,0,0,0,0],"sum_hessian":[1.9613525E3,1.0133003E3,9.480523E2,9.623667E2,5.0933617E1,5.122662E1,8.968257E2,1.603013E1,3.490349E1,1.4356557E1,3.6870064E1],"tree_param":{"num_deleted":"0","num_feature":"17","num_nodes":"11","size_leaf_vector":"1"}},{"base_weights":[-1.6365539E-3,-1.1706488E0,9.8240817E-1,-1.2292057E-2,-3.438026E-1,-1.2058561E-2,1.1022899E0,1.1388668E-2,-1.259861E-2,5.4999385E-3,1.2134846E-2],"categories":[],"categories_nodes":[],"categories_segments":[],"categories_sizes":[],"default_left":[0,0,0,0,0,0,0,0,0,0,0],"id":102,"left_children":[1,3,5,-1,7,-1,9,-1,-1,-1,-1],"loss_changes":[2.2808357E3,4.2253174E1,2.8494214E2,0E0,8.8885605E1,0E0,6.052307E1,0E0,0E0,0E0,0E0],"parents":[2147483647,0,0,1,1,2,2,4,4,6,6],"right_children":[2,4,6,-1,8,-1,10,-1,-1,-1,-1],"split_conditions":[1.83151E3,1.27736E3,1E0,-1.2292057E-2,1E0,-1.2058561E-2,2.93378E3,1.1388668E-2,-1.259861E-2,5.4999385E-3,1.2134846E-2],"split_indices":[0,0,11,0,14,0,0,0,0,0,0],"split_type":[0,0,0,0,0,0,0,0,0,0,0],"sum_hessian":[1.9786329E3,9.0438385E2,1.074249E3,8.430981E2,6.128577E1,5.4637306E1,1.0196117E3,2.3010418E1,3.8275352E1,1.7362395E2,8.459878E2],"tree_param":{"num_deleted":"0","num_feature":"17","num_nodes":"11","size_leaf_vector":"1"}},{"base_weights":[-3.3662688E-2,-1.0810242E0,8.51371E-1,-1.1893133E0,1.2343822E-2,-1.2088246E-2,1.0372778E0,-3.4241213E-3,-1.2277323E-2,7.1455147E-3,1.09786615E-2],"categories":[],"categories_nodes":[],"categories_segments":[],"categories_sizes":[],"default_left":[0,0,0,0,0,0,0,0,0,0,0],"id":103,"left_children":[1,3,5,7,-1,-1,9,-1,-1,-1,-1],"loss_changes":[1.7708995E3,2.2234546E2,3.9890363E2,2.5617065E1,0E0,0E0,1.6116333E1,0E0,0E0,0E0,0E0],"parents":[2147483647,0,0,1,1,2,2,3,3,6,6],"right_children":[2,4,6,8,-1,-1,10,-1,-1,-1,-1],"split_conditions":[2.5939682E0,1E0,1E0,-1.6444745E2,1.2343822E-2,-1.2088246E-2,4.8537025E0,-3.4241213E-3,-1.2277323E-2,7.1455147E-3,1.09786615E-2],"split_indices":[7,15,11,2,0,0,7,0,0,0,0],"split_type":[0,0,0,0,0,0,0,0,0,0,0],"sum_hessian":[1.9063485E3,8.731603E2,1.0331882E3,8.3528357E2,3.78767E1,8.438212E1,9.488061E2,3.7672783E1,7.976108E2,1.5532124E2,7.9348486E2],"tree_param":{"num_deleted":"0","num_feature":"17","num_nodes":"11","size_leaf_vector":"1"}},{"base_weights":[-8.942397E-3,-9.7399616E-1,1.185339E0,-1.24751115E-2,1.24644935E-2,3.4134986E-3,1.2012722E-2],"categories":[],"categories_nodes":[],"categories_segments":[],"categories_sizes":[],"default_left":[0,0,0,0,0,0,0],"id":104,"left_children":[1,3,5,-1,-1,-1,-1],"loss_changes":[2.2510623E3,6.5932605E2,1.0144531E1,0E0,0E0,0E0,0E0],"parents":[2147483647,0,0,1,1,2,2],"right_children":[2,4,6,-1,-1,-1,-1],"split_conditions":[2.88E3,1E0,2.93378E3,-1.24751115E-2,1.24644935E-2,3.4134986E-3,1.2012722E-2],"split_indices":[0,15,0,0,0,0,0],"split_type":[0,0,0,0,0,0,0],"sum_hessian":[1.9492103E3,1.0785015E3,8.7070886E2,9.612019E2,1.1729956E2,1.7545559E1,8.5316327E2],"tree_param":{"num_deleted":"0","num_feature":"17","num_nodes":"7","size_leaf_vector":"1"}},{"base_weights":[1.368427E-3,-1.0142751E0,1.1532489E0,-1.2400609E-2,1.2397059E-2,4.0176958E-1,1.1953674E-2,-1.48541555E-2,1.2003475E-2],"categories":[],"categories_nodes":[],"categories_segments":[],"categories_sizes":[],"default_left":[0,0,0,0,0,0,0,0,0],"id":105,"left_children":[1,3,5,-1,-1,7,-1,-1,-1],"loss_changes":[2.293442E3,5.331294E2,2.7321655E1,0E0,0E0,8.240124E1,0E0,0E0,0E0],"parents":[2147483647,0,0,1,1,2,2,5,5],"right_children":[2,4,6,-1,-1,8,-1,-1,-1],"split_conditions":[2.77936E3,1E0,2.93378E3,-1.2400609E-2,1.2397059E-2,1.2175956E1,1.1953674E-2,-1.48541555E-2,1.2003475E-2],"split_indices":[0,15,0,0,0,8,0,0,0],"split_type":[0,0,0,0,0,0,0,0,0],"sum_hessian":[1.9563154E3,1.0395348E3,9.167806E2,9.459033E2,9.3631516E1,5.0405018E1,8.6637555E2,1.4289668E1,3.611535E1],"tree_param":{"num_deleted":"0","num_feature":"17","num_nodes":"9","size_leaf_vector":"1"}},{"base_weights":[7.4201147E-3,-1.2179596E-2,9.1100633E-1,-1.1982953E-2,1.0588806E0,5.2102227E-3,1.1999258E-2],"categories":[],"categories_nodes":[],"categories_segments":[],"categories_sizes":[],"default_left":[0,0,0,0,0,0,0],"id":106,"left_children":[1,-1,3,-1,5,-1,-1],"loss_changes":[2.1342917E3,0E0,3.4861945E2,0E0,7.666113E1,0E0,0E0],"parents":[2147483647,0,0,2,2,4,4],"right_children":[2,-1,4,-1,6,-1,-1],"split_conditions":[1.27736E3,-1.2179596E-2,1E0,-1.1982953E-2,2.93378E3,5.2102227E-3,1.1999258E-2],"split_indices":[0,0,11,0,0,0,0],"split_type":[0,0,0,0,0,0,0],"sum_hessian":[1.9237191E3,8.1594415E2,1.107775E3,7.142136E1,1.0363536E3,2.1799388E2,8.1835974E2],"tree_param":{"num_deleted":"0","num_feature":"17","num_nodes":"7","size_leaf_vector":"1"}},{"base_weights":[-1.884664E-2,-1.156566E0,9.639164E-1,-1.2198243E-2,1.1227217E-2,-1.1931164E-2,1.0819772E0,5.331929E-3,1.1987271E-2],"categories":[],"categories_nodes":[],"categories_segments":[],"categories_sizes":[],"default_left":[0,0,0,0,0,0,0,0,0],"id":107,"left_children":[1,3,5,-1,-1,-1,7,-1,-1],"loss_changes":[2.0949202E3,1.2801648E2,2.5846362E2,0E0,0E0,0E0,5.898706E1,0E0,0E0],"parents":[2147483647,0,0,1,1,2,2,6,6],"right_children":[2,4,6,-1,-1,-1,8,-1,-1],"split_conditions":[1.83151E3,1E0,1E0,-1.2198243E-2,1.1227217E-2,-1.1931164E-2,2.93378E3,5.331929E-3,1.1987271E-2],"split_indices":[0,15,11,0,0,0,0,0,0],"split_type":[0,0,0,0,0,0,0,0,0],"sum_hessian":[1.8695482E3,8.665365E2,1.0030118E3,8.4425446E2,2.2282028E1,5.088417E1,9.521276E2,1.6972928E2,7.823983E2],"tree_param":{"num_deleted":"0","num_feature":"17","num_nodes":"9","size_leaf_vector":"1"}},{"base_weights":[5.5144465E-4,-9.9676466E-1,1.1900588E-2,-1.2399177E-2,1.222396E-2],"categories":[],"categories_nodes":[],"categories_segments":[],"categories_sizes":[],"default_left":[0,0,0,0,0],"id":108,"left_children":[1,3,-1,-1,-1],"loss_changes":[2.271317E3,5.6484595E2,0E0,0E0,0E0],"parents":[2147483647,0,0,1,1],"right_children":[2,4,-1,-1,-1],"split_conditions":[2.93378E3,1E0,1.1900588E-2,-1.2399177E-2,1.222396E-2],"split_indices":[0,15,0,0,0],"split_type":[0,0,0,0,0],"sum_hessian":[1.9105173E3,1.0391603E3,8.713571E2,9.3754175E2,1.0161849E2],"tree_param":{"num_deleted":"0","num_feature":"17","num_nodes":"5","size_leaf_vector":"1"}},{"base_weights":[2.3747326E-3,-1.0380384E0,1.1435498E0,-1.2304933E-2,1.2047308E-2,3.9560023E-1,1.1853521E-2,-1.4560973E-2,1.1897577E-2],"categories":[],"categories_nodes":[],"categories_segments":[],"categories_sizes":[],"default_left":[0,0,0,0,