{"learner":{"attributes":{"scikit_learn":"{\"_estimator_type\": \"classifier\"}"},"feature_names":["amount","lat","lon","hour","day_of_week","tx_count_24h","avg_spend_user","amount_ratio","dist_from_last_tx_km","travel_velocity_kmph","auth_method_PIN","auth_method_Password","category_food","category_grocery","category_tech","category_travel","category_utilities"],"feature_types":["float","float","float","int","int","float","float","float","float","float","i","i","i","i","i","i","i"],"gradient_booster":{"model":{"cats":{"enc":[],"feature_segments":[],"sorted_idx":[]},"gbtree_model_param":{"num_parallel_tree":"1","num_trees":"500"},"iteration_indptr":[0,1,2,3,4,5,6,7,8,9,10,11,12,13,14,15,16,17,18,19,20,21,22,23,24,25,26,27,28,29,30,31,32,33,34,35,36,37,38,39,40,41,42,43,44,45,46,47,48,49,50,51,52,53,54,55,56,57,58,59,60,61,62,63,64,65,66,67,68,69,70,71,72,73,74,75,76,77,78,79,80,81,82,83,84,85,86,87,88,89,90,91,92,93,94,95,96,97,98,99,100,101,102,103,104,105,106,107,108,109,110,111,112,113,114,115,116,117,118,119,120,121,122,123,124,125,126,127,128,129,130,131,132,133,134,135,136,137,138,139,140,141,142,143,144,145,146,147,148,149,150,151,152,153,154,155,156,157,158,159,160,161,162,163,164,165,166,167,168,169,170,171,172,173,174,175,176,177,178,179,180,181,182,183,184,185,186,187,188,189,190,191,192,193,194,195,196,197,198,199,200,201,202,203,204,205,206,207,208,209,210,211,212,213,214,215,216,217,218,219,220,221,222,223,224,225,226,227,228,229,230,231,232,233,234,235,236,237,238,239,240,241,242,243,244,245,246,247,248,249,250,251,252,253,254,255,256,257,258,259,260,261,262,263,264,265,266,267,268,269,270,271,272,273,274,275,276,277,278,279,280,281,282,283,284,285,286,287,288,289,290,291,292,293,294,295,296,297,298,299,300,301,302,303,304,305,306,307,308,309,310,311,312,313,314,315,316,317,318,319,320,321,322,323,324,325,326,327,328,329,330,331,332,333,334,335,336,337,338,339,340,341,342,343,344,345,346,347,348,349,350,351,352,353,354,355,356,357,358,359,360,361,362,363,364,365,366,367,368,369,370,371,372,373,374,375,376,377,378,379,380,381,382,383,384,385,386,387,388,389,390,391,392,393,394,395,396,397,398,399,400,401,402,403,404,405,406,407,408,409,410,411,412,413,414,415,416,417,418,419,420,421,422,423,424,425,426,427,428,429,430,431,432,433,434,435,436,437,438,439,440,441,442,443,444,445,446,447,448,449,450,451,452,453,454,455,456,457,458,459,460,461,462,463,464,465,466,467,468,469,470,471,472,473,474,475,476,477,478,479,480,481,482,483,484,485,486,487,488,489,490,491,492,493,494,495,496,497,498,499,500],"tree_info":[0,0,0,0,0,0,0,0,0,0,0,0,0,0,0,0,0,0,0,0,0,0,0,0,0,0,0,0,0,0,0,0,0,0,0,0,0,0,0,0,0,0,0,0,0,0,0,0,0,0,0,0,0,0,0,0,0,0,0,0,0,0,0,0,0,0,0,0,0,0,0,0,0,0,0,0,0,0,0,0,0,0,0,0,0,0,0,0,0,0,0,0,0,0,0,0,0,0,0,0,0,0,0,0,0,0,0,0,0,0,0,0,0,0,0,0,0,0,0,0,0,0,0,0,0,0,0,0,0,0,0,0,0,0,0,0,0,0,0,0,0,0,0,0,0,0,0,0,0,0,0,0,0,0,0,0,0,0,0,0,0,0,0,0,0,0,0,0,0,0,0,0,0,0,0,0,0,0,0,0,0,0,0,0,0,0,0,0,0,0,0,0,0,0,0,0,0,0,0,0,0,0,0,0,0,0,0,0,0,0,0,0,0,0,0,0,0,0,0,0,0,0,0,0,0,0,0,0,0,0,0,0,0,0,0,0,0,0,0,0,0,0,0,0,0,0,0,0,0,0,0,0,0,0,0,0,0,0,0,0,0,0,0,0,0,0,0,0,0,0,0,0,0,0,0,0,0,0,0,0,0,0,0,0,0,0,0,0,0,0,0,0,0,0,0,0,0,0,0,0,0,0,0,0,0,0,0,0,0,0,0,0,0,0,0,0,0,0,0,0,0,0,0,0,0,0,0,0,0,0,0,0,0,0,0,0,0,0,0,0,0,0,0,0,0,0,0,0,0,0,0,0,0,0,0,0,0,0,0,0,0,0,0,0,0,0,0,0,0,0,0,0,0,0,0,0,0,0,0,0,0,0,0,0,0,0,0,0,0,0,0,0,0,0,0,0,0,0,0,0,0,0,0,0,0,0,0,0,0,0,0,0,0,0,0,0,0,0,0,0,0,0,0,0,0,0,0,0,0,0,0,0,0,0,0,0,0,0,0,0,0,0,0,0,0,0,0,0,0,0,0,0,0,0,0,0,0,0,0,0,0,0,0,0,0,0,0,0,0,0,0,0,0,0,0,0,0,0,0,0,0,0,0,0,0,0,0,0,0,0,0,0,0,0,0,0,0,0,0,0],"trees":[{"base_weights":[-8.989355E-2,-2.0506155E-2,1.5139458E0,-2.016597E-2,1.7887284E0,1.0465864E-2,1.92593E-2],"categories":[],"categories_nodes":[],"categories_segments":[],"categories_sizes":[],"default_left":[0,0,0,0,0,0,0],"id":0,"left_children":[1,-1,3,-1,5,-1,-1],"loss_changes":[9.707739E3,0E0,1.6543157E3,0E0,1.5500781E2,0E0,0E0],"parents":[2147483647,0,0,2,2,4,4],"right_children":[2,-1,4,-1,6,-1,-1],"split_conditions":[1.27736E3,-2.0506155E-2,1E0,-2.016597E-2,2.83236E3,1.0465864E-2,1.92593E-2],"split_indices":[0,0,11,0,0,0,0],"split_type":[0,0,0,0,0,0,0],"sum_hessian":[3.082973E3,1.387043E3,1.6959299E3,1.2141622E2,1.5745137E3,2.4892825E2,1.3255854E3],"tree_param":{"num_deleted":"0","num_feature":"17","num_nodes":"7","size_leaf_vector":"1"}},{"base_weights":[5.3764928E-2,-2.0292498E-2,1.5316093E0,-1.9979633E-2,1.7827744E0,9.300164E-3,1.9067423E-2],"categories":[],"categories_nodes":[],"categories_segments":[],"categories_sizes":[],"default_left":[0,0,0,0,0,0,0],"id":1,"left_children":[1,-1,3,-1,5,-1,-1],"loss_changes":[1.0289528E4,0E0,1.7405254E3,0E0,1.88146E2,0E0,0E0],"parents":[2147483647,0,0,2,2,4,4],"right_children":[2,-1,4,-1,6,-1,-1],"split_conditions":[1.27736E3,-2.0292498E-2,1E0,-1.9979633E-2,2.77936E3,9.300164E-3,1.9067423E-2],"split_indices":[0,0,11,0,0,0,0],"split_type":[0,0,0,0,0,0,0],"sum_hessian":[3.3385847E3,1.3851449E3,1.9534398E3,1.287163E2,1.8247235E3,2.3426752E2,1.590456E3],"tree_param":{"num_deleted":"0","num_feature":"17","num_nodes":"7","size_leaf_vector":"1"}},{"base_weights":[-1.2349911E-2,-1.7212989E0,1.8480309E0,-2.0111358E-2,1.8953837E-2,7.986111E-1,1.8986974E-2,-1.8339097E-2,1.836646E-2],"categories":[],"categories_nodes":[],"categories_segments":[],"categories_sizes":[],"default_left":[0,0,0,0,0,0,0,0,0],"id":2,"left_children":[1,3,5,-1,-1,7,-1,-1,-1],"loss_changes":[1.0205112E4,1.7615762E3,7.732715E1,0E0,0E0,2.1081937E2,0E0,0E0,0E0],"parents":[2147483647,0,0,1,1,2,2,5,5],"right_children":[2,4,6,-1,-1,8,-1,-1,-1],"split_conditions":[2.77936E3,1E0,2.93378E3,-2.0111358E-2,1.8953837E-2,1.2175956E1,1.8986974E-2,-1.8339097E-2,1.836646E-2],"split_indices":[0,15,0,0,0,8,0,0,0],"split_type":[0,0,0,0,0,0,0,0,0],"sum_hessian":[3.2058845E3,1.6711665E3,1.5347181E3,1.5481273E3,1.23039154E2,7.2682686E1,1.4620354E3,1.9984823E1,5.269786E1],"tree_param":{"num_deleted":"0","num_feature":"17","num_nodes":"9","size_leaf_vector":"1"}},{"base_weights":[-2.411873E-2,-1.6673363E0,1.8348695E0,-1.9908957E-2,1.8824372E-2,-1.6961738E-2,1.8677962E0,1.3650762E-2,1.8866511E-2],"categories":[],"categories_nodes":[],"categories_segments":[],"categories_sizes":[],"default_left":[0,0,0,0,0,0,0,0,0],"id":3,"left_children":[1,3,5,-1,-1,-1,7,-1,-1],"loss_changes":[9.754841E3,1.9545884E3,1.8060986E2,0E0,0E0,0E0,7.3032227E0,0E0,0E0],"parents":[2147483647,0,0,1,1,2,2,6,6],"right_children":[2,4,6,-1,-1,-1,8,-1,-1],"split_conditions":[2.77936E3,1E0,1E0,-1.9908957E-2,1.8824372E-2,-1.6961738E-2,2.93378E3,1.3650762E-2,1.8866511E-2],"split_indices":[0,15,11,0,0,0,0,0,0],"split_type":[0,0,0,0,0,0,0,0,0],"sum_hessian":[3.189389E3,1.6931957E3,1.4961932E3,1.5526884E3,1.4050732E2,1.2749294E1,1.483444E3,5.9892075E1,1.4235519E3],"tree_param":{"num_deleted":"0","num_feature":"17","num_nodes":"9","size_leaf_vector":"1"}},{"base_weights":[7.328051E-2,-1.9681534E-2,1.0207297E0,1.1584151E0,-1.9290544E-2,1.30314E-2,-1.9273194E-2],"categories":[],"categories_nodes":[],"categories_segments":[],"categories_sizes":[],"default_left":[0,0,0,0,0,0,0],"id":4,"left_children":[1,-1,3,5,-1,-1,-1],"loss_changes":[6.517151E3,0E0,9.388762E2,9.8737573E2,0E0,0E0,0E0],"parents":[2147483647,0,0,2,2,3,3],"right_children":[2,-1,4,6,-1,-1,-1],"split_conditions":[1E0,-1.9681534E-2,1E0,1E0,-1.9290544E-2,1.30314E-2,-1.9273194E-2],"split_indices":[11,0,13,16,0,0,0],"split_type":[0,0,0,0,0,0,0],"sum_hessian":[3.365676E3,1.0660388E3,2.2996372E3,2.1984075E3,1.0122975E2,2.1011768E3,9.723055E1],"tree_param":{"num_deleted":"0","num_feature":"17","num_nodes":"7","size_leaf_vector":"1"}},{"base_weights":[-5.151978E-2,-1.949259E-2,9.207044E-1,9.6465476E-2,1.517766E0,-1.9584084E-2,1.8647274E-2,1.57131E-2,1.0586241E-2],"categories":[],"categories_nodes":[],"categories_segments":[],"categories_sizes":[],"default_left":[0,0,0,0,0,0,0,0,0],"id":5,"left_children":[1,-1,3,5,7,-1,-1,-1,-1],"loss_changes":[5.840363E3,0E0,1.028835E3,3.2107932E3,2.5184082E1,0E0,0E0,0E0,0E0],"parents":[2147483647,0,0,2,2,3,3,4,4],"right_children":[2,-1,4,6,8,-1,-1,-1,-1],"split_conditions":[1E0,-1.949259E-2,1E0,1E0,4.840151E1,-1.9584084E-2,1.8647274E-2,1.57131E-2,1.0586241E-2],"split_indices":[11,0,14,15,1,0,0,0,0],"split_type":[0,0,0,0,0,0,0,0,0],"sum_hessian":[3.1612358E3,1.0703884E3,2.0908474E3,8.796533E2,1.2111941E3,4.0662357E2,4.7302972E2,1.0793851E3,1.3180885E2],"tree_param":{"num_deleted":"0","num_feature":"17","num_nodes":"9","size_leaf_vector":"1"}},{"base_weights":[-1.1094782E-1,-1.6641167E0,1.788416E0,-1.9426858E-2,1.8338379E-2,8.6193466E-1,1.8365296E-2,-1.77613E-2,1.781913E-2],"categories":[],"categories_nodes":[],"categories_segments":[],"categories_sizes":[],"default_left":[0,0,0,0,0,0,0,0,0],"id":6,"left_children":[1,3,5,-1,-1,7,-1,-1,-1],"loss_changes":[8.991199E3,1.6410947E3,5.6600098E1,0E0,0E0,1.8099261E2,0E0,0E0,0E0],"parents":[2147483647,0,0,1,1,2,2,5,5],"right_children":[2,4,6,-1,-1,8,-1,-1,-1],"split_conditions":[2.77936E3,1E0,2.93378E3,-1.9426858E-2,1.8338379E-2,1.2175956E1,1.8365296E-2,-1.77613E-2,1.781913E-2],"split_indices":[0,15,0,0,0,8,0,0,0],"split_type":[0,0,0,0,0,0,0,0,0],"sum_hessian":[3.0438335E3,1.6748046E3,1.3690288E3,1.5522214E3,1.2258319E2,6.996645E1,1.2990624E3,1.7468964E1,5.249749E1],"tree_param":{"num_deleted":"0","num_feature":"17","num_nodes":"9","size_leaf_vector":"1"}},{"base_weights":[-7.673897E-3,-1.6134768E0,1.7798245E0,-1.9244244E-2,1.82244E-2,-1.6401866E-2,1.8110981E0,1.2999839E-2,1.8300312E-2],"categories":[],"categories_nodes":[],"categories_segments":[],"categories_sizes":[],"default_left":[0,0,0,0,0,0,0,0,0],"id":7,"left_children":[1,3,5,-1,-1,-1,7,-1,-1],"loss_changes":[9.257602E3,1.8223896E3,1.6925635E2,0E0,0E0,0E0,8.321777E0,0E0,0E0],"parents":[2147483647,0,0,1,1,2,2,6,6],"right_children":[2,4,6,-1,-1,-1,8,-1,-1],"split_conditions":[2.77936E3,1E0,1E0,-1.9244244E-2,1.82244E-2,-1.6401866E-2,2.93378E3,1.2999839E-2,1.8300312E-2],"split_indices":[0,15,11,0,0,0,0,0,0],"split_type":[0,0,0,0,0,0,0,0,0],"sum_hessian":[3.221257E3,1.6971202E3,1.524137E3,1.5572185E3,1.399017E2,1.2733651E1,1.5114033E3,5.9906353E1,1.451497E3],"tree_param":{"num_deleted":"0","num_feature":"17","num_nodes":"9","size_leaf_vector":"1"}},{"base_weights":[1.1216746E-2,-1.9025033E-2,1.4431093E0,-1.867852E-2,1.6798412E0,9.560984E-3,1.7985165E-2],"categories":[],"categories_nodes":[],"categories_segments":[],"categories_sizes":[],"default_left":[0,0,0,0,0,0,0],"id":8,"left_children":[1,-1,3,-1,5,-1,-1],"loss_changes":[8.92735E3,0E0,1.4669832E3,0E0,1.4468018E2,0E0,0E0],"parents":[2147483647,0,0,2,2,4,4],"right_children":[2,-1,4,-1,6,-1,-1],"split_conditions":[1.27736E3,-1.9025033E-2,1E0,-1.867852E-2,2.77936E3,9.560984E-3,1.7985165E-2],"split_indices":[0,0,11,0,0,0,0],"split_type":[0,0,0,0,0,0,0],"sum_hessian":[3.2539497E3,1.3922307E3,1.8617189E3,1.2316906E2,1.7385498E3,2.4806287E2,1.4904869E3],"tree_param":{"num_deleted":"0","num_feature":"17","num_nodes":"7","size_leaf_vector":"1"}},{"base_weights":[-4.6347943E-3,-1.7067615E0,1.3669373E0,-1.7943679E0,1.2619601E0,-1.854651E-2,1.6441753E0,-7.4946936E-3,-1.8862123E-2,8.70899E-3,1.603211E-2,1.0280146E-2,1.6865801E-2],"categories":[],"categories_nodes":[],"categories_segments":[],"categories_sizes":[],"default_left":[0,0,0,0,0,0,0,0,0,0,0,0,0],"id":9,"left_children":[1,3,5,7,9,-1,11,-1,-1,-1,-1,-1,-1],"loss_changes":[7.4986733E3,3.7759424E2,1.5944626E3,1.2956836E2,1.588417E0,0E0,3.7993652E1,0E0,0E0,0E0,0E0,0E0,0E0],"parents":[2147483647,0,0,1,1,2,2,3,3,4,4,6,6],"right_children":[2,4,6,8,10,-1,12,-1,-1,-1,-1,-1,-1],"split_conditions":[2.5939682E0,4.365162E3,1E0,3.2696667E1,9.8982316E-1,-1.854651E-2,3.8191507E0,-7.4946936E-3,-1.8862123E-2,8.70899E-3,1.603211E-2,1.0280146E-2,1.6865801E-2],"split_indices":[7,8,11,6,7,0,7,0,0,0,0,0,0],"split_type":[0,0,0,0,0,0,0,0,0,0,0,0,0],"sum_hessian":[3.2079167E3,1.4314084E3,1.7765082E3,1.3913108E3,4.0097725E1,1.3972139E2,1.6367869E3,1.1433267E2,1.2769781E3,2.2678436E1,1.741929E1,1.09402306E2,1.5273845E3],"tree_param":{"num_deleted":"0","num_feature":"17","num_nodes":"13","size_leaf_vector":"1"}},{"base_weights":[-2.8187359E-2,-1.6072111E0,1.7642432E0,-1.8768234E-2,1.7845722E-2,7.2195586E-3,1.7798899E-2],"categories":[],"categories_nodes":[],"categories_segments":[],"categories_sizes":[],"default_left":[0,0,0,0,0,0,0],"id":10,"left_children":[1,3,5,-1,-1,-1,-1],"loss_changes":[8.897057E3,1.5351748E3,2.0187012E1,0E0,0E0,0E0,0E0],"parents":[2147483647,0,0,1,1,2,2],"right_children":[2,4,6,-1,-1,-1,-1],"split_conditions":[2.88E3,1E0,2.93378E3,-1.8768234E-2,1.7845722E-2,7.2195586E-3,1.7798899E-2],"split_indices":[0,15,0,0,0,0,0],"split_type":[0,0,0,0,0,0,0],"sum_hessian":[3.1395374E3,1.6693903E3,1.470147E3,1.5474264E3,1.21963936E2,2.3610094E1,1.4465369E3],"tree_param":{"num_deleted":"0","num_feature":"17","num_nodes":"7","size_leaf_vector":"1"}},{"base_weights":[1.9016339E-2,-1.5562142E0,1.7286683E0,-1.8594166E-2,1.7733393E-2,-1.5577905E-2,1.7549684E0,1.2640808E-2,1.772625E-2],"categories":[],"categories_nodes":[],"categories_segments":[],"categories_sizes":[],"default_left":[0,0,0,0,0,0,0,0,0],"id":11,"left_children":[1,3,5,-1,-1,-1,7,-1,-1],"loss_changes":[8.694075E3,1.7026846E3,1.3938525E2,0E0,0E0,0E0,7.3217773E0,0E0,0E0],"parents":[2147483647,0,0,1,1,2,2,6,6],"right_children":[2,4,6,-1,-1,-1,8,-1,-1],"split_conditions":[2.77936E3,1E0,1E0,-1.8594166E-2,1.7733393E-2,-1.5577905E-2,2.93378E3,1.2640808E-2,1.772625E-2],"split_indices":[0,15,11,0,0,0,0,0,0],"split_type":[0,0,0,0,0,0,0,0,0],"sum_hessian":[3.224253E3,1.678038E3,1.5462151E3,1.53893E3,1.3910783E2,1.1199927E1,1.5350151E3,5.9319534E1,1.4756956E3],"tree_param":{"num_deleted":"0","num_feature":"17","num_nodes":"9","size_leaf_vector":"1"}},{"base_weights":[4.942027E-2,-1.8380221E-2,1.4064237E0,-1.8062517E-2,1.6345812E0,9.240976E-3,1.746203E-2],"categories":[],"categories_nodes":[],"categories_segments":[],"categories_sizes":[],"default_left":[0,0,0,0,0,0,0],"id":12,"left_children":[1,-1,3,-1,5,-1,-1],"loss_changes":[8.4621E3,0E0,1.4147668E3,0E0,1.3786377E2,0E0,0E0],"parents":[2147483647,0,0,2,2,4,4],"right_children":[2,-1,4,-1,6,-1,-1],"split_conditions":[1.27736E3,-1.8380221E-2,1E0,-1.8062517E-2,2.77936E3,9.240976E-3,1.746203E-2],"split_indices":[0,0,11,0,0,0,0],"split_type":[0,0,0,0,0,0,0],"sum_hessian":[3.2999397E3,1.3797634E3,1.9201764E3,1.26262024E2,1.7939144E3,2.4669751E2,1.5472169E3],"tree_param":{"num_deleted":"0","num_feature":"17","num_nodes":"7","size_leaf_vector":"1"}},{"base_weights":[-4.460027E-2,-1.8227642E-2,1.355649E0,-1.792707E-2,1.6061256E0,8.6847115E-3,1.7392544E-2],"categories":[],"categories_nodes":[],"categories_segments":[],"categories_sizes":[],"default_left":[0,0,0,0,0,0,0],"id":13,"left_children":[1,-1,3,-1,5,-1,-1],"loss_changes":[7.776241E3,0E0,1.3833887E3,0E0,1.5471729E2,0E0,0E0],"parents":[2147483647,0,0,2,2,4,4],"right_children":[2,-1,4,-1,6,-1,-1],"split_conditions":[1.27736E3,-1.8227642E-2,1E0,-1.792707E-2,2.88E3,8.6847115E-3,1.7392544E-2],"split_indices":[0,0,11,0,0,0,0],"split_type":[0,0,0,0,0,0,0],"sum_hessian":[3.1190693E3,1.3739967E3,1.7450726E3,1.2754832E2,1.6175243E3,2.5016817E2,1.3673561E3],"tree_param":{"num_deleted":"0","num_feature":"17","num_nodes":"7","size_leaf_vector":"1"}},{"base_weights":[3.6409076E-2,-1.8080251E-2,1.3855369E0,-1.7760439E-2,1.602431E0,9.6722245E-3,1.7335052E-2],"categories":[],"categories_nodes":[],"categories_segments":[],"categories_sizes":[],"default_left":[0,0,0,0,0,0,0],"id":14,"left_children":[1,-1,3,-1,5,-1,-1],"loss_changes":[8.159509E3,0E0,1.3043618E3,0E0,1.4296436E2,0E0,0E0],"parents":[2147483647,0,0,2,2,4,4],"right_children":[2,-1,4,-1,6,-1,-1],"split_conditions":[1.27736E3,-1.8080251E-2,1E0,-1.7760439E-2,2.93378E3,9.6722245E-3,1.7335052E-2],"split_indices":[0,0,11,0,0,0,0],"split_type":[0,0,0,0,0,0,0],"sum_hessian":[3.2751191E3,1.3831378E3,1.8919813E3,1.20391975E2,1.7715892E3,3.065528E2,1.4650365E3],"tree_param":{"num_deleted":"0","num_feature":"17","num_nodes":"7","size_leaf_vector":"1"}},{"base_weights":[4.6628058E-2,-1.6731658E0,1.4997472E0,-1.7974515E-2,1.693834E-2,-1.7430918E-2,1.6418183E0,1.0244115E-2,1.7192531E-2],"categories":[],"categories_nodes":[],"categories_segments":[],"categories_sizes":[],"default_left":[0,0,0,0,0,0,0,0,0],"id":15,"left_children":[1,3,5,-1,-1,-1,7,-1,-1],"loss_changes":[8.126367E3,6.292905E2,8.177612E2,0E0,0E0,0E0,7.5896484E1,0E0,0E0],"parents":[2147483647,0,0,1,1,2,2,6,6],"right_children":[2,4,6,-1,-1,-1,8,-1,-1],"split_conditions":[1.99614E3,1E0,1E0,-1.7974515E-2,1.693834E-2,-1.7430918E-2,2.93378E3,1.0244115E-2,1.7192531E-2],"split_indices":[0,15,11,0,0,0,0,0,0],"split_type":[0,0,0,0,0,0,0,0,0],"sum_hessian":[3.247789E3,1.4871143E3,1.7606747E3,1.435217E3,5.189721E1,7.280514E1,1.6878695E3,1.9199152E2,1.495878E3],"tree_param":{"num_deleted":"0","num_feature":"17","num_nodes":"9","size_leaf_vector":"1"}},{"base_weights":[-3.5575484E-3,-1.6500129E0,1.2937543E0,-1.7365932E0,1.6498752E-2,-1.7515851E-2,1.560424E0,-1.1356184E-2,-1.779475E-2,1.0750911E-2,1.621651E-2],"categories":[],"categories_nodes":[],"categories_segments":[],"categories_sizes":[],"default_left":[0,0,0,0,0,0,0,0,0,0,0],"id":16,"left_children":[1,3,5,7,-1,-1,9,-1,-1,-1,-1],"loss_changes":[6.7599546E3,4.0429346E2,1.442689E3,2.9557617E1,0E0,0E0,4.3559082E1,0E0,0E0,0E0,0E0],"parents":[2147483647,0,0,1,1,2,2,3,3,6,6],"right_children":[2,4,6,8,-1,-1,10,-1,-1,-1,-1],"split_conditions":[2.5939682E0,1E0,1E0,3.2696667E1,1.6498752E-2,-1.7515851E-2,4.8537025E0,-1.1356184E-2,-1.779475E-2,1.0750911E-2,1.621651E-2],"split_indices":[7,15,11,6,0,0,7,0,0,0,0],"split_type":[0,0,0,0,0,0,0,0,0,0,0],"sum_hessian":[3.160741E3,1.3928619E3,1.7678789E3,1.3583221E3,3.4539795E1,1.4129482E2,1.6265841E3,9.4903656E1,1.2634186E3,1.872875E2,1.4392966E3],"tree_param":{"num_deleted":"0","num_feature":"17","num_nodes":"11","size_leaf_vector":"1"}},{"base_weights":[8.4759235E-2,-1.7658344E-2,1.3723611E0,6.995064E-2,1.6939161E-2,1.7270861E-2,-1.841372E-2],"categories":[],"categories_nodes":[],"categories_segments":[],"categories_sizes":[],"default_left":[0,0,0,0,0,0,0],"id":17,"left_children":[1,-1,3,5,-1,-1,-1],"loss_changes":[7.858711E3,0E0,8.134409E2,1.233691E3,0E0,0E0,0E0],"parents":[2147483647,0,0,2,2,3,3],"right_children":[2,-1,4,6,-1,-1,-1],"split_conditions":[1.27736E3,-1.7658344E-2,2.93378E3,1E0,1.6939161E-2,1.7270861E-2,-1.841372E-2],"split_indices":[0,0,0,14,0,0,0],"split_type":[0,0,0,0,0,0,0],"sum_hessian":[3.2941096E3,1.3511094E3,1.9430004E3,3.8551608E2,1.5574843E3,2.0673189E2,1.787842E2],"tree_param":{"num_deleted":"0","num_feature":"17","num_nodes":"7","size_leaf_vector":"1"}},{"base_weights":[6.302486E-2,-1.7524794E-2,1.3534778E0,-1.7230492E-2,1.5655279E0,8.891306E-3,1.6806403E-2],"categories":[],"categories_nodes":[],"categories_segments":[],"categories_sizes":[],"default_left":[0,0,0,0,0,0,0],"id":18,"left_children":[1,-1,3,-1,5,-1,-1],"loss_changes":[7.7216445E3,0E0,1.2622336E3,0E0,1.3616113E2,0E0,0E0],"parents":[2147483647,0,0,2,2,4,4],"right_children":[2,-1,4,-1,6,-1,-1],"split_conditions":[1.27736E3,-1.7524794E-2,1E0,-1.7230492E-2,2.88E3,8.891306E-3,1.6806403E-2],"split_indices":[0,0,11,0,0,0,0],"split_type":[0,0,0,0,0,0,0],"sum_hessian":[3.2919324E3,1.3672628E3,1.9246697E3,1.230333E2,1.8016364E3,2.651883E2,1.536448E3],"tree_param":{"num_deleted":"0","num_feature":"17","num_nodes":"7","size_leaf_vector":"1"}},{"base_weights":[2.545159E-2,-1.5724382E0,1.2803547E0,-1.6548674E0,1.6110701E-2,-1.7118623E-2,1.5305151E0,-7.385723E-3,-1.739479E-2,9.281939E-3,1.5712231E-2],"categories":[],"categories_nodes":[],"categories_segments":[],"categories_sizes":[],"default_left":[0,0,0,0,0,0,0,0,0,0,0],"id":19,"left_children":[1,3,5,7,-1,-1,9,-1,-1,-1,-1],"loss_changes":[6.394835E3,3.7344897E2,1.3423843E3,1.0228711E2,0E0,0E0,3.6286133E1,0E0,0E0,0E0,0E0],"parents":[2147483647,0,0,1,1,2,2,3,3,6,6],"right_children":[2,4,6,8,-1,-1,10,-1,-1,-1,-1],"split_conditions":[2.5939682E0,1E0,1E0,3.2696667E1,1.6110701E-2,-1.7118623E-2,3.9812498E0,-7.385723E-3,-1.739479E-2,9.281939E-3,1.5712231E-2],"split_indices":[7,15,11,6,0,0,7,0,0,0,0],"split_type":[0,0,0,0,0,0,0,0,0,0,0],"sum_hessian":[3.1851956E3,1.4007245E3,1.7844711E3,1.3664607E3,3.4263786E1,1.3662212E2,1.6478489E3,1.17658134E2,1.2488025E3,1.0811089E2,1.539738E3],"tree_param":{"num_deleted":"0","num_feature":"17","num_nodes":"11","size_leaf_vector":"1"}},{"base_weights":[-8.272946E-3,-1.4840214E0,1.6188056E0,-1.6992738E0,1.4919412E0,-1.4960819E-2,1.648814E0,-1.7379463E-2,-9.475793E-3,7.4647437E-3,1.6645698E-2,1.1997446E-2,1.6652131E-2],"categories":[],"categories_nodes":[],"categories_segments":[],"categories_sizes":[],"default_left":[0,0,0,0,0,0,0,0,0,0,0,0,0],"id":20,"left_children":[1,3,5,7,9,-1,11,-1,-1,-1,-1,-1,-1],"loss_changes":[7.467087E3,1.0498999E3,1.4324756E2,3.960742E1,1.05828705E1,0E0,5.3674316E0,0E0,0E0,0E0,0E0,0E0,0E0],"parents":[2147483647,0,0,1,1,2,2,3,3,4,4,6,6],"right_children":[2,4,6,8,10,-1,12,-1,-1,-1,-1,-1,-1],"split_conditions":[2.77936E3,4.365162E3,1E0,2.3E1,1.83151E3,-1.4960819E-2,2.93378E3,-1.7379463E-2,-9.475793E-3,7.4647437E-3,1.6645698E-2,1.1997446E-2,1.6652131E-2],"split_indices":[0,8,11,3,0,0,0,0,0,0,0,0,0],"split_type":[0,0,0,0,0,0,0,0,0,0,0,0,0],"sum_hessian":[3.1058123E3,1.6288973E3,1.4769149E3,1.5199824E3,1.0891487E2,1.3001238E1,1.4639137E3,1.4424816E3,7.750094E1,2.3025955E1,8.588891E1,5.7876038E1,1.4060376E3],"tree_param":{"num_deleted":"0","num_feature":"17","num_nodes":"13","size_leaf_vector":"1"}},{"base_weights":[4.2508982E-2,-1.715061E-2,1.3144962E0,-1.6852736E-2,1.5260123E0,8.706476E-3,1.6528254E-2],"categories":[],"categories_nodes":[],"categories_segments":[],"categories_sizes":[],"default_left":[0,0,0,0,0,0,0],"id":21,"left_children":[1,-1,3,-1,5,-1,-1],"loss_changes":[7.169082E3,0E0,1.1855884E3,0E0,1.404043E2,0E0,0E0],"parents":[2147483647,0,0,2,2,4,4],"right_children":[2,-1,4,-1,6,-1,-1],"split_conditions":[1.27736E3,-1.715061E-2,1E0,-1.6852736E-2,2.93378E3,8.706476E-3,1.6528254E-2],"split_indices":[0,0,11,0,0,0,0],"split_type":[0,0,0,0,0,0,0],"sum_hessian":[3.2028452E3,1.3442863E3,1.8585591E3,1.21343185E2,1.7372158E3,2.8484146E2,1.4523744E3],"tree_param":{"num_deleted":"0","num_feature":"17","num_nodes":"7","size_leaf_vector":"1"}},{"base_weights":[-4.711891E-2,-1.4752599E0,1.3414298E0,-1.5877814E0,1.623022E-2,-1.6624061E-2,1.5290847E0,-6.8030604E-3,-1.6633322E-2,6.1513833E-3,1.5426474E-2],"categories":[],"categories_nodes":[],"categories_segments":[],"categories_sizes":[],"default_left":[0,0,0,0,0,0,0,0,0,0,0],"id":22,"left_children":[1,3,5,7,-1,-1,9,-1,-1,-1,-1],"loss_changes":[5.999633E3,5.251426E2,8.696179E2,9.5326416E1,0E0,0E0,1.493335E1,0E0,0E0,0E0,0E0],"parents":[2147483647,0,0,1,1,2,2,3,3,6,6],"right_children":[2,4,6,8,-1,-1,10,-1,-1,-1,-1],"split_conditions":[3.8191507E0,1E0,1E0,2E0,1.623022E-2,-1.6624061E-2,7.406E1,-6.8030604E-3,-1.6633322E-2,6.1513833E-3,1.5426474E-2],"split_indices":[7,15,11,5,0,0,6,0,0,0,0],"split_type":[0,0,0,0,0,0,0,0,0,0,0],"sum_hessian":[3.0214377E3,1.4895996E3,1.531838E3,1.4384938E3,5.1105877E1,8.898893E1,1.4428491E3,1.1260238E2,1.3258914E3,2.2993118E1,1.419856E3],"tree_param":{"num_deleted":"0","num_feature":"17","num_nodes":"11","size_leaf_vector":"1"}},{"base_weights":[1.8013222E-2,-1.3937037E0,1.603373E0,-1.6662687E0,1.5406148E0,7.2459656E-1,1.6294433E-2,-1.0540797E-2,-1.7031686E-2,9.651424E-3,1.6178397E-2,-1.6341478E-2,1.5686419E-2],"categories":[],"categories_nodes":[],"categories_segments":[],"categories_sizes":[],"default_left":[0,0,0,0,0,0,0,0,0,0,0,0,0],"id":23,"left_children":[1,3,5,7,9,11,-1,-1,-1,-1,-1,-1,-1],"loss_changes":[7.086231E3,1.3445679E3,3.063208E1,2.9670898E1,1.9503174E0,9.891966E1,0E0,0E0,0E0,0E0,0E0,0E0,0E0],"parents":[2147483647,0,0,1,1,2,2,3,3,4,4,5,5],"right_children":[2,4,6,8,10,12,-1,-1,-1,-1,-1,-1,-1],"split_conditions":[2.83236E3,4.365162E3,2.93378E3,2E0,5E0,1.1085167E1,1.6294433E-2,-1.0540797E-2,-1.7031686E-2,9.651424E-3,1.6178397E-2,-1.6341478E-2,1.5686419E-2],"split_indices":[0,8,0,5,4,8,0,0,0,0,0,0,0],"split_type":[0,0,0,0,0,0,0,0,0,0,0,0,0],"sum_hessian":[3.1621672E3,1.6726484E3,1.4895187E3,1.5314307E3,1.412179E2,4.512755E1,1.4443911E3,9.1191925E1,1.4402386E3,2.0668514E1,1.2054938E2,1.1243164E1,3.3884384E1],"tree_param":{"num_deleted":"0","num_feature":"17","num_nodes":"13","size_leaf_vector":"1"}},{"base_weights":[2.5302542E-2,-1.4114022E0,1.5796243E0,-1.6920332E-2,1.6542874E-2,-1.4500568E-2,1.6079419E0,1.1653329E-2,1.6236259E-2],"categories":[],"categories_nodes":[],"categories_segments":[],"categories_sizes":[],"default_left":[0,0,0,0,0,0,0,0,0],"id":24,"left_children":[1,3,5,-1,-1,-1,7,-1,-1],"loss_changes":[7.016433E3,1.4102004E3,1.3423535E2,0E0,0E0,0E0,5.209717E0,0E0,0E0],"parents":[2147483647,0,0,1,1,2,2,6,6],"right_children":[2,4,6,-1,-1,-1,8,-1,-1],"split_conditions":[2.77936E3,1E0,1E0,-1.6920332E-2,1.6542874E-2,-1.4500568E-2,2.93378E3,1.1653329E-2,1.6236259E-2],"split_indices":[0,15,11,0,0,0,0,0,0],"split_type":[0,0,0,0,0,0,0,0,0],"sum_hessian":[3.1379783E3,1.6306154E3,1.5073629E3,1.4948383E3,1.357771E2,1.2865068E1,1.4944978E3,5.7390858E1,1.4371069E3],"tree_param":{"num_deleted":"0","num_feature":"17","num_nodes":"9","size_leaf_vector":"1"}},{"base_weights":[6.416471E-2,-1.669064E-2,1.2895552E0,1.1223574E-1,1.6057491E-2,-1.7692117E-2,1.6545866E-2],"categories":[],"categories_nodes":[],"categories_segments":[],"categories_sizes":[],"default_left":[0,0,0,0,0,0,0],"id":25,"left_children":[1,-1,3,5,-1,-1,-1],"loss_changes":[6.836812E3,0E0,7.008425E2,1.1716454E3,0E0,0E0,0E0],"parents":[2147483647,0,0,2,2,3,3],"right_children":[2,-1,4,6,-1,-1,-1],"split_conditions":[1.27736E3,-1.669064E-2,2.93378E3,1E0,1.6057491E-2,-1.7692117E-2,1.6545866E-2],"split_indices":[0,0,0,15,0,0,0],"split_type":[0,0,0,0,0,0,0],"sum_hessian":[3.2150796E3,1.3311414E3,1.8839381E3,3.9976E2,1.4841782E3,1.7980511E2,2.1995488E2],"tree_param":{"num_deleted":"0","num_feature":"17","num_nodes":"7","size_leaf_vector":"1"}},{"base_weights":[1.5983231E-2,-1.3642938E0,1.5865363E0,-1.6708935E-2,1.6391067E-2,7.901654E-3,1.5969956E-2],"categories":[],"categories_nodes":[],"categories_segments":[],"categories_sizes":[],"default_left":[0,0,0,0,0,0,0],"id":26,"left_children":[1,3,5,-1,-1,-1,-1],"loss_changes":[6.730729E3,1.52705E3,8.380859E0,0E0,0E0,0E0,0E0],"parents":[2147483647,0,0,1,1,2,2],"right_children":[2,4,6,-1,-1,-1,-1],"split_conditions":[2.88E3,1E0,2.93378E3,-1.6708935E-2,1.6391067E-2,7.901654E-3,1.5969956E-2],"split_indices":[0,15,0,0,0,0,0],"split_type":[0,0,0,0,0,0,0],"sum_hessian":[3.1008206E3,1.6503545E3,1.450466E3,1.4984412E3,1.5191331E2,2.140755E1,1.4290585E3],"tree_param":{"num_deleted":"0","num_feature":"17","num_nodes":"7","size_leaf_vector":"1"}},{"base_weights":[1.9897833E-2,-1.6110644E0,1.3352202E0,-1.6503813E-2,1.442149E-2,-1.6116975E-2,1.496195E0,8.484472E-3,1.5911806E-2],"categories":[],"categories_nodes":[],"categories_segments":[],"categories_sizes":[],"default_left":[0,0,0,0,0,0,0,0,0],"id":27,"left_children":[1,3,5,-1,-1,-1,7,-1,-1],"loss_changes":[6.7543267E3,1.7358179E2,8.3165576E2,0E0,0E0,0E0,9.784595E1,0E0,0E0],"parents":[2147483647,0,0,1,1,2,2,6,6],"right_children":[2,4,6,-1,-1,-1,8,-1,-1],"split_conditions":[1.83151E3,1E0,1E0,-1.6503813E-2,1.442149E-2,-1.6116975E-2,2.93378E3,8.484472E-3,1.5911806E-2],"split_indices":[0,15,11,0,0,0,0,0,0],"split_type":[0,0,0,0,0,0,0,0,0],"sum_hessian":[3.144575E3,1.4034755E3,1.7410995E3,1.3867013E3,1.6774172E1,8.908662E1,1.6520128E3,2.144839E2,1.4375289E3],"tree_param":{"num_deleted":"0","num_feature":"17","num_nodes":"9","size_leaf_vector":"1"}},{"base_weights":[3.1684253E-2,-1.562031E0,1.3432833E0,-1.6401714E-2,1.5338788E-2,-1.5993813E-2,1.4981121E0,8.454717E-3,1.5838359E-2],"categories":[],"categories_nodes":[],"categories_segments":[],"categories_sizes":[],"default_left":[0,0,0,0,0,0,0,0,0],"id":28,"left_children":[1,3,5,-1,-1,-1,7,-1,-1],"loss_changes":[6.5139897E3,3.4538892E2,7.83656E2,0E0,0E0,0E0,8.704028E1,0E0,0E0],"parents":[2147483647,0,0,1,1,2,2,6,6],"right_children":[2,4,6,-1,-1,-1,8,-1,-1],"split_conditions":[1.83151E3,1E0,1E0,-1.6401714E-2,1.5338788E-2,-1.5993813E-2,2.93378E3,8.454717E-3,1.5838359E-2],"split_indices":[0,15,11,0,0,0,0,0,0],"split_type":[0,0,0,0,0,0,0,0,0],"sum_hessian":[3.112316E3,1.4047051E3,1.7076108E3,1.3711981E3,3.3506992E1,8.4261116E1,1.6233497E3,1.9166953E2,1.4316802E3],"tree_param":{"num_deleted":"0","num_feature":"17","num_nodes":"9","size_leaf_vector":"1"}},{"base_weights":[-2.7146267E-2,-1.4019185E0,1.252858E0,-1.589903E0,1.5986247E-2,-1.5930325E-2,1.4514825E0,-5.622973E-3,-1.6300648E-2,5.292128E-3,1.4652961E-2],"categories":[],"categories_nodes":[],"categories_segments":[],"categories_sizes":[],"default_left":[0,0,0,0,0,0,0,0,0,0,0],"id":29,"left_children":[1,3,5,7,-1,-1,9,-1,-1,-1,-1],"loss_changes":[5.2594707E3,8.180032E2,8.7933813E2,5.3091553E1,0E0,0E0,1.5896973E1,0E0,0E0,0E0,0E0],"parents":[2147483647,0,0,1,1,2,2,3,3,6,6],"right_children":[2,4,6,8,-1,-1,10,-1,-1,-1,-1],"split_conditions":[3.3730159E0,1E0,1E0,-1.6444745E2,1.5986247E-2,-1.5930325E-2,7.406E1,-5.622973E-3,-1.6300648E-2,5.292128E-3,1.4652961E-2],"split_indices":[7,15,11,2,0,0,6,0,0,0,0],"split_type":[0,0,0,0,0,0,0,0,0,0,0],"sum_hessian":[2.9847822E3,1.4392135E3,1.5455687E3,1.3554042E3,8.380936E1,9.975287E1,1.4458159E3,5.2577457E1,1.3028267E3,2.3030005E1,1.4227859E3],"tree_param":{"num_deleted":"0","num_feature":"17","num_nodes":"11","size_leaf_vector":"1"}},{"base_weights":[3.855766E-3,-1.3988093E0,1.2927337E0,-1.5430862E0,1.5819501E-2,-1.5780829E-2,1.4589508E0,-6.3181617E-3,-1.6184418E-2,1.0247024E-2,1.4804127E-2],"categories":[],"categories_nodes":[],"categories_segments":[],"categories_sizes":[],"default_left":[0,0,0,0,0,0,0,0,0,0,0],"id":30,"left_children":[1,3,5,7,-1,-1,9,-1,-1,-1,-1],"loss_changes":[5.567853E3,6.3903345E2,7.705105E2,9.349707E1,0E0,0E0,9.866211E0,0E0,0E0,0E0,0E0],"parents":[2147483647,0,0,1,1,2,2,3,3,6,6],"right_children":[2,4,6,8,-1,-1,10,-1,-1,-1,-1],"split_conditions":[3.8191507E0,1E0,1E0,2E0,1.5819501E-2,-1.5780829E-2,4.8537025E0,-6.3181617E-3,-1.6184418E-2,1.0247024E-2,1.4804127E-2],"split_indices":[7,15,11,5,0,0,7,0,0,0,0],"split_type":[0,0,0,0,0,0,0,0,0,0,0],"sum_hessian":[3.0758252E3,1.4726287E3,1.6031965E3,1.4057203E3,6.6908295E1,8.664864E1,1.5165479E3,1.0930529E2,1.296415E3,7.711148E1,1.4394364E3],"tree_param":{"num_deleted":"0","num_feature":"17","num_nodes":"11","size_leaf_vector":"1"}},{"base_weights":[1.7353397E-2,-1.6063076E-2,1.227261E0,-1.578773E-2,1.4307071E0,7.970582E-3,1.55835515E-2],"categories":[],"categories_nodes":[],"categories_segments":[],"categories_sizes":[],"default_left":[0,0,0,0,0,0,0],"id":31,"left_children":[1,-1,3,-1,5,-1,-1],"loss_changes":[6.048547E3,0E0,1.0117478E3,0E0,1.2950708E2,0E0,0E0],"parents":[2147483647,0,0,2,2,4,4],"right_children":[2,-1,4,-1,6,-1,-1],"split_conditions":[1.27736E3,-1.6063076E-2,1E0,-1.578773E-2,2.93378E3,7.970582E-3,1.55835515E-2],"split_indices":[0,0,11,0,0,0,0],"split_type":[0,0,0,0,0,0,0],"sum_hessian":[3.0750457E3,1.3125597E3,1.7624858E3,1.18067024E2,1.6444188E3,2.7880887E2,1.36561E3],"tree_param":{"num_deleted":"0","num_feature":"17","num_nodes":"7","size_leaf_vector":"1"}},{"base_weights":[-6.8979594E-4,-1.3454573E0,1.2763779E0,-1.5237808E0,1.57377E-2,1.3637754E0,-1.5213462E-2,-1.5613298E-2,-2.2945094E-3,1.3971143E-2,7.7442485E-3],"categories":[],"categories_nodes":[],"categories_segments":[],"categories_sizes":[],"default_left":[0,0,0,0,0,0,0,0,0,0,0],"id":32,"left_children":[1,3,5,7,-1,9,-1,-1,-1,-1,-1],"loss_changes":[5.1581323E3,7.664468E2,3.8070532E2,6.54624E1,0E0,2.6122803E1,0E0,0E0,0E0,0E0,0E0],"parents":[2147483647,0,0,1,1,2,2,3,3,5,5],"right_children":[2,4,6,8,-1,10,-1,-1,-1,-1,-1],"split_conditions":[3.8191507E0,1E0,1E0,1.463615E3,1.57377E-2,5.555189E1,-1.5213462E-2,-1.5613298E-2,-2.2945094E-3,1.3971143E-2,7.7442485E-3],"split_indices":[7,15,10,6,0,1,0,0,0,0,0],"split_type":[0,0,0,0,0,0,0,0,0,0,0],"sum_hessian":[2.9995054E3,1.4611653E3,1.5383401E3,1.3781096E3,8.3055725E1,1.4929073E3,4.5432796E1,1.338481E3,3.9628662E1,1.409579E3,8.332835E1],"tree_param":{"num_deleted":"0","num_feature":"17","num_nodes":"11","size_leaf_vector":"1"}},{"base_weights":[-7.773699E-3,-1.5828956E-2,7.7810925E-1,8.974764E-1,-1.5480149E-2,1.0232424E-2,-1.5651356E-2],"categories":[],"categories_nodes":[],"categories_segments":[],"categories_sizes":[],"default_left":[0,0,0,0,0,0,0],"id":33,"left_children":[1,-1,3,5,-1,-1,-1],"loss_changes":[3.7215046E3,0E0,5.592434E2,5.9413293E2,0E0,0E0,0E0],"parents":[2147483647,0,0,2,2,3,3],"right_children":[2,-1,4,6,-1,-1,-1],"split_conditions":[1E0,-1.5828956E-2,1E0,1E0,-1.5480149E-2,1.0232424E-2,-1.5651356E-2],"split_indices":[11,0,13,12,0,0,0],"split_type":[0,0,0,0,0,0,0],"sum_hessian":[3.0020835E3,9.9880865E2,2.0032748E3,1.9068656E3,9.6409195E1,1.8155187E3,9.134691E1],"tree_param":{"num_deleted":"0","num_feature":"17","num_nodes":"7","size_leaf_vector":"1"}},{"base_weights":[-1.4851349E-2,-1.3596667E0,1.4874907E0,-1.5813638E-2,-2.9418513E-1,-1.3943549E-2,1.5190783E0,1.5657715E-2,-1.7005058E-2,1.0562924E-2,1.5368925E-2],"categories":[],"categories_nodes":[],"categories_segments":[],"categories_sizes":[],"default_left":[0,0,0,0,0,0,0,0,0,0,0],"id":34,"left_children":[1,3,5,-1,7,-1,9,-1,-1,-1,-1],"loss_changes":[5.9500015E3,3.652444E2,1.3091113E2,0E0,7.1300287E2,0E0,6.8083496E0,0E0,0E0,0E0,0E0],"parents":[2147483647,0,0,1,1,2,2,4,4,6,6],"right_children":[2,4,6,-1,8,-1,10,-1,-1,-1,-1],"split_conditions":[2.77936E3,1.27736E3,1E0,-1.5813638E-2,1E0,-1.3943549E-2,2.93378E3,1.5657715E-2,-1.7005058E-2,1.0562924E-2,1.5368925E-2],"split_indices":[0,0,11,0,14,0,0,0,0,0,0],"split_type":[0,0,0,0,0,0,0,0,0,0,0],"sum_hessian":[2.9410315E3,1.5521519E3,1.3888796E3,1.2836271E3,2.6852472E2,1.3951208E1,1.3749285E3,1.1536465E2,1.5316006E2,5.6474216E1,1.3184542E3],"tree_param":{"num_deleted":"0","num_feature":"17","num_nodes":"11","size_leaf_vector":"1"}},{"base_weights":[-4.5309067E-2,-1.3007008E0,1.52212735E-2,-1.5902037E-2,1.567164E-2],"categories":[],"categories_nodes":[],"categories_segments":[],"categories_sizes":[],"default_left":[0,0,0,0,0],"id":35,"left_children":[1,3,-1,-1,-1],"loss_changes":[5.7619165E3,1.3550776E3,0E0,0E0,0E0],"parents":[2147483647,0,0,1,1],"right_children":[2,4,-1,-1,-1],"split_conditions":[2.93378E3,1E0,1.52212735E-2,-1.5902037E-2,1.567164E-2],"split_indices":[0,15,0,0,0],"split_type":[0,0,0,0,0],"sum_hessian":[2.9242239E3,1.6241047E3,1.3001191E3,1.4761562E3,1.4794846E2],"tree_param":{"num_deleted":"0","num_feature":"17","num_nodes":"5","size_leaf_vector":"1"}},{"base_weights":[4.636597E-2,-1.284603E0,1.4765074E0,-1.5778555E-2,1.55332E-2,6.514914E-1,1.5140441E-2,1.5061685E-2,-1.6642919E-2],"categories":[],"categories_nodes":[],"categories_segments":[],"categories_sizes":[],"default_left":[0,0,0,0,0,0,0,0,0],"id":36,"left_children":[1,3,5,-1,-1,7,-1,-1,-1],"loss_changes":[5.816198E3,1.321906E3,4.2561768E1,0E0,0E0,1.399076E2,0E0,0E0,0E0],"parents":[2147483647,0,0,1,1,2,2,5,5],"right_children":[2,4,6,-1,-1,8,-1,-1,-1],"split_conditions":[2.77936E3,1E0,2.93378E3,-1.5778555E-2,1.55332E-2,1E0,1.5140441E-2,1.5061685E-2,-1.6642919E-2],"split_indices":[0,15,0,0,0,14,0,0,0],"split_type":[0,0,0,0,0,0,0,0,0],"sum_hessian":[3.0515266E3,1.5804894E3,1.4710372E3,1.4334321E3,1.4705734E2,6.619424E1,1.404843E3,4.901835E1,1.7175888E1],"tree_param":{"num_deleted":"0","num_feature":"17","num_nodes":"9","size_leaf_vector":"1"}},{"base_weights":[3.1046523E-2,-1.2482216E0,1.4674238E0,-1.5698878E-2,1.5505068E-2,-1.3261139E-2,1.4910975E0,9.650491E-3,1.5115777E-2],"categories":[],"categories_nodes":[],"categories_segments":[],"categories_sizes":[],"default_left":[0,0,0,0,0,0,0,0,0],"id":37,"left_children":[1,3,5,-1,-1,-1,7,-1,-1],"loss_changes":[5.531696E3,1.4381812E3,9.7832275E1,0E0,0E0,0E0,1.10078125E1,0E0,0E0],"parents":[2147483647,0,0,1,1,2,2,6,6],"right_children":[2,4,6,-1,-1,-1,8,-1,-1],"split_conditions":[2.77936E3,1E0,1E0,-1.5698878E-2,1.5505068E-2,-1.3261139E-2,2.93378E3,9.650491E-3,1.5115777E-2],"split_indices":[0,15,11,0,0,0,0,0,0],"split_type":[0,0,0,0,0,0,0,0,0],"sum_hessian":[3.0063743E3,1.590106E3,1.4162684E3,1.4271376E3,1.6296834E2,1.079915E1,1.4054692E3,5.718905E1,1.3482802E3],"tree_param":{"num_deleted":"0","num_feature":"17","num_nodes":"9","size_leaf_vector":"1"}},{"base_weights":[-6.98584E-2,-1.4759847E0,1.2399808E0,-1.5503816E-2,1.4544438E-2,-1.5102269E-2,1.3983965E0,7.4159084E-3,1.5015229E-2],"categories":[],"categories_nodes":[],"categories_segments":[],"categories_sizes":[],"default_left":[0,0,0,0,0,0,0,0,0],"id":38,"left_children":[1,3,5,-1,-1,-1,7,-1,-1],"loss_changes":[5.1712656E3,2.9979395E2,6.374109E2,0E0,0E0,0E0,8.9821045E1,0E0,0E0],"parents":[2147483647,0,0,1,1,2,2,6,6],"right_children":[2,4,6,-1,-1,-1,8,-1,-1],"split_conditions":[1.83151E3,1E0,1E0,-1.5503816E-2,1.4544438E-2,-1.5102269E-2,2.93378E3,7.4159084E-3,1.5015229E-2],"split_indices":[0,15,11,0,0,0,0,0,0],"split_type":[0,0,0,0,0,0,0,0,0],"sum_hessian":[2.8036733E3,1.3522002E3,1.4514731E3,1.3198058E3,3.239442E1,7.795178E1,1.3735214E3,1.8927455E2,1.1842468E3],"tree_param":{"num_deleted":"0","num_feature":"17","num_nodes":"9","size_leaf_vector":"1"}},{"base_weights":[2.603308E-2,-1.5370612E-2,1.1686327E0,-1.51314745E-2,1.3658831E0,7.823246E-3,1.4953613E-2],"categories":[],"categories_nodes":[],"categories_segments":[],"categories_sizes":[],"default_left":[0,0,0,0,0,0,0],"id":39,"left_children":[1,-1,3,-1,5,-1,-1],"loss_changes":[5.2380605E3,0E0,9.0044507E2,0E0,1.1587891E2,0E0,0E0],"parents":[2147483647,0,0,2,2,4,4],"right_children":[2,-1,4,-1,6,-1,-1],"split_conditions":[1.27736E3,-1.5370612E-2,1E0,-1.51314745E-2,2.93378E3,7.823246E-3,1.4953613E-2],"split_indices":[0,0,11,0,0,0,0],"split_type":[0,0,0,0,0,0,0],"sum_hessian":[2.9289512E3,1.2364036E3,1.6925476E3,1.1487331E2,1.5776743E3,2.897441E2,1.2879302E3],"tree_param":{"num_deleted":"0","num_feature":"17","num_nodes":"7","size_leaf_vector":"1"}},{"base_weights":[-7.3516034E-3,-1.4594606E0,1.2454987E0,-1.53323775E-2,9.8676056E-1,1.7004529E-1,1.4821147E-2,1.3111549E-2,6.3459673E-3,1.5354812E-2,-1.6802507E-2],"categories":[],"categories_nodes":[],"categories_segments":[],"categories_sizes":[],"default_left":[0,0,0,0,0,0,0,0,0,0,0],"id":40,"left_children":[1,3,5,-1,7,9,-1,-1,-1,-1,-1],"loss_changes":[5.260545E3,2.4503345E2,3.9362476E2,0E0,1.9591751E0,7.189088E2,0E0,0E0,0E0,0E0,0E0],"parents":[2147483647,0,0,1,1,2,2,4,4,5,5],"right_children":[2,4,6,-1,8,10,-1,-1,-1,-1,-1],"split_conditions":[1.83151E3,4.365162E3,2.93378E3,-1.53323775E-2,4E0,1E0,1.4821147E-2,1.3111549E-2,6.3459673E-3,1.5354812E-2,-1.6802507E-2],"split_indices":[0,8,0,0,3,14,0,0,0,0,0],"split_type":[0,0,0,0,0,0,0,0,0,0,0],"sum_hessian":[2.8875037E3,1.337431E3,1.5500726E3,1.2991985E3,3.8232548E1,2.8053802E2,1.2695347E3,1.6326958E1,2.1905592E1,1.6176971E2,1.1876832E2],"tree_param":{"num_deleted":"0","num_feature":"17","num_nodes":"11","size_leaf_vector":"1"}},{"base_weights":[2.0167852E-2,-1.3073803E0,1.4374776E0,-1.4999775E0,1.3211131E0,6.141179E-1,1.4762757E-2,-9.828326E-3,-1.5342858E-2,6.07221E-3,1.4916799E-2,-1.6057098E-2,1.4752421E-2],"categories":[],"categories_nodes":[],"categories_segments":[],"categories_sizes":[],"default_left":[0,0,0,0,0,0,0,0,0,0,0,0,0],"id":41,"left_children":[1,3,5,7,9,11,-1,-1,-1,-1,-1,-1,-1],"loss_changes":[5.53961E3,7.735608E2,4.2634033E1,2.0873291E1,9.883087E0,1.3483134E2,0E0,0E0,0E0,0E0,0E0,0E0,0E0],"parents":[2147483647,0,0,1,1,2,2,3,3,4,4,5,5],"right_children":[2,4,6,8,10,12,-1,-1,-1,-1,-1,-1,-1],"split_conditions":[2.77936E3,4.365162E3,2.93378E3,2E0,1.83151E3,1.1085167E1,1.4762757E-2,-9.828326E-3,-1.5342858E-2,6.07221E-3,1.4916799E-2,-1.6057098E-2,1.4752421E-2],"split_indices":[0,8,0,5,0,8,0,0,0,0,0,0,0],"split_type":[0,0,0,0,0,0,0,0,0,0,0,0,0],"sum_hessian":[2.940146E3,1.5180448E3,1.4221011E3,1.4153845E3,1.0266034E2,6.60909E1,1.3560103E3,9.2652916E1,1.3227316E3,2.2122025E1,8.0538315E1,1.782673E1,4.8264168E1],"tree_param":{"num_deleted":"0","num_feature":"17","num_nodes":"13","size_leaf_vector":"1"}},{"base_weights":[-2.3947526E-2,-1.3605283E0,1.0956377E0,-1.4356192E0,1.4545884E-2,-1.4903168E-2,1.3229325E0,-6.1294395E-3,-1.5118878E-2,8.453075E-3,1.3897458E-2],"categories":[],"categories_nodes":[],"categories_segments":[],"categories_sizes":[],"default_left":[0,0,0,0,0,0,0,0,0,0,0],"id":42,"left_children":[1,3,5,7,-1,-1,9,-1,-1,-1,-1],"loss_changes":[4.238237E3,2.7710596E2,9.096271E2,7.6066895E1,0E0,0E0,4.1775635E1,0E0,0E0,0E0,0E0],"parents":[2147483647,0,0,1,1,2,2,3,3,6,6],"right_children":[2,4,6,8,-1,-1,10,-1,-1,-1,-1],"split_conditions":[2.5939682E0,1E0,1E0,3.2696667E1,1.4545884E-2,-1.4903168E-2,5.0698376E0,-6.1294395E-3,-1.5118878E-2,8.453075E-3,1.3897458E-2],"split_indices":[7,15,11,6,0,0,7,0,0,0,0],"split_type":[0,0,0,0,0,0,0,0,0,0,0],"sum_hessian":[2.8281777E3,1.2891653E3,1.5390125E3,1.2567988E3,3.2366394E1,1.23268E2,1.4157444E3,1.0871956E2,1.1480793E3,1.7800864E2,1.2377357E3],"tree_param":{"num_deleted":"0","num_feature":"17","num_nodes":"11","size_leaf_vector":"1"}},{"base_weights":[-1.0749249E-2,-1.2361879E0,1.4232554E0,-1.5219429E-2,1.5120366E-2,-1.3051439E-2,1.4501178E0,1.0079494E-2,1.467481E-2],"categories":[],"categories_nodes":[],"categories_segments":[],"categories_sizes":[],"default_left":[0,0,0,0,0,0,0,0,0],"id":43,"left_children":[1,3,5,-1,-1,-1,7,-1,-1],"loss_changes":[5.020039E3,1.2144507E3,1.00322266E2,0E0,0E0,0E0,5.8188477E0,0E0,0E0],"parents":[2147483647,0,0,1,1,2,2,6,6],"right_children":[2,4,6,-1,-1,-1,8,-1,-1],"split_conditions":[2.77936E3,1E0,1E0,-1.5219429E-2,1.5120366E-2,-1.3051439E-2,2.93378E3,1.0079494E-2,1.467481E-2],"split_indices":[0,15,11,0,0,0,0,0,0],"split_type":[0,0,0,0,0,0,0,0,0],"sum_hessian":[2.852753E3,1.5385763E3,1.3141766E3,1.3946389E3,1.4393744E2,1.1703195E1,1.3024734E3,5.476387E1,1.2477096E3],"tree_param":{"num_deleted":"0","num_feature":"17","num_nodes":"9","size_leaf_vector":"1"}},{"base_weights":[1.2027626E-2,-1.466314E0,1.231423E0,-1.50283845E-2,9.879005E-3,-1.4653996E-2,1.3707955E0,6.657664E-3,1.4577244E-2],"categories":[],"categories_nodes":[],"categories_segments":[],"categories_sizes":[],"default_left":[0,0,0,0,0,0,0,0,0],"id":44,"left_children":[1,3,5,-1,-1,-1,7,-1,-1],"loss_changes":[5.2036587E3,1.2017212E2,5.986067E2,0E0,0E0,0E0,8.9266846E1,0E0,0E0],"parents":[2147483647,0,0,1,1,2,2,6,6],"right_children":[2,4,6,-1,-1,-1,8,-1,-1],"split_conditions":[1.83151E3,1.2047815E4,1E0,-1.50283845E-2,9.879005E-3,-1.4653996E-2,2.88E3,6.657664E-3,1.4577244E-2],"split_indices":[0,8,11,0,0,0,0,0,0],"split_type":[0,0,0,0,0,0,0,0,0],"sum_hessian":[2.882681E3,1.3026229E3,1.580058E3,1.2844857E3,1.8137203E1,7.6533676E1,1.5035243E3,1.6756596E2,1.3359584E3],"tree_param":{"num_deleted":"0","num_feature":"17","num_nodes":"9","size_leaf_vector":"1"}},{"base_weights":[-3.5115317E-2,-1.3778111E0,1.0706615E0,-1.4523216E0,1.4087356E-2,1.1807648E0,-1.4374794E-2,-1.4925169E-2,-5.773951E-3,2.3825197E-3,1.254997E-2],"categories":[],"categories_nodes":[],"categories_segments":[],"categories_sizes":[],"default_left":[0,0,0,0,0,0,0,0,0,0,0],"id":45,"left_children":[1,3,5,7,-1,9,-1,-1,-1,-1,-1],"loss_changes":[4.1310835E3,2.6504224E2,4.245636E2,4.0327393E1,0E0,1.0099451E2,0E0,0E0,0E0,0E0,0E0],"parents":[2147483647,0,0,1,1,2,2,3,3,5,5],"right_children":[2,4,6,8,-1,10,-1,-1,-1,-1,-1],"split_conditions":[2.5939682E0,1E0,1E0,1.6849194E2,1.4087356E-2,3.8191507E0,-1.4374794E-2,-1.4925169E-2,-5.773951E-3,2.3825197E-3,1.254997E-2],"split_indices":[7,15,10,2,0,7,0,0,0,0,0],"split_type":[0,0,0,0,0,0,0,0,0,0,0],"sum_hessian":[2.7783044E3,1.2547173E3,1.5235873E3,1.2231481E3,3.1569157E1,1.4607219E3,6.286543E1,1.1675271E3,5.562096E1,1.0775327E2,1.3529686E3],"tree_param":{"num_deleted":"0","num_feature":"17","num_nodes":"11","size_leaf_vector":"1"}},{"base_weights":[-8.562851E-2,-1.4147061E0,1.1761438E0,-1.4885952E-2,1.4277769E-2,4.8978332E-2,1.4400328E0,-1.6584741E-2,1.48915965E-2,1.0568827E-2,1.4556431E-2],"categories":[],"categories_nodes":[],"categories_segments":[],"categories_sizes":[],"default_left":[0,0,0,0,0,0,0,0,0,0,0],"id":46,"left_children":[1,3,5,-1,-1,7,9,-1,-1,-1,-1],"loss_changes":[4.4957856E3,2.7851733E2,4.081327E2,0E0,0E0,6.523001E2,2.3286133E0,0E0,0E0,0E0,0E0],"parents":[2147483647,0,0,1,1,2,2,5,5,6,6],"right_children":[2,4,6,-1,-1,8,10,-1,-1,-1,-1],"split_conditions":[1.83151E3,1E0,2.93378E3,-1.4885952E-2,1.4277769E-2,4.365162E3,3.2747E3,-1.6584741E-2,1.48915965E-2,1.0568827E-2,1.4556431E-2],"split_indices":[0,15,0,0,0,8,0,0,0,0,0],"split_type":[0,0,0,0,0,0,0,0,0,0,0],"sum_hessian":[2.6768054E3,1.3037085E3,1.373097E3,1.2717777E3,3.1930813E1,2.6129178E2,1.1118052E3,1.1925497E2,1.420368E2,5.0156994E1,1.0616482E3],"tree_param":{"num_deleted":"0","num_feature":"17","num_nodes":"11","size_leaf_vector":"1"}},{"base_weights":[-2.4092188E-2,-1.2441858E0,1.4209325E0,-1.495365E-2,1.4894546E-2,5.2349507E-3,1.4350745E-2],"categories":[],"categories_nodes":[],"categories_segments":[],"categories_sizes":[],"default_left":[0,0,0,0,0,0,0],"id":47,"left_children":[1,3,5,-1,-1,-1,-1],"loss_changes":[4.9297974E3,1.045575E3,1.3762451E1,0E0,0E0,0E0,0E0],"parents":[2147483647,0,0,1,1,2,2],"right_children":[2,4,6,-1,-1,-1,-1],"split_conditions":[2.88E3,1E0,2.93378E3,-1.495365E-2,1.4894546E-2,5.2349507E-3,1.4350745E-2],"split_indices":[0,15,0,0,0,0,0],"split_type":[0,0,0,0,0,0,0],"sum_hessian":[2.7921958E3,1.5142643E3,1.2779315E3,1.3878329E3,1.2643144E2,2.1553627E1,1.2563779E3],"tree_param":{"num_deleted":"0","num_feature":"17","num_nodes":"7","size_leaf_vector":"1"}},{"base_weights":[2.7792033E-2,-1.401211E0,1.2007298E0,-1.473352E-2,1.0129336E-2,-1.444376E-2,1.3421098E0,7.879701E-3,1.4343967E-2],"categories":[],"categories_nodes":[],"categories_segments":[],"categories_sizes":[],"default_left":[0,0,0,0,0,0,0,0,0],"id":48,"left_children":[1,3,5,-1,-1,-1,7,-1,-1],"loss_changes":[4.7995044E3,2.2799731E2,5.9200586E2,0E0,0E0,0E0,7.304297E1,0E0,0E0],"parents":[2147483647,0,0,1,1,2,2,6,6],"right_children":[2,4,6,-1,-1,-1,8,-1,-1],"split_conditions":[1.83151E3,4.365162E3,1E0,-1.473352E-2,1.0129336E-2,-1.444376E-2,2.93378E3,7.879701E-3,1.4343967E-2],"split_indices":[0,8,11,0,0,0,0,0,0],"split_type":[0,0,0,0,0,0,0,0,0],"sum_hessian":[2.859494E3,1.2886733E3,1.5708204E3,1.2522396E3,3.6433746E1,7.8585236E1,1.4922352E3,2.165355E2,1.2756997E3],"tree_param":{"num_deleted":"0","num_feature":"17","num_nodes":"9","size_leaf_vector":"1"}},{"base_weights":[5.165578E-3,-1.1986057E0,1.3838828E0,-1.4801512E-2,1.4811065E-2,-1.2947332E-2,1.4119142E0,9.390508E-3,1.4306533E-2],"categories":[],"categories_nodes":[],"categories_segments":[],"categories_sizes":[],"default_left":[0,0,0,0,0,0,0,0,0],"id":49,"left_children":[1,3,5,-1,-1,-1,7,-1,-1],"loss_changes":[4.6567544E3,1.134373E3,1.0193091E2,0E0,0E0,0E0,7.6086426E0,0E0,0E0],"parents":[2147483647,0,0,1,1,2,2,6,6],"right_children":[2,4,6,-1,-1,-1,8,-1,-1],"split_conditions":[2.77936E3,1E0,1E0,-1.4801512E-2,1.4811065E-2,-1.2947332E-2,2.93378E3,9.390508E-3,1.4306533E-2],"split_indices":[0,15,11,0,0,0,0,0,0],"split_type":[0,0,0,0,0,0,0,0,0],"sum_hessian":[2.8017937E3,1.4957438E3,1.3060498E3,1.3545131E3,1.4123079E2,1.240544E1,1.2936443E3,5.4225178E1,1.2394192E3],"tree_param":{"num_deleted":"0","num_feature":"17","num_nodes":"9","size_leaf_vector":"1"}},{"base_weights":[3.6944926E-2,-1.4236842E0,1.1998621E0,-1.4605438E-2,1.3047343E-2,-1.428273E-2,1.3330386E0,7.232111E-3,1.4246951E-2],"categories":[],"categories_nodes":[],"categories_segments":[],"categories_sizes":[],"default_left":[0,0,0,0,0,0,0,0,0],"id":50,"left_children":[1,3,5,-1,-1,-1,7,-1,-1],"loss_changes":[4.8305615E3,1.3064893E2,5.5798804E2,0E0,0E0,0E0,8.117285E1,0E0,0E0],"parents":[2147483647,0,0,1,1,2,2,6,6],"right_children":[2,4,6,-1,-1,-1,8,-1,-1],"split_conditions":[1.83151E3,1E0,1E0,-1.4605438E-2,1.3047343E-2,-1.428273E-2,2.93378E3,7.232111E-3,1.4246951E-2],"split_indices":[0,15,11,0,0,0,0,0,0],"split_type":[0,0,0,0,0,0,0,0,0],"sum_hessian":[2.8399187E3,1.2584374E3,1.5814814E3,1.242761E3,1.5676445E1,7.515483E1,1.5063265E3,1.998541E2,1.3064724E3],"tree_param":{"num_deleted":"0","num_feature":"17","num_nodes":"9","size_leaf_vector":"1"}},{"base_weights":[2.770328E-2,-1.4433117E-2,7.235032E-1,8.2716286E-1,-1.4208749E-2,9.384775E-3,-1.406146E-2],"categories":[],"categories_nodes":[],"categories_segments":[],"categories_sizes":[],"default_left":[0,0,0,0,0,0,0],"id":51,"left_children":[1,-1,3,5,-1,-1,-1],"loss_changes":[2.85406E3,0E0,4.2293915E2,4.517799E2,0E0,0E0,0E0],"parents":[2147483647,0,0,2,2,3,3],"right_children":[2,-1,4,6,-1,-1,-1],"split_conditions":[1E0,-1.4433117E-2,1E0,1E0,-1.4208749E-2,9.384775E-3,-1.406146E-2],"split_indices":[11,0,16,13,0,0,0],"split_type":[0,0,0,0,0,0,0],"sum_hessian":[2.7847532E3,8.933093E2,1.891444E3,1.8056215E3,8.5822464E1,1.7212146E3,8.44069E1],"tree_param":{"num_deleted":"0","num_feature":"17","num_nodes":"7","size_leaf_vector":"1"}},{"base_weights":[-6.2908395E-3,-1.2400632E0,1.3662907E0,-1.4264947E0,1.2924225E0,-1.2685971E-2,1.3936509E0,-1.461445E-2,-7.6534534E-3,6.7186616E-3,1.42501425E-2,9.806306E-3,1.4093227E-2],"categories":[],"categories_nodes":[],"categories_segments":[],"categories_sizes":[],"default_left":[0,0,0,0,0,0,0,0,0,0,0,0,0],"id":52,"left_children":[1,3,5,7,9,-1,11,-1,-1,-1,-1,-1,-1],"loss_changes":[4.650588E3,6.8667114E2,9.730347E1,2.7807373E1,5.268524E0,0E0,4.375E0,0E0,0E0,0E0,0E0,0E0,0E0],"parents":[2147483647,0,0,1,1,2,2,3,3,4,4,6,6],"right_children":[2,4,6,8,10,-1,12,-1,-1,-1,-1,-1,-1],"split_conditions":[2.77936E3,4.365162E3,1E0,2.3E1,2.6637206E0,-1.2685971E-2,2.93378E3,-1.461445E-2,-7.6534534E-3,6.7186616E-3,1.42501425E-2,9.806306E-3,1.4093227E-2],"split_indices":[0,8,11,3,7,0,0,0,0,0,0,0,0],"split_type":[0,0,0,0,0,0,0,0,0,0,0,0,0],"sum_hessian":[2.7422522E3,1.4444431E3,1.2978092E3,1.3463976E3,9.804556E1,1.2217428E1,1.2855917E3,1.275779E3,7.061852E1,2.0061052E1,7.798451E1,5.2812164E1,1.2327795E3],"tree_param":{"num_deleted":"0","num_feature":"17","num_nodes":"13","size_leaf_vector":"1"}},{"base_weights":[-1.0525224E-2,-1.3734571E0,1.1675783E0,-1.4438182E-2,1.3684413E-2,-1.4084251E-2,1.3098879E0,7.1539013E-3,1.4061583E-2],"categories":[],"categories_nodes":[],"categories_segments":[],"categories_sizes":[],"default_left":[0,0,0,0,0,0,0,0,0],"id":53,"left_children":[1,3,5,-1,-1,-1,7,-1,-1],"loss_changes":[4.4092124E3,2.4963818E2,5.4350183E2,0E0,0E0,0E0,7.686865E1,0E0,0E0],"parents":[2147483647,0,0,1,1,2,2,6,6],"right_children":[2,4,6,-1,-1,-1,8,-1,-1],"split_conditions":[1.83151E3,1E0,1E0,-1.4438182E-2,1.3684413E-2,-1.4084251E-2,2.93378E3,7.1539013E-3,1.4061583E-2],"split_indices":[0,15,11,0,0,0,0,0,0],"split_type":[0,0,0,0,0,0,0,0,0],"sum_hessian":[2.741957E3,1.2713002E3,1.470657E3,1.2405939E3,3.070626E1,7.5876595E1,1.3947804E3,1.9746065E2,1.1973197E3],"tree_param":{"num_deleted":"0","num_feature":"17","num_nodes":"9","size_leaf_vector":"1"}},{"base_weights":[-2.9704135E-3,-1.1469662E0,1.3647871E0,-1.4517236E-2,1.4558956E-2,5.2216035E-1,1.3933767E-2,-1.5559652E-2,1.3701071E-2],"categories":[],"categories_nodes":[],"categories_segments":[],"categories_sizes":[],"default_left":[0,0,0,0,0,0,0,0,0],"id":54,"left_children":[1,3,5,-1,-1,7,-1,-1,-1],"loss_changes":[4.2511177E3,1.1779755E3,2.7393066E1,0E0,0E0,8.2363815E1,0E0,0E0,0E0],"parents":[2147483647,0,0,1,1,2,2,5,5],"right_children":[2,4,6,-1,-1,8,-1,-1,-1],"split_conditions":[2.83236E3,1E0,2.93378E3,-1.4517236E-2,1.4558956E-2,1.2175956E1,1.3933767E-2,-1.5559652E-2,1.3701071E-2],"split_indices":[0,15,0,0,0,8,0,0,0],"split_type":[0,0,0,0,0,0,0,0,0],"sum_hessian":[2.7129434E3,1.477689E3,1.2352543E3,1.3237712E3,1.539178E2,4.2373924E1,1.1928804E3,1.1624729E1,3.0749195E1],"tree_param":{"num_deleted":"0","num_feature":"17","num_nodes":"9","size_leaf_vector":"1"}},{"base_weights":[6.509539E-2,-1.1664001E0,1.3539915E0,-1.4437528E-2,1.4457069E-2,-1.263952E-2,1.3797706E0,9.342826E-3,1.395825E-2],"categories":[],"categories_nodes":[],"categories_segments":[],"categories_sizes":[],"default_left":[0,0,0,0,0,0,0,0,0],"id":55,"left_children":[1,3,5,-1,-1,-1,7,-1,-1],"loss_changes":[4.491309E3,1.0523728E3,9.686206E1,0E0,0E0,0E0,6.0273438E0,0E0,0E0],"parents":[2147483647,0,0,1,1,2,2,6,6],"right_children":[2,4,6,-1,-1,-1,8,-1,-1],"split_conditions":[2.77936E3,1E0,1E0,-1.4437528E-2,1.4457069E-2,-1.263952E-2,2.93378E3,9.342826E-3,1.395825E-2],"split_indices":[0,15,11,0,0,0,0,0,0],"split_type":[0,0,0,0,0,0,0,0,0],"sum_hessian":[2.8255325E3,1.4448401E3,1.3806924E3,1.3071349E3,1.377052E2,1.2337469E1,1.368355E3,5.279856E1,1.3155564E3],"tree_param":{"num_deleted":"0","num_feature":"17","num_nodes":"9","size_leaf_vector":"1"}},{"base_weights":[-3.7859874E-3,-1.1646471E0,1.3544543E0,-1.403736E0,1.3122776E0,5.1609236E-1,1.3824731E-2,-1.4384472E-2,-7.520081E-3,6.5664463E-3,1.41483E-2,-1.574622E-2,1.359118E-2],"categories":[],"categories_nodes":[],"categories_segments":[],"categories_sizes":[],"default_left":[0,0,0,0,0,0,0,0,0,0,0,0,0],"id":56,"left_children":[1,3,5,7,9,11,-1,-1,-1,-1,-1,-1,-1],"loss_changes":[4.2413525E3,8.6278064E2,2.6737793E1,2.6694092E1,5.7490845E0,8.1462715E1,0E0,0E0,0E0,0E0,0E0,0E0,0E0],"parents":[2147483647,0,0,1,1,2,2,3,3,4,4,5,5],"right_children":[2,4,6,8,10,12,-1,-1,-1,-1,-1,-1,-1],"split_conditions":[2.83236E3,4.365162E3,2.93378E3,2.3E1,1.5422164E0,1.2175956E1,1.3824731E-2,-1.4384472E-2,-7.520081E-3,6.5664463E-3,1.41483E-2,-1.574622E-2,1.359118E-2],"split_indices":[0,8,0,3,7,8,0,0,0,0,0,0,0],"split_type":[0,0,0,0,0,0,0,0,0,0,0,0,0],"sum_hessian":[2.6860298E3,1.4485963E3,1.2374335E3,1.3220516E3,1.265446E2,4.1852E1,1.1955815E3,1.2521787E3,6.9873E1,1.9778595E1,1.0676601E2,1.1357214E1,3.0494785E1],"tree_param":{"num_deleted":"0","num_feature":"17","num_nodes":"13","size_leaf_vector":"1"}},{"base_weights":[-5.3895388E-2,-1.3166429E0,1.1541822E0,-1.4207962E-2,1.3840038E-2,-1.3823621E-2,1.2912146E0,7.2553987E-3,1.3807951E-2],"categories":[],"categories_nodes":[],"categories_segments":[],"categories_sizes":[],"default_left":[0,0,0,0,0,0,0,0,0],"id":57,"left_children":[1,3,5,-1,-1,-1,7,-1,-1],"loss_changes":[3.9140542E3,3.5685498E2,4.5924146E2,0E0,0E0,0E0,6.003711E1,0E0,0E0],"parents":[2147483647,0,0,1,1,2,2,6,6],"right_children":[2,4,6,-1,-1,-1,8,-1,-1],"split_conditions":[1.99614E3,1E0,1E0,-1.4207962E-2,1.3840038E-2,-1.3823621E-2,2.93378E3,7.2553987E-3,1.3807951E-2],"split_indices":[0,15,11,0,0,0,0,0,0],"split_type":[0,0,0,0,0,0,0,0,0],"sum_hessian":[2.5617112E3,1.2526296E3,1.3090817E3,1.2072054E3,4.5424206E1,6.5977516E1,1.2431041E3,1.7319702E2,1.0699071E3],"tree_param":{"num_deleted":"0","num_feature":"17","num_nodes":"9","size_leaf_vector":"1"}},{"base_weights":[3.371005E-2,-1.2250426E0,1.0459405E0,-1.293168E0,1.0080623E-2,-1.3876536E-2,1.2425809E0,-2.385765E-3,-1.4065461E-2,1.0013178E-2,1.3166024E-2],"categories":[],"categories_nodes":[],"categories_segments":[],"categories_sizes":[],"default_left":[0,0,0,0,0,0,0,0,0,0,0],"id":58,"left_children":[1,3,5,7,-1,-1,9,-1,-1,-1,-1],"loss_changes":[3.413263E3,1.8437402E2,7.1403723E2,1.3715894E2,0E0,0E0,2.0764893E1,0E0,0E0,0E0,0E0],"parents":[2147483647,0,0,1,1,2,2,3,3,6,6],"right_children":[2,4,6,8,-1,-1,10,-1,-1,-1,-1],"split_conditions":[2.6637206E0,4.365162E3,1E0,3.2696667E1,1.0080623E-2,-1.3876536E-2,6.754919E0,-2.385765E-3,-1.4065461E-2,1.0013178E-2,1.3166024E-2],"split_indices":[7,8,11,6,0,0,7,0,0,0,0],"split_type":[0,0,0,0,0,0,0,0,0,0,0],"sum_hessian":[2.674919E3,1.1918666E3,1.4830524E3,1.1576168E3,3.4249725E1,1.0977956E2,1.3732728E3,1.1340399E2,1.0442129E3,3.3082E2,1.0424528E3],"tree_param":{"num_deleted":"0","num_feature":"17","num_nodes":"11","size_leaf_vector":"1"}},{"base_weights":[3.305763E-2,-1.1774015E0,1.342866E0,-1.4231347E-2,1.42373545E-2,5.019765E-1,1.3695341E-2,-1.5217191E-2,1.3447188E-2],"categories":[],"categories_nodes":[],"categories_segments":[],"categories_sizes":[],"default_left":[0,0,0,0,0,0,0,0,0],"id":59,"left_children":[1,3,5,-1,-1,7,-1,-1,-1],"loss_changes":[4.300264E3,9.049275E2,2.6905762E1,0E0,0E0,7.86723E1,0E0,0E0,0E0],"parents":[2147483647,0,0,1,1,2,2,5,5],"right_children":[2,4,6,-1,-1,8,-1,-1,-1],"split_conditions":[2.83236E3,1E0,2.93378E3,-1.4231347E-2,1.42373545E-2,1.2175956E1,1.3695341E-2,-1.5217191E-2,1.3447188E-2],"split_indices":[0,15,0,0,0,8,0,0,0],"split_type":[0,0,0,0,0,0,0,0,0],"sum_hessian":[2.7082505E3,1.4074116E3,1.3008389E3,1.2869314E3,1.2048024E2,4.178202E1,1.2590568E3,1.16358795E1,3.0146141E1],"tree_param":{"num_deleted":"0","num_feature":"17","num_nodes":"9","size_leaf_vector":"1"}},{"base_weights":[-8.040517E-3,-1.0984864E0,1.36156855E-2,-1.4197073E-2,1.4240409E-2],"categories":[],"categories_nodes":[],"categories_segments":[],"categories_sizes":[],"default_left":[0,0,0,0,0],"id":60,"left_children":[1,3,-1,-1,-1],"loss_changes":[3.939437E3,1.1941781E3,0E0,0E0,0E0],"parents":[2147483647,0,0,1,1],"right_children":[2,4,-1,-1,-1],"split_conditions":[2.93378E3,1E0,1.36156855E-2,-1.4197073E-2,1.4240409E-2],"split_indices":[0,15,0,0,0],"split_type":[0,0,0,0,0],"sum_hessian":[2.6338335E3,1.4667821E3,1.1670515E3,1.3020504E3,1.6473163E2],"tree_param":{"num_deleted":"0","num_feature":"17","num_nodes":"5","size_leaf_vector":"1"}},{"base_weights":[2.4238259E-2,-1.1664027E0,1.317792E0,-1.4104125E-2,1.4105867E-2,5.220154E-1,1.3570242E-2,1.366423E-2,-1.55683225E-2],"categories":[],"categories_nodes":[],"categories_segments":[],"categories_sizes":[],"default_left":[0,0,0,0,0,0,0,0,0],"id":61,"left_children":[1,3,5,-1,-1,7,-1,-1,-1],"loss_changes":[4.1143564E3,8.7854224E2,3.7621826E1,0E0,0E0,1.16527885E2,0E0,0E0,0E0],"parents":[2147483647,0,0,1,1,2,2,5,5],"right_children":[2,4,6,-1,-1,8,-1,-1,-1],"split_conditions":[2.77936E3,1E0,2.93378E3,-1.4104125E-2,1.4105867E-2,1E0,1.3570242E-2,1.366423E-2,-1.55683225E-2],"split_indices":[0,15,0,0,0,14,0,0,0],"split_type":[0,0,0,0,0,0,0,0,0],"sum_hessian":[2.6673408E3,1.3888214E3,1.2785193E3,1.2696959E3,1.19125496E2,6.201324E1,1.216506E3,4.475864E1,1.72546E1],"tree_param":{"num_deleted":"0","num_feature":"17","num_nodes":"9","size_leaf_vector":"1"}},{"base_weights":[1.4541179E-2,-1.1326668E0,1.3136331E0,-1.4047355E-2,1.4086635E-2,5.435081E-1,1.3524005E-2,-1.5549625E-2,1.3603538E-2],"categories":[],"categories_nodes":[],"categories_segments":[],"categories_sizes":[],"default_left":[0,0,0,0,0,0,0,0,0],"id":62,"left_children":[1,3,5,-1,-1,7,-1,-1,-1],"loss_changes":[3.9080378E3,9.666249E2,3.430127E1,0E0,0E0,1.11962875E2,0E0,0E0,0E0],"parents":[2147483647,0,0,1,1,2,2,5,5],"right_children":[2,4,6,-1,-1,8,-1,-1,-1],"split_conditions":[2.77936E3,1E0,2.93378E3,-1.4047355E-2,1.4086635E-2,1.2175956E1,1.3524005E-2,-1.5549625E-2,1.3603538E-2],"split_indices":[0,15,0,0,0,8,0,0,0],"split_type":[0,0,0,0,0,0,0,0,0],"sum_hessian":[2.618208E3,1.3903143E3,1.2278938E3,1.2568502E3,1.3346414E2,6.0906425E1,1.1669873E3,1.6387558E1,4.4518867E1],"tree_param":{"num_deleted":"0","num_feature":"17","num_nodes":"9","size_leaf_vector":"1"}},{"base_weights":[3.2725282E-2,-1.1571302E0,1.323162E0,-1.3992589E-2,1.39946295E-2,5.056963E-1,1.3488468E-2,-1.5119883E-2,1.32001005E-2],"categories":[],"categories_nodes":[],"categories_segments":[],"categories_sizes":[],"default_left":[0,0,0,0,0,0,0,0,0],"id":63,"left_children":[1,3,5,-1,-1,7,-1,-1,-1],"loss_changes":[4.0637786E3,8.561874E2,2.4370605E1,0E0,0E0,7.368329E1,0E0,0E0,0E0],"parents":[2147483647,0,0,1,1,2,2,5,5],"right_children":[2,4,6,-1,-1,8,-1,-1,-1],"split_conditions":[2.83236E3,1E0,2.93378E3,-1.3992589E-2,1.39946295E-2,1.2175956E1,1.3488468E-2,-1.5119883E-2,1.32001005E-2],"split_indices":[0,15,0,0,0,8,0,0,0],"split_type":[0,0,0,0,0,0,0,0,0],"sum_hessian":[2.6426174E3,1.3747965E3,1.267821E3,1.256863E3,1.1793349E2,4.0474983E1,1.227346E3,1.0968927E1,2.9506058E1],"tree_param":{"num_deleted":"0","num_feature":"17","num_nodes":"9","size_leaf_vector":"1"}},{"base_weights":[-5.3031105E-3,-1.1961101E0,9.975979E-1,-1.3010887E0,1.3656999E-2,-1.355929E-2,1.203094E0,-5.054257E-3,-1.3736299E-2,9.287263E-3,1.2722524E-2],"categories":[],"categories_nodes":[],"categories_segments":[],"categories_sizes":[],"default_left":[0,0,0,0,0,0,0,0,0,0,0],"id":64,"left_children":[1,3,5,7,-1,-1,9,-1,-1,-1,-1],"loss_changes":[3.0394446E3,3.1648328E2,6.7121643E2,6.2264893E1,0E0,0E0,2.066455E1,0E0,0E0,0E0,0E0],"parents":[2147483647,0,0,1,1,2,2,3,3,6,6],"right_children":[2,4,6,8,-1,-1,10,-1,-1,-1,-1],"split_conditions":[2.6637206E0,1E0,1E0,3.2696667E1,1.3656999E-2,-1.355929E-2,6.4541373E0,-5.054257E-3,-1.3736299E-2,9.287263E-3,1.2722524E-2],"split_indices":[7,15,11,6,0,0,7,0,0,0,0],"split_type":[0,0,0,0,0,0,0,0,0,0,0],"sum_hessian":[2.5409595E3,1.1617063E3,1.3792532E3,1.1171085E3,4.4597786E1,1.0966308E2,1.2695901E3,9.524535E1,1.0218632E3,2.628581E2,1.006732E3],"tree_param":{"num_deleted":"0","num_feature":"17","num_nodes":"11","size_leaf_vector":"1"}},{"base_weights":[7.536193E-3,-1.1779978E0,1.3132395E0,-1.3901442E-2,1.3858502E-2,4.9384984E-1,1.3397652E-2,-1.4888965E-2,1.3093001E-2],"categories":[],"categories_nodes":[],"categories_segments":[],"categories_sizes":[],"default_left":[0,0,0,0,0,0,0,0,0],"id":65,"left_children":[1,3,5,-1,-1,7,-1,-1,-1],"loss_changes":[3.9967358E3,7.397821E2,2.4469482E1,0E0,0E0,7.218961E1,0E0,0E0,0E0],"parents":[2147483647,0,0,1,1,2,2,5,5],"right_children":[2,4,6,-1,-1,8,-1,-1,-1],"split_conditions":[2.83236E3,1E0,2.93378E3,-1.3901442E-2,1.3858502E-2,1.2175956E1,1.3397652E-2,-1.4888965E-2,1.3093001E-2],"split_indices":[0,15,0,0,0,8,0,0,0],"split_type":[0,0,0,0,0,0,0,0,0],"sum_hessian":[2.5779023E3,1.3510278E3,1.2268745E3,1.2488057E3,1.0222222E2,4.0292973E1,1.1865815E3,1.1082147E1,2.9210825E1],"tree_param":{"num_deleted":"0","num_feature":"17","num_nodes":"9","size_leaf_vector":"1"}},{"base_weights":[1.2666768E-2,-1.1015246E0,1.33569855E-2,-1.3885628E-2,1.3795707E-2],"categories":[],"categories_nodes":[],"categories_segments":[],"categories_sizes":[],"default_left":[0,0,0,0,0],"id":66,"left_children":[1,3,-1,-1,-1],"loss_changes":[3.8022302E3,1.0008318E3,0E0,0E0,0E0],"parents":[2147483647,0,0,1,1],"right_children":[2,4,-1,-1,-1],"split_conditions":[2.93378E3,1E0,1.33569855E-2,-1.3885628E-2,1.3795707E-2],"split_indices":[0,15,0,0,0],"split_type":[0,0,0,0,0],"sum_hessian":[2.575263E3,1.3979424E3,1.1773204E3,1.2539545E3,1.4398796E2],"tree_param":{"num_deleted":"0","num_feature":"17","num_nodes":"5","size_leaf_vector":"1"}},{"base_weights":[1.6595446E-2,-1.3603058E-2,1.0267615E0,-1.34245E-2,1.1979604E0,6.1984407E-3,1.3339339E-2],"categories":[],"categories_nodes":[],"categories_segments":[],"categories_sizes":[],"default_left":[0,0,0,0,0,0,0],"id":67,"left_children":[1,-1,3,-1,5,-1,-1],"loss_changes":[3.5706836E3,0E0,6.038678E2,0E0,1.0604541E2,0E0,0E0],"parents":[2147483647,0,0,2,2,4,4],"right_children":[2,-1,4,-1,6,-1,-1],"split_conditions":[1.27736E3,-1.3603058E-2,1E0,-1.34245E-2,2.93378E3,6.1984407E-3,1.3339339E-2],"split_indices":[0,0,11,0,0,0,0],"split_type":[0,0,0,0,0,0,0],"sum_hessian":[2.5632886E3,1.084237E3,1.4790514E3,9.855468E1,1.3804967E3,2.6568457E2,1.1148121E3],"tree_param":{"num_deleted":"0","num_feature":"17","num_nodes":"7","size_leaf_vector":"1"}},{"base_weights":[-1.2715791E-2,-1.1896322E0,1.2865748E0,-1.3737235E-2,1.3693278E-2,-1.2061894E-2,1.3133435E0,8.576812E-3,1.3317042E-2],"categories":[],"categories_nodes":[],"categories_segments":[],"categories_sizes":[],"default_left":[0,0,0,0,0,0,0,0,0],"id":68,"left_children":[1,3,5,-1,-1,-1,7,-1,-1],"loss_changes":[3.812125E3,6.200762E2,8.227466E1,0E0,0E0,0E0,6.4368896E0,0E0,0E0],"parents":[2147483647,0,0,1,1,2,2,6,6],"right_children":[2,4,6,-1,-1,-1,8,-1,-1],"split_conditions":[2.77936E3,1E0,1E0,-1.3737235E-2,1.3693278E-2,-1.2061894E-2,2.93378E3,8.576812E-3,1.3317042E-2],"split_indices":[0,15,11,0,0,0,0,0,0],"split_type":[0,0,0,0,0,0,0,0,0],"sum_hessian":[2.4889895E3,1.3062882E3,1.1827013E3,1.2196672E3,8.662103E1,1.143088E1,1.1712704E3,5.0118988E1,1.1211514E3],"tree_param":{"num_deleted":"0","num_feature":"17","num_nodes":"9","size_leaf_vector":"1"}},{"base_weights":[5.7650745E-2,-1.0801165E0,1.2985886E0,-1.3350582E0,1.2643745E0,5.343412E-1,1.3216808E-2,-1.3688038E-2,-7.099091E-3,6.3268845E-3,1.3491537E-2,9.957103E-4,1.1150208E-2],"categories":[],"categories_nodes":[],"categories_segments":[],"categories_sizes":[],"default_left":[0,0,0,0,0,0,0,0,0,0,0,0,0],"id":69,"left_children":[1,3,5,7,9,11,-1,-1,-1,-1,-1,-1,-1],"loss_changes":[3.6846304E3,8.170415E2,1.9691162E1,2.2942383E1,4.4963684E0,9.422347E0,0E0,0E0,0E0,0E0,0E0,0E0,0E0],"parents":[2147483647,0,0,1,1,2,2,3,3,4,4,5,5],"right_children":[2,4,6,8,10,12,-1,-1,-1,-1,-1,-1,-1],"split_conditions":[2.83236E3,4.365162E3,2.93378E3,2.3E1,9.8982316E-1,1.0393225E3,1.3216808E-2,-1.3688038E-2,-7.099091E-3,6.3268845E-3,1.3491537E-2,9.957103E-4,1.1150208E-2],"split_indices":[0,8,0,3,7,6,0,0,0,0,0,0,0],"split_type":[0,0,0,0,0,0,0,0,0,0,0,0,0],"sum_hessian":[2.605635E3,1.3592491E3,1.2463859E3,1.2269086E3,1.3234056E2,3.860683E1,1.207779E3,1.1610555E3,6.585296E1,1.8360512E1,1.1398005E2,2.3909307E1,1.4697522E1],"tree_param":{"num_deleted":"0","num_feature":"17","num_nodes":"13","size_leaf_vector":"1"}},{"base_weights":[8.760317E-3,-1.1541553E0,1.0846832E0,-1.2462275E0,9.950764E-1,1.1500092E0,-1.2609682E-2,-4.991494E-3,-1.3122314E-2,1.2445822E-2,5.195731E-3,1.0566095E-2,1.3087268E-2],"categories":[],"categories_nodes":[],"categories_segments":[],"categories_sizes":[],"default_left":[0,0,0,0,0,0,0,0,0,0,0,0,0],"id":70,"left_children":[1,3,5,7,9,11,-1,-1,-1,-1,-1,-1,-1],"loss_changes":[3.1295923E3,2.4042993E2,2.0196265E2,5.4666992E1,3.787506E0,1.4811768E1,0E0,0E0,0E0,0E0,0E0,0E0,0E0],"parents":[2147483647,0,0,1,1,2,2,3,3,4,4,5,5],"right_children":[2,4,6,8,10,12,-1,-1,-1,-1,-1,-1,-1],"split_conditions":[3.8191507E0,4.365162E3,1E0,3.2696667E1,4.4197333E2,9.1690445E0,-1.2609682E-2,-4.991494E-3,-1.3122314E-2,1.2445822E-2,5.195731E-3,1.0566095E-2,1.3087268E-2],"split_indices":[7,8,10,6,6,8,0,0,0,0,0,0,0],"split_type":[0,0,0,0,0,0,0,0,0,0,0,0,0],"sum_hessian":[2.4972847E3,1.1998317E3,1.297453E3,1.1515717E3,4.8259987E1,1.2634974E3,3.3955585E1,9.548672E1,1.056085E3,2.8840502E1,1.9419485E1,8.0704474E2,4.5645267E2],"tree_param":{"num_deleted":"0","num_feature":"17","num_nodes":"13","size_leaf_vector":"1"}},{"base_weights":[-5.4266714E-2,-1.2675711E0,9.4931555E-1,-4.9874374E-1,-1.3395476E-2,-1.3276987E-2,1.1607656E0,6.0807E-3,-1.33701265E-2,1.3474424E-3,1.1791345E-2],"categories":[],"categories_nodes":[],"categories_segments":[],"categories_sizes":[],"default_left":[0,0,0,0,0,0,0,0,0,0,0],"id":71,"left_children":[1,3,5,7,-1,-1,9,-1,-1,-1,-1],"loss_changes":[2.8808337E3,5.7020264E1,6.263268E2,9.0575424E1,0E0,0E0,2.1375366E1,0E0,0E0,0E0,0E0],"parents":[2147483647,0,0,1,1,2,2,3,3,6,6],"right_children":[2,4,6,8,-1,-1,10,-1,-1,-1,-1],"split_conditions":[2.5939682E0,3.2696667E1,1E0,-5.458009E1,-1.3395476E-2,-1.3276987E-2,9.577E1,6.0807E-3,-1.33701265E-2,1.3474424E-3,1.1791345E-2],"split_indices":[7,6,11,1,0,0,6,0,0,0,0],"split_type":[0,0,0,0,0,0,0,0,0,0,0],"sum_hessian":[2.3617878E3,1.0691663E3,1.2926216E3,9.347772E1,9.756886E2,1.0873875E2,1.1838828E3,4.026557E1,5.321215E1,2.15942E1,1.1622886E3],"tree_param":{"num_deleted":"0","num_feature":"17","num_nodes":"11","size_leaf_vector":"1"}},{"base_weights":[-5.4626517E-2,-1.2357943E0,9.7704667E-1,-1.3404252E-2,1.3117582E-2,-1.3211414E-2,1.1718315E0,7.998646E-3,1.2165842E-2],"categories":[],"categories_nodes":[],"categories_segments":[],"categories_sizes":[],"default_left":[0,0,0,0,0,0,0,0,0],"id":72,"left_children":[1,3,5,-1,-1,-1,7,-1,-1],"loss_changes":[2.8872002E3,2.9800842E2,5.6906335E2,0E0,0E0,0E0,1.6470947E1,0E0,0E0],"parents":[2147483647,0,0,1,1,2,2,6,6],"right_children":[2,4,6,-1,-1,-1,8,-1,-1],"split_conditions":[2.929461E0,1E0,1E0,-1.3404252E-2,1.3117582E-2,-1.3211414E-2,4.8537025E0,7.998646E-3,1.2165842E-2],"split_indices":[7,15,11,0,0,0,7,0,0],"split_type":[0,0,0,0,0,0,0,0,0],"sum_hessian":[2.3652292E3,1.1027614E3,1.2624679E3,1.0603552E3,4.2406094E1,9.753691E1,1.164931E3,1.3035866E2,1.0345724E3],"tree_param":{"num_deleted":"0","num_feature":"17","num_nodes":"9","size_leaf_vector":"1"}},{"base_weights":[4.6665262E-2,-1.3328031E-2,1.0184199E0,1.0197508E-1,1.3048197E-2,-1.5095947E-2,1.3654994E-2],"categories":[],"categories_nodes":[],"categories_segments":[],"categories_sizes":[],"default_left":[0,0,0,0,0,0,0],"id":73,"left_children":[1,-1,3,5,-1,-1,-1],"loss_changes":[3.355418E3,0E0,3.845465E2,7.214449E2,0E0,0E0,0E0],"parents":[2147483647,0,0,2,2,3,3],"right_children":[2,-1,4,6,-1,-1,-1],"split_conditions":[1.27736E3,-1.3328031E-2,2.93378E3,1E0,1.3048197E-2,-1.5095947E-2,1.3654994E-2],"split_indices":[0,0,0,15,0,0,0],"split_type":[0,0,0,0,0,0,0],"sum_hessian":[2.4991926E3,1.0323904E3,1.4668024E3,3.5031012E2,1.1164922E3,1.536065E2,1.967036E2],"tree_param":{"num_deleted":"0","num_feature":"17","num_nodes":"7","size_leaf_vector":"1"}},{"base_weights":[4.7362495E-2,-1.0737488E0,1.0584301E0,-1.3199217E-2,-6.910543E-1,-1.30626345E-2,1.1941857E0,4.799089E-5,-1.2031271E-2,3.7705551E-3,1.2052653E-2],"categories":[],"categories_nodes":[],"categories_segments":[],"categories_sizes":[],"default_left":[0,0,0,0,0,0,0,0,0,0,0],"id":74,"left_children":[1,3,5,-1,7,-1,9,-1,-1,-1,-1],"loss_changes":[2.8590159E3,1.09829834E2,4.288662E2,0E0,1.6919373E2,0E0,9.667847E0,0E0,0E0,0E0,0E0],"parents":[2147483647,0,0,1,1,2,2,4,4,6,6],"right_children":[2,4,6,-1,8,-1,10,-1,-1,-1,-1],"split_conditions":[3.8191507E0,1E0,1E0,-1.3199217E-2,-7.3141815E1,-1.30626345E-2,7.406E1,4.799089E-5,-1.2031271E-2,3.7705551E-3,1.2052653E-2],"split_indices":[7,11,11,0,2,0,6,0,0,0,0],"split_type":[0,0,0,0,0,0,0,0,0,0,0],"sum_hessian":[2.5182488E3,1.1938466E3,1.3244022E3,7.227342E2,4.711123E2,7.0768936E1,1.2536333E3,2.0014333E2,2.7096896E2,1.8311937E1,1.2353214E3],"tree_param":{"num_deleted":"0","num_feature":"17","num_nodes":"11","size_leaf_vector":"1"}},{"base_weights":[3.4508504E-2,-1.0600593E0,1.2627193E0,-1.3437431E-2,1.2492944E0,5.5085653E-1,1.2972649E-2,6.0866545E-3,1.3288337E-2,-1.5159454E-2,1.3037372E-2],"categories":[],"categories_nodes":[],"categories_segments":[],"categories_sizes":[],"default_left":[0,0,0,0,0,0,0,0,0,0,0],"id":75,"left_children":[1,3,5,-1,7,9,-1,-1,-1,-1,-1],"loss_changes":[3.3406375E3,8.640636E2,2.64469E1,0E0,4.7801056E0,9.464088E1,0E0,0E0,0E0,0E0,0E0],"parents":[2147483647,0,0,1,1,2,2,4,4,5,5],"right_children":[2,4,6,-1,8,10,-1,-1,-1,-1,-1],"split_conditions":[2.77936E3,4.365162E3,2.93378E3,-1.3437431E-2,1.5422164E0,1.2175956E1,1.2972649E-2,6.0866545E-3,1.3288337E-2,-1.5159454E-2,1.3037372E-2],"split_indices":[0,8,0,0,7,8,0,0,0,0,0],"split_type":[0,0,0,0,0,0,0,0,0,0,0],"sum_hessian":[2.480861E3,1.3117292E3,1.1691318E3,1.1691609E3,1.4256842E2,5.634895E1,1.112783E3,1.8351542E1,1.2421689E2,1.432711E1,4.2021835E1],"tree_param":{"num_deleted":"0","num_feature":"17","num_nodes":"11","size_leaf_vector":"1"}},{"base_weights":[3.8465485E-2,-1.0519485E0,1.2529737E0,-1.3402689E-2,1.3471518E-2,-1.1681813E-2,1.2780682E0,7.8995135E-3,1.2978569E-2],"categories":[],"categories_nodes":[],"categories_segments":[],"categories_sizes":[],"default_left":[0,0,0,0,0,0,0,0,0],"id":76,"left_children":[1,3,5,-1,-1,-1,7,-1,-1],"loss_changes":[3.2679714E3,9.0285925E2,7.3979126E1,0E0,0E0,0E0,8.078857E0,0E0,0E0],"parents":[2147483647,0,0,1,1,2,2,6,6],"right_children":[2,4,6,-1,-1,-1,8,-1,-1],"split_conditions":[2.77936E3,1E0,1E0,-1.3402689E-2,1.3471518E-2,-1.1681813E-2,2.93378E3,7.8995135E-3,1.2978569E-2],"split_indices":[0,15,11,0,0,0,0,0,0],"split_type":[0,0,0,0,0,0,0,0,0],"sum_hessian":[2.4635996E3,1.2980425E3,1.1655571E3,1.1597559E3,1.3828665E2,1.0817746E1,1.1547394E3,4.9163338E1,1.1055759E3],"tree_param":{"num_deleted":"0","num_feature":"17","num_nodes":"9","size_leaf_vector":"1"}},{"base_weights":[-5.3100925E-2,-1.1314355E0,1.2439858E0,-1.3347257E-2,1.320327E-2,-1.1430464E-2,1.2704633E0,7.843995E-3,1.29254395E-2],"categories":[],"categories_nodes":[],"categories_segments":[],"categories_sizes":[],"default_left":[0,0,0,0,0,0,0,0,0],"id":77,"left_children":[1,3,5,-1,-1,-1,7,-1,-1],"loss_changes":[3.2183962E3,6.298607E2,6.897705E1,0E0,0E0,0E0,8.032471E0,0E0,0E0],"parents":[2147483647,0,0,1,1,2,2,6,6],"right_children":[2,4,6,-1,-1,-1,8,-1,-1],"split_conditions":[2.77936E3,1E0,1E0,-1.3347257E-2,1.320327E-2,-1.1430464E-2,2.93378E3,7.843995E-3,1.29254395E-2],"split_indices":[0,15,11,0,0,0,0,0,0],"split_type":[0,0,0,0,0,0,0,0,0],"sum_hessian":[2.2970298E3,1.2546313E3,1.0423984E3,1.1595974E3,9.503392E1,1.0303266E1,1.0320952E3,4.900652E1,9.830886E2],"tree_param":{"num_deleted":"0","num_feature":"17","num_nodes":"9","size_leaf_vector":"1"}},{"base_weights":[7.309964E-3,-1.1395342E0,1.0151632E0,-1.2416022E0,1.3221019E-2,-1.289069E-2,1.1724777E0,-4.6684253E-3,-1.3128904E-2,8.071882E-3,1.2019069E-2],"categories":[],"categories_nodes":[],"categories_segments":[],"categories_sizes":[],"default_left":[0,0,0,0,0,0,0,0,0,0,0],"id":78,"left_children":[1,3,5,7,-1,-1,9,-1,-1,-1,-1],"loss_changes":[2.7250183E3,2.8026392E2,4.5791943E2,5.6422974E1,0E0,0E0,9.698853E0,0E0,0E0,0E0,0E0],"parents":[2147483647,0,0,1,1,2,2,3,3,6,6],"right_children":[2,4,6,8,-1,-1,10,-1,-1,-1,-1],"split_conditions":[3.3730159E0,1E0,1E0,3.2696667E1,1.3221019E-2,-1.289069E-2,4.8537025E0,-4.6684253E-3,-1.3128904E-2,8.071882E-3,1.2019069E-2],"split_indices":[7,15,11,6,0,0,7,0,0,0,0],"split_type":[0,0,0,0,0,0,0,0,0,0,0],"sum_hessian":[2.3536394E3,1.1005535E3,1.2530858E3,1.0578843E3,4.2669178E1,7.896054E1,1.1741254E3,9.10008E1,9.668835E2,9.304548E1,1.0810798E3],"tree_param":{"num_deleted":"0","num_feature":"17","num_nodes":"11","size_leaf_vector":"1"}},{"base_weights":[-2.419374E-3,-1.1014338E0,9.6072215E-1,-1.2349964E0,1.3254879E-2,-1.288071E-2,1.1404037E0,-4.9788747E-3,-1.3069341E-2,6.4681685E-3,1.1698852E-2],"categories":[],"categories_nodes":[],"categories_segments":[],"categories_sizes":[],"default_left":[0,0,0,0,0,0,0,0,0,0,0],"id":79,"left_children":[1,3,5,7,-1,-1,9,-1,-1,-1,-1],"loss_changes":[2.486758E3,3.5896838E2,5.086648E2,5.302014E1,0E0,0E0,1.4464478E1,0E0,0E0,0E0,0E0],"parents":[2147483647,0,0,1,1,2,2,3,3,6,6],"right_children":[2,4,6,8,-1,-1,10,-1,-1,-1,-1],"split_conditions":[2.929461E0,1E0,1E0,3.2696667E1,1.3254879E-2,-1.288071E-2,3.9812498E0,-4.9788747E-3,-1.3069341E-2,6.4681685E-3,1.1698852E-2],"split_indices":[7,15,11,6,0,0,7,0,0,0,0],"split_type":[0,0,0,0,0,0,0,0,0,0,0],"sum_hessian":[2.3452427E3,1.0954672E3,1.2497755E3,1.0394506E3,5.6016617E1,9.135152E1,1.158424E3,9.445102E1,9.449995E2,6.883376E1,1.0895902E3],"tree_param":{"num_deleted":"0","num_feature":"17","num_nodes":"11","size_leaf_vector":"1"}},{"base_weights":[-1.748045E-2,-1.0634723E0,1.2514137E0,-1.3247811E-2,1.3296206E-2,5.30456E-1,1.2763417E-2,9.177116E-4,1.1090131E-2],"categories":[],"categories_nodes":[],"categories_segments":[],"categories_sizes":[],"default_left":[0,0,0,0,0,0,0,0,0],"id":80,"left_children":[1,3,5,-1,-1,7,-1,-1,-1],"loss_changes":[3.03156E3,7.865968E2,1.6288086E1,0E0,0E0,8.987752E0,0E0,0E0,0E0],"parents":[2147483647,0,0,1,1,2,2,5,5],"right_children":[2,4,6,-1,-1,8,-1,-1,-1],"split_conditions":[2.83236E3,1E0,2.93378E3,-1.3247811E-2,1.3296206E-2,8.836211E2,1.2763417E-2,9.177116E-4,1.1090131E-2],"split_indices":[0,15,0,0,0,6,0,0,0],"split_type":[0,0,0,0,0,0,0,0,0],"sum_hessian":[2.2801516E3,1.250248E3,1.0299034E3,1.1281625E3,1.22085625E2,3.6579712E1,9.933237E2,2.2614197E1,1.3965517E1],"tree_param":{"num_deleted":"0","num_feature":"17","num_nodes":"9","size_leaf_vector":"1"}},{"base_weights":[-2.1488562E-2,-1.1383076E0,1.2370231E0,-1.3190181E-2,1.3167679E-2,-1.1300705E-2,1.262736E0,6.1263633E-3,1.2823241E-2],"categories":[],"categories_nodes":[],"categories_segments":[],"categories_sizes":[],"default_left":[0,0,0,0,0,0,0,0,0],"id":81,"left_children":[1,3,5,-1,-1,-1,7,-1,-1],"loss_changes":[3.1897495E3,5.370228E2,6.785339E1,0E0,0E0,0E0,1.0935547E1,0E0,0E0],"parents":[2147483647,0,0,1,1,2,2,6,6],"right_children":[2,4,6,-1,-1,-1,8,-1,-1],"split_conditions":[2.77936E3,1E0,1E0,-1.3190181E-2,1.3167679E-2,-1.1300705E-2,2.93378E3,6.1263633E-3,1.2823241E-2],"split_indices":[0,15,11,0,0,0,0,0,0],"split_type":[0,0,0,0,0,0,0,0,0],"sum_hessian":[2.26546E3,1.2006111E3,1.0648489E3,1.1193484E3,8.1262665E1,1.0310689E1,1.0545382E3,3.347968E1,1.02105853E3],"tree_param":{"num_deleted":"0","num_feature":"17","num_nodes":"9","size_leaf_vector":"1"}},{"base_weights":[-1.5109398E-3,-1.29008675E-2,6.151828E-1,9.0127334E-2,9.738652E-1,-1.16783045E-2,1.27424365E-2,4.4027255E-3,9.948159E-3],"categories":[],"categories_nodes":[],"categories_segments":[],"categories_sizes":[],"default_left":[0,0,0,0,0,0,0,0,0],"id":82,"left_children":[1,-1,3,5,7,-1,-1,-1,-1],"loss_changes":[1.83785E3,0E0,2.937669E2,9.5247626E2,8.783203E0,0E0,0E0,0E0,0E0],"parents":[2147483647,0,0,2,2,3,3,4,4],"right_children":[2,-1,4,6,8,-1,-1,-1,-1],"split_conditions":[1E0,-1.29008675E-2,1E0,1.2175956E1,7.406E1,-1.16783045E-2,1.27424365E-2,4.4027255E-3,9.948159E-3],"split_indices":[11,0,14,8,6,0,0,0,0],"split_type":[0,0,0,0,0,0,0,0,0],"sum_hessian":[2.3083376E3,7.467135E2,1.561624E3,6.353973E2,9.2622675E2,3.079009E2,3.2749634E2,3.7557957E1,8.886688E2],"tree_param":{"num_deleted":"0","num_feature":"17","num_nodes":"9","size_leaf_vector":"1"}},{"base_weights":[-1.95381E-2,-1.0365076E0,1.2570353E0,-1.2804807E0,1.2064117E0,3.72735E-3,1.2730537E-2,-1.3154741E-2,-6.324894E-3,6.0373787E-3,1.2879679E-2],"categories":[],"categories_nodes":[],"categories_segments":[],"categories_sizes":[],"default_left":[0,0,0,0,0,0,0,0,0,0,0],"id":83,"left_children":[1,3,5,7,9,-1,-1,-1,-1,-1,-1],"loss_changes":[2.9448628E3,6.941456E2,1.2473022E1,2.3213867E1,3.6288452E0,0E0,0E0,0E0,0E0,0E0,0E0],"parents":[2147483647,0,0,1,1,2,2,3,3,4,4],"right_children":[2,4,6,8,10,-1,-1,-1,-1,-1,-1],"split_conditions":[2.88E3,4.365162E3,2.93378E3,2.3E1,9.8982316E-1,3.72735E-3,1.2730537E-2,-1.3154741E-2,-6.324894E-3,6.0373787E-3,1.2879679E-2],"split_indices":[0,8,0,3,7,0,0,0,0,0,0],"split_type":[0,0,0,0,0,0,0,0,0,0,0],"sum_hessian":[2.2644343E3,1.2607991E3,1.00363525E3,1.1380852E3,1.227139E2,1.9275717E1,9.8435956E2,1.0770875E3,6.0997677E1,1.7360626E1,1.0535327E2],"tree_param":{"num_deleted":"0","num_feature":"17","num_nodes":"11","size_leaf_vector":"1"}},{"base_weights":[8.284663E-3,-1.2890332E-2,9.603417E-1,7.546012E-2,1.26139065E-2,1.3219523E-2,-1.4688015E-2],"categories":[],"categories_nodes":[],"categories_segments":[],"categories_sizes":[],"default_left":[0,0,0,0,0,0,0],"id":84,"left_children":[1,-1,3,5,-1,-1,-1],"loss_changes":[2.818892E3,0E0,3.4987E2,6.520515E2,0E0,0E0,0E0],"parents":[2147483647,0,0,2,2,3,3],"right_children":[2,-1,4,6,-1,-1,-1],"split_conditions":[1.27736E3,-1.2890332E-2,2.93378E3,1E0,1.26139065E-2,1.3219523E-2,-1.4688015E-2],"split_indices":[0,0,0,14,0,0,0],"split_type":[0,0,0,0,0,0,0],"sum_hessian":[2.2784092E3,9.63824E2,1.3145852E3,3.3476462E2,9.798206E2,1.8558023E2,1.4918437E2],"tree_param":{"num_deleted":"0","num_feature":"17","num_nodes":"7","size_leaf_vector":"1"}},{"base_weights":[-2.7008504E-2,-1.0538977E0,1.2145284E0,-1.3057194E-2,1.2938871E-2,-1.1526176E-2,1.2436492E0,8.331448E-3,1.2734926E-2],"categories":[],"categories_nodes":[],"categories_segments":[],"categories_sizes":[],"default_left":[0,0,0,0,0,0,0,0,0],"id":85,"left_children":[1,3,5,-1,-1,-1,7,-1,-1],"loss_changes":[2.8266245E3,7.2093494E2,7.208545E1,0E0,0E0,0E0,8.983154E0,0E0,0E0],"parents":[2147483647,0,0,1,1,2,2,6,6],"right_children":[2,4,6,-1,-1,-1,8,-1,-1],"split_conditions":[2.77936E3,1E0,1E0,-1.3057194E-2,1.2938871E-2,-1.1526176E-2,3.2747E3,8.331448E-3,1.2734926E-2],"split_indices":[0,15,11,0,0,0,0,0,0],"split_type":[0,0,0,0,0,0,0,0,0],"sum_hessian":[2.213153E3,1.2116711E3,1.0014819E3,1.0952917E3,1.1637948E2,1.102418E1,9.904577E2,7.218073E1,9.18277E2],"tree_param":{"num_deleted":"0","num_feature":"17","num_nodes":"9","size_leaf_vector":"1"}},{"base_weights":[2.1492435E-2,-1.048571E0,1.2298535E0,-1.303058E-2,1.302684E-2,4.2419213E-1,1.2572323E-2,-1.5139277E-2,1.2323075E-2],"categories":[],"categories_nodes":[],"categories_segments":[],"categories_sizes":[],"default_left":[0,0,0,0,0,0,0,0,0],"id":86,"left_children":[1,3,5,-1,-1,7,-1,-1,-1],"loss_changes":[2.9593608E3,7.295597E2,2.180664E1,0E0,0E0,6.459792E1,0E0,0E0,0E0],"parents":[2147483647,0,0,1,1,2,2,5,5],"right_children":[2,4,6,-1,-1,8,-1,-1,-1],"split_conditions":[2.83236E3,1E0,2.93378E3,-1.303058E-2,1.302684E-2,1.1085167E1,1.2572323E-2,-1.5139277E-2,1.2323075E-2],"split_indices":[0,15,0,0,0,8,0,0,0],"split_type":[0,0,0,0,0,0,0,0,0],"sum_hessian":[2.2846501E3,1.2115836E3,1.0730665E3,1.094252E3,1.1733157E2,3.6951942E1,1.0361145E3,1.01775E1,2.677444E1],"tree_param":{"num_deleted":"0","num_feature":"17","num_nodes":"9","size_leaf_vector":"1"}},{"base_weights":[-7.735994E-2,-1.1188561E0,1.20416E0,-1.29654035E-2,1.2925163E-2,-1.1501901E-2,1.2360246E0,5.782827E-3,1.2580639E-2],"categories":[],"categories_nodes":[],"categories_segments":[],"categories_sizes":[],"default_left":[0,0,0,0,0,0,0,0,0],"id":87,"left_children":[1,3,5,-1,-1,-1,7,-1,-1],"loss_changes":[2.804784E3,5.0013037E2,7.355615E1,0E0,0E0,0E0,1.1117065E1,0E0,0E0],"parents":[2147483647,0,0,1,1,2,2,6,6],"right_children":[2,4,6,-1,-1,-1,8,-1,-1],"split_conditions":[2.77936E3,1E0,1E0,-1.29654035E-2,1.2925163E-2,-1.1501901E-2,2.93378E3,5.782827E-3,1.2580639E-2],"split_indices":[0,15,11,0,0,0,0,0,0],"split_type":[0,0,0,0,0,0,0,0,0],"sum_hessian":[2.09745E3,1.1574388E3,9.40011E2,1.0790593E3,7.837954E1,1.1405684E1,9.286053E2,3.2608322E1,8.9599695E2],"tree_param":{"num_deleted":"0","num_feature":"17","num_nodes":"9","size_leaf_vector":"1"}},{"base_weights":[-1.588063E-2,-1.0184646E0,1.2098241E0,-1.2934551E-2,1.2849193E-2,4.8842636E-1,1.2501308E-2,-1.483561E-2,1.2558303E-2],"categories":[],"categories_nodes":[],"categories_segments":[],"categories_sizes":[],"default_left":[0,0,0,0,0,0,0,0,0],"id":88,"left_children":[1,3,5,-1,-1,7,-1,-1,-1],"loss_changes":[2.6827756E3,7.641216E2,2.6465698E1,0E0,0E0,8.821742E1,0E0,0E0,0E0],"parents":[2147483647,0,0,1,1,2,2,5,5],"right_children":[2,4,6,-1,-1,8,-1,-1,-1],"split_conditions":[2.77936E3,1E0,2.93378E3,-1.2934551E-2,1.2849193E-2,1.1085167E1,1.2501308E-2,-1.483561E-2,1.2558303E-2],"split_indices":[0,15,0,0,0,8,0,0,0],"split_type":[0,0,0,0,0,0,0,0,0],"sum_hessian":[2.1791934E3,1.1991095E3,9.8008386E2,1.0721985E3,1.2691095E2,5.3907276E1,9.261766E2,1.4396024E1,3.9511253E1],"tree_param":{"num_deleted":"0","num_feature":"17","num_nodes":"9","size_leaf_vector":"1"}},{"base_weights":[1.1329903E-2,-1.0128909E0,1.2024277E0,-1.2904129E-2,1.2925825E-2,-1.1251353E-2,1.2283328E0,7.3712864E-3,1.2496361E-2],"categories":[],"categories_nodes":[],"categories_segments":[],"categories_sizes":[],"default_left":[0,0,0,0,0,0,0,0,0],"id":89,"left_children":[1,3,5,-1,-1,-1,7,-1,-1],"loss_changes":[2.7264922E3,7.7200415E2,6.512903E1,0E0,0E0,0E0,7.8721924E0,0E0,0E0],"parents":[2147483647,0,0,1,1,2,2,6,6],"right_children":[2,4,6,-1,-1,-1,8,-1,-1],"split_conditions":[2.77936E3,1E0,1E0,-1.2904129E-2,1.2925825E-2,-1.1251353E-2,2.93378E3,7.3712864E-3,1.2496361E-2],"split_indices":[0,15,11,0,0,0,0,0,0],"split_type":[0,0,0,0,0,0,0,0,0],"sum_hessian":[2.2308518E3,1.1993846E3,1.0314672E3,1.0715E3,1.2788466E2,1.0206929E1,1.0212602E3,4.6385796E1,9.748744E2],"tree_param":{"num_deleted":"0","num_feature":"17","num_nodes":"9","size_leaf_vector":"1"}},{"base_weights":[-2.9763851E-2,-1.1568662E0,8.9322644E-1,-1.2295425E0,1.2504462E-2,-1.2498644E-2,1.0879805E0,-3.4483739E-3,-1.26756225E-2,7.3593715E-3,1.143591E-2],"categories":[],"categories_nodes":[],"categories_segments":[],"categories_sizes":[],"default_left":[0,0,0,0,0,0,0,0,0,0,0],"id":90,"left_children":[1,3,5,7,-1,-1,9,-1,-1,-1,-1],"loss_changes":[2.2386897E3,1.7259814E2,4.9632233E2,2.9999146E1,0E0,0E0,1.862976E1,0E0,0E0,0E0,0E0],"parents":[2147483647,0,0,1,1,2,2,3,3,6,6],"right_children":[2,4,6,8,-1,-1,10,-1,-1,-1,-1],"split_conditions":[2.5939682E0,1E0,1E0,-1.6444745E2,1.2504462E-2,-1.2498644E-2,4.8537025E0,-3.4483739E-3,-1.26756225E-2,7.3593715E-3,1.143591E-2],"split_indices":[7,15,11,2,0,0,7,0,0,0,0],"split_type":[0,0,0,0,0,0,0,0,0,0,0],"sum_hessian":[2.147843E3,9.6701514E2,1.180828E3,9.398281E2,2.7187035E1,9.725232E1,1.0835757E3,4.009621E1,8.997319E2,1.5292708E2,9.3064856E2],"tree_param":{"num_deleted":"0","num_feature":"17","num_nodes":"11","size_leaf_vector":"1"}},{"base_weights":[-1.5248616E-2,-1.0285583E0,1.1956257E0,-1.283544E-2,1.2857624E-2,4.2044687E-1,1.2397571E-2,-1.5639743E-2,1.24528725E-2],"categories":[],"categories_nodes":[],"categories_segments":[],"categories_sizes":[],"default_left":[0,0,0,0,0,0,0,0,0],"id":91,"left_children":[1,3,5,-1,-1,7,-1,-1,-1],"loss_changes":[2.6227861E3,6.901803E2,3.1436523E1,0E0,0E0,9.553353E1,0E0,0E0,0E0],"parents":[2147483647,0,0,1,1,2,2,5,5],"right_children":[2,4,6,-1,-1,8,-1,-1,-1],"split_conditions":[2.77936E3,1E0,2.93378E3,-1.283544E-2,1.2857624E-2,1.2175956E1,1.2397571E-2,-1.5639743E-2,1.24528725E-2],"split_indices":[0,15,0,0,0,8,0,0,0],"split_type":[0,0,0,0,0,0,0,0,0],"sum_hessian":[2.1336401E3,1.1619697E3,9.716703E2,1.0476493E3,1.14320465E2,5.4082573E1,9.175877E2,1.5175243E1,3.890733E1],"tree_param":{"num_deleted":"0","num_feature":"17","num_nodes":"9","size_leaf_vector":"1"}},{"base_weights":[9.990048E-3,-1.1693023E0,1.0071901E0,-1.2648856E-2,9.588585E-3,-1.2362668E-2,1.1338807E0,5.777923E-3,1.2414967E-2],"categories":[],"categories_nodes":[],"categories_segments":[],"categories_sizes":[],"default_left":[0,0,0,0,0,0,0,0,0],"id":92,"left_children":[1,3,5,-1,-1,-1,7,-1,-1],"loss_changes":[2.5349407E3,2.0343799E2,3.3478918E2,0E0,0E0,0E0,6.3904663E1,0E0,0E0],"parents":[2147483647,0,0,1,1,2,2,6,6],"right_children":[2,4,6,-1,-1,-1,8,-1,-1],"split_conditions":[1.83151E3,4.365162E3,1E0,-1.2648856E-2,9.588585E-3,-1.2362668E-2,2.93378E3,5.777923E-3,1.2414967E-2],"split_indices":[0,8,11,0,0,0,0,0,0],"split_type":[0,0,0,0,0,0,0,0,0],"sum_hessian":[2.1516453E3,9.85428E2,1.1662174E3,9.440726E2,4.135543E1,6.119018E1,1.1050272E3,1.819926E2,9.230346E2],"tree_param":{"num_deleted":"0","num_feature":"17","num_nodes":"9","size_leaf_vector":"1"}},{"base_weights":[-3.104435E-2,-1.0471306E0,1.1869421E0,-1.2779544E-2,1.2773667E-2,-1.1126701E-2,1.2165129E0,7.1720574E-3,1.2401097E-2],"categories":[],"categories_nodes":[],"categories_segments":[],"categories_sizes":[],"default_left":[0,0,0,0,0,0,0,0,0],"id":93,"left_children":[1,3,5,-1,-1,-1,7,-1,-1],"loss_changes":[2.5600884E3,6.084979E2,6.6725586E1,0E0,0E0,0E0,8.198608E0,0E0,0E0],"parents":[2147483647,0,0,1,1,2,2,6,6],"right_children":[2,4,6,-1,-1,-1,8,-1,-1],"split_conditions":[2.77936E3,1E0,1E0,-1.2779544E-2,1.2773667E-2,-1.1126701E-2,2.93378E3,7.1720574E-3,1.2401097E-2],"split_indices":[0,15,11,0,0,0,0,0,0],"split_type":[0,0,0,0,0,0,0,0,0],"sum_hessian":[2.0646736E3,1.126009E3,9.386645E2,1.0253107E3,1.0069837E2,1.07724085E1,9.278921E2,4.5662228E1,8.8222986E2],"tree_param":{"num_deleted":"0","num_feature":"17","num_nodes":"9","size_leaf_vector":"1"}},{"base_weights":[3.345942E-2,-1.0208107E0,1.1885338E0,-1.273793E-2,1.2742725E-2,-1.1066583E-2,1.2139602E0,4.6476563E-3,1.2370967E-2],"categories":[],"categories_nodes":[],"categories_segments":[],"categories_sizes":[],"default_left":[0,0,0,0,0,0,0,0,0],"id":94,"left_children":[1,3,5,-1,-1,-1,7,-1,-1],"loss_changes":[2.6580293E3,6.6568555E2,6.3534668E1,0E0,0E0,0E0,1.587854E1,0E0,0E0],"parents":[2147483647,0,0,1,1,2,2,6,6],"right_children":[2,4,6,-1,-1,-1,8,-1,-1],"split_conditions":[2.77936E3,1E0,1E0,-1.273793E-2,1.2742725E-2,-1.1066583E-2,2.93378E3,4.6476563E-3,1.2370967E-2],"split_indices":[0,15,11,0,0,0,0,0,0],"split_type":[0,0,0,0,0,0,0,0,0],"sum_hessian":[2.1786582E3,1.1389264E3,1.0397318E3,1.0268469E3,1.1207938E2,1.0244764E1,1.0294869E3,3.275103E1,9.9673596E2],"tree_param":{"num_deleted":"0","num_feature":"17","num_nodes":"9","size_leaf_vector":"1"}},{"base_weights":[-2.8960754E-3,-1.0743698E0,1.1900146E0,-1.2712796E-2,1.0979737E0,4.8676947E-1,1.2271303E-2,4.516865E-3,1.2284879E-2,-1.5006413E-2,1.2350793E-2],"categories":[],"categories_nodes":[],"categories_segments":[],"categories_sizes":[],"default_left":[0,0,0,0,0,0,0,0,0,0,0],"id":95,"left_children":[1,3,5,-1,7,9,-1,-1,-1,-1,-1],"loss_changes":[2.6801084E3,4.754978E2,2.3840698E1,0E0,5.8684387E0,8.346727E1,0E0,0E0,0E0,0E0,0E0],"parents":[2147483647,0,0,1,1,2,2,4,4,5,5],"right_children":[2,4,6,-1,8,10,-1,-1,-1,-1,-1],"split_conditions":[2.77936E3,4.365162E3,2.93378E3,-1.2712796E-2,1.5422164E0,1.1085167E1,1.2271303E-2,4.516865E-3,1.2284879E-2,-1.5006413E-2,1.2350793E-2],"split_indices":[0,8,0,0,7,8,0,0,0,0,0],"split_type":[0,0,0,0,0,0,0,0,0,0,0],"sum_hessian":[2.0928733E3,1.1028816E3,9.899916E2,1.0121922E3,9.068937E1,5.1720608E1,9.38271E2,1.7379791E1,7.330958E1,1.3414519E1,3.830609E1],"tree_param":{"num_deleted":"0","num_feature":"17","num_nodes":"11","size_leaf_vector":"1"}},{"base_weights":[9.183552E-3,-9.95933E-1,1.210522E0,-1.2725119E-2,1.271323E-2,4.36842E-3,1.2234161E-2],"categories":[],"categories_nodes":[],"categories_segments":[],"categories_sizes":[],"default_left":[0,0,0,0,0,0,0],"id":96,"left_children":[1,3,5,-1,-1,-1,-1],"loss_changes":[2.5391887E3,7.2103467E2,7.6590576E0,0E0,0E0,0E0,0E0],"parents":[2147483647,0,0,1,1,2,2],"right_children":[2,4,6,-1,-1,-1,-1],"split_conditions":[2.88E3,1E0,2.93378E3,-1.2725119E-2,1.271323E-2,4.36842E-3,1.2234161E-2],"split_indices":[0,15,0,0,0,0,0],"split_type":[0,0,0,0,0,0,0],"sum_hessian":[2.0987878E3,1.142677E3,9.5611084E2,1.0194179E3,1.232591E2,1.7452349E1,9.3865845E2],"tree_param":{"num_deleted":"0","num_feature":"17","num_nodes":"7","size_leaf_vector":"1"}},{"base_weights":[-4.7386948E-2,-9.880297E-1,1.1687933E0,-1.2638342E-2,1.26623865E-2,1.7531832E-1,1.2145256E-2,-1.4856843E-2,1.1851239E-2],"categories":[],"categories_nodes":[],"categories_segments":[],"categories_sizes":[],"default_left":[0,0,0,0,0,0,0,0,0],"id":97,"left_children":[1,3,5,-1,-1,7,-1,-1,-1],"loss_changes":[2.2946692E3,7.06552E2,3.861731E1,0E0,0E0,7.265753E1,0E0,0E0,0E0],"parents":[2147483647,0,0,1,1,2,2,5,5],"right_children":[2,4,6,-1,-1,8,-1,-1,-1],"split_conditions":[2.77936E3,1E0,2.93378E3,-1.2638342E-2,1.26623865E-2,1.2175956E1,1.2145256E-2,-1.4856843E-2,1.1851239E-2],"split_indices":[0,15,0,0,0,8,0,0,0],"split_type":[0,0,0,0,0,0,0,0,0],"sum_hessian":[2.0019052E3,1.1292693E3,8.72636E2,1.0071476E3,1.22121666E2,3.9308525E1,8.3332745E2,1.4318591E1,2.4989935E1],"tree_param":{"num_deleted":"0","num_feature":"17","num_nodes":"9","size_leaf_vector":"1"}},{"base_weights":[1.9064874E-3,-1.0282385E0,1.1748381E0,-1.2213175E0,1.1128293E0,4.1328028E-1,1.2180155E-2,-7.125317E-3,-1.2569399E-2,5.6218593E-3,1.2061985E-2,-1.5101165E-2,1.2238334E-2],"categories":[],"categories_nodes":[],"categories_segments":[],"categories_sizes":[],"default_left":[0,0,0,0,0,0,0,0,0,0,0,0,0],"id":98,"left_children":[1,3,5,7,9,11,-1,-1,-1,-1,-1,-1,-1],"loss_changes":[2.447855E3,4.4855115E2,2.9333008E1,1.5172485E1,2.3883896E0,8.849644E1,0E0,0E0,0E0,0E0,0E0,0E0,0E0],"parents":[2147483647,0,0,1,1,2,2,3,3,4,4,5,5],"right_children":[2,4,6,8,10,12,-1,-1,-1,-1,-1,-1,-1],"split_conditions":[2.77936E3,4.365162E3,2.93378E3,2E0,5E0,1.2175956E1,1.2180155E-2,-7.125317E-3,-1.2569399E-2,5.6218593E-3,1.2061985E-2,-1.5101165E-2,1.2238334E-2],"split_indices":[0,8,0,5,4,8,0,0,0,0,0,0,0],"split_type":[0,0,0,0,0,0,0,0,0,0,0,0,0],"sum_hessian":[2.0218239E3,1.0763358E3,9.454879E2,9.8830444E2,8.8031425E1,5.248524E1,8.930027E2,6.833482E1,9.199696E2,1.5575051E1,7.2456375E1,1.4866018E1,3.7619225E1],"tree_param":{"num_deleted":"0","num_feature":"17","num_nodes":"13","size_leaf_vector":"1"}},{"base_weights":[-4.2091973E-2,-1.0628049E0,1.1678058E0,-1.2568781E-2,1.2339206E-2,4.2412457E-1,1.2114185E-2,-1.4993663E-2,1.21985385E-2],"categories":[],"categories_nodes":[],"categories_segments":[],"categories_sizes":[],"default_left":[0,0,0,0,0,0,0,0,0],"id":99,"left_children":[1,3,5,-1,-1,7,-1,-1,-1],"loss_changes":[2.4426758E3,4.8140808E2,2.750476E1,0E0,0E0,8.592651E1,0E0,0E0,0E0],"parents":[2147483647,0,0,1,1,2,2,5,5],"right_children":[2,4,6,-1,-1,8,-1,-1,-1],"split_conditions":[2.77936E3,1E0,2.93378E3,-1.2568781E-2,1.2339206E-2,1.2175956E1,1.2114185E-2,-1.4993663E-2,1.21985385E-2],"split_indices":[0,15,0,0,0,8,0,0,0],"split_type":[0,0,0,0,0,0,0,0,0],"sum_hessian":[1.9739742E3,1.0710525E3,9.029217E2,9.88636E2,8.241648E1,5.1841263E1,8.5108044E2,1.4468979E1,3.7372284E1],"tree_param":{"num_deleted":"0","num_feature":"17","num_nodes":"9","size_leaf_vector":"1"}},{"base_weights":[3.4461085E-2,-1.1763269E0,9.9839306E-1,-1.2393868E-2,1.1427455E-2,1.3393492E-1,1.2107892E-2,1.2648135E-2,-1.4375542E-2],"categories":[],"categories_nodes":[],"categories_segments":[],"categories_sizes":[],"default_left":[0,0,0,0,0,0,0,0,0],"id":100,"left_children":[1,3,5,-1,-1,7,-1,-1,-1],"loss_changes":[2.4229834E3,1.3742578E2,2.1126855E2,0E0,0E0,4.1360538E2,0E0,0E0,0E0],"parents":[2147483647,0,0,1,1,2,2,5,5],"right_children":[2,4,6,-1,-1,8,-1,-1,-1],"split_conditions":[1.83151E3,1E0,2.93378E3,-1.2393868E-2,1.1427455E-2,1E0,1.2107892E-2,1.2648135E-2,-1.4375542E-2],"split_indices":[0,15,0,0,0,14,0,0,0],"split_type":[0,0,0,0,0,0,0,0,0],"sum_hessian":[2.0721047E3,9.180232E2,1.1540817E3,8.948376E2,2.3185562E1,2.287358E2,9.253459E2,1.3342712E2,9.530867E1],"tree_param":{"num_deleted":"0","num_feature":"17","num_nodes":"9","size_leaf_vector":"1"}},{"base_weights":[-2.0860989E-2,-1.1349533E0,1.1692252E0,-1.2503449E-2,1.0006616E0,4.2958608E-1,1.2098642E-2,4.904895E-3,1.1821394E-2,-1.4518309E-2,1.2118906E-2],"categories":[],"categories_nodes":[],"categories_segments":[],"categories_sizes":[],"default_left":[0,0,0,0,0,0,0,0,0,0,0],"id":101,"left_children":[1,3,5,-1,7,9,-1,-1,-1,-1,-1],"loss_changes":[2.605731E3,2.5282092E2,2.6697632E1,0E0,2.904873E0,8.1735E1,0E0,0E0,0E0,0E0,0E0],"parents":[2147483647,0,0,1,1,2,2,4,4,5,5],"right_children":[2,4,6,-1,8,10,-1,-1,-1,-1,-1],"split_conditions":[2.77936E3,4.365162E3,2.93378E3,-1.2503449E-2,1.57927E3,1.2175956E1,1.2098642E-2,4.904895E-3,1.1821394E-2,-1.4518309E-2,1.2118906E-2],"split_indices":[0,8,0,0,0,8,0,0,0,0,0],"split_type":[0,0,0,0,0,0,0,0,0,0,0],"sum_hessian":[1.9613162E3,1.0132659E3,9.4805023E2,9.623324E2,5.0933544E1,5.122318E1,8.968271E2,1.6030134E1,3.490341E1,1.4353252E1,3.6869926E1],"tree_param":{"num_deleted":"0","num_feature":"17","num_nodes":"11","size_leaf_vector":"1"}},{"base_weights":[-1.6204134E-3,-1.1706476E0,9.824108E-1,-1.2292025E-2,-3.4378308E-1,-1.2058058E-2,1.1022731E0,1.13886595E-2,-1.2599329E-2,5.4992205E-3,1.2134852E-2],"categories":[],"categories_nodes":[],"categories_segments":[],"categories_sizes":[],"default_left":[0,0,0,0,0,0,0,0,0,0,0],"id":102,"left_children":[1,3,5,-1,7,-1,9,-1,-1,-1,-1],"loss_changes":[2.2808135E3,4.225171E1,2.84891E2,0E0,8.888691E1,0E0,6.054004E1,0E0,0E0,0E0,0E0],"parents":[2147483647,0,0,1,1,2,2,4,4,6,6],"right_children":[2,4,6,-1,8,-1,10,-1,-1,-1,-1],"split_conditions":[1.83151E3,1.27736E3,1E0,-1.2292025E-2,1E0,-1.2058058E-2,2.93378E3,1.13886595E-2,-1.2599329E-2,5.4992205E-3,1.2134852E-2],"split_indices":[0,0,11,0,14,0,0,0,0,0,0],"split_type":[0,0,0,0,0,0,0,0,0,0,0],"sum_hessian":[1.9786152E3,9.043628E2,1.0742524E3,8.4308167E2,6.1281128E1,5.4630077E1,1.0196224E3,2.3010376E1,3.827075E1,1.7363327E2,8.4598914E2],"tree_param":{"num_deleted":"0","num_feature":"17","num_nodes":"11","size_leaf_vector":"1"}},{"base_weights":[-3.3625625E-2,-1.0809762E0,8.5136795E-1,-1.1892887E0,1.2345065E-2,-1.2087238E-2,1.0372163E0,-3.4229574E-3,-1.2277105E-2,7.1437997E-3,1.0978295E-2],"categories":[],"categories_nodes":[],"categories_segments":[],"categories_sizes":[],"default_left":[0,0,0,0,0,0,0,0,0,0,0],"id":103,"left_children":[1,3,5,7,-1,-1,9,-1,-1,-1,-1],"loss_changes":[1.7707603E3,2.2239105E2,3.9875598E2,2.562085E1,0E0,0E0,1.6131104E1,0E0,0E0,0E0,0E0],"parents":[2147483647,0,0,1,1,2,2,3,3,6,6],"right_children":[2,4,6,8,-1,-1,10,-1,-1,-1,-1],"split_conditions":[2.5939682E0,1E0,1E0,-1.6444745E2,1.2345065E-2,-1.2087238E-2,4.8537025E0,-3.4229574E-3,-1.2277105E-2,7.1437997E-3,1.0978295E-2],"split_indices":[7,15,11,2,0,0,7,0,0,0,0],"split_type":[0,0,0,0,0,0,0,0,0,0,0],"sum_hessian":[1.9063046E3,8.731236E2,1.033181E3,8.3524176E2,3.788182E1,8.436079E1,9.488202E2,3.7669216E1,7.975726E2,1.5532913E2,7.934911E2],"tree_param":{"num_deleted":"0","num_feature":"17","num_nodes":"11","size_leaf_vector":"1"}},{"base_weights":[-8.933905E-3,-9.7398764E-1,1.1853393E0,-1.2475214E-2,1.2464896E-2,3.4134372E-3,1.20127285E-2],"categories":[],"categories_nodes":[],"categories_segments":[],"categories_sizes":[],"default_left":[0,0,0,0,0,0,0],"id":104,"left_children":[1,3,5,-1,-1,-1,-1],"loss_changes":[2.251043E3,6.5937744E2,1.0144653E1,0E0,0E0,0E0,0E0],"parents":[2147483647,0,0,1,1,2,2],"right_children":[2,4,6,-1,-1,-1,-1],"split_conditions":[2.88E3,1E0,2.93378E3,-1.2475214E-2,1.2464896E-2,3.4134372E-3,1.20127285E-2],"split_indices":[0,15,0,0,0,0,0],"split_type":[0,0,0,0,0,0,0],"sum_hessian":[1.9492068E3,1.0784963E3,8.707105E2,9.611916E2,1.173047E2,1.754565E1,8.5316486E2],"tree_param":{"num_deleted":"0","num_feature":"17","num_nodes":"7","size_leaf_vector":"1"}},{"base_weights":[1.3864024E-3,-1.0142636E0,1.1532631E0,-1.2400701E-2,1.2397561E-2,4.019587E-1,1.195368E-2,-1.48518365E-2,1.2003458E-2],"categories":[],"categories_nodes":[],"categories_segments":[],"categories_sizes":[],"default_left":[0,0,0,0,0,0,0,0,0],"id":105,"left_children":[1,3,5,-1,-1,7,-1,-1,-1],"loss_changes":[2.293433E3,5.331808E2,2.7304688E1,0E0,0E0,8.2374916E1,0E0,0E0,0E0],"parents":[2147483647,0,0,1,1,2,2,5,5],"right_children":[2,4,6,-1,-1,8,-1,-1,-1],"split_conditions":[2.77936E3,1E0,2.93378E3,-1.2400701E-2,1.2397561E-2,1.2175956E1,1.195368E-2,-1.48518365E-2,1.2003458E-2],"split_indices":[0,15,0,0,0,8,0,0,0],"split_type":[0,0,0,0,0,0,0,0,0],"sum_hessian":[1.9563014E3,1.0395226E3,9.167787E2,9.4588586E2,9.3636795E1,5.0401558E1,8.6637714E2,1.428633E1,3.6115227E1],"tree_param":{"num_deleted":"0","num_feature":"17","num_nodes":"9","size_leaf_vector":"1"}},{"base_weights":[7.426604E-3,-1.2179605E-2,9.1101134E-1,-1.1981873E-2,1.058834E0,5.2084206E-3,1.1999263E-2],"categories":[],"categories_nodes":[],"categories_segments":[],"categories_sizes":[],"default_left":[0,0,0,0,0,0,0],"id":106,"left_children":[1,-1,3,-1,5,-1,-1],"loss_changes":[2.1342913E3,0E0,3.4848083E2,0E0,7.6708984E1,0E0,0E0],"parents":[2147483647,0,0,2,2,4,4],"right_children":[2,-1,4,-1,6,-1,-1],"split_conditions":[1.27736E3,-1.2179605E-2,1E0,-1.1981873E-2,2.93378E3,5.2084206E-3,1.1999263E-2],"split_indices":[0,0,11,0,0,0,0],"split_type":[0,0,0,0,0,0,0],"sum_hessian":[1.9237101E3,8.1593677E2,1.1077733E3,7.140085E1,1.0363726E3,2.1801138E2,8.1836115E2],"tree_param":{"num_deleted":"0","num_feature":"17","num_nodes":"7","size_leaf_vector":"1"}},{"base_weights":[-1.8830722E-2,-1.1565706E0,9.639281E-1,-1.2198303E-2,1.1227213E-2,-1.19305095E-2,1.081964E0,5.3314106E-3,1.1987277E-2],"categories":[],"categories_nodes":[],"categories_segments":[],"categories_sizes":[],"default_left":[0,0,0,0,0,0,0,0,0],"id":107,"left_children":[1,3,5,-1,-1,-1,7,-1,-1],"loss_changes":[2.0949272E3,1.2801685E2,2.5840308E2,0E0,0E0,0E0,5.899951E1,0E0,0E0],"parents":[2147483647,0,0,1,1,2,2,6,6],"right_children":[2,4,6,-1,-1,-1,8,-1,-1],"split_conditions":[1.83151E3,1E0,1E0,-1.2198303E-2,1.1227213E-2,-1.19305095E-2,2.93378E3,5.3314106E-3,1.1987277E-2],"split_indices":[0,15,11,0,0,0,0,0,0],"split_type":[0,0,0,0,0,0,0,0,0],"sum_hessian":[1.8695289E3,8.6651715E2,1.0030118E3,8.442351E2,2.2282013E1,5.087499E1,9.521368E2,1.697372E2,7.8239954E2],"tree_param":{"num_deleted":"0","num_feature":"17","num_nodes":"9","size_leaf_vector":"1"}},{"base_weights":[5.5672537E-4,-9.96773E-1,1.19005935E-2,-1.2399311E-2,1.2223957E-2],"categories":[],"categories_nodes":[],"categories_segments":[],"categories_sizes":[],"default_left":[0,0,0,0,0],"id":108,"left_children":[1,3,-1,-1,-1],"loss_changes":[2.2713213E3,5.648507E2,0E0,0E0,0E0],"parents":[2147483647,0,0,1,1],"right_children":[2,4,-1,-1,-1],"split_conditions":[2.93378E3,1E0,1.19005935E-2,-1.2399311E-2,1.2223957E-2],"split_indices":[0,15,0,0,0],"split_type":[0,0,0,0,0],"sum_hessian":[1.9105024E3,1.0391438E3,8.7135864E2,9.375253E2,1.0161845E2],"tree_param":{"num_deleted":"0","num_feature":"17","num_nodes":"5","size_leaf_vector":"1"}},{"base_weights":[2.3894538E-3,-1.0380418E0,1.1435639E0,-1.2305013E-2,1.2047305E-2,3.957877E-1,1.1853526E-2,-1.45587465E-2,1.1897566E-2],"categories":[],"categories_nodes":[],"categories_segments":[],"categories_sizes":[],